<?xml version="1.0"?>
<opencv_storage>
<opencv_ml_svm>
  <format>3</format>
  <svmType>C_SVC</svmType>
  <kernel>
    <type>LINEAR</type></kernel>
  <C>450.</C>
  <term_criteria><epsilon>1.0000000000000000e-02</epsilon>
    <iterations>1500</iterations></term_criteria>
  <var_count>48</var_count>
  <class_count>11</class_count>
  <class_labels type_id="opencv-matrix">
    <rows>11</rows>
    <cols>1</cols>
    <dt>i</dt>
    <data>
      0 1 2 3 4 5 6 7 8 9 10</data></class_labels>
  <sv_total>55</sv_total>
  <support_vectors>
    <_>
      1.34530127e-01 1.46361148e+00 8.29424083e-01 -2.02341273e-01
      -2.68143713e-01 -2.84078270e-01 -6.54682040e-01 -1.09212661e+00
      -3.10734093e-01 9.40581322e-01 1.22583628e+00 1.87960535e-01
      -8.04160953e-01 -8.44820142e-01 -6.88568652e-01 -4.98643726e-01
      4.66717213e-01 -2.39670381e-01 -3.37151796e-01 -4.25243318e-01
      2.59754628e-01 -2.39351004e-01 -3.24348241e-01 3.52272570e-01
      -8.88728648e-02 -1.14939928e+00 -8.36769998e-01 5.62647223e-01
      2.82132894e-01 -2.74289519e-01 -2.10656792e-01 4.32760000e-01
      -2.16870233e-01 -5.92134058e-01 1.50992209e-02 1.21005431e-01
      2.36960948e-01 1.62154779e-01 -2.12418377e-01 -1.04087584e-01
      2.76591510e-01 4.88139950e-02 -1.18021297e+00 -3.23010117e-01
      2.90271431e-01 1.09842286e-01 -1.54351909e-02 1.01935339e+00</_>
    <_>
      5.73678277e-02 1.52021992e+00 4.76718813e-01 -7.72148609e-01
      -3.02878916e-01 1.82640746e-01 -7.59530425e-01 -1.38448656e+00
      -4.81541008e-01 5.00066578e-01 1.52714503e+00 5.63220143e-01
      -1.09947348e+00 -9.53482628e-01 1.74245879e-01 -3.78718615e-01
      5.46856821e-01 7.59444684e-02 -2.76827246e-01 -6.19979560e-01
      2.18425393e-01 1.55512720e-01 -3.01132679e-01 -1.77199140e-01
      -2.65656561e-01 -1.09267139e+00 -1.84503525e-01 1.74620256e-01
      3.63139033e-01 -4.09353346e-01 -3.96324188e-01 4.22075659e-01
      -1.22579649e-01 -3.44372541e-01 -3.90158109e-02 -1.91582158e-01
      5.06892681e-01 -1.41947076e-01 -9.28163081e-02 5.54993153e-01
      -2.71958159e-03 -2.34518304e-01 -5.14348030e-01 -4.89849299e-02
      3.26500982e-02 1.39471069e-01 -7.87687898e-02 5.95482029e-02</_>
    <_>
      -1.25065148e-01 1.43150580e+00 8.22860599e-01 -4.95076507e-01
      -3.57315004e-01 5.08265674e-01 -5.64137936e-01 -1.21782053e+00
      -4.27878916e-01 8.93885016e-01 1.25976574e+00 1.79029509e-01
      -1.01387060e+00 -6.52379334e-01 3.22195321e-01 -5.19395709e-01
      3.99194241e-01 6.21746480e-01 -2.52667397e-01 -4.23489183e-01
      8.78609493e-02 1.98633105e-01 -4.65472341e-01 -2.92691886e-01
      -7.32132420e-02 -7.78932035e-01 1.88614447e-02 1.85415015e-01
      -1.65969357e-01 -4.09407884e-01 5.84497452e-02 3.50843787e-01
      -4.06904966e-01 -4.37764853e-01 -2.02160358e-01 1.43552467e-01
      -3.10387522e-01 -5.08089244e-01 5.87651491e-01 4.30504113e-01
      2.47643217e-01 -4.30544436e-01 -4.37323958e-01 5.55069819e-02
      5.59746265e-01 5.54383695e-01 3.35451841e-01 2.62238234e-01</_>
    <_>
      -1.15278862e-01 1.50200403e+00 6.45419180e-01 -5.71035504e-01
      -4.07940954e-01 6.03622556e-01 -5.19587874e-01 -1.36472034e+00
      -3.90454262e-01 1.16043997e+00 1.34146762e+00 1.06633149e-01
      -9.41598952e-01 -4.55732405e-01 5.41565716e-01 -5.57416081e-01
      1.92476586e-01 8.60154390e-01 -2.53145784e-01 -5.20063579e-01
      1.85365334e-01 1.39484540e-01 -2.70382702e-01 -4.55266833e-01
      -9.18960571e-02 -7.27566242e-01 2.14281186e-01 2.73149014e-01
      -3.14933866e-01 -3.88867140e-01 1.37295991e-01 4.86634493e-01
      -4.17073578e-01 -3.53678793e-01 -1.70105509e-02 3.08497380e-02
      1.85750462e-02 -1.60506099e-01 8.81715957e-03 3.16167891e-01
      1.61070645e-01 -2.00986937e-01 -4.16440994e-01 1.71267062e-01
      5.40518403e-01 3.36866856e-01 -2.81958163e-01 5.10305643e-01</_>
    <_>
      1.96947530e-01 1.44601154e+00 4.83871967e-01 -4.37249303e-01
      -3.73440444e-01 6.19544744e-01 -7.24111140e-01 -1.32060325e+00
      -5.34801364e-01 1.26799405e+00 1.21477234e+00 2.10532352e-01
      -1.17240107e+00 -5.44572830e-01 5.46817660e-01 -6.57915115e-01
      3.26432258e-01 7.90838957e-01 -4.09256279e-01 -4.42891091e-01
      1.10334866e-01 1.56491488e-01 -3.19500715e-01 -3.07964206e-01
      -6.91084415e-02 -7.30256557e-01 2.64869839e-01 4.90528606e-02
      -2.30126604e-01 -5.68660200e-01 1.37080327e-01 5.03195822e-01
      -5.75801313e-01 -2.19610035e-01 -5.37413582e-02 -2.35707626e-01
      1.01665668e-01 -3.34784567e-01 1.28006443e-01 5.47089517e-01
      7.42011666e-02 -5.12277961e-01 -2.73913234e-01 1.42217446e-02
      2.43231550e-01 3.01614374e-01 -2.16656670e-01 8.78747880e-01</_>
    <_>
      -6.99002624e-01 9.09286439e-01 -1.76539466e-01 -8.03988457e-01
      -7.52156913e-01 -5.80268383e-01 -2.16675091e+00 -4.05391407e+00
      -8.57939065e-01 1.42215848e+00 8.10929060e-01 6.61212027e-01
      -1.72978675e+00 -2.18360615e+00 -6.69469655e-01 1.39917471e-02
      1.41211581e+00 1.45480371e+00 -2.04765067e-01 -1.18268919e+00
      -2.33628508e-02 1.62610447e+00 -1.06540060e+00 -1.05202541e-01
      -3.50639015e-01 -1.36572433e+00 6.13584995e-01 1.45714208e-01
      -7.56747961e-01 8.95594239e-01 7.50815570e-01 2.59261727e-01
      7.16611922e-01 5.64442456e-01 -1.22698092e+00 -6.04900301e-01
      -6.04044855e-01 1.95622206e-01 -3.07988495e-01 -2.97142953e-01
      1.04000773e-02 -2.23092318e-01 4.20601100e-01 -1.00056842e-01
      -4.39175358e-03 5.40804684e-01 3.43945920e-01 2.20155612e-01</_>
    <_>
      -5.80604225e-02 1.65593743e+00 7.04667628e-01 -5.42554975e-01
      -2.98616409e-01 -3.30499783e-02 -1.08409488e+00 -1.49405205e+00
      -7.03760624e-01 9.32934165e-01 1.48653531e+00 3.41148794e-01
      -1.44373870e+00 -9.92795706e-01 -1.23988941e-01 -4.61301595e-01
      5.49847722e-01 9.44401175e-02 -2.06522286e-01 -5.02924144e-01
      1.05633251e-01 1.99908569e-01 -5.81362426e-01 -3.20677251e-01
      -1.86709538e-01 -1.26016903e+00 -5.30429423e-01 4.40573066e-01
      -9.99481305e-02 -5.10943711e-01 -1.04954310e-01 2.48646736e-01
      1.37274683e-01 1.86599404e-01 1.07763670e-02 -7.28384182e-02
      -4.25292015e-01 -3.04135889e-01 1.56844214e-01 2.15834320e-01
      6.79587424e-02 -3.45291719e-02 1.39403895e-01 -4.77137864e-01
      7.21075118e-01 3.62198055e-01 -1.12727741e-02 -6.36958927e-02</_>
    <_>
      7.87818134e-01 1.38488746e+00 1.22713290e-01 -5.98120689e-01
      7.68887773e-02 -3.43772322e-01 -1.26076150e+00 -1.68661451e+00
      -4.60225314e-01 9.76421356e-01 8.21779788e-01 1.19562209e+00
      -1.40242004e+00 -9.81408119e-01 -6.68679059e-01 -1.32866025e-01
      6.62419915e-01 -1.69049039e-01 -8.03716362e-01 -5.28468847e-01
      3.16404909e-01 3.88602614e-02 -2.11404949e-01 -2.49838546e-01
      -2.90182889e-01 -7.93693066e-01 -5.57575166e-01 5.61970830e-01
      -2.78812408e-01 8.11379179e-02 -4.89841908e-01 -1.82586387e-02
      2.91955888e-01 -1.14229217e-01 -2.59570312e-02 -3.55170935e-01
      -1.33255109e-01 -7.53792465e-01 -8.83797109e-02 6.76466882e-01
      2.65974671e-01 3.99709255e-01 -2.67190546e-01 1.88909352e-01
      2.50851274e-01 -6.19018488e-02 -6.09112799e-01 6.89449906e-01</_>
    <_>
      5.79147458e-01 7.50282526e-01 7.53168523e-01 -2.51198828e-01
      -3.32007736e-01 -9.76979375e-01 -1.39311302e+00 -1.60330987e+00
      -4.90988106e-01 8.54444742e-01 -1.51090173e-03 4.83248740e-01
      -2.06521535e+00 -1.98551619e+00 -9.77819085e-01 -5.46466887e-01
      1.61396146e+00 -1.84444800e-01 -1.09326351e+00 -5.77790201e-01
      2.36267835e-01 -3.09388399e-01 -6.07267857e-01 1.91204309e-01
      -3.23016852e-01 -2.44192004e+00 -1.06255960e+00 6.16490066e-01
      1.54524976e-02 -5.26676476e-02 7.78644383e-02 4.92961377e-01
      -3.40536207e-01 -1.53540492e-01 -2.95572966e-01 1.58310160e-01
      1.04238987e-01 -7.60202527e-01 6.15690053e-01 1.09469986e+00
      -1.42712638e-01 -2.31311992e-01 8.40175748e-02 -2.02427089e-01
      7.29014933e-01 3.12212110e-01 1.10717267e-01 6.77658319e-01</_>
    <_>
      1.10044444e+00 2.02662587e+00 -9.89867806e-01 -1.88962293e+00
      1.43341100e+00 1.43905962e+00 -1.65460479e+00 -2.82748103e+00
      -5.36496103e-01 1.10579646e+00 4.91108894e-01 6.31920457e-01
      -1.78657997e+00 -1.22716153e+00 6.59583271e-01 3.68637174e-01
      2.60350800e+00 6.38667941e-01 -3.83999288e-01 -7.86806107e-01
      7.42705822e-01 1.38783872e-01 -8.51260245e-01 -1.04633033e-01
      -2.02971488e-01 -1.16242158e+00 1.03062963e+00 1.30821455e+00
      2.08567291e-01 7.03304410e-02 -8.13790083e-01 1.08803546e+00
      1.76366325e-02 -5.49284220e-01 -5.39439619e-01 2.69129246e-01
      7.37500310e-01 -2.00764632e+00 2.02408862e+00 1.95917737e+00
      1.36005521e+00 3.45957071e-01 -1.10917377e+00 8.17940593e-01
      1.15724587e+00 1.24509907e+00 -2.29862618e+00 6.53606534e-01</_>
    <_>
      -5.68966568e-01 -4.02462482e-02 -2.21543193e+00 -2.81783986e+00
      8.40578496e-01 2.36609507e+00 -4.83739108e-01 4.76508081e-01
      -1.74112058e+00 -2.97577977e+00 6.92659259e-01 4.32156444e-01
      -1.12524104e+00 -2.14292645e+00 2.78364515e+00 8.57271791e-01
      -9.58576441e-01 1.79949820e+00 -2.25758839e+00 -1.11051595e+00
      1.97486937e+00 1.98206401e+00 -8.68744195e-01 -2.52196288e+00
      -2.36316538e+00 -4.41792578e-01 1.93280303e+00 -9.80924189e-01
      -9.41466570e-01 2.24058199e+00 7.40878940e-01 1.25357401e+00
      -9.63375330e-01 -5.61133623e-01 9.20326412e-01 -1.35548973e+00
      -2.22625807e-01 -1.59611416e+00 7.90801585e-01 7.72481322e-01
      -6.38398409e-01 9.36620653e-01 3.00354119e-02 1.16654146e+00
      -9.89174783e-01 -5.78256957e-02 3.89774144e-01 -8.79000664e-01</_>
    <_>
      -8.89916003e-01 -2.29049280e-01 -4.87168014e-01 -9.27820086e-01
      2.42878273e-01 1.27206945e+00 6.69247091e-01 -1.28983799e-02
      -6.41363204e-01 -8.75224948e-01 -6.29043758e-01 -9.72265825e-02
      -3.46271694e-01 -1.90588146e-01 8.19080710e-01 5.11735439e-01
      -1.33859798e-01 1.09775352e+00 5.77657163e-01 -6.30814075e-01
      -3.58082294e-01 1.11917269e+00 -1.23853154e-01 -1.27575278e+00
      -7.38941729e-01 8.44287723e-02 1.49556577e+00 -7.87592158e-02
      -1.15616310e+00 9.94805470e-02 1.02979374e+00 5.25197029e-01
      -9.61814165e-01 8.51133347e-01 2.87173063e-01 -8.24466884e-01
      -2.03360176e+00 4.81584072e-02 8.75034988e-01 9.85927880e-01
      -3.24043304e-01 6.57120585e-01 1.34580743e+00 5.80078840e-01
      8.51605181e-03 5.81466317e-01 6.42298281e-01 -6.30407333e-01</_>
    <_>
      -3.94488633e-01 -2.24735558e-01 -8.02304387e-01 -9.40190434e-01
      5.03552318e-01 1.26244748e+00 8.39192092e-01 -1.62255764e-01
      -7.07566798e-01 -8.85882199e-01 -2.05174923e-01 -1.16995424e-02
      -3.87937635e-01 -3.56584251e-01 8.69342387e-01 4.14662212e-01
      -8.92025828e-02 1.47645390e+00 5.58467329e-01 -8.62151504e-01
      2.26633530e-02 1.18122077e+00 -3.84254932e-01 -1.24804854e+00
      -9.01321530e-01 1.61934093e-01 1.98298883e+00 -2.26877466e-01
      -1.22317469e+00 1.05169937e-01 1.22538245e+00 5.14638722e-01
      -6.46611810e-01 4.80493069e-01 5.34732975e-02 -9.41627741e-01
      -1.83190060e+00 3.64537798e-02 4.34187710e-01 1.29778981e+00
      -4.70831901e-01 6.86864018e-01 1.26485598e+00 9.44503963e-01
      -1.09336890e-01 2.90206254e-01 -1.31137818e-01 -6.35644376e-01</_>
    <_>
      -1.72272742e-01 -1.63833480e-02 -1.03515053e+00 -9.02413070e-01
      9.61098611e-01 1.12120414e+00 5.95405877e-01 1.61339626e-01
      -6.31532669e-01 -8.24493110e-01 -1.22696769e+00 -2.20655978e-01
      -2.95755714e-01 -6.17747068e-01 6.26155972e-01 4.96451885e-01
      3.72690856e-01 1.07544613e+00 3.31164151e-01 -5.12986124e-01
      9.20127332e-02 1.33544481e+00 -5.33224225e-01 -1.10114181e+00
      -9.85143244e-01 1.10623784e-01 1.55066347e+00 -4.13645804e-01
      -1.13962650e+00 -2.65427947e-01 1.14168799e+00 6.71443939e-01
      -9.43983793e-01 1.43657541e+00 4.81773950e-02 -5.73801637e-01
      6.03028052e-02 -4.57436949e-01 4.60882396e-01 1.06142998e+00
      -7.30587721e-01 2.28855610e-01 1.46060228e+00 3.94112319e-01
      5.72516918e-01 -2.99644917e-01 -1.06367362e+00 -4.80200171e-01</_>
    <_>
      -9.85909104e-02 -1.17561579e+00 -9.77449000e-01 -4.27025586e-01
      -4.15818356e-02 -1.03976816e-01 -1.74633175e-01 -6.88274875e-02
      9.48484361e-01 -1.55766153e+00 -8.07006359e-01 1.27116561e+00
      -2.06287146e-01 -4.48258758e-01 5.34140170e-02 1.26159489e-01
      -5.73626012e-02 7.49892056e-01 -5.64463325e-02 -2.39845425e-01
      -1.82610959e-01 1.15915418e+00 -2.00779542e-01 -7.64451385e-01
      -1.98071569e-01 -2.44866416e-01 5.75703442e-01 -4.30190675e-02
      -8.95820379e-01 -1.14796773e-01 1.51251364e+00 4.23408747e-01
      -6.21990919e-01 1.13362539e+00 -1.84334621e-01 7.87760317e-02
      -1.45624030e+00 -3.11861336e-01 -3.01877875e-03 4.93385732e-01
      -6.42576277e-01 4.70281810e-01 2.43143272e+00 3.09480786e-01
      1.75432116e-01 -2.59427093e-02 7.12317228e-02 -3.50993395e-01</_>
    <_>
      -6.48026764e-01 -6.21692717e-01 -7.33042240e-01 -1.48349202e+00
      6.59049273e-01 7.22841561e-01 4.85761791e-01 -1.68695524e-01
      -1.22818731e-01 -6.80528939e-01 -3.80675524e-01 -3.39905113e-01
      -1.05711663e+00 -1.33458301e-01 8.49184990e-01 1.18951343e-01
      -2.51901478e-01 8.50378692e-01 1.05921268e+00 -8.07837784e-01
      -3.02927196e-01 1.91069496e+00 1.45434305e-01 -2.23703146e+00
      -1.17505896e+00 3.11762631e-01 1.22439599e+00 -1.55042008e-01
      -1.57275558e+00 -2.85575539e-01 5.62072277e-01 9.04081047e-01
      -8.40500057e-01 2.04865479e+00 -1.55597106e-01 -7.32489407e-01
      -1.98534536e+00 -4.53322977e-01 2.89745629e-01 8.82512033e-01
      -6.12660468e-01 3.30726981e-01 2.28836107e+00 1.61780822e+00
      -1.23790257e-01 -5.23806930e-01 1.50663570e-01 -1.59313285e+00</_>
    <_>
      1.43239641e+00 -5.20888269e-01 -2.77759027e+00 -6.55906558e-01
      1.78946525e-01 7.32933402e-01 1.95094287e-01 -4.60390866e-01
      3.44289482e-01 -2.89105701e+00 -8.97446334e-01 2.53664541e+00
      -1.41369927e+00 -5.11799097e-01 1.53653860e+00 1.19698131e+00
      1.33175090e-01 3.05673987e-01 1.97422668e-01 -2.87524968e-01
      -8.79825830e-01 1.23436870e-02 7.85846114e-01 -1.03335357e+00
      -1.01355004e+00 8.92408848e-01 7.84946203e-01 8.42305087e-03
      -1.67750192e+00 8.90916586e-01 -2.22785324e-01 4.55116630e-02
      1.50382742e-01 4.11198288e-01 -1.48034975e-01 -7.76237190e-01
      -1.27801967e+00 -5.08940458e-01 -1.12591691e-01 1.11074090e+00
      -1.23832345e+00 1.63700402e+00 2.60296535e+00 1.08296883e+00
      -3.00501436e-01 -1.70363456e-01 -1.60220489e-02 2.57711172e-01</_>
    <_>
      2.86160409e-01 -1.89160097e+00 -1.83028591e+00 -5.30932009e-01
      6.06826186e-01 4.59602207e-01 2.65959706e-02 1.11031525e-01
      4.80679154e-01 -1.23973072e+00 -2.79936337e+00 1.85020566e-01
      -1.36909470e-01 -8.84177834e-02 7.85145164e-02 7.97469199e-01
      2.12370008e-01 1.70719139e-02 -3.08509469e-01 -4.18249071e-01
      -3.78991067e-01 -3.44786644e-01 -2.17918381e-02 -4.15663034e-01
      -1.96330801e-01 -3.50833088e-01 3.90532672e-01 2.60226756e-01
      -4.49372619e-01 -1.07664615e-01 2.92136401e-01 3.63074809e-01
      -6.68148637e-01 5.58704913e-01 2.00888604e-01 -5.44017673e-01
      -3.83638203e-01 -9.13898110e-01 5.84079385e-01 1.90142858e+00
      -1.41564393e+00 -9.55416728e-03 1.94059765e+00 7.34768391e-01
      6.65975034e-01 9.56419528e-01 -6.64646626e-02 -1.67912579e+00</_>
    <_>
      1.24834502e+00 -2.40575123e+00 -6.44187987e-01 -2.61873901e-01
      1.58089733e+00 -3.66176486e-01 5.54503620e-01 -2.92005360e-01
      1.53251553e+00 -1.01896799e+00 -3.20430446e+00 -1.57898769e-01
      -8.78342509e-01 -1.72411382e+00 4.02972311e-01 1.01044333e+00
      1.73156571e+00 6.04379833e-01 4.09732580e-01 3.13518532e-02
      7.97582865e-02 5.63899755e-01 -6.94535434e-01 -1.60048616e+00
      -9.46701050e-01 1.35181487e+00 2.75418973e+00 1.17480624e+00
      -1.30028641e+00 -1.24333537e+00 -3.35240394e-01 2.17131114e+00
      -3.49133104e-01 1.28300166e+00 -8.39402318e-01 6.92045391e-01
      -1.81186914e+00 -1.35580838e+00 7.58919835e-01 4.62247801e+00
      -9.71094251e-01 -3.05096358e-01 1.02297032e+00 1.74047172e+00
      3.76407981e+00 1.66966581e+00 -2.82492304e+00 -1.53344977e+00</_>
    <_>
      -5.32222891e+00 -7.30374718e+00 -4.80709553e+00 -6.33943379e-01
      1.70570052e+00 5.64961290e+00 -3.40044832e+00 1.34898579e+00
      1.38507150e-02 -2.54741502e+00 -4.45717049e+00 -1.64084637e+00
      1.34898579e+00 -2.10280490e+00 -1.01668850e-01 3.74080610e+00
      -8.84706259e-01 9.84420872e+00 7.10506010e+00 -3.77631426e+00
      1.97241795e+00 2.22162938e+00 2.38550258e+00 1.55021822e+00
      -3.77631426e+00 -2.17836499e+00 6.52057791e+00 -3.68581951e-01
      -1.98779428e+00 3.57464027e+00 7.94642687e+00 2.77315116e+00
      -6.27979279e+00 5.97417736e+00 3.13467336e+00 6.60681105e+00
      -6.37839031e+00 1.07998478e+00 6.92295671e-01 3.67944986e-01
      4.67535891e-02 3.54274511e+00 1.35889447e+00 1.66323876e+00
      3.27989697e+00 4.72285837e-01 1.95057595e+00 -1.85236692e+00</_>
    <_>
      -2.62687278e+00 -3.68698239e+00 -3.30721378e+00 -8.91350150e-01
      2.34797859e+00 2.24399519e+00 2.19995785e+00 5.84794521e-01
      5.46305954e-01 -3.10619652e-01 -4.73461390e+00 -1.41534364e+00
      5.84794521e-01 -9.85878944e-01 -2.85603333e+00 1.93332255e+00
      2.64839351e-01 9.59126472e+00 5.19837666e+00 -2.59368849e+00
      3.91186500e+00 3.10677719e+00 5.29221535e-01 1.71704257e+00
      -2.59368849e+00 7.22946644e-01 3.80537415e+00 -1.60683244e-01
      -1.45026934e+00 6.01949207e-02 7.43032932e+00 2.58260798e+00
      -1.63234270e+00 2.11081648e+00 -9.92477834e-01 4.12903690e+00
      -3.12721491e+00 1.13949847e+00 -1.58346510e+00 9.11481261e-01
      1.71913242e+00 9.27032948e-01 2.70953566e-01 5.02075243e+00
      3.41366202e-01 -1.31212190e-01 1.55613041e+00 1.68363094e-01</_>
    <_>
      -1.99631882e+00 -1.01275277e+00 -1.62185001e+00 -6.43019527e-02
      1.26604569e+00 1.47244453e+00 -8.98697302e-02 1.07348955e+00
      9.91659045e-01 1.57902408e+00 -4.11635590e+00 -1.46074677e+00
      1.07348955e+00 -1.41987705e+00 -8.44893992e-01 1.07348955e+00
      -7.31306011e-03 4.80865049e+00 8.17420721e-01 -1.40718150e+00
      2.32230425e+00 3.76917791e+00 -3.33894826e-02 8.00081432e-01
      -1.40718150e+00 -1.63007863e-02 2.62783408e+00 -1.40718150e+00
      -1.84207153e+00 -2.58324075e+00 5.65475893e+00 2.00754452e+00
      -2.35469866e+00 4.44468403e+00 -1.81252778e+00 4.58308458e-01
      1.29731786e+00 -1.88240266e+00 -9.20412838e-01 1.44214594e+00
      -6.56825781e-01 -6.44378960e-01 3.60126495e+00 -7.17046559e-02
      4.03961957e-01 -1.64059186e+00 -9.00697708e-01 3.33052254e+00</_>
    <_>
      5.76335013e-01 -1.56722033e+00 -3.26183915e-01 1.37283087e+00
      -1.75216928e-01 -1.16705036e+00 2.30986327e-01 3.27663720e-01
      1.54322207e+00 -5.54743707e-01 -1.55595613e+00 6.27013385e-01
      6.34159207e-01 -4.58018601e-01 -1.57584536e+00 8.31877366e-02
      -9.83704999e-02 1.08727801e+00 2.95060098e-01 -1.57160968e-01
      -1.05287731e+00 1.20589352e+00 1.84549075e-02 -1.31991774e-01
      2.64415562e-01 3.82459313e-01 5.77952206e-01 1.87065452e-01
      -1.36544943e+00 5.99142373e-01 1.90331292e+00 -4.52256680e-01
      4.54824343e-02 1.39704859e+00 -1.56124786e-01 -1.66575015e-01
      -1.61723626e+00 -8.94710720e-02 3.52165461e-01 2.01307997e-01
      7.27944076e-02 -1.76571965e-01 1.69088054e+00 -2.74332970e-01
      2.23039404e-01 -9.48094055e-02 5.42516410e-01 -8.41538683e-02</_>
    <_>
      -4.84409428e+00 -1.24282384e+00 4.74389106e-01 9.77476910e-02
      7.72746131e-02 -3.47498846e+00 1.70232344e+00 5.40367723e-01
      1.86704588e+00 3.11474013e+00 -3.43992639e+00 -2.02516246e+00
      5.40367723e-01 1.23971486e+00 -3.62970996e+00 -3.98565710e-01
      4.75616246e-01 3.62511307e-01 2.72349381e+00 9.40098286e-01
      -1.87758791e+00 2.99789429e+00 1.67627120e+00 -7.92252839e-01
      1.07026303e+00 7.86576092e-01 -1.19536984e+00 9.40098286e-01
      -1.71322191e+00 -3.33767295e+00 -9.32860792e-01 -2.20827436e+00
      -1.06492496e+00 8.31580925e+00 -7.26020694e-01 -1.09069848e+00
      -2.46280146e+00 -2.06317282e+00 1.22498143e+00 -1.09611475e+00
      1.46340191e+00 -2.83786450e-02 3.48776269e+00 3.20407033e+00
      1.45238972e+00 -1.90941319e-02 2.14181590e+00 -1.14451075e+00</_>
    <_>
      2.97341180e+00 -6.02766871e-01 -9.49835837e-01 3.47300315e+00
      -1.05179772e-01 -2.34117770e+00 1.04700530e+00 -5.88259935e-01
      4.33257008e+00 2.48294681e-01 -2.37054205e+00 2.97678685e+00
      -4.88960184e-02 -1.42754450e-01 -2.31588149e+00 9.70816970e-01
      5.09159744e-01 -4.23941314e-01 1.20016420e+00 1.61710605e-01
      -1.86042130e+00 -1.78310490e+00 2.71642041e+00 6.17913064e-03
      1.87217876e-01 1.25703800e+00 -3.55537534e-01 1.61710605e-01
      -2.50512314e+00 2.41767907e+00 7.47133911e-01 -1.31458569e+00
      -8.07095096e-02 9.22137320e-01 -1.55666184e+00 1.87670141e-01
      -1.40826988e+00 -4.80928332e-01 -5.28566957e-01 1.45409930e+00
      3.10590327e-01 1.26344323e+00 6.32191122e-01 -3.29596639e-01
      -5.61326683e-01 -1.10512149e+00 8.96658599e-01 1.55721986e+00</_>
    <_>
      9.72507775e-01 -2.00727272e+00 -1.06547010e+00 1.48767006e+00
      3.84458572e-01 -4.09394473e-01 1.38229561e+00 4.64559466e-01
      1.45249140e+00 -1.54764950e-01 -3.90128446e+00 -1.15086257e+00
      1.18405914e+00 -1.30955160e-01 -1.54847074e+00 1.02536000e-01
      -1.46563947e-01 -4.83851492e-01 -7.08441809e-02 -2.56674379e-01
      -4.31345224e-01 -1.41075194e+00 6.02520645e-01 9.34017301e-01
      5.80073714e-01 -2.80238837e-01 -3.69714469e-01 1.71779290e-01
      -4.82652374e-02 5.68777204e-01 1.28971028e+00 -2.78260447e-02
      -6.76868737e-01 -1.72484279e-01 2.90330946e-01 4.22704637e-01
      -8.09302926e-01 -5.08290887e-01 1.19462419e+00 1.29856789e+00
      -2.35102296e-01 1.67626664e-01 1.91321298e-01 4.72416133e-01
      5.45062482e-01 7.71598518e-01 3.07143986e-01 4.42587316e-01</_>
    <_>
      -7.67628327e-02 -3.21126270e+00 -1.47666380e-01 2.27021503e+00
      -1.91087648e-01 -3.98596931e+00 5.13873518e-01 5.29218793e-01
      1.63246143e+00 8.69725883e-01 -4.59024763e+00 -6.64779723e-01
      -3.56297046e-02 2.14175367e+00 -4.63102531e+00 1.57407284e-01
      1.10367131e+00 1.24866343e+00 3.50902724e+00 9.47342396e-01
      -1.92087129e-01 -2.69592047e+00 5.95991969e-01 1.52312100e-01
      4.76309329e-01 5.07630301e+00 -3.31747234e-01 5.04980683e-01
      -3.40103865e-01 -1.25476807e-01 2.35921359e+00 -1.33971202e+00
      6.09098673e-01 4.50638533e-01 -1.46035171e+00 2.38939214e+00
      -1.48275948e+00 -1.43633866e+00 2.45801735e+00 2.77527356e+00
      -2.44108319e-01 -1.38146627e+00 6.66650593e-01 2.27148080e+00
      3.26387644e+00 1.52198744e+00 -3.60495019e+00 -8.39744985e-01</_>
    <_>
      6.58726883e+00 -1.63553009e+01 -2.37611275e+01 -1.11382079e+00
      2.24537325e+00 -1.27701073e+01 1.20945158e+01 -1.11382079e+00
      -1.11382079e+00 1.15013428e+01 6.00884199e+00 -1.62973249e+00
      -1.11382079e+00 8.84168911e+00 -1.64370480e+01 -5.52841854e+00
      -3.32102966e+00 3.04402351e+01 8.74691677e+00 -9.52238178e+00
      1.01541939e+01 2.32056541e+01 -3.67441678e+00 1.80658627e+01
      -9.52238178e+00 3.32068038e+00 1.80543575e+01 4.22530222e+00
      2.61015296e+00 -1.44957762e+01 1.39592304e+01 2.22767887e+01
      1.97549665e+00 1.24685955e+00 -5.19624424e+00 -1.85103863e-01
      -6.07244301e+00 -5.61350155e+00 -8.83237457e+00 -3.41099334e+00
      -1.21255426e+01 -5.79369402e+00 4.47374535e+00 9.25714397e+00
      -5.59006405e+00 -2.16554856e+00 6.68425977e-01 -5.18310213e+00</_>
    <_>
      3.76807570e-01 -1.00653076e+00 -5.66178703e+00 9.57791805e-01
      2.09067106e+00 -4.01786327e+00 2.58481264e+00 9.57791805e-01
      9.57791805e-01 3.34490108e+00 -3.60494661e+00 9.45881248e-01
      9.57791805e-01 2.43611622e+00 -3.42886305e+00 9.48514462e-01
      -3.61527592e-01 -3.99357677e-01 1.23731744e+00 -3.11538577e-01
      4.25034094e+00 3.43759704e+00 -7.94514835e-01 -3.72275531e-01
      -3.11538577e-01 4.14390898e+00 1.74574256e+00 -3.17199141e-01
      -1.55888236e+00 -6.58958101e+00 6.06100607e+00 2.53348303e+00
      -5.23784065e+00 8.82413387e+00 -4.83998871e+00 -2.83904886e+00
      3.58447242e+00 -2.11820984e+00 -4.40419340e+00 3.35011542e-01
      -2.97857666e+00 -8.06840038e+00 7.57863092e+00 4.09866869e-02
      -4.82300282e+00 -1.94213581e+00 1.98932849e-02 5.56668091e+00</_>
    <_>
      8.87224793e-01 -2.04514027e+00 -2.06451559e+00 7.72766829e-01
      5.12770414e-01 -1.44549584e+00 -8.36478233e-01 5.47802091e-01
      1.22489357e+00 -9.73261476e-01 -1.94334054e+00 1.14119101e+00
      8.01364183e-01 -8.08073342e-01 -1.53625691e+00 7.37820983e-01
      1.34076402e-02 1.74887404e-01 4.22894116e-03 5.12575023e-02
      -9.20107439e-02 1.04499841e+00 2.68124491e-01 -2.04608500e-01
      4.00025517e-01 -6.57497227e-01 4.37132895e-01 3.36034179e-01
      -2.14644015e-01 3.34977746e-01 1.36031592e+00 -4.86933410e-01
      3.23727399e-01 1.51913977e+00 2.09977776e-01 -1.86165988e-01
      -1.59099609e-01 -7.28699788e-02 2.99748302e-01 -2.40523368e-01
      -4.77764279e-01 4.60733026e-01 1.27210903e+00 -4.32855368e-01
      3.66593570e-01 1.21190868e-01 -4.02009279e-01 -7.32186258e-01</_>
    <_>
      2.30012751e+00 1.10061407e+00 -1.13512480e+00 -3.95031452e-01
      1.54718673e+00 -6.53271246e+00 -8.09978783e-01 -8.86968374e-01
      1.48054302e-01 4.80289221e+00 6.98329568e-01 -2.14120531e+00
      -8.86968374e-01 1.03120518e+00 -3.59469175e+00 -1.86391509e+00
      -2.22274259e-01 -4.48148584e+00 1.40625358e+00 1.57333148e+00
      2.64724821e-01 1.88127530e+00 -2.69074023e-01 8.76044691e-01
      1.53541255e+00 -3.95153570e+00 -2.41983247e+00 9.39328492e-01
      -8.68963957e-01 -3.94282532e+00 -3.43940902e+00 -1.24213481e+00
      3.67533350e+00 6.46019745e+00 -1.86368108e+00 3.00920546e-01
      -1.55692005e+00 2.92644113e-01 -2.71633148e+00 -7.79038608e-01
      -2.95776594e-02 -1.17920184e+00 1.55421865e+00 2.63236856e+00
      1.28828776e+00 -2.11954519e-01 -3.63745832e+00 -1.08300579e+00</_>
    <_>
      2.46557236e+00 1.47291169e-01 -1.50019705e+00 1.15803623e+00
      3.17455411e-01 -1.36829233e+00 -1.48750627e+00 -1.00555807e-01
      1.06408823e+00 -6.76217854e-01 -1.23220585e-01 1.75849152e+00
      -6.82000965e-02 -9.30582285e-01 -1.33828175e+00 2.25480363e-01
      3.26911390e-01 -1.28163183e+00 -6.79784000e-01 3.74308228e-01
      4.65886146e-02 -7.13415563e-01 8.06139469e-01 2.67847508e-01
      3.74308228e-01 -1.73074659e-02 -9.76656139e-01 1.79673508e-02
      -1.07294522e-01 6.52306676e-01 -7.05344796e-01 -6.49869204e-01
      7.79745042e-01 1.08200088e-01 1.55073747e-01 1.10773310e-01
      2.61110753e-01 5.16073518e-02 -8.94334733e-01 -1.85933873e-01
      -2.88342565e-01 3.68391633e-01 -4.80684251e-01 -5.38117170e-01
      -3.61888349e-01 -8.46817553e-01 -1.06631839e+00 3.07157010e-01</_>
    <_>
      1.06940842e+00 -1.91545236e+00 -1.37165880e+00 1.41326773e+00
      5.24949372e-01 -1.79008794e+00 -7.70716190e-01 6.30622566e-01
      5.35848975e-01 -4.07939285e-01 -1.71203935e+00 3.31034452e-01
      5.35848975e-01 -6.02413654e-01 -1.40432751e+00 3.54374677e-01
      2.92164266e-01 -1.07973218e+00 -5.61072052e-01 3.39409053e-01
      1.02624938e-01 -1.16833317e+00 -2.22393066e-01 5.84922314e-01
      5.19901693e-01 -4.38786119e-01 -9.46685791e-01 1.33395538e-01
      7.78707087e-01 5.95499873e-01 -5.51119387e-01 -1.93031892e-01
      -3.60671654e-02 6.80150688e-01 -4.46740657e-01 -2.76388712e-02
      6.28031552e-01 -8.34461331e-01 -1.64661780e-02 2.87690908e-01
      -6.32880270e-01 -1.27135133e-02 1.50871277e-01 7.30861008e-01
      -4.22199219e-01 -1.86107650e-01 -1.25196123e+00 -6.78621888e-01</_>
    <_>
      2.41030335e+00 -3.95259547e+00 -2.23943019e+00 1.90218937e+00
      1.19691037e-01 -2.99292684e+00 2.85398841e-01 2.34607518e-01
      1.09255648e+00 -5.87446511e-01 -2.93784380e+00 -6.05189204e-01
      3.06556821e-01 1.54489052e+00 -3.14450526e+00 -1.38369560e+00
      9.02067304e-01 1.97984859e-01 2.97522092e+00 1.28481841e+00
      -2.12135124e+00 -2.61022854e+00 6.20363772e-01 -2.56025791e-01
      1.37945187e+00 4.03274012e+00 -5.20728648e-01 -9.29762661e-01
      3.66647094e-01 3.88289958e-01 -6.20351076e-01 -1.23596454e+00
      3.42552280e+00 -7.06907511e-01 3.03146243e-01 -1.26279974e+00
      2.35577369e+00 -2.09789968e+00 1.16077721e+00 5.96338570e-01
      -1.14270389e+00 -2.40944815e+00 1.69087100e+00 2.28512287e+00
      2.39998507e+00 2.67764378e+00 -5.92905426e+00 1.33662677e+00</_>
    <_>
      1.67457247e+00 -1.03464088e+01 -9.95964527e+00 4.48406601e+00
      2.97945213e+00 -2.83041191e+00 -1.96117270e+00 4.48406601e+00
      -1.04558671e+00 -3.26531363e+00 -1.50014389e+00 3.11251616e+00
      -1.89826041e-02 -1.72361088e+00 2.41040087e+00 -3.76327252e+00
      1.96995139e+00 -6.37437820e+00 -6.29931879e+00 2.61852527e+00
      9.06740475e+00 -4.17277145e+00 1.15287888e+00 -8.17853832e+00
      9.82416511e-01 -5.11859417e+00 3.72995162e+00 7.37630308e-01
      -5.71088839e+00 -1.05451822e+01 6.76382971e+00 5.35702515e+00
      4.06277752e+00 6.14613533e+00 -1.03408470e+01 -1.87317514e+00
      6.46614552e+00 1.50775137e+01 -2.42024207e+00 -1.45501337e+01
      3.51227880e+00 -4.32047272e+00 1.64791889e+01 1.45056212e+00
      -9.68578434e+00 -9.29041862e+00 -9.27590656e+00 1.79841347e+01</_>
    <_>
      8.24141502e-01 -1.95538092e+00 -1.24008584e+00 7.65961230e-01
      6.16196692e-02 -1.56538510e+00 -7.70622075e-01 4.07945365e-01
      9.82799411e-01 -1.39486575e+00 -1.27570844e+00 1.34504819e+00
      6.09138012e-01 -9.12847102e-01 -9.98152554e-01 9.21695292e-01
      -3.34816948e-02 1.95201442e-01 -2.41876483e-01 -5.38575202e-02
      -3.09773594e-01 9.77417827e-01 5.19933738e-03 -4.04149801e-01
      5.80168605e-01 -4.00332123e-01 4.55892533e-01 4.95666504e-01
      -2.60085791e-01 5.96026778e-01 7.53836513e-01 -4.09788042e-01
      7.52782106e-01 1.36555207e+00 2.31750458e-01 -4.07043666e-01
      -3.59783858e-01 5.13986722e-02 9.37084079e-01 -1.10435195e-01
      -3.32387447e-01 6.22788906e-01 8.56797636e-01 5.07882610e-02
      -8.26304436e-01 -1.59101471e-01 2.28798643e-01 -3.52563441e-01</_>
    <_>
      1.65522285e-03 8.03541958e-01 3.04841328e+00 2.29639545e-01
      -9.61354434e-01 -5.20493746e+00 -6.00265384e-01 -1.97052583e-01
      -9.47503686e-01 3.70077729e+00 4.46973890e-02 -4.17541444e-01
      -8.08179140e-01 4.97182488e-01 -1.87445855e+00 -2.53534287e-01
      -8.63940358e-01 -5.50355864e+00 -1.83070421e+00 1.89596188e+00
      -2.34571576e-01 6.58576250e-01 -8.50578368e-01 2.86472178e+00
      1.59468305e+00 -3.92919707e+00 -3.31502676e+00 1.60264111e+00
      -1.80172276e+00 -2.22544789e+00 -3.49054813e+00 -6.16815388e-01
      3.00027680e+00 4.66738319e+00 -2.02111959e+00 -1.28769338e+00
      -8.00843596e-01 -1.09268248e+00 7.64464200e-01 1.61814737e+00
      1.92792034e+00 -3.03037643e-01 2.24311090e+00 2.77737117e+00
      9.83235419e-01 1.96874976e+00 1.21236110e+00 -8.93287599e-01</_>
    <_>
      2.36517620e+00 3.08586583e-02 -1.25339413e+00 7.64035821e-01
      1.80702791e-01 -1.46177197e+00 -1.71800065e+00 4.27021533e-02
      9.17332888e-01 -4.83336180e-01 2.90177278e-02 1.76795888e+00
      -3.78340036e-01 -1.21737540e+00 -1.29483318e+00 2.27587238e-01
      2.27337196e-01 -1.96687591e+00 -1.04572463e+00 6.58745885e-01
      -3.96665215e-01 -1.16854858e+00 9.04302895e-01 3.15154761e-01
      4.91633207e-01 -9.85677302e-01 -8.58512700e-01 3.62838179e-01
      -1.45526186e-01 4.47949558e-01 -5.44350564e-01 -5.37603915e-01
      8.21694493e-01 -1.18085397e-02 7.96231985e-01 -2.02598482e-01
      -2.03823894e-02 -7.42213055e-02 -8.34183991e-02 -1.49617225e-01
      4.59839135e-01 5.49145579e-01 1.71879336e-01 -1.00203502e+00
      -2.86035120e-01 -5.98821461e-01 -1.29376069e-01 -5.38192280e-02</_>
    <_>
      5.04446983e-01 -1.51074016e+00 -6.31445467e-01 1.08832705e+00
      3.75746600e-02 -1.55088282e+00 -5.46017826e-01 4.84168172e-01
      2.16586530e-01 -6.37049600e-02 -1.31618667e+00 3.00238460e-01
      1.79795370e-01 -7.19313145e-01 -1.26895738e+00 3.36731046e-01
      1.54805377e-01 -1.80620551e+00 -7.30869353e-01 4.53693628e-01
      -3.19431722e-02 -1.19265139e+00 -3.56927425e-01 8.61847699e-01
      4.78867799e-01 -1.22016108e+00 -1.05117607e+00 1.61699817e-01
      8.93549025e-01 5.40346622e-01 -1.79639116e-01 3.76475900e-01
      1.70663744e-02 2.29559347e-01 -3.40412885e-01 -6.15891479e-02
      5.30530453e-01 -3.41166675e-01 6.30806148e-01 2.97082394e-01
      -1.39271930e-01 4.28754032e-01 7.42819011e-01 2.09037066e-01
      1.45898992e-03 1.24428287e-01 1.68927222e-01 -7.45169759e-01</_>
    <_>
      8.76119435e-01 -8.34948254e+00 -8.90348554e-01 4.59210968e+00
      -4.01728821e+00 -4.53936243e+00 4.64842916e-01 2.11420941e+00
      1.58128500e+00 -1.67807770e+00 -3.90833473e+00 -1.56625783e+00
      3.00458908e-01 8.91017258e-01 -1.38878298e+00 -2.35977697e+00
      -8.36704433e-01 -3.00739825e-01 2.02195883e+00 4.88599062e+00
      -2.03156257e+00 -6.28748322e+00 4.52096367e+00 -5.50184727e-01
      3.42268634e+00 2.69194627e+00 4.57812726e-01 2.23722249e-01
      -3.85616213e-01 -3.51843745e-01 -3.13053459e-01 -1.19740129e+00
      6.97653675e+00 1.68674469e+00 -2.74139738e+00 -4.48871231e+00
      3.24363542e+00 -5.76826286e+00 4.39515924e+00 -2.05422759e+00
      -3.08921169e-02 -2.20493650e+00 1.93704247e+00 -7.13146925e-01
      5.57064724e+00 4.46385336e+00 -5.09996796e+00 -1.57397282e+00</_>
    <_>
      3.57355922e-01 -2.29921269e+00 -8.90573263e-01 5.98828971e-01
      8.88114721e-02 -1.45117235e+00 -7.07260787e-01 2.98734754e-01
      1.68773174e+00 -1.73104072e+00 -9.64177608e-01 1.57697010e+00
      7.71595359e-01 -1.18589330e+00 -1.41668248e+00 7.38631546e-01
      5.93369640e-02 9.59925830e-01 1.93446547e-01 2.42924646e-01
      -5.86343884e-01 1.00072002e+00 -2.33152546e-02 -6.08068347e-01
      8.93332005e-01 -6.65927827e-01 -7.04639554e-02 7.73996413e-01
      -8.64836931e-01 4.62559849e-01 6.26329184e-01 -8.19581628e-01
      4.02516037e-01 8.69184792e-01 -3.37644406e-02 -3.25626098e-02
      -8.25106502e-01 -4.36279565e-01 3.37479055e-01 -2.92079479e-01
      -5.37870705e-01 5.25495827e-01 8.51508498e-01 1.85784012e-01
      1.93375468e-01 5.47666371e-01 1.03365086e-01 -1.50108981e+00</_>
    <_>
      -1.53865457e+00 3.64466548e-01 3.75590539e+00 7.17732966e-01
      -1.58934951e+00 -4.88808393e+00 -1.50856066e+00 -3.70512187e-01
      -6.31842971e-01 6.05387402e+00 1.42522407e+00 -3.70512187e-01
      -3.70512187e-01 1.80308306e+00 -5.14006281e+00 -3.70512187e-01
      2.80191630e-01 -2.60554409e+00 -7.12570190e-01 1.87350678e+00
      -2.40927458e+00 1.86657071e-01 -4.20031607e-01 1.17566466e+00
      1.63986361e+00 -1.32081020e+00 -3.76611185e+00 1.55593204e+00
      -8.00155103e-01 2.50475496e-01 -1.39997900e+00 -1.31700659e+00
      2.65589738e+00 3.45403266e+00 3.02500606e-01 -6.85434565e-02
      -2.87871408e+00 -1.76958323e+00 1.85864496e+00 2.80475664e+00
      1.41063106e+00 -6.00225143e-02 7.05347717e-01 3.97477508e+00
      1.33118439e+00 2.06997204e+00 2.02452159e+00 -4.17385674e+00</_>
    <_>
      1.78324437e+00 1.40820414e-01 -7.89736331e-01 7.03220665e-01
      7.22644525e-03 -1.65216851e+00 -1.73900628e+00 -2.10611328e-01
      1.56191909e+00 -5.47895491e-01 6.44806087e-01 1.66457558e+00
      1.53359156e-02 -1.03602719e+00 -1.14931595e+00 -3.61108482e-02
      -5.12791835e-02 -1.74504673e+00 -9.28668916e-01 7.09877133e-01
      -4.26284671e-01 -1.32289732e+00 1.08893871e+00 1.03558764e-01
      7.10570097e-01 -5.91395080e-01 -1.07495964e+00 7.09877133e-01
      -3.38731080e-01 7.57940650e-01 -7.11181283e-01 -8.61222446e-01
      5.47834218e-01 -7.25395381e-01 8.05728614e-01 8.45905542e-02
      -1.12341034e+00 -4.51034635e-01 -5.01938820e-01 -1.75873250e-01
      -5.70205748e-02 6.74262822e-01 -2.45538607e-01 -3.30243647e-01
      -3.05429339e-01 8.16772413e-03 1.86633617e-01 -4.41249996e-01</_>
    <_>
      3.58304739e-01 -1.41123378e+00 -3.54252994e-01 1.03471231e+00
      -2.20178347e-02 -1.70198476e+00 -6.29666924e-01 3.93391818e-01
      6.27650142e-01 -4.48211670e-01 -9.64459777e-01 3.40475112e-01
      3.40475112e-01 -5.71400523e-01 -1.28566217e+00 3.40475112e-01
      -1.29616529e-01 -1.47544420e+00 -9.31490183e-01 3.71071041e-01
      -3.39969508e-02 -9.38841701e-01 3.44605565e-01 8.50386500e-01
      4.43785429e-01 -8.72799695e-01 -1.39311254e+00 3.71071041e-01
      7.30000556e-01 6.69617414e-01 -4.49462563e-01 4.27614450e-01
      -1.31975375e-02 -5.38488686e-01 2.63885528e-01 3.30775529e-01
      -5.44876695e-01 -3.94364446e-01 3.96180302e-01 4.40221727e-01
      -3.08530033e-01 4.92837042e-01 4.71627533e-01 7.79713333e-01
      -1.81655109e-01 4.02768075e-01 9.81028020e-01 -6.85011148e-01</_>
    <_>
      -1.24620008e+00 -2.82053804e+00 1.09427643e+00 3.03624320e+00
      -2.86369824e+00 -1.74270141e+00 -1.40631795e-01 2.02400756e+00
      7.11192429e-01 -1.47714531e+00 1.00574875e+00 1.03758919e+00
      -4.67588514e-01 1.34991217e+00 -2.29542017e+00 -9.92317677e-01
      -1.08770597e+00 1.26186967e+00 -6.33817613e-01 3.63423538e+00
      -9.76440847e-01 -3.19442248e+00 3.27210021e+00 7.03169480e-02
      1.54564691e+00 2.13372660e+00 -1.57472825e+00 1.11216247e+00
      -3.71576935e-01 3.82330370e+00 -2.21174073e+00 -2.66113353e+00
      4.21456337e+00 -4.02900076e+00 2.33660889e+00 -1.00994527e+00
      -2.89678478e+00 -1.41729248e+00 3.45235348e+00 1.09936845e+00
      -6.06315255e-01 6.41193092e-01 -3.60028911e+00 4.99931860e+00
      2.61066532e+00 1.99337590e+00 -2.25615740e+00 -2.10916686e+00</_>
    <_>
      -1.73412538e+00 2.47219872e+00 2.46002126e+00 -2.26250458e+00
      3.57642829e-01 1.76822543e+00 1.04579771e+00 -3.99351925e-01
      -2.97468591e+00 3.24546838e+00 1.99036729e+00 -3.58222795e+00
      -7.64960051e-01 1.03767693e+00 7.47324586e-01 -7.39472926e-01
      -4.46762621e-01 -1.50350296e+00 3.02075356e-01 -2.26585373e-01
      3.72655421e-01 -1.47054791e+00 -2.52905846e-01 6.52506709e-01
      -6.10441029e-01 -8.11856568e-01 -1.26548326e+00 -6.37201428e-01
      1.21805835e+00 2.28551820e-01 -1.00691164e+00 1.62382603e+00
      2.83485115e-01 -3.44723254e-01 3.19518268e-01 4.13558781e-01
      2.91841209e-01 -3.87952983e-01 3.94842476e-01 -6.97126091e-02
      1.36942959e+00 -8.12597752e-01 -2.69906431e-01 -2.01139018e-01
      8.90815854e-01 1.37878686e-01 -5.66090524e-01 4.77258377e-02</_>
    <_>
      1.18730485e+00 2.27360892e+00 -1.43917513e+00 -5.24411023e-01
      2.26781964e+00 2.20745325e+00 -1.15184553e-01 -6.09968960e-01
      -9.21806991e-01 2.62946486e-01 2.35720921e+00 -3.09828103e-01
      -1.15369666e+00 1.25857651e+00 2.73974371e+00 4.38020885e-01
      1.55786705e+00 -1.10951757e+00 -3.00332326e-02 4.85909462e-01
      4.35930520e-01 -2.70133352e+00 -3.08581162e-02 5.55804610e-01
      4.13528085e-01 4.44578268e-02 -1.00468683e+00 4.05562609e-01
      -3.46675634e-01 -5.17355762e-02 -4.77578163e+00 -1.02738786e+00
      9.65756297e-01 -1.22140968e+00 2.73056626e-01 -4.64353770e-01
      1.92606246e+00 -6.90827370e-01 -1.69898510e+00 8.38458121e-01
      1.05635965e+00 1.85135829e+00 -3.25184345e+00 -3.85926723e-01
      -4.04185504e-01 -4.72938120e-01 -1.36497676e-01 -2.73364097e-01</_>
    <_>
      2.00285745e+00 -2.43425155e+00 8.47728789e-01 5.23207605e-01
      1.26063049e+00 -4.43987012e-01 1.46752608e+00 1.77904832e+00
      -1.78138173e+00 -4.78191227e-01 -2.27549601e+00 -2.24456358e+00
      -2.55494207e-01 1.44803607e+00 8.06810379e-01 9.50239480e-01
      4.36705977e-01 -1.27575052e+00 -1.70948124e+00 6.91210687e-01
      2.60634869e-01 -1.64377713e+00 1.05150783e+00 2.45791674e+00
      2.17092127e-01 -8.33744287e-01 -1.66908872e+00 2.36315906e-01
      2.08994842e+00 4.56706673e-01 -2.98869133e+00 7.98297524e-01
      -2.22276974e+00 -1.54072344e+00 7.23939419e-01 1.56188917e+00
      1.24651432e+00 -2.57893753e+00 1.58871651e+00 8.01108658e-01
      -1.38969243e-01 -1.77028298e-01 -1.77620971e+00 -8.98707006e-03
      4.54813510e-01 1.33971095e+00 -6.88452303e-01 3.50063778e-02</_>
    <_>
      -3.21232170e-01 -3.84333432e-01 -6.02295883e-02 1.09689140e+00
      7.63360322e-01 6.50224328e-01 1.20016134e+00 9.84078765e-01
      -6.50124431e-01 1.09861231e+00 1.53000534e+00 -1.73676538e+00
      -2.44236916e-01 8.84711027e-01 8.73800159e-01 -4.08800185e-01
      1.31999934e+00 -1.57164168e+00 1.57961392e+00 1.49572515e+00
      -3.39857936e-01 -2.45658827e+00 1.22977662e+00 7.36225963e-01
      9.71430242e-01 3.74665231e-01 -2.66425276e+00 4.69082415e-01
      -9.75005701e-02 1.10628140e+00 -3.34375906e+00 3.37992370e-01
      2.02649772e-01 -3.28442407e+00 2.22215220e-01 5.45915663e-01
      2.44802475e+00 -8.93603981e-01 7.96498179e-01 -3.42216313e-01
      6.22843206e-01 1.52717316e+00 -2.88410306e+00 1.21565080e+00
      1.24361503e+00 7.60986507e-01 -3.21165371e+00 1.34539163e+00</_>
    <_>
      4.04883432e+00 2.25530311e-01 -2.28408957e+00 2.13217020e+00
      3.57455879e-01 -1.55586016e+00 -1.19389021e+00 -2.34364405e-01
      1.33187675e+00 -1.30902672e+00 4.77220938e-02 3.25205660e+00
      -3.47891718e-01 -5.19134641e-01 -3.98764163e-01 4.58942503e-01
      8.79503489e-01 -5.55918872e-01 -1.17351902e+00 3.65201265e-01
      -5.13018310e-01 -1.18436503e+00 2.09090376e+00 8.60616386e-01
      2.96946436e-01 1.45781264e-01 -2.62351364e-01 3.65201265e-01
      -2.09825945e+00 1.39279616e+00 -1.27768314e+00 -7.87140489e-01
      3.16231757e-01 -1.34650850e+00 1.09642744e+00 -3.01471204e-01
      1.36431992e+00 -9.31108475e-01 -1.05533230e+00 -7.73962736e-01
      -1.05682337e+00 1.04806864e+00 -1.60023034e+00 -3.01507086e-01
      1.24894872e-01 -2.25719765e-01 -1.26398540e+00 6.56031847e-01</_>
    <_>
      1.19822025e+00 -2.96070027e+00 -1.03289258e+00 1.64404023e+00
      5.43947995e-01 -1.25141323e+00 3.50369513e-01 8.55649292e-01
      3.74625146e-01 -8.40920448e-01 -3.03220344e+00 5.45937121e-01
      6.53633118e-01 4.14380014e-01 -6.18339062e-01 4.76441979e-01
      4.51769054e-01 -1.19497311e+00 -9.46132243e-01 3.21932822e-01
      4.69876289e-01 -1.18346024e+00 8.46500456e-01 1.46306217e+00
      2.42439032e-01 -2.68648088e-01 -7.08197773e-01 1.44112080e-01
      4.51627076e-01 1.14463699e+00 -7.78814435e-01 1.94977652e-02
      -1.15914249e+00 -1.72635043e+00 1.31098449e-01 3.21257055e-01
      1.01487148e+00 -8.48805308e-01 3.29692215e-01 9.97652590e-01
      -6.09315336e-01 1.67137131e-01 -5.95656395e-01 7.97940433e-01
      6.53547525e-01 1.41996831e-01 1.31670237e-01 1.88731655e-01</_>
    <_>
      9.22867954e-01 -7.11734676e+00 -3.59807350e-02 1.74445438e+00
      -2.53294289e-01 -6.98253572e-01 3.68786955e+00 1.01858771e+00
      2.96000051e+00 -1.72194791e+00 -3.07512140e+00 4.30588579e+00
      2.20923305e-01 6.19001091e-01 -9.98512208e-01 -2.28605837e-01
      1.25578618e+00 3.63390267e-01 1.77728069e+00 1.39347625e+00
      -4.77674574e-01 -5.68561888e+00 2.23348594e+00 -7.03787088e-01
      2.12472305e-01 3.96819234e+00 9.54197884e-01 1.11907041e+00
      2.37296820e-01 1.67263114e+00 1.04347996e-01 -7.88119197e-01
      1.01408887e+00 -3.95787907e+00 2.91147923e+00 1.91875860e-01
      1.79547942e+00 -9.54994619e-01 -1.64274186e-01 3.39227051e-01
      1.16575348e+00 1.81571031e+00 -2.04086947e+00 -2.25027299e+00
      9.42323923e-01 1.36717033e+00 -5.10993814e+00 2.84077954e+00</_>
    <_>
      -2.47005725e+00 -3.91948175e+00 1.92230150e-01 2.29056931e+00
      -8.14505696e-01 -1.46330774e+00 1.05778730e+00 1.18475246e+00
      1.97206581e+00 -1.03729987e+00 -4.24528599e+00 -4.31105852e+00
      1.31924295e+00 -1.31889597e-01 -1.91338792e-01 -2.94287562e-01
      -3.28417242e-01 -9.71350789e-01 -8.40522349e-01 -2.63607919e-01
      -1.75702661e-01 -8.08490276e-01 -1.80278492e+00 2.24264169e+00
      2.95484573e-01 -1.65383554e+00 -1.00888468e-01 -3.17412376e-01
      2.68491244e+00 -8.31792831e-01 2.55712152e+00 1.05798614e+00
      -1.05208445e+00 1.03754497e+00 -8.46354723e-01 1.02161407e+00
      1.42735231e+00 -1.21578030e-01 1.55039024e+00 1.31865978e+00
      -7.59911180e-01 3.09314668e-01 2.15609264e+00 -1.19097853e+00
      5.95793486e-01 -7.63791129e-02 2.26051116e+00 -4.42091554e-01</_>
    <_>
      -4.75067234e+00 -4.32983112e+00 2.23889995e+00 5.13087559e+00
      -1.64069831e+00 -1.66402757e-01 8.41469169e-01 2.87904239e+00
      4.19869471e+00 2.46783331e-01 -1.23733521e+00 -5.59880924e+00
      1.74928224e+00 -7.77592838e-01 -2.30036807e+00 -1.23607886e+00
      1.50580144e+00 2.36861730e+00 8.89314562e-02 6.73949480e-01
      -1.47883356e+00 3.39764833e+00 -3.70066476e+00 6.72213435e-01
      6.87443554e-01 1.94463253e+00 2.02011037e+00 1.39221549e+00
      7.05365062e-01 -3.92810988e+00 2.94214463e+00 1.40379620e+00
      3.99096340e-01 -9.74823833e-01 -2.06627917e+00 2.96704459e+00
      1.58676648e+00 6.64355457e-01 1.19741237e+00 -1.14911413e+00
      3.10929883e-02 -1.41092026e+00 2.33074456e-01 1.10657346e+00
      1.84601879e+00 1.83700275e+00 -1.89388835e+00 -1.16223466e+00</_>
    <_>
      -2.51734829e+00 -3.61210033e-02 1.38772631e+00 1.13546097e+00
      5.00790215e+00 1.81368434e+00 -1.12980719e+01 8.20710945e+00
      5.46482658e+00 -3.20184946e+00 8.78707886e+00 -1.11802924e+00
      1.71435487e+00 -2.36561894e+00 -9.00101960e-01 3.03047395e+00
      2.48563576e+00 3.62665820e+00 5.69745541e+00 -7.26345778e-02
      2.59902620e+00 9.99016571e+00 -1.80479181e+00 -8.09668446e+00
      -2.93553734e+00 8.17630959e+00 4.01911765e-01 6.02356195e+00
      -7.81277299e-01 1.17585409e+00 -1.98921514e+00 -7.00231791e-01
      7.10277748e+00 -7.51252413e+00 3.64218354e+00 -7.66820550e-01
      2.80118203e+00 5.89309573e-01 5.28448915e+00 -3.52785444e+00
      1.04978333e+01 -4.53785038e+00 -6.58064508e+00 -1.19816053e+00
      3.27774739e+00 4.03253603e+00 -1.11264896e+01 5.61059618e+00</_></support_vectors>
  <uncompressed_sv_total>400</uncompressed_sv_total>
  <uncompressed_support_vectors>
    <_>
      3.61960918e-01 3.61960918e-01 1.19973846e-01 1.03534877e-01
      3.61960918e-01 3.61960918e-01 9.78909209e-02 6.31239116e-02
      3.61960918e-01 3.61960918e-01 2.75741339e-01 1.91177800e-01
      1.87640682e-01 1.33892968e-01 2.26509776e-02 7.33308792e-02
      3.73966634e-01 3.73966634e-01 2.24035159e-01 1.25661388e-01
      1.92144766e-01 2.81335860e-01 1.87545702e-01 1.04039945e-01
      1.89097196e-01 1.44251660e-01 5.47176637e-02 1.83343962e-01
      2.99125642e-01 3.44747126e-01 2.92001724e-01 3.18975061e-01
      2.22778365e-01 1.67402878e-01 1.30226865e-01 1.79171696e-01
      2.92374164e-01 1.87848389e-01 2.82835484e-01 2.92374164e-01
      2.92374164e-01 2.25587711e-01 1.86942935e-01 2.66202897e-01
      2.92374164e-01 2.92374164e-01 2.92374164e-01 2.92374164e-01</_>
    <_>
      3.64640236e-01 3.64640236e-01 3.64640236e-01 9.20802727e-02
      4.20627072e-02 7.58126453e-02 4.22205478e-02 1.96449831e-02
      3.64640236e-01 3.64640236e-01 3.64640236e-01 3.64640236e-01
      6.02719411e-02 7.33659193e-02 9.84853059e-02 1.69530481e-01
      1.03630751e-01 2.53896210e-02 4.45512123e-02 1.94427311e-01
      3.13015193e-01 1.61453187e-02 3.98122966e-02 3.85123700e-01
      3.82475197e-01 2.36461312e-01 8.22625831e-02 1.77563295e-01
      3.85123700e-01 3.85123700e-01 1.06674895e-01 3.85123700e-01
      1.81184933e-01 4.75433422e-03 9.66663286e-03 2.00596586e-01
      1.89689174e-01 7.89325777e-03 9.14114621e-03 2.44675353e-01
      4.05298084e-01 1.50088087e-01 4.87181209e-02 4.05298084e-01
      4.05298084e-01 3.71102989e-01 8.42072442e-02 4.05298084e-01</_>
    <_>
      3.33308578e-01 3.33308578e-01 1.84113160e-01 2.22148359e-01
      3.33308578e-01 2.89718509e-01 5.47255650e-02 7.97512904e-02
      3.33308578e-01 2.93391675e-01 3.33308578e-01 3.33308578e-01
      1.05874054e-01 1.39371883e-02 2.93998849e-02 2.34980807e-01
      3.59853148e-01 3.59853148e-01 1.42652869e-01 1.57085851e-01
      1.68958217e-01 1.32677987e-01 3.59853148e-01 3.59853148e-01
      3.26992720e-01 3.67932953e-02 1.29494786e-01 3.59853148e-01
      1.84455112e-01 2.46455800e-02 5.11386208e-02 3.08972389e-01
      1.58423647e-01 8.26701447e-02 3.72465998e-01 4.16175693e-01
      4.16175693e-01 1.53574407e-01 4.16175693e-01 4.16175693e-01
      5.79700656e-02 1.21921552e-02 1.09834038e-02 5.37736118e-02
      2.02064991e-01 4.31401320e-02 8.46689120e-02 2.28918716e-01</_>
    <_>
      3.49697500e-01 3.49697500e-01 9.88682732e-02 7.40681812e-02
      3.49697500e-01 3.49697500e-01 1.11582614e-01 5.00272363e-02
      3.49697500e-01 3.49697500e-01 1.57502592e-01 3.49697500e-01
      1.83995798e-01 1.66447744e-01 7.38490596e-02 1.35842875e-01
      5.21306694e-01 5.21306694e-01 4.54191208e-01 1.72058076e-01
      1.41404271e-01 8.61694068e-02 1.07134566e-01 2.39434823e-01
      1.64608195e-01 1.51262745e-01 1.39351800e-01 2.04140946e-01
      7.67311454e-02 3.14835384e-02 1.36627108e-02 3.18964049e-02
      2.34321073e-01 4.07189280e-02 1.24674402e-01 3.62081021e-01
      3.62081021e-01 4.12452519e-02 1.06685504e-01 3.62081021e-01
      3.26047093e-01 1.29271701e-01 3.15446593e-02 9.61935744e-02
      3.62081021e-01 3.45602602e-01 5.45050390e-02 3.62081021e-01</_>
    <_>
      3.40494692e-01 3.40494692e-01 1.67259753e-01 1.15182936e-01
      3.40494692e-01 3.40494692e-01 1.76499650e-01 7.89797530e-02
      3.40494692e-01 3.40494692e-01 2.14417681e-01 3.40494692e-01
      1.43278599e-01 1.29516169e-01 9.20051187e-02 1.21101588e-01
      3.84072810e-01 3.84072810e-01 3.84072810e-01 1.72442853e-01
      1.56915233e-01 4.84084263e-02 5.08477762e-02 2.49680132e-01
      9.31967571e-02 9.85812768e-02 1.13051467e-01 1.26404151e-01
      3.84072810e-01 1.98832452e-01 2.24228546e-01 3.84072810e-01
      1.13325365e-01 1.56615898e-02 2.42085066e-02 1.87710240e-01
      1.69660643e-01 1.13023249e-02 3.10408045e-02 2.73623765e-01
      3.31417531e-01 3.31417531e-01 3.31417531e-01 3.31417531e-01
      3.31417531e-01 3.31417531e-01 2.72342682e-01 3.31417531e-01</_>
    <_>
      3.34436029e-01 3.34436029e-01 1.08971789e-01 1.04261056e-01
      3.34436029e-01 3.34436029e-01 7.80352205e-02 8.00065696e-02
      3.34436029e-01 3.34436029e-01 1.89764410e-01 3.34436029e-01
      2.60847718e-01 1.19325183e-01 6.32102564e-02 2.37074390e-01
      4.45299864e-01 4.45299864e-01 2.26040334e-01 1.92597777e-01
      2.27185488e-01 1.75985366e-01 4.98518534e-02 6.05861880e-02
      3.51431489e-01 1.36978954e-01 1.18133307e-01 4.45299864e-01
      1.00067750e-01 1.23012196e-02 3.87633294e-02 2.36342430e-01
      2.33591318e-01 1.63623244e-01 1.71158522e-01 2.02327386e-01
      3.06558579e-01 3.06558579e-01 3.06558579e-01 3.06558579e-01
      1.75427020e-01 1.04517780e-01 1.22227103e-01 1.92104623e-01
      3.06558579e-01 3.06558579e-01 3.06558579e-01 3.06558579e-01</_>
    <_>
      3.33702415e-01 3.33702415e-01 8.41557086e-02 1.69892207e-01
      3.33702415e-01 3.33702415e-01 6.21827655e-02 1.45178348e-01
      3.33702415e-01 3.33702415e-01 1.94168508e-01 3.33702415e-01
      2.58954436e-01 8.61027464e-02 2.93460879e-02 2.07946762e-01
      4.28728163e-01 4.28728163e-01 2.48088583e-01 2.16729999e-01
      1.57595873e-01 1.57870501e-01 6.70234039e-02 9.49522629e-02
      4.25404429e-01 8.01006332e-02 1.22141190e-01 4.28728163e-01
      1.31979212e-01 1.01182079e-02 7.46197924e-02 2.17056930e-01
      2.78203815e-01 5.73670268e-02 2.17041716e-01 3.60671043e-01
      3.60671043e-01 3.61940861e-02 3.60671043e-01 3.60671043e-01
      1.99939579e-01 3.69570740e-02 8.33764374e-02 2.62324601e-01
      3.60671043e-01 1.72086179e-01 2.88928449e-02 2.63281286e-01</_>
    <_>
      3.64450902e-01 3.64450902e-01 1.21618003e-01 1.03710152e-01
      3.64450902e-01 3.64450902e-01 1.91945300e-01 7.49469697e-02
      3.64450902e-01 3.64450902e-01 1.86536416e-01 1.50196120e-01
      2.13013381e-01 1.46707684e-01 2.20428817e-02 8.16506371e-02
      4.43218052e-01 4.43218052e-01 4.43218052e-01 1.47279039e-01
      1.37866691e-01 2.86164805e-02 6.02347665e-02 2.16919452e-01
      3.79734874e-01 1.35943070e-01 5.81004061e-02 3.23918253e-01
      1.23096079e-01 1.47957085e-02 3.60629670e-02 1.62470117e-01
      3.61550242e-01 1.77532677e-02 1.29535034e-01 3.61550242e-01
      3.61550242e-01 1.47031657e-02 1.33337706e-01 3.61550242e-01
      1.63054481e-01 6.87227473e-02 4.38417718e-02 1.38401881e-01
      3.61550242e-01 3.61550242e-01 3.25687900e-02 3.51481557e-01</_>
    <_>
      3.68202299e-01 3.68202299e-01 3.07499290e-01 2.89850775e-02
      2.84863859e-01 3.68202299e-01 1.28130570e-01 2.24796645e-02
      3.68202299e-01 3.68202299e-01 2.66391277e-01 1.19599253e-01
      1.37218609e-01 8.30723867e-02 4.31002900e-02 1.10158235e-01
      3.11743945e-01 3.11743945e-01 1.55880302e-01 2.54401058e-01
      3.11743945e-01 1.07446304e-02 9.82939266e-03 3.11743945e-01
      3.11743945e-01 7.04868659e-02 2.63083845e-01 3.11743945e-01
      3.11743945e-01 1.80549577e-01 1.52971745e-01 3.11743945e-01
      2.01314747e-01 8.88631493e-03 6.27435138e-03 1.80440143e-01
      1.68649554e-01 1.25337511e-01 5.19861430e-02 1.02386296e-01
      3.16498339e-01 1.22822426e-01 5.13798706e-02 2.62102336e-01
      4.50975001e-01 4.50975001e-01 4.50975001e-01 2.61196911e-01</_>
    <_>
      3.21006715e-01 3.21006715e-01 3.21006715e-01 6.33532777e-02
      3.21006715e-01 3.21006715e-01 1.96638033e-01 7.82535747e-02
      3.21006715e-01 3.21006715e-01 3.21006715e-01 2.76410550e-01
      9.30725262e-02 1.72510415e-01 8.71989131e-02 3.46047841e-02
      3.49580854e-01 3.49580854e-01 2.65970677e-01 3.49580854e-01
      2.58669674e-01 1.38979360e-01 1.16043486e-01 2.50542343e-01
      3.01932991e-01 2.48084404e-02 1.87894814e-02 2.91045338e-01
      3.49580854e-01 5.20710647e-02 2.09700875e-02 3.07386607e-01
      1.85541749e-01 5.00336923e-02 7.73585588e-02 2.37989172e-01
      2.95791119e-01 1.58488899e-02 3.34757626e-01 3.42034906e-01
      3.42034906e-01 1.24060050e-01 1.32109793e-02 2.34774724e-01
      3.42034906e-01 3.42034906e-01 2.03960598e-01 3.42034906e-01</_>
    <_>
      3.48086178e-01 3.48086178e-01 3.48086178e-01 3.48086178e-01
      6.05545975e-02 2.90174335e-02 2.08811555e-02 5.26498333e-02
      3.38755935e-01 3.48086178e-01 3.48086178e-01 3.48086178e-01
      8.01069513e-02 2.97542918e-03 3.80281918e-02 1.34274140e-01
      3.27487439e-01 1.14508621e-01 1.96114793e-01 3.59061420e-01
      3.59061420e-01 1.97979901e-02 3.25929999e-01 3.59061420e-01
      3.59061420e-01 2.40197778e-02 1.66551679e-01 3.59061420e-01
      1.71667710e-01 4.95434739e-02 5.00230007e-02 1.53624356e-01
      3.27327132e-01 1.08960643e-02 1.75602362e-01 3.97147983e-01
      3.97147983e-01 3.00286412e-02 3.97147983e-01 3.97147983e-01
      1.18030377e-01 4.01898921e-02 1.07994778e-02 7.11591840e-02
      3.45493197e-01 1.03244647e-01 4.59511839e-02 2.70672768e-01</_>
    <_>
      3.37934703e-01 2.20069185e-01 3.37934703e-01 3.37934703e-01
      2.23260209e-01 9.70294774e-02 5.37460111e-02 1.46675959e-01
      2.16467455e-01 3.37934703e-01 3.37934703e-01 3.37934703e-01
      1.28725901e-01 1.54179841e-01 2.33513534e-01 1.93914905e-01
      3.35520953e-01 2.42192268e-01 1.48415312e-01 3.35520953e-01
      3.14071178e-01 1.03786379e-01 9.34059620e-02 2.82371074e-01
      3.35520953e-01 1.62654117e-01 2.85518244e-02 2.54699975e-01
      3.35520953e-01 2.50077635e-01 2.32142564e-02 3.35520953e-01
      1.40016079e-01 4.58396673e-02 4.80072759e-02 1.36418432e-01
      1.67840615e-01 1.86272860e-02 8.75956640e-02 2.43663520e-01
      4.06248301e-01 1.75164521e-01 1.62204392e-02 4.06248301e-01
      4.06248301e-01 4.06248301e-01 4.03080247e-02 4.06248301e-01</_>
    <_>
      3.19399923e-01 3.19399923e-01 1.79649442e-01 3.19399923e-01
      3.19399923e-01 3.16815764e-01 9.03956369e-02 1.63349420e-01
      2.75764853e-01 1.41897127e-01 3.19399923e-01 3.19399923e-01
      6.00435957e-02 7.14159682e-02 2.38309696e-01 2.35652626e-01
      3.69754881e-01 3.69754881e-01 3.69754881e-01 3.69754881e-01
      2.87074983e-01 1.83537498e-01 1.08270332e-01 2.33169794e-01
      1.31810352e-01 4.82902303e-02 2.81247407e-01 3.69754881e-01
      1.31530151e-01 3.98915671e-02 2.80191079e-02 1.09732702e-01
      2.10009798e-01 5.79469688e-02 8.70214775e-02 2.52621204e-01
      3.44186634e-01 3.36544178e-02 3.44186634e-01 3.44186634e-01
      3.44186634e-01 1.05669595e-01 2.56185085e-02 2.61227220e-01
      3.44186634e-01 2.90323526e-01 3.79456356e-02 3.44186634e-01</_>
    <_>
      3.07826221e-01 3.05050135e-01 3.07826221e-01 3.07826221e-01
      1.84467688e-01 4.79135253e-02 3.93647328e-02 1.65073738e-01
      2.60712594e-01 2.24517450e-01 3.07826221e-01 3.07826221e-01
      2.37684935e-01 2.39472501e-02 3.07826221e-01 3.07826221e-01
      3.79240781e-01 9.69147012e-02 2.08776891e-02 3.01488042e-01
      2.21843973e-01 6.60389960e-02 8.47353041e-03 1.19934663e-01
      3.79240781e-01 5.77057339e-02 3.79240781e-01 3.79240781e-01
      1.21726528e-01 5.57377711e-02 2.95099854e-01 3.79240781e-01
      2.59815216e-01 9.42511410e-02 2.90741343e-02 1.60624340e-01
      2.22880065e-01 2.05519833e-02 1.28232941e-01 3.32420141e-01
      3.51548284e-01 1.80322811e-01 1.90878719e-01 3.34323287e-01
      3.69956821e-01 3.69956821e-01 3.62347625e-02 3.69956821e-01</_>
    <_>
      2.78768688e-01 2.75893718e-01 3.46029997e-01 3.46029997e-01
      9.84126702e-02 1.77627057e-02 1.18512534e-01 2.01625660e-01
      1.31328255e-01 1.62489489e-01 3.46029997e-01 3.46029997e-01
      1.23488963e-01 2.63552256e-02 3.46029997e-01 3.46029997e-01
      2.89131016e-01 3.65880840e-02 6.70952424e-02 3.14885408e-01
      1.88799024e-01 4.61394601e-02 1.04236035e-02 1.35404065e-01
      3.11910272e-01 7.14176372e-02 4.63849217e-01 4.63849217e-01
      1.18877120e-01 7.49618337e-02 2.84219801e-01 3.42530936e-01
      2.29845881e-01 7.84494579e-02 4.73540463e-02 1.80542380e-01
      2.27735460e-01 3.39805037e-02 1.78669497e-01 3.64297479e-01
      3.64297479e-01 2.32345521e-01 1.34331524e-01 2.82296121e-01
      3.64297479e-01 3.64297479e-01 4.81060445e-02 3.64297479e-01</_>
    <_>
      1.48008183e-01 3.28863353e-01 3.53371233e-01 3.53371233e-01
      5.71084730e-02 2.75484063e-02 1.84582815e-01 2.20778391e-01
      4.24654596e-02 1.52720347e-01 3.53371233e-01 3.53371233e-01
      4.59739491e-02 5.57661541e-02 3.53371233e-01 3.53371233e-01
      2.73948014e-01 5.20516112e-02 1.32706523e-01 3.69647354e-01
      1.83465928e-01 6.07887432e-02 1.68710314e-02 1.16441414e-01
      2.11061522e-01 1.44342497e-01 4.90426064e-01 4.90426064e-01
      1.48819134e-01 7.33364820e-02 2.22670078e-01 2.97274053e-01
      1.75635651e-01 8.01660866e-02 5.50978743e-02 1.29233509e-01
      2.49358609e-01 3.67046818e-02 2.34757170e-01 3.64999324e-01
      3.64999324e-01 2.18766913e-01 9.55889672e-02 3.38056862e-01
      3.64999324e-01 3.40280533e-01 2.71373447e-02 3.64999324e-01</_>
    <_>
      6.78439960e-02 3.34699988e-01 3.54395002e-01 3.54395002e-01
      9.02950540e-02 1.33401314e-02 5.36761358e-02 1.32555500e-01
      5.72229363e-02 3.54395002e-01 3.54395002e-01 3.54395002e-01
      6.72383383e-02 9.07299817e-02 3.38585734e-01 3.03977430e-01
      3.32914472e-01 3.50249000e-02 9.44751799e-02 3.32914472e-01
      3.32914472e-01 2.47006193e-02 1.67431995e-01 3.32914472e-01
      2.44203120e-01 1.27724215e-01 3.32914472e-01 3.32914472e-01
      3.32914472e-01 1.28412619e-01 5.58738001e-02 2.94097185e-01
      2.91004896e-01 1.01799173e-02 1.83483183e-01 3.56560230e-01
      3.56560230e-01 1.52014643e-01 3.56560230e-01 3.56560230e-01
      2.34945342e-01 6.17180765e-02 1.48802903e-02 1.63476974e-01
      3.56560230e-01 1.57728523e-01 4.43280749e-02 3.26192826e-01</_>
    <_>
      3.24872822e-01 3.24872822e-01 1.99688911e-01 2.19284162e-01
      3.24872822e-01 3.18453044e-01 1.17405672e-02 1.79252997e-01
      3.24872822e-01 3.24872822e-01 3.24872822e-01 3.24872822e-01
      1.30922228e-01 2.12132763e-02 3.60581800e-02 1.31998420e-01
      3.52804095e-01 3.52804095e-01 2.45786551e-02 3.52804095e-01
      3.52804095e-01 9.35585052e-02 5.01917005e-02 3.52804095e-01
      3.52804095e-01 3.74320894e-02 1.02982707e-01 3.52804095e-01
      1.75254658e-01 3.65207791e-02 1.11517943e-01 2.38353953e-01
      3.89903724e-01 7.25218281e-02 6.75885528e-02 3.89903724e-01
      3.70176166e-01 2.20022112e-01 8.07399154e-02 2.84066826e-01
      1.80689007e-01 1.15765445e-01 5.59728444e-02 1.03544302e-01
      3.89903724e-01 3.89903724e-01 1.51204869e-01 1.50854096e-01</_>
    <_>
      1.56218365e-01 2.77799457e-01 3.60786051e-01 3.60786051e-01
      8.36018994e-02 2.39625070e-02 1.49302974e-01 2.00007632e-01
      6.57408834e-02 1.58437237e-01 3.60786051e-01 3.60786051e-01
      8.11433345e-02 8.91793072e-02 3.60786051e-01 3.60786051e-01
      3.59553605e-01 7.63883740e-02 1.00028515e-01 3.70489031e-01
      2.00087398e-01 7.55312145e-02 1.52906422e-02 1.22899510e-01
      2.94055670e-01 1.92090198e-01 4.36031431e-01 4.36031431e-01
      1.89415544e-01 9.33086574e-02 1.80004433e-01 2.67551959e-01
      1.52276650e-01 6.44420534e-02 3.61264013e-02 1.20952964e-01
      2.25904852e-01 4.47698869e-02 1.94504112e-01 3.77109110e-01
      3.77109110e-01 2.30571941e-01 6.25625998e-02 3.05394560e-01
      3.77109110e-01 3.77109110e-01 2.62285918e-02 3.77109110e-01</_>
    <_>
      3.14110428e-01 3.14110428e-01 2.36878365e-01 3.03612769e-01
      3.14110428e-01 2.23717555e-01 1.16277970e-02 1.99272439e-01
      3.14110428e-01 3.14110428e-01 3.14110428e-01 3.14110428e-01
      1.44019589e-01 5.90392435e-03 6.06895871e-02 2.08704934e-01
      3.41982782e-01 3.41982782e-01 2.58294344e-02 3.41982782e-01
      3.41982782e-01 6.98506758e-02 1.64847914e-02 3.41982782e-01
      3.41982782e-01 2.72998437e-02 1.88061595e-01 3.41982782e-01
      2.09654003e-01 5.04768118e-02 1.43763393e-01 2.62329131e-01
      3.60703677e-01 2.59124916e-02 7.27145150e-02 3.60703677e-01
      3.60703677e-01 2.07737431e-01 1.14520878e-01 3.60703677e-01
      2.11592510e-01 7.06276447e-02 1.12113982e-01 2.13033110e-01
      3.60703677e-01 3.60703677e-01 5.72775900e-02 2.06232324e-01</_>
    <_>
      3.11570644e-01 3.11570644e-01 1.78450868e-01 3.11570644e-01
      3.11570644e-01 1.35280386e-01 1.48868132e-02 1.73398867e-01
      3.11570644e-01 2.30856001e-01 3.11570644e-01 3.11570644e-01
      1.88773438e-01 1.23827979e-02 2.25297526e-01 3.11570644e-01
      3.51802349e-01 3.51802349e-01 2.01024972e-02 3.51802349e-01
      2.46486098e-01 1.13465428e-01 9.48511995e-03 1.01899542e-01
      3.51802349e-01 3.21314447e-02 3.51802349e-01 3.51802349e-01
      1.49825782e-01 5.93561828e-02 2.12172091e-01 3.12038541e-01
      1.27091154e-01 5.12331799e-02 1.92081220e-02 7.34000504e-02
      1.52638987e-01 2.36203261e-02 4.34215479e-02 1.99136853e-01
      3.75993937e-01 2.40094706e-01 1.06670566e-01 2.09533393e-01
      4.64480460e-01 4.64480460e-01 6.24785125e-02 4.64480460e-01</_>
    <_>
      3.15978020e-01 3.15978020e-01 2.40669161e-01 2.88018107e-01
      2.41728768e-01 1.16956897e-01 7.78118474e-03 1.06140025e-01
      3.15978020e-01 3.15978020e-01 3.15978020e-01 3.15978020e-01
      2.47781321e-01 2.11491268e-02 1.08587034e-01 3.15978020e-01
      3.64749134e-01 2.70368725e-01 1.81212742e-02 2.92037785e-01
      1.65134624e-01 6.51580021e-02 2.28296667e-02 1.03595659e-01
      3.64749134e-01 6.10313229e-02 3.64749134e-01 3.64749134e-01
      1.97763517e-01 1.20227702e-01 2.69024760e-01 3.64749134e-01
      1.93729177e-01 6.66052178e-02 9.15215835e-02 2.35228613e-01
      3.29365015e-01 2.97051538e-02 9.82048213e-02 3.29365015e-01
      3.29365015e-01 2.49618620e-01 2.37472042e-01 3.29365015e-01
      3.29365015e-01 3.16885561e-01 1.02468885e-01 3.29365015e-01</_>
    <_>
      1.94541872e-01 3.26615691e-01 3.59011859e-01 3.59011859e-01
      4.01475094e-02 1.39730601e-02 1.17689885e-01 1.39573231e-01
      7.36272857e-02 1.62208155e-01 3.59011859e-01 3.59011859e-01
      8.86955261e-02 6.17554747e-02 3.59011859e-01 3.59011859e-01
      2.00909615e-01 8.94906465e-03 6.08583912e-02 2.52193779e-01
      1.35293573e-01 1.98129900e-02 1.06568122e-02 1.22019000e-01
      3.82962286e-01 2.09067062e-01 4.83712047e-01 4.83712047e-01
      2.11308405e-01 1.33571699e-01 2.37217978e-01 2.76822448e-01
      1.28003076e-01 3.61635722e-02 6.08598217e-02 1.54380351e-01
      3.39379102e-01 9.12464112e-02 3.39379102e-01 3.39379102e-01
      3.39379102e-01 1.82725474e-01 6.67065233e-02 3.28347415e-01
      3.39379102e-01 3.24120551e-01 3.57748270e-02 3.39379102e-01</_>
    <_>
      9.24765095e-02 2.78205484e-01 3.63778800e-01 3.63778800e-01
      1.04710445e-01 3.08182519e-02 1.09628096e-01 1.76489666e-01
      3.47623937e-02 2.18885228e-01 3.63778800e-01 3.63778800e-01
      4.80248444e-02 9.94926840e-02 3.63778800e-01 3.63778800e-01
      3.82583410e-01 1.79199412e-01 8.14505443e-02 3.82583410e-01
      3.03794801e-01 1.63778976e-01 4.71822321e-02 2.12810352e-01
      2.27635160e-01 1.97006598e-01 3.82583410e-01 3.82583410e-01
      2.42639661e-01 6.49025142e-02 6.92718700e-02 2.16350317e-01
      2.72312820e-01 1.02440715e-01 9.73140895e-02 2.94158131e-01
      3.35188508e-01 1.41965210e-01 3.35188508e-01 3.35188508e-01
      3.35188508e-01 7.58494213e-02 1.34439478e-02 3.35188508e-01
      3.35188508e-01 5.84126674e-02 6.63500605e-03 3.35188508e-01</_>
    <_>
      1.55344829e-01 3.45197409e-01 3.55027765e-01 3.55027765e-01
      4.59230803e-02 1.59136411e-02 9.20507312e-02 1.17912233e-01
      5.43312505e-02 2.29005128e-01 3.55027765e-01 3.55027765e-01
      9.25600156e-02 9.04988572e-02 3.55027765e-01 3.55027765e-01
      2.99015105e-01 1.54145267e-02 3.90268415e-02 3.30996782e-01
      3.09165388e-01 3.23673412e-02 1.27074532e-02 3.08292717e-01
      3.71877909e-01 1.81006178e-01 3.71877909e-01 3.71877909e-01
      2.07456231e-01 1.13018975e-01 1.79519698e-01 2.60838807e-01
      3.28927904e-01 3.13728824e-02 2.77048722e-02 3.28927904e-01
      3.28927904e-01 1.36602232e-02 2.30540186e-01 3.28927904e-01
      3.28927904e-01 1.61394760e-01 6.51762336e-02 3.08105171e-01
      3.28927904e-01 2.36172780e-01 5.71733750e-02 3.28927904e-01</_>
    <_>
      1.76753791e-03 1.23855183e-02 1.15609095e-02 1.56871520e-03
      3.23874921e-01 3.23874921e-01 3.23874921e-01 3.23874921e-01
      3.23874921e-01 6.37297183e-02 2.42982823e-02 2.18551457e-01
      3.23874921e-01 3.23874921e-01 3.23874921e-01 3.23874921e-01
      2.94434577e-01 2.94434577e-01 2.94434577e-01 2.94434577e-01
      1.78941786e-01 1.16039775e-01 1.52502909e-01 1.88425645e-01
      2.94434577e-01 2.75480956e-01 2.94434577e-01 2.94434577e-01
      2.94434577e-01 1.43110216e-01 1.27339080e-01 2.94434577e-01
      1.56050816e-01 1.04832865e-01 1.14950739e-01 2.65703470e-01
      2.04101205e-01 7.28239678e-03 2.71928497e-02 2.93162614e-01
      3.75699610e-01 3.00833762e-01 2.27431059e-01 3.75699610e-01
      3.75699610e-01 1.98225141e-01 5.07820323e-02 3.75699610e-01</_>
    <_>
      1.78691849e-01 1.82739887e-02 1.19067151e-02 1.76305056e-01
      3.08645546e-01 2.56738961e-01 2.48386979e-01 2.26675645e-01
      3.74792278e-01 7.51124695e-02 8.42717513e-02 3.74792278e-01
      3.74792278e-01 1.87836856e-01 2.20471144e-01 3.74792278e-01
      2.88230747e-01 2.88230747e-01 2.88230747e-01 2.50359178e-01
      2.12153986e-01 2.88230747e-01 2.73368806e-01 1.28071353e-01
      2.88230747e-01 2.84545392e-01 2.88230747e-01 2.88230747e-01
      1.87458888e-01 1.19209163e-01 1.71221673e-01 2.39007637e-01
      1.56508073e-01 2.84519672e-01 2.46200904e-01 2.33655766e-01
      2.71543145e-01 2.04757005e-01 3.11831921e-01 3.11831921e-01
      1.84454501e-01 3.63080539e-02 1.58769682e-01 3.11831921e-01
      3.11831921e-01 3.11831921e-01 3.11831921e-01 1.28772721e-01</_>
    <_>
      2.01554984e-01 8.07255656e-02 2.28282794e-01 3.25135201e-01
      2.26965249e-01 2.36785188e-01 3.25135201e-01 3.25135201e-01
      2.25277394e-01 2.78973170e-02 2.13758782e-01 3.25135201e-01
      2.19065443e-01 1.02121405e-01 3.25135201e-01 3.25135201e-01
      3.41554850e-01 3.56740385e-01 3.56740385e-01 3.56740385e-01
      5.44215962e-02 5.50944358e-02 4.25842926e-02 5.67366332e-02
      2.91165471e-01 2.23578051e-01 3.56740385e-01 3.56740385e-01
      5.36458120e-02 2.50837784e-02 1.34715870e-01 2.75695533e-01
      1.94951355e-01 8.36838707e-02 1.74044400e-01 3.52556258e-01
      3.52556258e-01 3.58452462e-02 3.07164818e-01 3.52556258e-01
      1.27054423e-01 4.49993871e-02 2.88400561e-01 3.52556258e-01
      2.97747642e-01 2.89030969e-01 1.61654994e-01 1.69383481e-01</_>
    <_>
      3.11894745e-01 6.85762018e-02 6.80950582e-02 2.45413706e-01
      3.26278180e-01 2.22646341e-01 3.26278180e-01 3.26278180e-01
      3.26278180e-01 4.25210670e-02 3.69337089e-02 3.26278180e-01
      3.26278180e-01 8.49581882e-02 1.57259852e-01 3.26278180e-01
      3.30703706e-01 3.16626757e-01 3.30703706e-01 3.30703706e-01
      5.60221076e-02 7.77961463e-02 9.74536762e-02 7.69218579e-02
      3.30703706e-01 1.71823457e-01 3.30703706e-01 3.30703706e-01
      1.03603378e-01 5.37962988e-02 2.51261979e-01 3.30703706e-01
      1.09491065e-01 1.04822189e-01 1.84332922e-01 2.80764610e-01
      2.00952828e-01 1.23128854e-01 4.18011010e-01 4.18011010e-01
      1.62623495e-01 3.40867303e-02 3.76115829e-01 4.18011010e-01
      1.71080083e-01 7.29556531e-02 8.21795911e-02 2.64353335e-01</_>
    <_>
      2.43881047e-01 2.94016935e-02 8.82037077e-03 1.37287065e-01
      3.47453147e-01 2.25269035e-01 3.47453147e-01 3.25729698e-01
      3.47453147e-01 1.00769922e-01 3.85739766e-02 3.47453147e-01
      3.47453147e-01 8.50139931e-02 1.31158933e-01 3.47453147e-01
      3.11136216e-01 3.11136216e-01 3.11136216e-01 3.11136216e-01
      1.30293608e-01 1.19887054e-01 2.30550304e-01 1.39878049e-01
      3.11136216e-01 1.35994241e-01 2.76303560e-01 3.11136216e-01
      2.73308814e-01 9.09496248e-02 1.93324968e-01 3.11136216e-01
      9.57958028e-02 9.45318490e-02 1.55311897e-01 1.59276351e-01
      1.41592860e-01 7.71939382e-02 3.95042002e-01 3.95042002e-01
      3.95042002e-01 6.87727332e-02 2.47835889e-01 3.95042002e-01
      2.09333181e-01 1.89753473e-02 1.08713582e-01 3.95042002e-01</_>
    <_>
      3.36606801e-01 1.23764500e-01 4.12978902e-02 3.36606801e-01
      3.36606801e-01 1.90216929e-01 1.10195898e-01 3.36606801e-01
      3.24532628e-01 3.57009135e-02 2.29468774e-02 2.98727155e-01
      3.36606801e-01 1.82134271e-01 1.83388904e-01 3.18751603e-01
      2.83130497e-01 2.83130497e-01 1.81179300e-01 2.83130497e-01
      2.69662917e-01 2.07769632e-01 8.05271715e-02 1.45649001e-01
      2.83130497e-01 2.83130497e-01 2.83130497e-01 2.83130497e-01
      1.86068624e-01 2.54308641e-01 2.83130497e-01 2.83130497e-01
      2.74600387e-01 2.44241551e-01 3.29002365e-02 8.06505233e-02
      1.97209939e-01 2.98898786e-01 2.98898786e-01 2.98898786e-01
      2.11479485e-01 2.89828777e-01 2.98898786e-01 2.98898786e-01
      2.98898786e-01 2.98898786e-01 2.03271195e-01 1.41591877e-01</_>
    <_>
      3.74133945e-01 5.37415892e-02 1.65293396e-01 3.74133945e-01
      3.74133945e-01 2.48389114e-02 2.39647195e-01 3.74133945e-01
      2.09264055e-01 5.60307316e-03 5.40072322e-02 2.81237334e-01
      2.72873849e-01 9.51278582e-03 9.02664140e-02 3.73586327e-01
      2.82469600e-01 9.89259109e-02 2.71838486e-01 2.82469600e-01
      2.82469600e-01 2.65634358e-01 2.24883988e-01 2.82469600e-01
      2.05213264e-01 1.47366598e-01 2.80690104e-01 2.82469600e-01
      1.06917687e-01 2.82469600e-01 2.82469600e-01 2.82469600e-01
      3.14197123e-01 3.14197123e-01 3.03527772e-01 2.37054855e-01
      9.08101201e-02 2.78738678e-01 3.14197123e-01 3.14197123e-01
      1.16261415e-01 3.14197123e-01 3.14197123e-01 3.14197123e-01
      1.42564952e-01 1.48492217e-01 9.36432108e-02 8.30380991e-02</_>
    <_>
      3.74552459e-01 4.74980846e-02 1.12547219e-01 3.74552459e-01
      3.74552459e-01 1.62096638e-02 1.60628289e-01 3.74552459e-01
      2.43116647e-01 8.09002202e-03 4.82348837e-02 3.15274149e-01
      2.96945125e-01 6.51016692e-03 6.86200857e-02 3.74552459e-01
      2.86402643e-01 1.04653329e-01 2.31757060e-01 2.86402643e-01
      2.86402643e-01 2.77869821e-01 2.16288045e-01 2.86402643e-01
      2.41982013e-01 1.36925280e-01 2.86402643e-01 2.86402643e-01
      1.11755818e-01 2.49954537e-01 2.86402643e-01 2.86402643e-01
      3.19433987e-01 3.19433987e-01 3.00590247e-01 2.07264513e-01
      5.69200292e-02 2.37853467e-01 3.19433987e-01 3.19433987e-01
      1.18624687e-01 3.19433987e-01 3.19433987e-01 3.19433987e-01
      1.78332835e-01 1.62663370e-01 9.90202576e-02 8.52971449e-02</_>
    <_>
      3.08304667e-01 8.26663971e-02 3.77503783e-02 2.91178197e-01
      3.19072396e-01 3.19072396e-01 1.07784145e-01 1.44605279e-01
      3.19072396e-01 9.92074311e-02 1.05593428e-01 3.19072396e-01
      3.19072396e-01 2.76433647e-01 2.60648400e-01 3.19072396e-01
      3.43089670e-01 3.43089670e-01 2.47507900e-01 1.63761824e-01
      3.06908697e-01 3.04155529e-01 9.68278646e-02 4.18882482e-02
      3.43089670e-01 3.43089670e-01 3.43089670e-01 3.43089670e-01
      1.80185959e-02 2.90702917e-02 4.99018729e-02 2.71497127e-02
      3.52827400e-01 3.97254467e-01 1.95032120e-01 9.34931412e-02
      1.74369887e-01 4.34155390e-02 1.23956926e-01 3.97254467e-01
      1.73729092e-01 6.60971180e-02 3.28501090e-02 7.79569447e-02
      3.97254467e-01 3.97254467e-01 2.22967118e-01 2.33334199e-01</_>
    <_>
      1.46777436e-01 9.32854563e-02 7.55463764e-02 8.66565928e-02
      3.26868862e-01 3.26868862e-01 3.26868862e-01 3.26868862e-01
      3.26868862e-01 1.12059407e-01 4.60804179e-02 3.26868862e-01
      3.26868862e-01 2.15675801e-01 1.93206459e-01 3.26868862e-01
      3.20187181e-01 3.20187181e-01 3.20187181e-01 3.20187181e-01
      1.86278805e-01 1.73704892e-01 8.31553340e-02 1.62433997e-01
      3.20187181e-01 2.83377260e-01 2.63600737e-01 3.20187181e-01
      1.45343080e-01 7.27875382e-02 1.13472916e-01 3.07282090e-01
      2.80021340e-01 3.00766766e-01 1.32413283e-01 2.27361530e-01
      1.25580862e-01 1.00884810e-01 3.38147163e-01 3.38147163e-01
      1.38712004e-01 4.04935107e-02 2.68698156e-01 3.38147163e-01
      3.38147163e-01 3.38147163e-01 2.18645677e-01 1.41319022e-01</_>
    <_>
      3.73223186e-01 2.75575183e-02 3.11857820e-01 3.73223186e-01
      3.73223186e-01 3.29860039e-02 3.73223186e-01 3.73223186e-01
      8.30319822e-02 2.77424324e-03 5.12657128e-02 1.41958654e-01
      1.66642651e-01 2.02993322e-02 1.61714256e-01 3.41577172e-01
      2.77684659e-01 1.34312451e-01 2.77684659e-01 2.77684659e-01
      2.60716945e-01 2.73702741e-01 2.77684659e-01 2.77684659e-01
      1.38997361e-01 1.98244929e-01 2.77684659e-01 2.77684659e-01
      8.11770037e-02 2.77684659e-01 2.77684659e-01 2.77684659e-01
      3.13282579e-01 3.13282579e-01 3.05438489e-01 2.03028485e-01
      6.49341568e-02 3.13282579e-01 3.13282579e-01 3.13282579e-01
      1.03764735e-01 3.13282579e-01 3.13282579e-01 3.13282579e-01
      1.51229143e-01 1.31096676e-01 1.00631692e-01 1.09643765e-01</_>
    <_>
      3.45720142e-01 7.22923577e-02 4.73980010e-02 3.45720142e-01
      3.45720142e-01 4.05402966e-02 1.03337027e-01 3.45720142e-01
      3.45720142e-01 1.97053030e-02 3.14739421e-02 3.45720142e-01
      3.45720142e-01 6.01083934e-02 1.24819078e-01 3.45720142e-01
      2.90851682e-01 1.77062958e-01 2.09721297e-01 2.90851682e-01
      2.81563371e-01 2.73491710e-01 1.78563863e-01 1.87753692e-01
      2.90851682e-01 2.14716017e-01 2.90851682e-01 2.90851682e-01
      9.32622850e-02 2.31480822e-01 2.90851682e-01 2.90851682e-01
      2.84208685e-01 3.18290919e-01 1.69472083e-01 1.07568368e-01
      1.35467172e-01 3.18290919e-01 3.18290919e-01 3.18290919e-01
      7.59113729e-02 1.75034240e-01 3.18290919e-01 3.12716246e-01
      2.81898320e-01 2.83848941e-01 1.67816356e-01 1.68719605e-01</_>
    <_>
      3.80721122e-01 1.53323367e-01 6.76317960e-02 3.80721122e-01
      3.80721122e-01 1.54486567e-01 3.07525694e-01 3.80721122e-01
      2.14201957e-01 2.52086744e-02 1.96701288e-02 2.09230781e-01
      1.91488236e-01 6.82463944e-02 1.77762538e-01 3.25998157e-01
      2.97358185e-01 2.29984552e-01 2.97358185e-01 2.97358185e-01
      1.04444362e-01 1.40282974e-01 2.09910706e-01 1.77122906e-01
      1.75738052e-01 2.97358185e-01 2.97358185e-01 2.97358185e-01
      1.06920145e-01 2.97358185e-01 2.97358185e-01 2.97358185e-01
      1.00112304e-01 8.81535783e-02 1.25557333e-01 1.50447726e-01
      2.77760267e-01 3.15284222e-01 3.15284222e-01 3.15284222e-01
      1.82498783e-01 3.15284222e-01 3.15284222e-01 3.15284222e-01
      3.15284222e-01 3.02582979e-01 8.42555314e-02 1.88986421e-01</_>
    <_>
      3.97217363e-01 1.65284753e-01 8.21210071e-02 3.97217363e-01
      3.97217363e-01 1.39181346e-01 1.74599886e-01 3.97217363e-01
      2.81675607e-01 2.89899614e-02 2.31552552e-02 2.56457299e-01
      2.38785580e-01 5.08672632e-02 8.40875655e-02 2.60424614e-01
      2.90794760e-01 1.92676276e-01 2.90794760e-01 2.90794760e-01
      1.20287441e-01 1.97407410e-01 2.90794760e-01 2.90794760e-01
      1.22557536e-01 2.03054398e-01 2.90794760e-01 2.90794760e-01
      6.82926029e-02 2.90794760e-01 2.90794760e-01 2.90794760e-01
      1.09622940e-01 2.00147867e-01 3.13501388e-01 2.46082380e-01
      7.38549083e-02 2.25936338e-01 3.13501388e-01 3.13501388e-01
      1.20599546e-01 3.13501388e-01 3.13501388e-01 3.13501388e-01
      3.13501388e-01 3.13501388e-01 1.11389287e-01 1.20482370e-01</_>
    <_>
      3.86594117e-01 1.32013485e-01 6.26675040e-02 3.86594117e-01
      3.86594117e-01 1.29638672e-01 2.85246640e-01 3.86594117e-01
      2.32923508e-01 1.78384446e-02 1.69291031e-02 2.29419053e-01
      2.12912440e-01 5.40948175e-02 1.60576120e-01 3.11860949e-01
      2.98482627e-01 2.03656316e-01 2.98482627e-01 2.98482627e-01
      1.09796166e-01 1.50528058e-01 2.52226502e-01 1.94974020e-01
      1.76060095e-01 2.51659691e-01 2.98482627e-01 2.98482627e-01
      1.10135972e-01 2.98482627e-01 2.98482627e-01 2.98482627e-01
      9.27919522e-02 9.14841294e-02 1.68233693e-01 1.72514439e-01
      2.51078457e-01 2.89514184e-01 3.19098711e-01 3.19098711e-01
      2.00376183e-01 3.19098711e-01 3.19098711e-01 3.19098711e-01
      3.19098711e-01 3.19098711e-01 3.47298868e-02 1.44168288e-01</_>
    <_>
      3.22180957e-01 4.88435030e-02 1.23455189e-01 3.22180957e-01
      3.22180957e-01 2.39055872e-01 3.20762485e-01 3.22180957e-01
      1.46812916e-01 2.47691832e-02 6.17244318e-02 1.92590103e-01
      2.60677963e-01 2.55524933e-01 3.22180957e-01 3.22180957e-01
      3.13451380e-01 3.13451380e-01 3.13451380e-01 3.13451380e-01
      1.19436659e-01 1.13395646e-01 7.88035542e-02 9.12096873e-02
      3.13451380e-01 3.13451380e-01 3.13451380e-01 3.13451380e-01
      9.39393565e-02 1.17612585e-01 2.86419809e-01 2.53982812e-01
      1.01707764e-01 4.14322354e-02 6.18714392e-02 1.20408624e-01
      1.61690176e-01 3.44585449e-01 3.64326060e-01 3.64326060e-01
      1.47026673e-01 1.28284916e-01 3.09692323e-01 3.10370386e-01
      3.64326060e-01 3.64326060e-01 1.00644298e-01 2.22965866e-01</_>
    <_>
      3.15464705e-01 6.95262849e-02 1.23027377e-01 3.15464705e-01
      3.15464705e-01 2.92542756e-01 3.02569091e-01 3.15464705e-01
      1.31255984e-01 3.67527679e-02 6.37626648e-02 1.59838974e-01
      2.83307374e-01 2.72368938e-01 3.15464705e-01 3.15464705e-01
      3.11450720e-01 3.11450720e-01 3.11450720e-01 3.11450720e-01
      1.03348441e-01 9.04544368e-02 6.46593720e-02 7.52167776e-02
      3.11450720e-01 3.11450720e-01 3.11450720e-01 3.11450720e-01
      1.18610851e-01 1.19192578e-01 2.86077261e-01 2.86458910e-01
      8.52878168e-02 2.68315952e-02 6.21990077e-02 1.12488732e-01
      1.60069287e-01 3.64647478e-01 3.64647478e-01 3.64647478e-01
      1.96138486e-01 1.23566583e-01 2.48391241e-01 3.11606884e-01
      3.64647478e-01 3.64647478e-01 1.50042906e-01 2.15244830e-01</_>
    <_>
      3.77210349e-01 2.89125275e-02 2.85897076e-01 3.77210349e-01
      3.77210349e-01 9.44203660e-02 3.77210349e-01 3.77210349e-01
      7.17223287e-02 1.89041975e-03 3.68753485e-02 1.18320912e-01
      1.63843930e-01 8.74270722e-02 2.08895549e-01 3.07688117e-01
      2.82947391e-01 1.52610302e-01 2.82947391e-01 2.82947391e-01
      2.82947391e-01 2.22177863e-01 2.59945095e-01 2.82947391e-01
      1.25217274e-01 2.16210395e-01 2.82947391e-01 2.82947391e-01
      6.01304322e-02 2.65279323e-01 2.82947391e-01 2.82947391e-01
      2.87526935e-01 2.87526935e-01 2.49325767e-01 2.87526935e-01
      1.63031906e-01 2.87526935e-01 2.87526935e-01 2.87526935e-01
      6.59475774e-02 2.47949272e-01 2.87526935e-01 2.87526935e-01
      2.49513939e-01 2.84117132e-01 1.48049816e-01 1.27608120e-01</_>
    <_>
      3.49690765e-01 3.25859450e-02 8.61446783e-02 3.49690765e-01
      3.49690765e-01 2.49461725e-01 2.39299133e-01 3.49690765e-01
      1.25589430e-01 2.77231052e-03 1.77388098e-02 1.45264238e-01
      2.74101883e-01 2.82006025e-01 2.98250645e-01 3.13981503e-01
      2.78591543e-01 2.78591543e-01 2.58137614e-01 2.78591543e-01
      2.49622986e-01 1.57249004e-01 9.75487456e-02 1.90663144e-01
      2.78591543e-01 2.78591543e-01 2.78591543e-01 2.78591543e-01
      2.08431721e-01 2.50764370e-01 2.78591543e-01 2.65408069e-01
      3.18511099e-01 2.38516226e-01 3.86421978e-02 2.21262068e-01
      1.36213437e-01 9.55213308e-02 1.70188695e-01 2.46537521e-01
      3.18511099e-01 3.18511099e-01 3.18511099e-01 3.18511099e-01
      3.18511099e-01 3.18511099e-01 4.17907871e-02 2.45279938e-01</_>
    <_>
      3.20531458e-01 1.05173476e-01 2.29951903e-01 3.20531458e-01
      3.20531458e-01 2.81777084e-01 3.20531458e-01 3.20531458e-01
      8.38815793e-02 6.06798269e-02 1.17947690e-01 1.63712949e-01
      1.40752107e-01 2.51065165e-01 3.20531458e-01 3.20531458e-01
      3.33364308e-01 3.33364308e-01 3.33364308e-01 3.33364308e-01
      5.91617525e-02 7.64110535e-02 4.76965792e-02 3.65621671e-02
      1.98977262e-01 3.33364308e-01 3.33364308e-01 3.33364308e-01
      6.86135516e-02 6.97383583e-02 2.82973707e-01 2.76693195e-01
      9.98960361e-02 1.49679193e-02 7.11881295e-02 1.77990928e-01
      2.35191122e-01 2.55099446e-01 3.76827061e-01 3.76827061e-01
      1.82965457e-01 1.34152144e-01 3.34922880e-01 3.73133063e-01
      3.76827061e-01 1.50004044e-01 4.01853845e-02 2.75510728e-01</_>
    <_>
      2.96433240e-01 2.57181525e-01 1.18058985e-02 1.85613170e-01
      2.96433240e-01 2.96433240e-01 5.18158302e-02 2.61648387e-01
      2.96433240e-01 2.96433240e-01 2.62685437e-02 2.96433240e-01
      2.96433240e-01 2.96433240e-01 1.92624897e-01 2.90488124e-01
      3.30626428e-01 3.30626428e-01 1.23888031e-01 3.16679388e-01
      2.27683738e-01 2.06800342e-01 5.63203320e-02 6.55447841e-02
      3.30626428e-01 3.30626428e-01 3.30626428e-01 3.30626428e-01
      1.87207326e-01 1.88941926e-01 1.69027075e-01 1.54237479e-01
      2.29142994e-01 1.89799860e-01 5.62469698e-02 9.05700400e-02
      2.55866706e-01 9.86486599e-02 1.79655030e-01 3.65786761e-01
      2.44575322e-01 2.79756606e-01 3.28518569e-01 2.77984262e-01
      3.65786761e-01 3.65786761e-01 2.38946721e-01 8.48355517e-02</_>
    <_>
      3.56932372e-01 2.05869693e-02 3.28915298e-01 3.56932372e-01
      3.56932372e-01 1.72808379e-01 3.56932372e-01 3.56932372e-01
      2.32559629e-02 9.63467406e-04 2.27452051e-02 4.49224785e-02
      9.69418958e-02 1.36373535e-01 3.32728326e-01 2.81385362e-01
      2.86330193e-01 2.13839248e-01 2.86330193e-01 2.86330193e-01
      2.31939822e-01 2.36777052e-01 2.72378713e-01 2.86330193e-01
      7.07818568e-02 2.67229706e-01 2.86330193e-01 2.86330193e-01
      3.33497189e-02 2.22540274e-01 2.86330193e-01 2.57699251e-01
      2.97564119e-01 2.97564119e-01 2.97564119e-01 2.73667961e-01
      1.17172018e-01 2.97564119e-01 2.97564119e-01 2.97564119e-01
      6.39249235e-02 2.00401217e-01 2.97564119e-01 2.59180754e-01
      2.19978973e-01 2.36641794e-01 2.02601060e-01 1.78138241e-01</_>
    <_>
      2.99063623e-01 2.44247705e-01 1.21463528e-02 1.63424313e-01
      2.99063623e-01 2.99063623e-01 6.61731660e-02 2.46346742e-01
      2.99063623e-01 2.99063623e-01 2.34623887e-02 2.98374176e-01
      2.99063623e-01 2.99063623e-01 2.00858146e-01 2.99063623e-01
      3.32736313e-01 3.32736313e-01 1.66102514e-01 3.00973177e-01
      2.12329954e-01 2.09653720e-01 7.97454938e-02 5.62749803e-02
      3.32736313e-01 3.32736313e-01 3.32736313e-01 3.32736313e-01
      1.68913454e-01 1.63683265e-01 1.75324947e-01 1.72023922e-01
      2.96274483e-01 1.92850664e-01 5.13351820e-02 1.22530989e-01
      2.24393710e-01 1.92534924e-01 3.10533464e-01 3.10533464e-01
      2.87626266e-01 2.72373766e-01 3.10533464e-01 3.10533464e-01
      3.10533464e-01 3.10533464e-01 8.58375728e-02 1.54871538e-01</_>
    <_>
      3.47460479e-01 1.72124654e-02 1.37884747e-02 3.47460479e-01
      3.47460479e-01 7.17681497e-02 7.45505020e-02 3.47460479e-01
      3.47460479e-01 6.96180686e-02 3.94581594e-02 3.47460479e-01
      3.47460479e-01 1.11608610e-01 2.53598914e-02 3.47460479e-01
      3.30302328e-01 1.74120277e-01 1.86883152e-01 3.30302328e-01
      2.91095972e-01 1.64421365e-01 1.63933545e-01 2.92193234e-01
      3.30302328e-01 1.98409081e-01 6.34417161e-02 3.30302328e-01
      3.30302328e-01 1.82560205e-01 8.05578902e-02 2.80583590e-01
      2.41259500e-01 1.81727245e-01 1.75980076e-01 2.68330336e-01
      1.66124150e-01 1.93699449e-02 1.17304232e-02 1.66399747e-01
      3.77688140e-01 2.83232182e-01 1.20717734e-01 3.77688140e-01
      3.77688140e-01 2.80220240e-01 4.81318086e-02 3.77688140e-01</_>
    <_>
      1.72967911e-01 2.95442306e-02 2.54520744e-01 3.20843577e-01
      2.38938391e-01 1.35525614e-01 3.20843577e-01 3.20843577e-01
      3.20843577e-01 6.70576021e-02 8.37926492e-02 3.13176394e-01
      3.20843577e-01 1.98226616e-01 2.43369877e-01 3.20843577e-01
      3.02924037e-01 3.21226567e-01 3.21226567e-01 3.21226567e-01
      1.02033593e-01 1.37007311e-01 2.24773616e-01 1.99015334e-01
      3.21226567e-01 3.21027011e-01 3.21226567e-01 3.21226567e-01
      1.41503066e-01 7.18753263e-02 1.03391834e-01 1.66309863e-01
      1.05409034e-01 2.34842580e-02 8.14640447e-02 2.44757369e-01
      3.32539320e-01 1.83560655e-01 3.24125886e-01 3.32539320e-01
      2.03986824e-01 1.82005707e-02 6.86092526e-02 2.63773859e-01
      3.32539320e-01 3.32539320e-01 3.32539320e-01 3.32539320e-01</_>
    <_>
      1.95244774e-01 2.45343037e-02 2.44162157e-01 3.36372226e-01
      2.48581767e-01 1.12001546e-01 3.36372226e-01 3.36372226e-01
      3.36372226e-01 1.91415735e-02 6.94589391e-02 3.36372226e-01
      3.36372226e-01 7.59097338e-02 1.44869655e-01 3.36372226e-01
      3.47287625e-01 3.12388629e-01 3.52329701e-01 3.52329701e-01
      9.02434513e-02 1.32395297e-01 1.76594660e-01 1.68864727e-01
      3.52329701e-01 2.06111848e-01 2.67488152e-01 3.52329701e-01
      1.08101860e-01 7.42520243e-02 9.85351875e-02 2.35426858e-01
      2.13275254e-01 9.59079713e-02 1.84009835e-01 3.54256481e-01
      3.54256481e-01 2.85920016e-02 2.23711327e-01 3.54256481e-01
      3.33962381e-01 8.14342648e-02 2.23535120e-01 3.54256481e-01
      2.40945429e-01 1.06816903e-01 1.15495197e-01 3.22687656e-01</_>
    <_>
      3.29620451e-01 3.92809361e-02 1.34787485e-01 3.37762743e-01
      3.37762743e-01 9.06046182e-02 1.98771298e-01 3.37762743e-01
      3.37762743e-01 7.84694776e-02 6.23266362e-02 3.37762743e-01
      3.37762743e-01 8.50073472e-02 6.84948117e-02 3.37762743e-01
      3.49125624e-01 2.19028279e-01 3.49125624e-01 3.49125624e-01
      9.06504542e-02 1.23872735e-01 1.82971686e-01 2.00692415e-01
      3.49125624e-01 1.55048996e-01 1.50714830e-01 3.49125624e-01
      1.88094854e-01 6.02102391e-02 1.84738159e-01 3.49125624e-01
      1.29096612e-01 2.13744327e-01 2.54178792e-01 2.66355991e-01
      1.54849261e-01 9.09048319e-02 3.87115061e-01 3.87115061e-01
      2.32166067e-01 5.92054985e-02 3.87115061e-01 3.87115061e-01
      1.40449032e-01 3.62400450e-02 8.66939351e-02 2.83887416e-01</_>
    <_>
      2.78051525e-01 5.33946604e-02 1.73446089e-01 3.39161038e-01
      3.39161038e-01 6.87269419e-02 2.49632865e-01 3.39161038e-01
      3.39161038e-01 5.43047674e-02 3.53002548e-02 3.39161038e-01
      3.39161038e-01 5.44926897e-02 8.33546296e-02 3.39161038e-01
      3.33067298e-01 1.49283126e-01 3.33067298e-01 3.33067298e-01
      1.29721075e-01 1.25763163e-01 2.77493894e-01 3.33067298e-01
      3.33067298e-01 1.00517221e-01 1.37163922e-01 3.33067298e-01
      2.06838995e-01 6.85755759e-02 1.08629659e-01 3.33067298e-01
      1.48517549e-01 1.92569956e-01 3.39070410e-01 3.39070410e-01
      1.56679094e-01 5.29455766e-02 3.39070410e-01 3.39070410e-01
      3.39070410e-01 6.24363907e-02 2.56462067e-01 3.39070410e-01
      1.65070981e-01 1.13856755e-02 9.10485387e-02 3.39070410e-01</_>
    <_>
      1.90745741e-01 2.70194449e-02 2.02098936e-01 3.36556256e-01
      2.85644889e-01 1.41129181e-01 3.09493423e-01 3.36556256e-01
      3.26618433e-01 5.67979068e-02 8.61658826e-02 3.36556256e-01
      3.36556256e-01 1.14773862e-01 1.56617343e-01 3.36556256e-01
      3.35491389e-01 2.46499196e-01 3.35491389e-01 3.35491389e-01
      1.25060871e-01 9.50861648e-02 1.84856594e-01 3.31170291e-01
      3.35491389e-01 2.18978763e-01 2.45640263e-01 3.35491389e-01
      1.57755986e-01 1.05369948e-01 1.11964256e-01 2.18563110e-01
      3.11486453e-01 1.21908627e-01 3.61368328e-01 3.61368328e-01
      3.61368328e-01 3.58522646e-02 2.35938415e-01 3.61368328e-01
      2.72837013e-01 1.92869026e-02 1.49537906e-01 3.61368328e-01
      2.15088740e-01 4.45573442e-02 6.41903728e-02 1.58347830e-01</_>
    <_>
      1.67822897e-01 3.45203169e-02 2.68422991e-01 3.44050854e-01
      2.75692403e-01 5.92640489e-02 2.59935588e-01 3.44050854e-01
      3.44050854e-01 9.65968296e-02 8.13413337e-02 3.00090253e-01
      3.44050854e-01 1.74555108e-01 1.40515149e-01 3.44050854e-01
      3.07351321e-01 1.90726876e-01 3.07351321e-01 3.07351321e-01
      1.97512552e-01 2.81607151e-01 2.77717978e-01 2.62491077e-01
      3.07351321e-01 2.50879794e-01 1.95226729e-01 3.07351321e-01
      1.96101308e-01 1.30506635e-01 1.14637762e-01 2.32812822e-01
      3.34519118e-01 3.34519118e-01 3.34519118e-01 3.34519118e-01
      9.86102000e-02 9.03003365e-02 3.34519118e-01 3.34519118e-01
      2.85505384e-01 7.77050629e-02 1.43015325e-01 3.34519118e-01
      1.97872713e-01 6.03411123e-02 5.34096770e-02 2.04465374e-01</_>
    <_>
      1.70756429e-01 2.97122952e-02 2.24954829e-01 3.35208535e-01
      2.96556056e-01 1.19014859e-01 3.18535417e-01 3.35208535e-01
      3.14278036e-01 1.07837349e-01 5.80869690e-02 1.87954709e-01
      3.35208535e-01 2.98503399e-01 1.57374561e-01 3.35208535e-01
      3.01208615e-01 2.45021269e-01 3.01208615e-01 3.01208615e-01
      1.27772912e-01 1.64828271e-01 2.24973053e-01 2.64384896e-01
      3.01208615e-01 3.01208615e-01 2.18385175e-01 3.01208615e-01
      3.01208615e-01 1.33839577e-01 9.30664092e-02 2.52181083e-01
      1.33923352e-01 1.54266194e-01 1.63579717e-01 2.53043234e-01
      1.54511601e-01 1.47827221e-02 9.33457613e-02 3.99690777e-01
      3.99690777e-01 8.00287053e-02 1.07699715e-01 3.99690777e-01
      3.99690777e-01 9.29240733e-02 7.26371780e-02 3.99690777e-01</_>
    <_>
      3.25795084e-01 2.30339039e-02 1.50614187e-01 3.39587688e-01
      3.39587688e-01 9.23758000e-02 1.98396355e-01 3.39587688e-01
      2.38826692e-01 9.76729989e-02 5.70853464e-02 2.43409812e-01
      3.39587688e-01 3.14370751e-01 1.21826768e-01 3.39587688e-01
      3.07836533e-01 2.23012716e-01 3.07836533e-01 3.07836533e-01
      1.47224918e-01 1.63030803e-01 1.98166505e-01 2.46679306e-01
      3.07836533e-01 3.07836533e-01 1.92467973e-01 3.07836533e-01
      3.07836533e-01 1.67980373e-01 9.70014706e-02 2.46577457e-01
      1.39175147e-01 1.12169273e-01 9.86419171e-02 1.56215489e-01
      9.81275216e-02 4.78332629e-03 1.90464016e-02 1.64158180e-01
      4.53032225e-01 1.08944573e-01 1.08319134e-01 4.53032225e-01
      4.53032225e-01 8.19412768e-02 2.02874541e-01 4.53032225e-01</_>
    <_>
      1.24203481e-01 3.46287526e-02 2.78978109e-01 3.33260953e-01
      2.51785278e-01 1.04375809e-01 3.33260953e-01 3.33260953e-01
      3.33260953e-01 1.13605320e-01 6.47519529e-02 2.00606495e-01
      3.33260953e-01 2.60682404e-01 1.90397218e-01 3.33260953e-01
      2.96926379e-01 2.51439571e-01 3.02299410e-01 3.02299410e-01
      1.44629508e-01 2.08057716e-01 2.51300126e-01 2.42177561e-01
      3.02299410e-01 3.02299410e-01 2.65643775e-01 3.02299410e-01
      2.43065059e-01 1.02173671e-01 9.79025215e-02 2.30192408e-01
      2.51699328e-01 3.15594852e-01 2.77007520e-01 2.95731127e-01
      1.54892489e-01 2.39714738e-02 1.38787791e-01 3.41566592e-01
      3.41566592e-01 5.69525473e-02 1.35218069e-01 3.41566592e-01
      3.41566592e-01 1.03256367e-01 1.00440085e-01 3.41566592e-01</_>
    <_>
      1.81905806e-01 6.48238212e-02 1.42663136e-01 2.55864829e-01
      3.14655632e-01 1.63987696e-01 3.14655632e-01 3.14655632e-01
      3.14655632e-01 3.14655632e-01 1.95165053e-02 2.24466383e-01
      3.14655632e-01 3.14655632e-01 6.34128153e-02 3.14655632e-01
      2.78351009e-01 1.94106489e-01 2.78351009e-01 2.78351009e-01
      2.78351009e-01 1.40694439e-01 1.67382032e-01 2.78351009e-01
      2.78351009e-01 2.78351009e-01 1.57392606e-01 2.78351009e-01
      2.78351009e-01 2.78351009e-01 2.44281858e-01 2.29108319e-01
      2.76212603e-01 2.06217453e-01 8.99441689e-02 2.76212603e-01
      2.76212603e-01 2.76212603e-01 2.76212603e-01 2.76212603e-01
      2.61158645e-01 2.76212603e-01 2.76212603e-01 2.76212603e-01
      2.76212603e-01 2.76212603e-01 1.46894529e-01 1.32721469e-01</_>
    <_>
      2.76878059e-01 8.04729760e-02 1.07211590e-01 3.10786605e-01
      3.10786605e-01 2.56181270e-01 2.66462356e-01 3.10786605e-01
      3.10786605e-01 3.10786605e-01 9.49895233e-02 9.32790786e-02
      3.10786605e-01 3.10786605e-01 8.27218592e-02 2.54846543e-01
      3.01033199e-01 3.01033199e-01 3.01033199e-01 3.01033199e-01
      1.68074489e-01 1.01137616e-01 9.86513719e-02 1.52967200e-01
      3.01033199e-01 3.01033199e-01 2.84391910e-01 3.01033199e-01
      1.60395101e-01 2.34583795e-01 2.98885852e-01 2.00171456e-01
      3.10585558e-01 1.46390602e-01 4.14676778e-02 2.68237889e-01
      2.50297129e-01 1.25282571e-01 1.89329267e-01 3.01474065e-01
      2.08075598e-01 3.10585558e-01 3.10585558e-01 3.10585558e-01
      3.10585558e-01 3.10585558e-01 1.29022852e-01 2.40823522e-01</_>
    <_>
      2.91711390e-01 1.62926212e-01 1.35340124e-01 2.91711390e-01
      2.91711390e-01 2.91711390e-01 2.91711390e-01 2.91711390e-01
      2.91711390e-01 2.91711390e-01 8.57109651e-02 1.13603890e-01
      2.91711390e-01 2.91711390e-01 1.92384034e-01 2.09771171e-01
      3.28557700e-01 3.28557700e-01 3.28557700e-01 3.28557700e-01
      1.12971202e-01 3.12371068e-02 1.80691965e-02 8.06572437e-02
      3.28557700e-01 3.28557700e-01 3.28557700e-01 3.28557700e-01
      8.50650147e-02 1.75650805e-01 2.27383003e-01 1.50841907e-01
      2.36631975e-01 7.33945444e-02 1.37350298e-02 1.31591707e-01
      1.17040180e-01 6.39987886e-02 1.81762695e-01 2.42371649e-01
      3.27509403e-01 2.79665560e-01 1.34287879e-01 2.05244869e-01
      4.28672552e-01 4.28672552e-01 1.01691328e-01 4.28672552e-01</_>
    <_>
      2.81331629e-01 2.90839709e-02 1.57101154e-01 3.30357343e-01
      3.30357343e-01 2.18487103e-02 3.30357343e-01 3.30357343e-01
      3.30357343e-01 3.08849197e-02 8.97371694e-02 3.30357343e-01
      3.30357343e-01 2.91326586e-02 9.27598998e-02 3.30357343e-01
      3.05539876e-01 7.04524592e-02 3.05539876e-01 3.05539876e-01
      2.67527461e-01 8.47091973e-02 2.63263792e-01 3.05539876e-01
      3.05539876e-01 1.20101638e-01 2.16631591e-01 3.05539876e-01
      2.17492938e-01 1.42163113e-01 2.48151973e-01 3.05539876e-01
      3.29173148e-01 2.41255060e-01 2.04531506e-01 3.29173148e-01
      3.29173148e-01 2.61442125e-01 3.25756520e-01 3.29173148e-01
      1.99325845e-01 1.50190443e-01 2.57769257e-01 3.01146150e-01
      1.73137113e-01 1.01126090e-01 8.32586959e-02 1.49089962e-01</_>
    <_>
      2.82857895e-01 5.66910878e-02 1.62737951e-01 2.99017817e-01
      2.99017817e-01 1.33476004e-01 2.99017817e-01 2.99017817e-01
      2.99017817e-01 2.20473498e-01 2.74689887e-02 2.99017817e-01
      2.99017817e-01 2.99017817e-01 1.24185890e-01 2.99017817e-01
      3.04610401e-01 2.08606303e-01 3.04610401e-01 3.04610401e-01
      3.04610401e-01 1.09060675e-01 1.07320100e-01 2.86196828e-01
      3.04610401e-01 3.04610401e-01 3.04610401e-01 3.04610401e-01
      1.38234228e-01 1.62466332e-01 1.92317218e-01 1.52739033e-01
      3.22529078e-01 2.72801369e-01 6.11828640e-02 3.22529078e-01
      3.22529078e-01 3.22529078e-01 3.22529078e-01 3.22529078e-01
      8.88853073e-02 4.84252237e-02 8.77725258e-02 1.26743987e-01
      3.22529078e-01 3.22529078e-01 1.52730092e-01 1.70508772e-01</_>
    <_>
      2.91132718e-01 6.67354912e-02 1.57786220e-01 2.98468679e-01
      2.98468679e-01 1.45951554e-01 2.93199152e-01 2.98468679e-01
      2.98468679e-01 2.18936622e-01 3.26208696e-02 2.98468679e-01
      2.98468679e-01 2.98468679e-01 1.18219599e-01 2.98468679e-01
      3.07040393e-01 2.29582250e-01 3.07040393e-01 3.07040393e-01
      3.07040393e-01 1.14037804e-01 9.72427651e-02 2.76264668e-01
      3.07040393e-01 3.07040393e-01 2.92196244e-01 3.07040393e-01
      1.42987460e-01 1.56996399e-01 1.72264934e-01 1.59302428e-01
      3.24027061e-01 2.68413723e-01 7.02025965e-02 3.24027061e-01
      3.06723833e-01 3.24027061e-01 3.24027061e-01 3.24027061e-01
      9.98739824e-02 5.10988422e-02 7.50611797e-02 1.28683731e-01
      3.24027061e-01 3.24027061e-01 1.80750489e-01 1.52654544e-01</_>
    <_>
      2.74234831e-01 1.06025152e-01 1.01697244e-01 2.78695077e-01
      3.06615978e-01 1.59133613e-01 2.38727033e-01 3.06615978e-01
      3.06615978e-01 2.69363046e-01 2.16450859e-02 3.06615978e-01
      3.06615978e-01 3.06615978e-01 9.51017812e-02 3.06615978e-01
      3.12507778e-01 2.54779398e-01 3.12507778e-01 3.12507778e-01
      2.05872834e-01 1.62597224e-01 1.29767194e-01 1.77324921e-01
      3.12507778e-01 3.12507778e-01 2.57721931e-01 3.12507778e-01
      2.26890847e-01 2.35397354e-01 1.72271088e-01 1.60946205e-01
      3.11202526e-01 3.11202526e-01 7.97446296e-02 2.04379126e-01
      2.35466242e-01 3.11202526e-01 3.11202526e-01 3.11202526e-01
      2.51379400e-01 2.22470209e-01 1.83736056e-01 2.11530566e-01
      3.11202526e-01 2.95375079e-01 4.30259444e-02 1.78738743e-01</_>
    <_>
      3.28409642e-01 7.34436065e-02 9.98069569e-02 3.28409642e-01
      3.28409642e-01 7.85200223e-02 2.88192332e-01 3.28409642e-01
      3.28409642e-01 9.05811861e-02 2.85028387e-02 3.28409642e-01
      3.28409642e-01 1.00180112e-01 1.01323433e-01 3.28409642e-01
      3.21361333e-01 1.58218235e-01 3.21361333e-01 3.21361333e-01
      1.96046114e-01 1.63217291e-01 2.02136561e-01 2.36840621e-01
      3.21361333e-01 1.76498622e-01 3.01613122e-01 3.21361333e-01
      1.31592855e-01 1.10613607e-01 2.60056973e-01 2.72139341e-01
      3.16034526e-01 3.04631114e-01 1.63070083e-01 1.93063214e-01
      1.20651864e-01 3.16034526e-01 3.16034526e-01 3.16034526e-01
      1.36434406e-01 1.23537689e-01 3.16034526e-01 3.16034526e-01
      3.16034526e-01 2.33064979e-01 1.03088014e-01 1.66291848e-01</_>
    <_>
      2.78838158e-01 1.05368696e-01 1.00144900e-01 2.63008237e-01
      3.08250308e-01 1.60418883e-01 2.46447995e-01 3.08250308e-01
      3.08250308e-01 2.62118906e-01 1.95921957e-02 3.08250308e-01
      3.08250308e-01 3.08250308e-01 9.04185772e-02 3.08250308e-01
      3.14885378e-01 2.28566498e-01 3.14885378e-01 3.14885378e-01
      2.21701309e-01 1.31928995e-01 1.15704268e-01 1.83216408e-01
      3.14885378e-01 3.14885378e-01 2.26978064e-01 3.14885378e-01
      2.83208251e-01 2.35964388e-01 1.41249090e-01 1.69780284e-01
      3.01000148e-01 3.01000148e-01 6.93509132e-02 3.01000148e-01
      3.01000148e-01 1.42299324e-01 3.01000148e-01 3.01000148e-01
      3.01000148e-01 2.62521029e-01 1.83077484e-01 2.05679357e-01
