<?xml version="1.0"?>
<opencv_storage>
<opencv_ml_svm>
  <format>3</format>
  <svmType>C_SVC</svmType>
  <kernel>
    <type>LINEAR</type></kernel>
  <C>450.</C>
  <term_criteria><epsilon>1.0000000000000000e-02</epsilon>
    <iterations>1500</iterations></term_criteria>
  <var_count>48</var_count>
  <class_count>3</class_count>
  <class_labels type_id="opencv-matrix">
    <rows>3</rows>
    <cols>1</cols>
    <dt>i</dt>
    <data>
      4 5 10</data></class_labels>
  <sv_total>3</sv_total>
  <support_vectors>
    <_>
      1.67457247e+00 -1.03464088e+01 -9.95964527e+00 4.48406601e+00
      2.97945213e+00 -2.83041191e+00 -1.96117270e+00 4.48406601e+00
      -1.04558671e+00 -3.26531363e+00 -1.50014389e+00 3.11251616e+00
      -1.89826041e-02 -1.72361088e+00 2.41040087e+00 -3.76327252e+00
      1.96995139e+00 -6.37437820e+00 -6.29931879e+00 2.61852527e+00
      9.06740475e+00 -4.17277145e+00 1.15287888e+00 -8.17853832e+00
      9.82416511e-01 -5.11859417e+00 3.72995162e+00 7.37630308e-01
      -5.71088839e+00 -1.05451822e+01 6.76382971e+00 5.35702515e+00
      4.06277752e+00 6.14613533e+00 -1.03408470e+01 -1.87317514e+00
      6.46614552e+00 1.50775137e+01 -2.42024207e+00 -1.45501337e+01
      3.51227880e+00 -4.32047272e+00 1.64791889e+01 1.45056212e+00
      -9.68578434e+00 -9.29041862e+00 -9.27590656e+00 1.79841347e+01</_>
    <_>
      8.76119435e-01 -8.34948254e+00 -8.90348554e-01 4.59210968e+00
      -4.01728821e+00 -4.53936243e+00 4.64842916e-01 2.11420941e+00
      1.58128500e+00 -1.67807770e+00 -3.90833473e+00 -1.56625783e+00
      3.00458908e-01 8.91017258e-01 -1.38878298e+00 -2.35977697e+00
      -8.36704433e-01 -3.00739825e-01 2.02195883e+00 4.88599062e+00
      -2.03156257e+00 -6.28748322e+00 4.52096367e+00 -5.50184727e-01
      3.42268634e+00 2.69194627e+00 4.57812726e-01 2.23722249e-01
      -3.85616213e-01 -3.51843745e-01 -3.13053459e-01 -1.19740129e+00
      6.97653675e+00 1.68674469e+00 -2.74139738e+00 -4.48871231e+00
      3.24363542e+00 -5.76826286e+00 4.39515924e+00 -2.05422759e+00
      -3.08921169e-02 -2.20493650e+00 1.93704247e+00 -7.13146925e-01
      5.57064724e+00 4.46385336e+00 -5.09996796e+00 -1.57397282e+00</_>
    <_>
      -1.24620008e+00 -2.82053804e+00 1.09427643e+00 3.03624320e+00
      -2.86369824e+00 -1.74270141e+00 -1.40631795e-01 2.02400756e+00
      7.11192429e-01 -1.47714531e+00 1.00574875e+00 1.03758919e+00
      -4.67588514e-01 1.34991217e+00 -2.29542017e+00 -9.92317677e-01
      -1.08770597e+00 1.26186967e+00 -6.33817613e-01 3.63423538e+00
      -9.76440847e-01 -3.19442248e+00 3.27210021e+00 7.03169480e-02
      1.54564691e+00 2.13372660e+00 -1.57472825e+00 1.11216247e+00
      -3.71576935e-01 3.82330370e+00 -2.21174073e+00 -2.66113353e+00
      4.21456337e+00 -4.02900076e+00 2.33660889e+00 -1.00994527e+00
      -2.89678478e+00 -1.41729248e+00 3.45235348e+00 1.09936845e+00
      -6.06315255e-01 6.41193092e-01 -3.60028911e+00 4.99931860e+00
      2.61066532e+00 1.99337590e+00 -2.25615740e+00 -2.10916686e+00</_></support_vectors>
  <uncompressed_sv_total>62</uncompressed_sv_total>
  <uncompressed_support_vectors>
    <_>
      2.94044971e-01 5.82110137e-02 1.92261577e-01 3.43992054e-01
      2.79232115e-01 2.70874221e-02 2.08620459e-01 3.43992054e-01
      3.43992054e-01 3.96109931e-02 1.06648207e-01 3.43992054e-01
      3.43992054e-01 6.87280968e-02 1.40964627e-01 3.43992054e-01
      2.97993422e-01 7.29339868e-02 3.40881944e-01 3.40881944e-01
      1.44471437e-01 1.26674950e-01 3.40881944e-01 3.40881944e-01
      3.40881944e-01 1.26530722e-01 1.95715547e-01 3.40881944e-01
      1.57007426e-01 8.36188570e-02 1.38688341e-01 2.51317620e-01
      2.10403830e-01 1.72434673e-01 3.62564653e-01 3.62564653e-01
      2.59774804e-01 2.78473888e-02 3.35601389e-01 3.62564653e-01
      1.32857412e-01 7.61893764e-02 1.99947178e-01 3.17653686e-01
      1.54757395e-01 1.61868948e-02 1.64694861e-01 3.62564653e-01</_>
    <_>
      3.38256985e-01 7.62447938e-02 5.81259802e-02 3.38256985e-01
      3.38256985e-01 1.10999085e-01 4.93457317e-02 3.38256985e-01
      3.38256985e-01 1.28308699e-01 3.94864567e-02 3.38256985e-01
      3.38256985e-01 1.95192471e-01 3.47554721e-02 3.38256985e-01
      3.77493858e-01 2.50986278e-01 8.26389864e-02 3.77493858e-01
      1.98527187e-01 9.68895182e-02 3.47107798e-02 1.17078036e-01
      3.77493858e-01 3.39695036e-01 7.08253235e-02 3.77493858e-01
      3.45479667e-01 1.03356183e-01 5.11174239e-02 1.99061647e-01
      7.38310963e-02 2.70823315e-02 2.08946392e-02 8.05477798e-02
      1.33327544e-01 7.66984597e-02 6.43948317e-02 2.42819816e-01
      3.79422694e-01 1.03143610e-01 2.36718550e-01 3.79422694e-01
      3.79422694e-01 3.79422694e-01 3.31437856e-01 3.79422694e-01</_>
    <_>
      3.44742626e-01 5.53873256e-02 9.26215723e-02 3.44742626e-01
      3.44742626e-01 4.59800549e-02 1.18454129e-01 3.44742626e-01
      3.44742626e-01 4.42794040e-02 3.39618064e-02 3.44742626e-01
      3.44742626e-01 9.91613716e-02 7.09684193e-02 3.44742626e-01
      3.85767043e-01 1.44103587e-01 2.68245608e-01 3.85767043e-01
      1.98910221e-01 8.41968805e-02 1.10055521e-01 3.06313217e-01
      3.85767043e-01 2.23698393e-01 1.86125129e-01 3.85767043e-01
      1.92316890e-01 7.44733065e-02 6.77084401e-02 1.54159904e-01
      2.97462910e-01 6.74439818e-02 8.35943520e-02 3.11455935e-01
      3.11455935e-01 9.20701772e-02 2.81126112e-01 3.11455935e-01
      3.11455935e-01 3.40844095e-02 6.45476133e-02 3.11455935e-01
      3.11455935e-01 2.53256083e-01 2.46693403e-01 3.11455935e-01</_>
    <_>
      2.85099268e-01 3.51716243e-02 2.68353164e-01 3.55447352e-01
      2.61898875e-01 4.33053821e-02 3.03741872e-01 3.55447352e-01
      2.19536141e-01 1.62003059e-02 1.68421656e-01 3.55447352e-01
      2.44768649e-01 3.28153521e-02 1.89754754e-01 3.55447352e-01
      3.74829769e-01 1.19125232e-01 3.74829769e-01 3.74829769e-01
      1.45980999e-01 4.51927185e-02 1.36361510e-01 3.44989181e-01
      3.34616482e-01 8.44043717e-02 3.10875893e-01 3.74829769e-01
      5.68763390e-02 2.01433245e-02 6.77785277e-02 1.87455043e-01
      3.87825221e-01 2.63609942e-02 2.01775581e-01 3.87825221e-01
      3.87825221e-01 4.03726473e-02 3.87825221e-01 3.87825221e-01
      9.33411792e-02 7.58817606e-03 6.37157410e-02 2.50055134e-01
      1.65611744e-01 5.36471643e-02 1.23471685e-01 2.83085704e-01</_>
    <_>
      3.46063018e-01 3.91656309e-02 1.00001745e-01 3.46063018e-01
      3.46063018e-01 2.85291113e-02 1.04723312e-01 3.46063018e-01
      3.46063018e-01 5.40371910e-02 3.50249708e-02 3.46063018e-01
      3.46063018e-01 1.00362711e-01 3.05114686e-02 3.46063018e-01
      3.44168276e-01 4.57170978e-02 1.63254470e-01 3.44168276e-01
      2.75720030e-01 5.30528165e-02 1.95274651e-01 3.44168276e-01
      3.44168276e-01 1.44155622e-01 6.27508312e-02 3.44168276e-01
      3.44168276e-01 9.23352018e-02 8.09684247e-02 3.16764951e-01
      3.36708963e-01 1.08179778e-01 3.36708963e-01 3.36708963e-01
      2.23361626e-01 2.36795284e-02 2.26268351e-01 3.36708963e-01
      3.36708963e-01 1.03957005e-01 2.04219848e-01 3.36708963e-01
      2.56546170e-01 1.75300986e-01 1.19846620e-01 1.99058786e-01</_>
    <_>
      3.43186349e-01 5.02674542e-02 6.62278607e-02 3.43186349e-01
      3.43186349e-01 6.54351860e-02 8.29291716e-02 3.43186349e-01
      3.43186349e-01 7.20425695e-02 3.10956128e-02 3.43186349e-01
      3.43186349e-01 1.69625267e-01 3.68026346e-02 3.43186349e-01
      3.51134926e-01 1.35606825e-01 1.47547960e-01 3.51134926e-01
      2.47034922e-01 9.66825560e-02 9.45605710e-02 3.21118206e-01
      3.51134926e-01 2.88827091e-01 8.10546950e-02 3.51134926e-01
      3.51134926e-01 1.58464640e-01 5.65925874e-02 1.97778463e-01
      3.00048172e-01 6.16840087e-02 7.28047863e-02 3.59685838e-01
      2.91143656e-01 1.56836342e-02 3.98103781e-02 3.59685838e-01
      3.59685838e-01 1.28239036e-01 3.92292775e-02 3.59685838e-01
      3.59685838e-01 1.19428299e-01 4.67526540e-02 3.59685838e-01</_>
    <_>
      3.45698088e-01 8.02391917e-02 4.33242470e-02 3.45698088e-01
      3.45698088e-01 1.13739736e-01 3.70448716e-02 3.45698088e-01
      3.45698088e-01 1.11497231e-01 4.80771735e-02 3.45698088e-01
      3.45698088e-01 1.33423328e-01 2.45982781e-02 3.22833806e-01
      3.63886267e-01 1.95376307e-01 6.76391572e-02 3.63886267e-01
      2.31756717e-01 6.49586171e-02 3.22818197e-02 1.64115578e-01
      3.63886267e-01 2.31331334e-01 4.93362173e-02 3.63886267e-01
      3.63886267e-01 2.03715861e-01 4.67413887e-02 3.25594217e-01
      2.03580141e-01 3.91791612e-02 2.69879811e-02 2.20317811e-01
      1.64092273e-01 1.77211672e-01 5.18764108e-02 1.38138771e-01
      3.90294999e-01 3.90294999e-01 1.11690789e-01 3.90294999e-01
      3.90294999e-01 3.90294999e-01 1.27828464e-01 1.82436466e-01</_>
    <_>
      2.66333133e-01 3.88805754e-02 2.75063694e-01 3.08897942e-01
      2.37079710e-01 1.58581678e-02 3.08897942e-01 3.08897942e-01
      3.08897942e-01 5.09671383e-02 2.18997940e-01 3.08897942e-01
      3.08897942e-01 2.74382960e-02 2.70395756e-01 3.08897942e-01
      2.56631196e-01 2.74893586e-02 3.33461732e-01 3.33461732e-01
      2.02081338e-01 4.80787940e-02 2.58389682e-01 3.33461732e-01
      3.33461732e-01 4.85954806e-02 3.33461732e-01 3.33461732e-01
      1.83634251e-01 3.73129882e-02 1.46197259e-01 3.06773335e-01
      3.29071701e-01 2.41030976e-01 2.56505638e-01 3.29071701e-01
      3.29071701e-01 2.27233022e-01 3.29071701e-01 3.29071701e-01
      2.26038784e-01 7.64579251e-02 8.57901648e-02 2.21116632e-01
      1.63924634e-01 1.35872975e-01 2.34367862e-01 2.57472992e-01</_>
    <_>
      2.98678309e-01 3.57466191e-02 2.44939834e-01 3.12381357e-01
      2.97521174e-01 1.76969580e-02 3.12381357e-01 3.12381357e-01
      3.12381357e-01 4.22380045e-02 1.67200506e-01 3.12381357e-01
      3.12381357e-01 2.97315679e-02 2.09441036e-01 3.12381357e-01
      3.16212684e-01 3.31933238e-02 3.25804561e-01 3.25804561e-01
      1.96673989e-01 4.13481481e-02 2.65765607e-01 3.25804561e-01
      3.25804561e-01 5.13731577e-02 2.79726028e-01 3.25804561e-01
      2.18296185e-01 4.43236418e-02 1.35483876e-01 3.24080527e-01
      3.11922610e-01 1.44098312e-01 2.82973677e-01 3.11922610e-01
      3.11922610e-01 1.71160370e-01 3.11922610e-01 3.11922610e-01
      2.27565989e-01 6.03804402e-02 8.77010450e-02 2.62931466e-01
      2.10787207e-01 1.53375879e-01 2.87685037e-01 3.11922610e-01</_>
    <_>
      3.20471972e-01 3.77768688e-02 2.01082781e-01 3.20471972e-01
      3.20471972e-01 2.45915316e-02 3.20471972e-01 3.20471972e-01
      3.20471972e-01 3.09831705e-02 8.66169557e-02 3.20471972e-01
      3.20471972e-01 4.47097793e-02 1.39820442e-01 3.20471972e-01
      2.91145086e-01 3.96259092e-02 3.17687273e-01 3.17687273e-01
      1.39438018e-01 4.75723669e-02 3.17687273e-01 3.17687273e-01
      3.17687273e-01 8.28857347e-02 2.08483085e-01 3.17687273e-01
      3.16441894e-01 7.95002207e-02 1.59738645e-01 3.17687273e-01
      2.96522737e-01 8.62275213e-02 2.96522737e-01 2.96522737e-01
      2.96522737e-01 9.60473865e-02 2.96522737e-01 2.96522737e-01
      2.96522737e-01 9.66983736e-02 1.42289415e-01 2.96522737e-01
      2.96522737e-01 1.41967401e-01 2.26644590e-01 2.96522737e-01</_>
    <_>
      3.26682866e-01 4.01271358e-02 1.47931769e-01 3.26682866e-01
      3.26682866e-01 3.64931971e-02 2.70912528e-01 3.26682866e-01
      3.26682866e-01 9.63976532e-02 8.12903494e-02 3.26682866e-01
      3.26682866e-01 1.39167011e-01 9.73388627e-02 3.26682866e-01
      3.16602439e-01 5.12424074e-02 3.16602439e-01 3.16602439e-01
      2.31214613e-01 4.70273905e-02 2.26345375e-01 3.16602439e-01
      3.16602439e-01 1.88183114e-01 1.33301988e-01 3.16602439e-01
      3.16602439e-01 1.51318699e-01 9.65934172e-02 3.16602439e-01
      3.01369101e-01 7.70930126e-02 2.09323645e-01 3.01369101e-01
      3.01369101e-01 1.23789608e-01 3.01369101e-01 3.01369101e-01
      3.01369101e-01 1.81296155e-01 8.63365754e-02 3.01369101e-01
      3.01369101e-01 2.40390986e-01 1.28003314e-01 3.01369101e-01</_>
    <_>
      3.11486691e-01 1.65969551e-01 3.52944918e-02 3.11486691e-01
      3.11486691e-01 1.82724208e-01 2.10475139e-02 3.11486691e-01
      3.11486691e-01 2.60421693e-01 3.50204557e-02 2.98091978e-01
      3.11486691e-01 3.11486691e-01 2.13446803e-02 3.11025321e-01
      3.26490879e-01 2.29684606e-01 3.64558361e-02 3.26490879e-01
      3.26490879e-01 1.88522160e-01 3.98848467e-02 1.68610558e-01
      3.26490879e-01 3.26490879e-01 4.27773520e-02 3.07951272e-01
      3.26490879e-01 3.26490879e-01 8.28854144e-02 1.65483400e-01
      3.22870612e-01 2.35192463e-01 4.01133560e-02 1.16458587e-01
      3.49709600e-01 2.60106713e-01 1.24181718e-01 2.09184274e-01
      3.49709600e-01 3.49709600e-01 1.22681551e-01 1.98221117e-01
      3.49709600e-01 3.49709600e-01 2.03673821e-02 1.69403225e-01</_>
    <_>
      3.09032530e-01 1.67666808e-01 1.85946524e-02 3.09032530e-01
      3.09032530e-01 2.27276370e-01 1.14980154e-02 3.09032530e-01
      3.09032530e-01 3.03175271e-01 2.40921844e-02 2.69462138e-01
      3.09032530e-01 3.09032530e-01 2.21638586e-02 2.87337631e-01
      3.22899789e-01 2.74947733e-01 3.04176193e-02 3.22899789e-01
      3.22899789e-01 2.21000463e-01 4.82833050e-02 1.72629759e-01
      3.22899789e-01 3.22899789e-01 4.17724475e-02 2.72266328e-01
      3.22899789e-01 3.22899789e-01 1.10900022e-01 1.45795032e-01
      3.29088420e-01 2.51238763e-01 6.33233264e-02 1.21027768e-01
      2.40140617e-01 2.30920672e-01 1.03500687e-01 1.11556284e-01
      3.71776342e-01 3.71776342e-01 2.55016774e-01 1.82028934e-01
      3.71776342e-01 3.71776342e-01 8.21693018e-02 1.19450919e-01</_>
    <_>
      3.26161712e-01 3.51485237e-02 1.74108982e-01 3.26161712e-01
      3.26161712e-01 4.19810601e-02 2.63376206e-01 3.26161712e-01
      3.26161712e-01 5.80562502e-02 1.21628568e-01 3.26161712e-01
      3.26161712e-01 6.73031658e-02 1.42536730e-01 3.26161712e-01
      3.79913658e-01 1.29518792e-01 3.79913658e-01 3.79913658e-01
      2.27859393e-01 1.05148584e-01 1.02610245e-01 2.30080739e-01
      3.79913658e-01 1.62431404e-01 2.93078601e-01 3.79913658e-01
      7.17503279e-02 3.44883651e-02 5.80207631e-02 9.66039449e-02
      4.03355271e-01 3.20072472e-01 2.04813942e-01 4.03355271e-01
      4.03355271e-01 6.03289641e-02 4.03355271e-01 4.03355271e-01
      5.18936887e-02 1.06093800e-02 2.56858468e-02 7.04421997e-02
      1.19424559e-01 3.31622176e-02 2.16031782e-02 1.01006806e-01</_>
    <_>
      3.31816047e-01 4.57675382e-02 1.02102153e-01 3.31816047e-01
      3.31816047e-01 5.60236126e-02 2.10641608e-01 3.31816047e-01
      3.31816047e-01 1.26395896e-01 6.48262650e-02 3.31816047e-01
      3.31816047e-01 1.75466761e-01 6.98173717e-02 3.31816047e-01
      3.28553885e-01 8.19632784e-02 2.77845085e-01 3.28553885e-01
      2.46276662e-01 6.55954108e-02 1.16969801e-01 3.10939491e-01
      3.28553885e-01 2.54602879e-01 9.28636715e-02 3.28553885e-01
      3.28553885e-01 1.92223087e-01 6.41125441e-02 2.88507223e-01
      3.05360228e-01 1.43330753e-01 7.03559294e-02 3.05360228e-01
      2.75084883e-01 1.52109101e-01 3.05360228e-01 3.05360228e-01
      3.05360228e-01 2.46496573e-01 6.18777275e-02 3.05360228e-01
      3.05360228e-01 2.43263796e-01 5.40420003e-02 3.05360228e-01</_>
    <_>
      3.31914335e-01 5.85827753e-02 4.55030091e-02 3.31914335e-01
      3.31914335e-01 8.96745771e-02 1.20367929e-01 3.31914335e-01
      3.31914335e-01 1.66870534e-01 4.74766530e-02 3.31914335e-01
      3.31914335e-01 2.37085015e-01 3.17021310e-02 3.31914335e-01
      3.24924529e-01 1.32453084e-01 1.75201729e-01 3.24924529e-01
      2.57115573e-01 9.72095132e-02 9.00685117e-02 2.47053042e-01
      3.24924529e-01 3.24924529e-01 5.64397760e-02 3.24924529e-01
      3.24924529e-01 3.06540787e-01 7.42967054e-02 2.60153383e-01
      2.87569731e-01 1.04491010e-01 4.88923267e-02 2.23474264e-01
      2.64884502e-01 1.35322794e-01 1.45954147e-01 2.77864039e-01
      3.29372317e-01 3.29372317e-01 1.11210696e-01 3.29372317e-01
      3.29372317e-01 3.29372317e-01 2.21670698e-02 3.29372317e-01</_>
    <_>
      3.42877656e-01 5.15126549e-02 1.45143464e-01 3.42877656e-01
      3.42877656e-01 3.74761783e-02 1.52721196e-01 3.42877656e-01
      3.42877656e-01 1.69345718e-02 3.39955539e-02 3.42877656e-01
      3.42877656e-01 5.76778799e-02 5.32528497e-02 3.42877656e-01
      3.42727453e-01 6.61550090e-02 2.32097819e-01 3.42727453e-01
      1.43139333e-01 5.39037660e-02 2.27142841e-01 3.42727453e-01
      3.42727453e-01 1.53692946e-01 9.84877869e-02 3.42727453e-01
      3.42727453e-01 1.18399128e-01 7.23727196e-02 3.25563133e-01
      2.10876808e-01 6.35412410e-02 3.44490796e-01 3.44490796e-01
      1.62106022e-01 4.11075801e-02 3.44490796e-01 3.44490796e-01
      3.44490796e-01 9.89515632e-02 6.37940317e-02 3.44490796e-01
      2.43310586e-01 2.69737337e-02 1.24809198e-01 3.44490796e-01</_>
    <_>
      3.38230342e-01 6.06235415e-02 2.21010044e-01 3.39212030e-01
      2.96318144e-01 3.74661088e-02 1.71095878e-01 3.39212030e-01
      3.39212030e-01 2.19499134e-02 7.89605901e-02 3.39212030e-01
      3.39212030e-01 8.35804194e-02 8.43642280e-02 3.39212030e-01
      3.66982520e-01 7.12022334e-02 3.05825889e-01 3.66982520e-01
      1.74065560e-01 4.65626046e-02 2.07617164e-01 3.66982520e-01
      3.66982520e-01 1.90019563e-01 1.42912954e-01 3.66982520e-01
      2.02329382e-01 6.64397925e-02 5.58730774e-02 2.09229529e-01
      3.52978259e-01 6.14532754e-02 2.77024209e-01 3.96727145e-01
      2.87149519e-01 4.87977825e-02 3.96727145e-01 3.96727145e-01
      1.92669839e-01 2.04109922e-02 3.59502658e-02 2.44317874e-01
      1.66142091e-01 2.59353854e-02 1.02084562e-01 3.10952932e-01</_>
    <_>
      3.27341229e-01 9.16259885e-02 7.36312643e-02 3.27341229e-01
      3.27341229e-01 1.42878681e-01 6.52803555e-02 3.27341229e-01
      3.27341229e-01 1.52740955e-01 4.92507480e-02 3.27341229e-01
      3.27341229e-01 2.72496849e-01 3.17557566e-02 3.27341229e-01
      3.41885269e-01 2.33591318e-01 8.59710425e-02 3.41885269e-01
      1.64498761e-01 7.63442591e-02 3.47720236e-02 1.16009578e-01
      3.41885269e-01 3.41885269e-01 6.18144199e-02 3.41885269e-01
      3.41885269e-01 3.41885269e-01 6.10324666e-02 2.47644484e-01
      1.44747943e-01 5.07500209e-02 1.96959488e-02 1.05990335e-01
      2.88011342e-01 2.94436276e-01 9.15822312e-02 1.14855558e-01
      3.73048216e-01 3.73048216e-01 1.05438806e-01 3.73048216e-01
      3.73048216e-01 3.73048216e-01 1.92151710e-01 1.61359370e-01</_>
    <_>
      3.17823172e-01 4.74860035e-02 2.59093434e-01 3.17823172e-01
      3.17823172e-01 2.57183276e-02 2.72412866e-01 3.17823172e-01
      3.17823172e-01 5.30521274e-02 1.52317256e-01 3.17823172e-01
      3.17823172e-01 5.67833781e-02 1.23441823e-01 3.17823172e-01
      3.43638211e-01 6.18866161e-02 3.41838300e-01 3.43638211e-01
      3.10705543e-01 5.93576953e-02 1.33884966e-01 3.43638211e-01
      3.43638211e-01 1.28739387e-01 1.46554649e-01 3.43638211e-01
      2.45618448e-01 6.94261342e-02 6.41378835e-02 2.45247826e-01
      3.77094656e-01 1.09105788e-01 1.81042880e-01 3.77094656e-01
      3.77094656e-01 1.48308007e-02 2.29293361e-01 3.77094656e-01
      2.70956844e-01 9.78859141e-02 6.75568283e-02 2.21028313e-01
      3.71727973e-01 1.70299545e-01 1.15531320e-02 1.61930159e-01</_>
    <_>
      3.41755629e-01 5.23662083e-02 8.69441628e-02 3.41755629e-01
      3.41755629e-01 5.01449257e-02 1.35229245e-01 3.41755629e-01
      3.41755629e-01 1.04811728e-01 6.05982244e-02 3.41755629e-01
      3.41755629e-01 1.21487461e-01 4.11137864e-02 3.41755629e-01
      3.44223469e-01 8.27507004e-02 1.88178465e-01 3.44223469e-01
      2.64637619e-01 5.79530448e-02 8.80506486e-02 2.97711313e-01
      3.44223469e-01 2.07650632e-01 7.00739697e-02 3.44223469e-01
      3.44223469e-01 1.66511163e-01 6.09626137e-02 3.35566312e-01
      3.16241890e-01 6.82545453e-02 9.50080901e-02 3.16241890e-01
      3.16241890e-01 3.85595597e-02 1.56693861e-01 3.16241890e-01
      3.16241890e-01 3.16241890e-01 1.13473497e-01 3.16241890e-01
      3.16241890e-01 3.16241890e-01 5.38601168e-02 2.03119248e-01</_>
    <_>
      3.39399993e-01 4.76643704e-02 1.21559709e-01 3.39399993e-01
      3.39399993e-01 3.53508852e-02 1.84157342e-01 3.39399993e-01
      3.39399993e-01 7.70191699e-02 6.93294927e-02 3.39399993e-01
      3.39399993e-01 8.79443958e-02 6.62207231e-02 3.39399993e-01
      3.48920882e-01 8.10747966e-02 2.78288484e-01 3.48920882e-01
      2.14059234e-01 4.96917367e-02 1.03791289e-01 2.84572750e-01
      3.48920882e-01 1.72040433e-01 1.14459589e-01 3.48920882e-01
      3.48920882e-01 1.16229534e-01 7.23439604e-02 3.19813430e-01
      3.10747236e-01 3.97801623e-02 1.20667316e-01 3.10747236e-01
      3.10747236e-01 3.39573734e-02 2.87620068e-01 3.10747236e-01
      3.10747236e-01 1.79523349e-01 1.03088088e-01 3.10747236e-01
      3.10747236e-01 3.10747236e-01 1.17050096e-01 2.60396034e-01</_>
    <_>
      3.41881484e-01 4.53857407e-02 1.09501682e-01 3.41881484e-01
      3.41881484e-01 3.21332030e-02 1.66381210e-01 3.41881484e-01
      3.41881484e-01 7.62177259e-02 7.11857527e-02 3.41881484e-01
      3.41881484e-01 6.93817064e-02 5.53583652e-02 3.41881484e-01
      3.44565392e-01 6.85106441e-02 2.42509931e-01 3.44565392e-01
      2.47423723e-01 5.79963103e-02 1.14168048e-01 3.20813835e-01
      3.44565392e-01 1.41003042e-01 8.69891271e-02 3.44565392e-01
      3.44565392e-01 1.13468342e-01 5.91260046e-02 3.39216918e-01
      3.20253670e-01 7.55941942e-02 1.33889481e-01 3.20253670e-01
      3.20253670e-01 2.17279308e-02 2.15051055e-01 3.20253670e-01
      3.20253670e-01 2.12951988e-01 9.92866680e-02 3.20253670e-01
      3.20253670e-01 3.20253670e-01 6.16858900e-02 2.16631949e-01</_>
    <_>
      3.06514949e-01 1.87345266e-01 3.13794762e-02 3.06514949e-01
      3.06514949e-01 2.14638799e-01 3.05943619e-02 3.06514949e-01
      3.06514949e-01 2.57873237e-01 3.90280001e-02 3.06514949e-01
      3.06514949e-01 3.06514949e-01 1.62486415e-02 3.06514949e-01
      3.29925388e-01 2.95862585e-01 5.37311882e-02 3.29925388e-01
      2.33742863e-01 1.16496034e-01 3.26505415e-02 1.41142890e-01
      3.29925388e-01 3.29925388e-01 4.21240665e-02 3.29925388e-01
      3.29925388e-01 3.29925388e-01 7.96442702e-02 2.16828346e-01
      2.12667733e-01 1.10211380e-01 3.48699354e-02 1.27194911e-01
      1.99355021e-01 2.38391459e-01 1.13050461e-01 7.57538006e-02
      3.77386957e-01 3.77386957e-01 1.59415096e-01 3.77386957e-01
      3.77386957e-01 3.77386957e-01 1.70059741e-01 1.99827775e-01</_>
    <_>
      3.42136204e-01 3.90281267e-02 1.07001856e-01 3.42136204e-01
      3.42136204e-01 2.13684570e-02 1.67848945e-01 3.42136204e-01
      3.42136204e-01 6.57165721e-02 6.45313412e-02 3.42136204e-01
      3.42136204e-01 7.81086981e-02 6.27517626e-02 3.42136204e-01
      3.38114768e-01 5.41590378e-02 2.46553749e-01 3.38114768e-01
      2.65398026e-01 6.17076047e-02 1.49799496e-01 3.38114768e-01
      3.38114768e-01 1.48829713e-01 9.06993747e-02 3.38114768e-01
      3.38114768e-01 1.10204317e-01 5.89795671e-02 3.22933376e-01
      3.38673919e-01 9.23177004e-02 2.02388525e-01 3.38673919e-01
      3.38673919e-01 1.26179578e-02 1.56318486e-01 3.38673919e-01
      3.38673919e-01 1.75130934e-01 7.82374442e-02 3.38673919e-01
      3.38673919e-01 2.20641375e-01 1.56920776e-02 1.84165135e-01</_>
    <_>
      3.15784186e-01 9.15760994e-02 4.53974977e-02 3.15784186e-01
      3.15784186e-01 1.58394367e-01 1.10133521e-01 3.15784186e-01
      3.15784186e-01 2.20292524e-01 4.73482870e-02 3.15784186e-01
      3.15784186e-01 3.15784186e-01 3.05286981e-02 3.15784186e-01
      3.30650419e-01 2.21790493e-01 1.82116076e-01 3.30650419e-01
      2.21352160e-01 1.13797799e-01 7.65906721e-02 1.77901432e-01
      3.30650419e-01 3.30650419e-01 6.76394179e-02 3.30650419e-01
      3.30650419e-01 3.30650419e-01 1.08344615e-01 1.82360902e-01
      2.66362429e-01 1.08533569e-01 4.11392227e-02 2.03119904e-01
      2.69532979e-01 2.25697115e-01 7.92433470e-02 1.55727446e-01
      3.60121697e-01 3.60121697e-01 2.35363007e-01 3.28526378e-01
      3.60121697e-01 3.60121697e-01 1.43280566e-01 1.18323550e-01</_>
    <_>
      3.29168826e-01 6.99753463e-02 7.19412863e-02 3.29168826e-01
      3.29168826e-01 1.05112374e-01 8.63432288e-02 3.29168826e-01
      3.29168826e-01 1.63851276e-01 4.11128700e-02 3.29168826e-01
      3.29168826e-01 2.67504752e-01 3.49571481e-02 3.29168826e-01
      3.31156224e-01 1.75277844e-01 1.21165588e-01 3.31156224e-01
      2.86517113e-01 1.08633362e-01 5.93395121e-02 2.33890519e-01
      3.31156224e-01 3.31156224e-01 6.14515729e-02 3.31156224e-01
      3.31156224e-01 3.14859182e-01 5.09948023e-02 1.88861921e-01
      2.80661941e-01 1.03091188e-01 6.08174950e-02 2.44607329e-01
      2.99782991e-01 1.49330869e-01 2.04683587e-01 3.13130945e-01
      3.13130945e-01 3.13130945e-01 5.58512174e-02 3.13130945e-01
      3.13130945e-01 3.13130945e-01 1.99898034e-02 3.13130945e-01</_>
    <_>
      3.26386154e-01 7.48133659e-02 8.31498280e-02 3.26386154e-01
      3.26386154e-01 1.18585676e-01 9.54989344e-02 3.26386154e-01
      3.26386154e-01 1.64908379e-01 4.43776250e-02 3.26386154e-01
      3.26386154e-01 2.79394358e-01 3.99552584e-02 3.26386154e-01
      3.36392909e-01 1.93504646e-01 1.36585310e-01 3.36392909e-01
      2.71407276e-01 9.64630619e-02 4.88797575e-02 2.07981259e-01
      3.36392909e-01 3.36392909e-01 7.63308406e-02 3.36392909e-01
      3.36392909e-01 3.03919077e-01 5.47691286e-02 1.78249672e-01
      2.48318925e-01 8.16413835e-02 4.15414013e-02 2.03752771e-01
      2.85827368e-01 1.86064839e-01 2.35060453e-01 3.18449020e-01
      3.18449020e-01 3.18449020e-01 5.58872893e-02 3.18449020e-01
      3.18449020e-01 3.18449020e-01 2.62082312e-02 3.18449020e-01</_>
    <_>
      3.25484931e-01 3.37536372e-02 1.69890121e-01 3.25484931e-01
      3.25484931e-01 2.76161674e-02 2.90411681e-01 3.25484931e-01
      3.25484931e-01 5.50965257e-02 9.04972479e-02 3.25484931e-01
      3.25484931e-01 8.45325515e-02 1.25497833e-01 3.25484931e-01
      3.24216902e-01 5.80824949e-02 3.24216902e-01 3.24216902e-01
      2.45503783e-01 8.00566450e-02 2.95843214e-01 3.24216902e-01
      3.24216902e-01 1.44592255e-01 1.85604110e-01 3.24216902e-01
      2.66365111e-01 8.26853439e-02 9.43343118e-02 2.57761419e-01
      3.24750751e-01 1.46392375e-01 3.24750751e-01 3.24750751e-01
      1.45455077e-01 1.57254040e-01 3.24750751e-01 3.24750751e-01
      2.73284823e-01 6.13878369e-02 6.24150708e-02 2.49784306e-01
      3.10215622e-01 1.92381829e-01 1.93407536e-01 2.94501632e-01</_>
    <_>
      2.08000749e-01 4.72388566e-02 3.07309270e-01 3.07309270e-01
      1.97088286e-01 3.79613861e-02 3.07309270e-01 3.07309270e-01
      3.07309270e-01 3.72955874e-02 2.73368657e-01 3.07309270e-01
      3.07309270e-01 4.42153886e-02 2.78496474e-01 3.07309270e-01
      2.22544968e-01 8.77822340e-02 3.35798204e-01 3.35798204e-01
      1.88554615e-01 1.04767047e-01 3.35798204e-01 3.35798204e-01
      3.35798204e-01 9.47367549e-02 3.31726938e-01 3.35798204e-01
      1.29649043e-01 5.68521805e-02 1.46901265e-01 2.35971406e-01
      3.54696810e-01 1.35941043e-01 3.67835850e-01 3.67835850e-01
      1.15362614e-01 1.39685437e-01 3.67835850e-01 3.67835850e-01
      1.19983569e-01 4.08839062e-02 1.44919917e-01 2.58415490e-01
      7.34376535e-02 1.25585869e-01 3.00830007e-01 2.49980643e-01</_>
    <_>
      2.70024121e-01 2.76726782e-01 2.76726782e-01 2.76726782e-01
      1.40238672e-01 2.76726782e-01 2.76726782e-01 2.23522186e-01
      2.00063854e-01 2.60024488e-01 2.76726782e-01 2.76349813e-01
      1.49932221e-01 2.63653070e-01 2.76726782e-01 2.06515372e-01
      1.99692816e-01 3.50468099e-01 3.50468099e-01 3.00805539e-01
      1.40425310e-01 1.39080822e-01 1.82964876e-01 1.84557661e-01
      3.42022747e-01 3.50468099e-01 3.50468099e-01 3.50468099e-01
      8.21079463e-02 8.17247480e-02 8.70385394e-02 8.61476958e-02
      4.80171651e-01 4.80171651e-01 4.80171651e-01 4.80171651e-01 0.
      4.22288431e-05 4.22288431e-05 0. 1.06009237e-01 1.05200723e-01
      1.60511464e-01 1.57720491e-01 0. 4.52851282e-06 4.52851282e-06 0.</_>
    <_>
      2.85037696e-01 2.85037696e-01 2.85037696e-01 2.85037696e-01
      2.85037696e-01 2.85037696e-01 2.75985360e-01 2.82525033e-01
      2.84109026e-01 2.85037696e-01 2.85037696e-01 2.64981419e-01
      1.18196182e-01 9.02974159e-02 8.06762651e-02 1.07822858e-01
      4.54715401e-01 4.54715401e-01 4.54715401e-01 4.54715401e-01 0.
      4.88551223e-06 4.88551223e-06 0. 2.10439309e-01 2.14555070e-01
      2.00404659e-01 1.94712669e-01 0. 0. 0. 0. 0. 0. 0. 0. 0.
      4.98753130e-01 4.98753130e-01 0. 0. 0. 0. 0. 0. 4.98753130e-01
      4.98753130e-01 0.</_>
    <_>
      2.60375977e-01 2.60375977e-01 2.60375977e-01 2.13697121e-01
      2.60375977e-01 2.60375977e-01 2.60375977e-01 2.51955181e-01
      2.60375977e-01 2.60375977e-01 2.60375977e-01 2.09708393e-01
      2.37324521e-01 2.60375977e-01 2.60375977e-01 2.05420464e-01
      3.28470349e-01 3.28470349e-01 3.28470349e-01 3.28470349e-01
      9.37590301e-02 3.03880256e-02 2.54572518e-02 7.61834830e-02
      3.28470349e-01 3.28470349e-01 3.28470349e-01 3.28470349e-01
      2.62033343e-01 6.29259646e-02 4.71751280e-02 2.06308156e-01
      4.17769760e-01 2.26265714e-01 1.91644460e-01 4.17769760e-01
      1.08996322e-02 1.06880041e-02 1.11440485e-02 1.10561093e-02
      4.17769760e-01 3.74770015e-01 2.62372822e-01 4.17769760e-01
      1.17016770e-03 1.11133920e-03 1.11217541e-03 1.14239368e-03</_>
    <_>
      1.81373715e-01 6.99422136e-02 4.38648164e-02 1.25617281e-01
      9.91861895e-02 5.72000593e-02 5.46828583e-02 8.28013271e-02
      3.43506217e-01 3.43506217e-01 3.43506217e-01 3.43506217e-01
      3.43506217e-01 3.43506217e-01 3.43506217e-01 3.03552508e-01
      1.64897680e-01 1.94182009e-01 2.06238523e-01 1.54127553e-01 0. 0.
      0. 0. 4.64803696e-01 4.64803696e-01 4.64803696e-01 4.64803696e-01
      0. 0. 0. 0. 0. 0. 0. 0. 0. 0. 0. 0. 0. 0. 0. 0. 0. 0. 0. 0.</_>
    <_>
      2.53620267e-01 2.53620267e-01 2.53620267e-01 2.53620267e-01
      2.53620267e-01 2.53620267e-01 2.53620267e-01 2.53620267e-01
      2.53620267e-01 2.24622145e-01 2.39968419e-01 2.53620267e-01
      2.37076968e-01 2.47671217e-01 2.53620267e-01 2.53620267e-01
      3.40199947e-01 3.40199947e-01 3.40199947e-01 3.40199947e-01
      4.84694801e-02 3.21322680e-02 3.92292738e-02 5.95782958e-02
      3.40199947e-01 3.40199947e-01 3.40199947e-01 3.40199947e-01
      1.26131892e-01 1.10404447e-01 1.18492126e-01 1.41787708e-01
      3.05259705e-01 1.63782626e-01 2.12425560e-01 3.58727723e-01
      6.18471205e-03 4.83753253e-03 6.02896931e-03 5.62703330e-03
      4.06388432e-01 4.06388432e-01 4.06388432e-01 4.06388432e-01
      7.65846223e-02 1.31383240e-01 1.16486616e-01 6.84845895e-02</_>
    <_>
      2.11177438e-01 2.22618014e-01 3.02732617e-01 3.02732617e-01
      7.61827230e-02 1.03600726e-01 1.47524267e-01 1.31947771e-01
      3.02732617e-01 3.02732617e-01 3.02732617e-01 3.02732617e-01
      2.02526286e-01 3.02732617e-01 3.02732617e-01 2.70030767e-01
      6.29061460e-02 2.23744586e-01 3.03639501e-01 1.48148671e-01
      9.69784986e-03 2.23848801e-02 1.57430582e-02 6.84635527e-03
      4.43237990e-01 4.43237990e-01 4.43237990e-01 4.43237990e-01
      1.04945540e-01 1.02987818e-01 1.01216987e-01 9.38853025e-02
      3.79167765e-01 3.79167765e-01 3.79167765e-01 3.63732994e-01
      2.96606034e-01 3.79167765e-01 3.58553976e-01 1.50470689e-01
      9.30504277e-02 1.25872225e-01 1.32150143e-01 8.77158865e-02 0. 0.
      0. 0.</_>
    <_>
      3.09852034e-01 1.80374995e-01 2.04265356e-01 3.09852034e-01
      2.57797480e-01 1.06411800e-01 1.30805045e-01 2.91788489e-01
      3.09852034e-01 2.20072195e-01 2.16950789e-01 3.09852034e-01
      3.09852034e-01 1.76632717e-01 1.99656337e-01 3.09852034e-01
      3.75904411e-01 2.23911136e-01 2.80306876e-01 3.75904411e-01
      3.22879032e-07 9.35448315e-06 9.35448315e-06 3.22879032e-07
      3.75904411e-01 3.75904411e-01 3.75904411e-01 3.75904411e-01
      7.95232058e-02 2.79803667e-02 4.80156057e-02 1.01485156e-01 0. 0.
      0. 0. 0. 0. 0. 0. 4.98753130e-01 4.98753130e-01 4.98753130e-01
      4.98753130e-01 0. 0. 0. 0.</_>
    <_>
      2.84356087e-01 2.84356087e-01 2.84356087e-01 2.84356087e-01
      1.00870527e-01 2.04029962e-01 2.80603230e-01 1.71291709e-01
      2.84356087e-01 2.84356087e-01 2.84356087e-01 2.84356087e-01
      1.43181399e-01 1.99241549e-01 2.84356087e-01 2.22154811e-01
      1.09149389e-01 3.71270984e-01 3.71270984e-01 2.60583162e-01
      1.56732187e-01 1.58404395e-01 2.05350742e-01 2.08453581e-01
      2.45050862e-01 3.71270984e-01 3.71270984e-01 3.71270984e-01
      5.34089021e-02 5.49720600e-02 1.11630775e-01 1.16611987e-01
      1.77578166e-01 1.77374512e-01 2.32681021e-01 2.32253268e-01
      3.49661440e-01 3.49661440e-01 3.49661440e-01 3.49661440e-01
      6.89583272e-02 7.01021850e-02 1.39860690e-01 1.42618969e-01
      3.23964775e-01 3.22894275e-01 1.99017316e-01 1.94894135e-01</_>
    <_>
      2.81355292e-01 2.79529482e-01 2.53467709e-01 2.53234744e-01
      1.62575573e-01 1.47475049e-01 1.40946999e-01 1.48270503e-01
      2.81355292e-01 2.81355292e-01 2.81355292e-01 2.81355292e-01
      2.81355292e-01 2.81355292e-01 2.81355292e-01 2.59541303e-01
      2.74214864e-01 3.45641166e-01 3.45641166e-01 2.55996376e-01
      7.82641247e-02 1.80594757e-01 2.67916471e-01 1.44611776e-01
      3.45641166e-01 3.45641166e-01 3.45641166e-01 3.45641166e-01
      2.85092760e-02 2.85818595e-02 5.45805395e-02 5.45112453e-02
      3.06647539e-01 3.06647539e-01 3.06647539e-01 3.06647539e-01
      1.82758972e-01 1.79873124e-01 3.06647539e-01 3.06647539e-01
      2.04454601e-01 2.00541154e-01 3.06647539e-01 3.06647539e-01
      1.09452568e-01 1.05363920e-01 1.93275318e-01 1.90954924e-01</_>
    <_>
      2.36350894e-01 2.06623048e-01 1.89991117e-01 2.12824330e-01
      2.03592822e-01 2.92313665e-01 2.92313665e-01 2.92313665e-01
      2.92313665e-01 9.77517888e-02 2.84787361e-02 2.85899669e-01
      2.92313665e-01 2.92313665e-01 2.92313665e-01 2.92313665e-01
      1.95212170e-01 3.09279680e-01 3.09279680e-01 2.96524644e-01
      1.51952237e-01 2.08015323e-01 2.23115727e-01 1.64852887e-01
      3.09279680e-01 3.09279680e-01 3.09279680e-01 3.09279680e-01
      1.60056889e-01 2.22939208e-01 2.27506176e-01 1.62958279e-01
      1.88747302e-01 9.75574628e-02 9.81660113e-02 1.92070156e-01
      1.47056445e-01 6.09250329e-02 4.35543805e-02 1.30458027e-01
      3.37380797e-01 1.59113571e-01 1.54778376e-01 3.35004777e-01
      3.82402897e-01 3.82402897e-01 3.82402897e-01 3.82402897e-01</_>
    <_>
      3.32345992e-01 1.22344464e-01 1.28653929e-01 3.32345992e-01
      3.32345992e-01 1.20857313e-01 1.60980731e-01 3.32345992e-01
      3.32345992e-01 1.37005210e-01 8.69221017e-02 3.32345992e-01
      3.32345992e-01 9.34964865e-02 7.70690292e-02 3.32345992e-01
      3.17671180e-01 8.47424567e-02 1.05597444e-01 3.17671180e-01
      3.17671180e-01 1.48338795e-01 1.38160303e-01 3.17671180e-01
      3.17671180e-01 1.10868171e-01 9.51441601e-02 3.17671180e-01
      3.17671180e-01 2.55637050e-01 2.08294898e-01 3.17671180e-01
      2.99398571e-01 1.03049181e-01 8.94326568e-02 2.99398571e-01
      2.99398571e-01 1.75611764e-01 1.47869378e-01 2.99398571e-01
      2.99398571e-01 2.18368500e-01 1.68227181e-01 2.99398571e-01
      2.99398571e-01 2.85248101e-01 2.26314932e-01 2.99398571e-01</_>
    <_>
      3.41233701e-01 1.18992023e-01 6.64496794e-02 3.41233701e-01
      3.41233701e-01 8.70861486e-02 5.90353869e-02 3.41233701e-01
      3.41233701e-01 1.41134188e-01 3.01303193e-02 3.41233701e-01
      3.41233701e-01 1.13742508e-01 4.07335907e-02 3.41233701e-01
      3.42412561e-01 8.12513903e-02 4.76951487e-02 3.42412561e-01
      3.42412561e-01 1.04818121e-01 2.95591597e-02 3.42412561e-01
      3.42412561e-01 1.12758443e-01 4.66692485e-02 3.42412561e-01
      3.42412561e-01 1.44245550e-01 4.65996601e-02 3.42412561e-01
      2.89478779e-01 1.13308638e-01 5.96984476e-02 2.89478779e-01
      2.89478779e-01 2.29654938e-01 2.17500895e-01 2.89478779e-01
      2.89478779e-01 1.78122923e-01 1.04637563e-01 2.89478779e-01
      2.89478779e-01 2.89478779e-01 2.89478779e-01 2.89478779e-01</_>
    <_>
      2.26424932e-01 1.37795836e-01 1.63685247e-01 2.49235734e-01
      2.33819306e-01 3.50777924e-01 3.50777924e-01 3.50777924e-01
      1.36282057e-01 8.88778046e-02 8.86049867e-02 1.37239218e-01
      1.46354362e-01 3.50777924e-01 3.50777924e-01 3.04719180e-01
      1.32312760e-01 3.29417229e-01 3.29417229e-01 3.29417229e-01
      2.80054659e-02 1.02009378e-01 1.68356419e-01 7.72395730e-02
      1.36277050e-01 3.29417229e-01 3.29417229e-01 3.29417229e-01
      6.44655600e-02 3.27903926e-01 3.29417229e-01 2.09389105e-01
      2.95879552e-03 2.17485987e-02 2.61615831e-02 6.77690702e-03 0. 0.
      0. 0. 1.41307831e-01 5.69541574e-01 5.69541574e-01 5.69541574e-01
      0. 0. 0. 0.</_>
    <_>
      2.52749354e-01 1.81512013e-01 2.05446318e-01 2.80094773e-01
      1.14294603e-01 9.71190929e-02 1.30170465e-01 1.49712279e-01
      3.06025445e-01 3.06025445e-01 3.06025445e-01 3.06025445e-01
      2.49073252e-01 3.06025445e-01 3.06025445e-01 3.06025445e-01
      2.60524958e-01 2.86531240e-01 3.35490584e-01 3.35490584e-01
      9.72315297e-02 9.32732448e-02 1.28263131e-01 1.46450505e-01
      3.35490584e-01 3.35490584e-01 3.35490584e-01 3.35490584e-01
      1.20258786e-01 1.46893665e-01 1.97895736e-01 2.00237960e-01
      4.97004360e-01 4.97004360e-01 4.97004360e-01 4.97004360e-01 0. 0.
      0. 0. 0. 5.90881146e-02 5.90881146e-02 0. 0. 0. 0. 0.</_>
    <_>
      2.38042518e-01 1.97819650e-01 2.76794016e-01 2.93398499e-01
      3.68123114e-01 3.68123114e-01 3.68123114e-01 3.68123114e-01
      1.23293204e-02 1.69562660e-02 2.94404458e-02 2.21496597e-02
      1.03150085e-01 2.45469987e-01 3.20746034e-01 1.42122820e-01
      3.96206141e-01 3.96206141e-01 3.96206141e-01 3.96206141e-01
      3.73769067e-02 1.20055825e-01 1.28209576e-01 3.67326029e-02
      1.37966082e-01 3.50032330e-01 3.96206141e-01 1.79132342e-01
      1.02022365e-02 4.13280465e-02 4.45175432e-02 1.04164230e-02
      4.98753130e-01 4.98753130e-01 4.98753130e-01 4.98753130e-01 0.
      7.30351821e-05 7.30351821e-05 0. 0. 0. 0. 0. 0. 0. 0. 0.</_>
    <_>
      2.60961086e-01 3.10657695e-02 4.28001061e-02 2.83920616e-01
      3.62340719e-01 6.10132031e-02 9.13519189e-02 3.64559978e-01
      3.64559978e-01 1.23841412e-01 7.17996806e-02 3.64559978e-01
      3.64559978e-01 1.06256530e-01 7.20305145e-02 3.64559978e-01
      2.84228355e-01 1.25982568e-01 1.23344496e-01 2.95511991e-01
      3.00830424e-01 2.71556109e-01 2.74375200e-01 3.00830424e-01
      3.00830424e-01 1.02929540e-01 8.71101767e-02 3.00830424e-01
      3.00830424e-01 2.30767354e-01 1.85313255e-01 3.00830424e-01
      2.74848133e-01 2.73111016e-01 2.74848133e-01 2.74848133e-01
      2.74848133e-01 2.22265020e-01 2.10774571e-01 2.74848133e-01
      2.74848133e-01 2.30400741e-01 1.56796739e-01 2.74848133e-01
      2.74848133e-01 2.00244710e-01 1.76621392e-01 2.74848133e-01</_>
    <_>
      1.61936542e-03 1.48922228e-03 1.24551600e-03 1.27749832e-03
      3.11579347e-01 3.65605861e-01 3.65605861e-01 3.11768234e-01
      4.12357831e-03 3.70687013e-03 3.16104526e-03 3.38116242e-03
      3.65605861e-01 3.65605861e-01 3.65605861e-01 3.65605861e-01
      1.27592579e-01 3.04083854e-01 3.04083854e-01 1.26574486e-01
      1.00469328e-01 3.04083854e-01 3.04083854e-01 5.84577061e-02
      2.70905584e-01 3.04083854e-01 3.04083854e-01 2.89734513e-01
      1.84020162e-01 3.04083854e-01 3.04083854e-01 1.42176017e-01
      3.17419738e-01 3.17419738e-01 2.98218101e-01 4.38998193e-02
      2.98129469e-01 3.17419738e-01 1.34478241e-01 6.04280159e-02
      2.89163917e-01 3.17419738e-01 3.17419738e-01 8.80243257e-02
      2.30488971e-01 2.72448629e-01 2.04342172e-01 1.76352859e-01</_>
    <_>
      1.88051492e-01 2.67382175e-01 2.67382175e-01 2.09033266e-01
      1.86980858e-01 2.67382175e-01 2.67382175e-01 1.88217044e-01
      2.62894660e-01 2.67382175e-01 2.67382175e-01 2.67382175e-01
      2.53329515e-01 2.67382175e-01 2.67382175e-01 2.66746670e-01
      3.45729053e-01 3.45729053e-01 3.45729053e-01 3.45729053e-01
      1.29361376e-01 3.40845622e-02 4.32085209e-02 1.38790756e-01
      3.45729053e-01 3.45729053e-01 3.45729053e-01 3.45729053e-01
      2.16504671e-02 1.39873186e-02 1.22425230e-02 2.18386501e-02
      1.30761266e-01 4.73133624e-02 5.94248511e-02 1.43944427e-01
      1.06870599e-01 4.57536310e-01 4.57536310e-01 1.52784497e-01
      5.58154173e-02 2.53316332e-02 2.34102607e-02 5.64813577e-02
      1.89626381e-01 4.57536310e-01 4.57536310e-01 1.90435484e-01</_>
    <_>
      4.37724322e-01 4.37247567e-02 1.82303991e-02 4.37724322e-01
      4.37724322e-01 6.65327907e-02 4.32813950e-02 4.37724322e-01
      8.94250162e-03 4.74653527e-04 4.32986970e-04 8.24430678e-03
      3.02572876e-01 1.02231897e-01 1.21354684e-01 3.22174072e-01
      3.05189103e-01 4.33125272e-02 3.90369557e-02 3.01735610e-01
      3.05189103e-01 2.93826073e-01 2.75324970e-01 3.05189103e-01
      1.82090074e-01 8.57697129e-02 1.00036457e-01 1.94590166e-01
      3.05189103e-01 3.05189103e-01 3.05189103e-01 3.05189103e-01
      2.98830181e-01 2.98830181e-01 2.94836223e-01 2.98830181e-01
      2.65370041e-01 1.00450441e-01 9.99559686e-02 2.64504969e-01
      2.98830181e-01 2.98830181e-01 2.98830181e-01 2.98830181e-01
      1.74915969e-01 1.59796000e-01 1.80077627e-01 1.89645350e-01</_>
    <_>
      2.70113766e-01 2.70113766e-01 2.70113766e-01 2.53705353e-01
      1.59470096e-01 2.70113766e-01 2.70113766e-01 1.70790479e-01
      2.70113766e-01 2.70113766e-01 2.70113766e-01 2.70113766e-01
      1.95790991e-01 2.70113766e-01 2.70113766e-01 1.93453610e-01
      3.69158119e-01 3.69158119e-01 3.69158119e-01 3.69158119e-01
      4.35779542e-02 4.58030477e-02 4.74408865e-02 3.98039669e-02
      3.00558031e-01 3.69158119e-01 3.69158119e-01 2.82677740e-01
      1.18547101e-02 1.21092396e-02 1.20542999e-02 1.18010733e-02
      8.82254466e-02 6.32708967e-02 8.10252726e-02 9.89965573e-02
      2.65430003e-01 2.12884456e-01 2.96834230e-01 3.15747976e-01
      1.75536618e-01 1.67976931e-01 1.90331027e-01 1.89614281e-01
      3.65174711e-01 3.65174711e-01 3.65174711e-01 3.65174711e-01</_>
    <_>
      3.12937647e-01 9.76953357e-02 9.76113230e-02 3.12937647e-01
      3.12937647e-01 1.11637242e-01 9.05873775e-02 3.12937647e-01
      3.12937647e-01 2.33006611e-01 2.03091130e-01 3.12937647e-01
      3.12937647e-01 2.10965037e-01 1.83432937e-01 3.12937647e-01
      2.90120900e-01 1.39810145e-01 1.28243670e-01 2.90120900e-01
      2.90120900e-01 1.37078121e-01 1.80409402e-01 2.90120900e-01
      2.90120900e-01 2.79607266e-01 2.52265692e-01 2.90120900e-01
      2.90120900e-01 2.14606613e-01 2.20305026e-01 2.90120900e-01
      2.67865956e-01 1.41911551e-01 2.58202791e-01 2.94618785e-01
      1.35251194e-01 8.50012079e-02 1.34198159e-01 1.81707159e-01
      2.94618785e-01 2.59903610e-01 2.94618785e-01 2.94618785e-01
      2.94618785e-01 2.94618785e-01 2.94618785e-01 2.94618785e-01</_>
    <_>
      3.00633073e-01 1.98680952e-01 2.21062183e-01 3.00633073e-01
      2.58837283e-01 1.14797734e-01 1.38718113e-01 2.94877291e-01
      3.00633073e-01 2.40070507e-01 2.29205936e-01 3.00633073e-01
      3.00633073e-01 1.72977790e-01 1.99776858e-01 3.00633073e-01
      3.66200477e-01 2.64819920e-01 3.27068537e-01 3.66200477e-01
      5.54575934e-04 7.05566606e-04 7.43459503e-04 6.15157478e-04
      3.66200477e-01 3.66200477e-01 3.66200477e-01 3.66200477e-01
      6.58856332e-02 2.64342688e-02 4.49664146e-02 8.69362280e-02 0. 0.
      0. 0. 0. 0. 0. 0. 0. 7.04615593e-01 7.04615593e-01 0. 0. 0. 0. 0.</_>
    <_>
      0. 0. 0. 0. 0. 0. 0. 0. 4.70280275e-02 5.22803739e-02
      3.93342264e-02 3.12990174e-02 5.36499739e-01 5.36499739e-01
      3.51674110e-01 5.36499739e-01 0. 0. 0. 0. 0. 0. 0. 0.
      4.43983287e-01 2.99884766e-01 5.09329028e-02 4.43983287e-01
      4.43983287e-01 3.37936789e-01 1.88222323e-02 4.43983287e-01
      1.70739679e-06 0. 0. 1.70739679e-06 1.26097548e-05 0. 0.
      1.26097548e-05 3.94553602e-01 2.20959648e-01 1.14891157e-01
      3.94553602e-01 3.94553602e-01 3.94553602e-01 3.94553602e-01
      3.94553602e-01</_>
    <_>
      2.99107224e-01 9.09004584e-02 1.13568254e-01 2.99107224e-01
      2.99107224e-01 1.39257759e-01 1.19107924e-01 2.99107224e-01
      2.99107224e-01 2.61341125e-01 2.15928137e-01 2.99107224e-01
      2.99107224e-01 2.79614449e-01 1.82870358e-01 2.99107224e-01
      3.01085502e-01 1.69878706e-01 1.42892912e-01 3.01085502e-01
      1.10526703e-01 1.30712345e-01 1.52557671e-01 1.25463530e-01
      3.01085502e-01 3.01085502e-01 2.52041757e-01 3.01085502e-01
      3.01085502e-01 3.01085502e-01 3.01085502e-01 3.01085502e-01
      3.59379090e-02 9.55455899e-02 1.19994596e-01 5.43536171e-02
      1.13860652e-01 2.98616916e-01 2.58290112e-01 7.86791369e-02
      3.29629898e-01 3.29629898e-01 3.29629898e-01 3.29629898e-01
      3.29629898e-01 3.29629898e-01 1.82486117e-01 3.29629898e-01</_>
    <_>
      9.60184901e-04 5.84732625e-04 4.84974880e-04 8.85300280e-04
      1.60544384e-02 6.57259719e-03 5.52205369e-03 1.52367810e-02
      4.12677109e-01 2.11359158e-01 1.56009302e-01 4.12677109e-01
      4.12677109e-01 4.12677109e-01 2.73473918e-01 4.12677109e-01
      2.36302875e-02 8.15413799e-03 5.70719410e-03 2.10027788e-02
      3.71456295e-02 2.80068126e-02 1.81735214e-02 2.68166810e-02
      3.63050759e-01 3.63050759e-01 2.63476342e-01 3.63050759e-01
      3.63050759e-01 3.63050759e-01 3.63050759e-01 3.63050759e-01
      1.10659294e-01 1.40640378e-01 8.08032379e-02 5.08985333e-02
      2.93738991e-01 2.93738991e-01 2.93738991e-01 2.60215640e-01
      2.93738991e-01 2.93738991e-01 2.93738991e-01 2.84653544e-01
      2.93738991e-01 2.93738991e-01 2.93015927e-01 1.76241040e-01</_>
    <_>
      3.04584712e-01 1.34588659e-01 1.23739958e-01 3.04584712e-01
      3.04584712e-01 2.93666840e-01 2.56838560e-01 3.04584712e-01
      3.04584712e-01 1.26943782e-01 4.66673486e-02 3.04584712e-01
      3.04584712e-01 2.18009636e-01 5.76991551e-02 3.04584712e-01
      2.97423571e-01 2.97423571e-01 2.97423571e-01 2.97423571e-01
      1.87872455e-01 1.70786157e-01 1.88791409e-01 1.90122038e-01
      2.97423571e-01 2.20509082e-01 6.15926795e-02 2.97423571e-01
      2.97423571e-01 2.84793556e-01 1.39871061e-01 2.97423571e-01
      1.77054822e-01 1.04896374e-01 9.25942585e-02 1.52040720e-01
      7.25876167e-02 5.24478629e-02 4.06425297e-02 6.04487285e-02
      3.37132066e-01 3.37132066e-01 3.37132066e-01 3.37132066e-01
      3.37132066e-01 3.37132066e-01 3.37132066e-01 3.37132066e-01</_>
    <_>
      2.93917149e-01 1.97186649e-01 2.59024113e-01 2.93917149e-01
      2.93917149e-01 2.93917149e-01 2.93917149e-01 2.93917149e-01
      8.76645148e-02 8.15950036e-02 7.81502277e-02 8.22427049e-02
      2.93917149e-01 2.93917149e-01 2.93917149e-01 2.93917149e-01
      3.08517843e-01 3.08517843e-01 3.08517843e-01 3.08517843e-01
      3.08517843e-01 8.97290260e-02 1.84998646e-01 3.08517843e-01
      3.08517843e-01 3.08517843e-01 3.08517843e-01 3.08517843e-01
      2.95223370e-02 3.02032623e-02 2.11608484e-02 2.40235608e-02
      3.80814224e-01 2.08157927e-01 3.80814224e-01 3.80814224e-01
      3.80814224e-01 2.87377805e-01 3.80814224e-01 3.80814224e-01
      6.28743507e-03 6.32947776e-03 6.36881823e-03 6.39742240e-03
      9.85241262e-04 2.71216250e-05 2.71216250e-05 9.85241262e-04</_>
    <_>
      2.56653100e-01 2.27870926e-01 2.56653100e-01 2.56653100e-01
      2.56653100e-01 2.56653100e-01 2.56653100e-01 2.56653100e-01
      2.56653100e-01 2.15118006e-01 2.56653100e-01 2.56653100e-01
      2.56653100e-01 2.07156062e-01 2.56653100e-01 2.56653100e-01
      3.47765565e-01 3.47765565e-01 3.47765565e-01 3.47765565e-01
      8.28648284e-02 8.58958736e-02 8.44497532e-02 8.40468779e-02
      3.47765565e-01 3.46182644e-01 3.47765565e-01 3.47765565e-01
      1.80179309e-02 2.10001078e-02 2.19981540e-02 2.01725699e-02
      2.51238048e-01 2.55779177e-01 2.53754914e-01 2.59386539e-01
      1.04683265e-02 1.26341274e-02 1.27559649e-02 1.20064095e-02
      1.66232377e-01 1.52032092e-01 1.09692536e-01 1.19986691e-01
      4.05579716e-01 4.05579716e-01 4.05579716e-01 4.05579716e-01</_>
    <_>
      3.05235475e-01 1.36927709e-01 2.39813954e-01 3.05235475e-01
      3.05235475e-01 1.06075086e-01 2.12924808e-01 3.05235475e-01
      3.05235475e-01 1.30076841e-01 1.89070806e-01 3.05235475e-01
      3.05235475e-01 1.30124018e-01 2.21702069e-01 3.05235475e-01
      3.00409049e-01 1.48496717e-01 2.69150794e-01 3.00409049e-01
      2.64705390e-01 1.16063982e-01 1.53391555e-01 2.98616111e-01
      3.00409049e-01 2.08776593e-01 3.00409049e-01 3.00409049e-01
      2.89551497e-01 1.32617220e-01 1.45098090e-01 2.98274964e-01
      2.76787847e-01 1.40139893e-01 2.40084201e-01 2.76787847e-01
      2.66003102e-01 2.01283589e-01 2.76787847e-01 2.76787847e-01
      2.76787847e-01 1.44499168e-01 1.47263736e-01 2.76787847e-01
      2.76787847e-01 2.76787847e-01 2.76787847e-01 2.76787847e-01</_>
    <_>
      3.43093723e-01 9.38932598e-02 1.24546714e-01 3.43093723e-01
      3.43093723e-01 4.32449058e-02 1.15815498e-01 3.43093723e-01
      3.43093723e-01 9.45254341e-02 6.07821085e-02 3.43093723e-01
      3.43093723e-01 4.38487753e-02 2.64976118e-02 3.43093723e-01
      3.50802392e-01 2.47286353e-02 1.00399725e-01 3.50802392e-01
      3.50802392e-01 1.46148533e-01 1.66285276e-01 3.50802392e-01
      3.50802392e-01 2.42899098e-02 3.66047863e-03 3.36999446e-01
      3.50802392e-01 1.04970850e-01 1.91697218e-02 2.69927502e-01
      3.54373425e-01 2.86993057e-01 2.26664513e-01 3.54373425e-01
      3.54373425e-01 3.17582726e-01 1.92310184e-01 3.54373425e-01
      3.54373425e-01 1.50395855e-01 3.35060023e-02 2.02551514e-01
      1.39442906e-01 7.10751489e-02 1.93716995e-02 8.56340826e-02</_>
    <_>
      3.13045174e-01 3.13045174e-01 3.13045174e-01 3.13045174e-01
      1.59323066e-01 1.29635945e-01 1.89827025e-01 2.08735734e-01
      3.13045174e-01 3.13045174e-01 3.13045174e-01 3.13045174e-01
      1.44297361e-01 1.32774711e-01 1.59630418e-01 1.64823145e-01
      2.86022007e-01 2.46218383e-01 2.86022007e-01 2.86022007e-01
      2.86022007e-01 9.67836007e-02 1.38155803e-01 2.86022007e-01
      2.86022007e-01 2.86022007e-01 2.86022007e-01 2.86022007e-01
      1.84781581e-01 2.31650248e-01 2.27649644e-01 1.79322764e-01
      1.98269486e-01 5.95553666e-02 9.60079432e-02 2.52152622e-01
      1.00249611e-02 1.08615393e-02 1.16426079e-02 1.11321332e-02
      3.07414234e-01 2.90242612e-01 2.90993780e-01 3.07574302e-01
      3.61328155e-01 3.61328155e-01 3.61328155e-01 3.61328155e-01</_>
    <_>
      8.23005065e-02 8.73297229e-02 9.92806777e-02 9.39801112e-02
      3.47138554e-01 3.47138554e-01 3.47138554e-01 3.47138554e-01
      1.27195399e-02 2.57615726e-02 2.54914630e-02 1.28768040e-02
      3.43897700e-01 3.47138554e-01 3.47138554e-01 3.47138554e-01
      3.39641452e-01 3.39641452e-01 3.39641452e-01 3.39641452e-01
      3.81186567e-02 6.39720112e-02 7.79042467e-02 5.38481586e-02
      3.35464776e-01 3.39641452e-01 3.39641452e-01 3.39641452e-01
      6.16881140e-02 1.51157618e-01 1.70397893e-01 7.98249468e-02
      3.62250660e-07 1.54480935e-04 1.54402340e-04 3.54440886e-07
      8.15588329e-03 7.94360321e-03 8.01638234e-03 8.30941368e-03
      4.02269900e-01 3.34576875e-01 1.10453948e-01 2.49942809e-01
      4.02269900e-01 4.02269900e-01 4.02269900e-01 4.02269900e-01</_></uncompressed_support_vectors>
  <decision_functions>
    <_>
      <sv_count>1</sv_count>
      <rho>-2.3250019724341566e+00</rho>
      <alpha>
        1.</alpha>
      <index>
        0</index></_>
    <_>
      <sv_count>1</sv_count>
      <rho>2.0895359717685111e+00</rho>
      <alpha>
        1.</alpha>
      <index>
        1</index></_>
    <_>
      <sv_count>1</sv_count>
      <rho>3.3635520047047556e+00</rho>
      <alpha>
        1.</alpha>
      <index>
        2</index></_></decision_functions></opencv_ml_svm>
</opencv_storage>
