<?xml version="1.0"?>
<opencv_storage>
<opencv_ml_svm>
  <format>3</format>
  <svmType>C_SVC</svmType>
  <kernel>
    <type>LINEAR</type></kernel>
  <C>400.</C>
  <term_criteria><epsilon>1.0000000000000000e-02</epsilon>
    <iterations>1500</iterations></term_criteria>
  <var_count>48</var_count>
  <class_count>2</class_count>
  <class_labels type_id="opencv-matrix">
    <rows>2</rows>
    <cols>1</cols>
    <dt>i</dt>
    <data>
      0 1</data></class_labels>
  <sv_total>1</sv_total>
  <support_vectors>
    <_>
      8.55331004e-01 3.57573628e+00 -2.41207719e+00 4.26071852e-01
      -1.28958130e+00 -2.32245946e+00 3.86581802e+00 -3.05122137e-02
      -3.66299701e+00 -6.94366276e-01 1.14401551e-02 2.39469600e+00
      3.35382414e+00 1.03709972e+00 1.40534079e+00 -3.86658549e+00
      -6.97698069e+00 1.06545019e+00 -4.24912548e+00 1.84455633e+00
      -1.75323796e+00 -2.25248739e-01 -1.99516273e+00 5.50446451e-01
      -3.57986808e-01 -2.73844862e+00 1.15148342e+00 -3.53839469e+00
      2.96513200e+00 -3.54783952e-01 -6.65623844e-01 -1.10410106e+00
      -1.78604662e+00 2.99326092e-01 1.77879798e+00 -7.30510056e-01
      -2.28193808e+00 5.25225103e-01 -2.37911010e+00 -9.11025226e-01
      -1.48887300e+00 1.88429070e+00 7.87119865e-01 -9.64150369e-01
      -2.24444103e+00 -3.74733162e+00 3.25334883e+00 -3.79430711e-01</_></support_vectors>
  <uncompressed_sv_total>184</uncompressed_sv_total>
  <uncompressed_support_vectors>
    <_>
      3.61960918e-01 3.61960918e-01 1.19973846e-01 1.03534877e-01
      3.61960918e-01 3.61960918e-01 9.78909209e-02 6.31239116e-02
      3.61960918e-01 3.61960918e-01 2.75741339e-01 1.91177800e-01
      1.87640682e-01 1.33892968e-01 2.26509776e-02 7.33308792e-02
      3.73966634e-01 3.73966634e-01 2.24035159e-01 1.25661388e-01
      1.92144766e-01 2.81335860e-01 1.87545702e-01 1.04039945e-01
      1.89097196e-01 1.44251660e-01 5.47176637e-02 1.83343962e-01
      2.99125642e-01 3.44747126e-01 2.92001724e-01 3.18975061e-01
      2.22778365e-01 1.67402878e-01 1.30226865e-01 1.79171696e-01
      2.92374164e-01 1.87848389e-01 2.82835484e-01 2.92374164e-01
      2.92374164e-01 2.25587711e-01 1.86942935e-01 2.66202897e-01
      2.92374164e-01 2.92374164e-01 2.92374164e-01 2.92374164e-01</_>
    <_>
      3.64640236e-01 3.64640236e-01 3.64640236e-01 9.20802727e-02
      4.20627072e-02 7.58126453e-02 4.22205478e-02 1.96449831e-02
      3.64640236e-01 3.64640236e-01 3.64640236e-01 3.64640236e-01
      6.02719411e-02 7.33659193e-02 9.84853059e-02 1.69530481e-01
      1.03630751e-01 2.53896210e-02 4.45512123e-02 1.94427311e-01
      3.13015193e-01 1.61453187e-02 3.98122966e-02 3.85123700e-01
      3.82475197e-01 2.36461312e-01 8.22625831e-02 1.77563295e-01
      3.85123700e-01 3.85123700e-01 1.06674895e-01 3.85123700e-01
      1.81184933e-01 4.75433422e-03 9.66663286e-03 2.00596586e-01
      1.89689174e-01 7.89325777e-03 9.14114621e-03 2.44675353e-01
      4.05298084e-01 1.50088087e-01 4.87181209e-02 4.05298084e-01
      4.05298084e-01 3.71102989e-01 8.42072442e-02 4.05298084e-01</_>
    <_>
      3.40494692e-01 3.40494692e-01 1.67259753e-01 1.15182936e-01
      3.40494692e-01 3.40494692e-01 1.76499650e-01 7.89797530e-02
      3.40494692e-01 3.40494692e-01 2.14417681e-01 3.40494692e-01
      1.43278599e-01 1.29516169e-01 9.20051187e-02 1.21101588e-01
      3.84072810e-01 3.84072810e-01 3.84072810e-01 1.72442853e-01
      1.56915233e-01 4.84084263e-02 5.08477762e-02 2.49680132e-01
      9.31967571e-02 9.85812768e-02 1.13051467e-01 1.26404151e-01
      3.84072810e-01 1.98832452e-01 2.24228546e-01 3.84072810e-01
      1.13325365e-01 1.56615898e-02 2.42085066e-02 1.87710240e-01
      1.69660643e-01 1.13023249e-02 3.10408045e-02 2.73623765e-01
      3.31417531e-01 3.31417531e-01 3.31417531e-01 3.31417531e-01
      3.31417531e-01 3.31417531e-01 2.72342682e-01 3.31417531e-01</_>
    <_>
      3.68202299e-01 3.68202299e-01 3.07499290e-01 2.89850775e-02
      2.84863859e-01 3.68202299e-01 1.28130570e-01 2.24796645e-02
      3.68202299e-01 3.68202299e-01 2.66391277e-01 1.19599253e-01
      1.37218609e-01 8.30723867e-02 4.31002900e-02 1.10158235e-01
      3.11743945e-01 3.11743945e-01 1.55880302e-01 2.54401058e-01
      3.11743945e-01 1.07446304e-02 9.82939266e-03 3.11743945e-01
      3.11743945e-01 7.04868659e-02 2.63083845e-01 3.11743945e-01
      3.11743945e-01 1.80549577e-01 1.52971745e-01 3.11743945e-01
      2.01314747e-01 8.88631493e-03 6.27435138e-03 1.80440143e-01
      1.68649554e-01 1.25337511e-01 5.19861430e-02 1.02386296e-01
      3.16498339e-01 1.22822426e-01 5.13798706e-02 2.62102336e-01
      4.50975001e-01 4.50975001e-01 4.50975001e-01 2.61196911e-01</_>
    <_>
      3.32736254e-01 3.32736254e-01 3.32736254e-01 3.32736254e-01
      3.05966318e-01 1.59395456e-01 3.22804041e-02 1.65972590e-01
      2.26448804e-01 3.32736254e-01 3.32736254e-01 3.32736254e-01
      7.34680369e-02 4.20831982e-03 4.00751941e-02 1.25578403e-01
      3.60437274e-01 3.60437274e-01 1.16947614e-01 3.60437274e-01
      3.60437274e-01 1.77512556e-01 5.28179593e-02 2.78210998e-01
      3.60437274e-01 2.66530942e-02 1.28457755e-01 3.60437274e-01
      2.06274748e-01 8.04748163e-02 4.52936664e-02 1.52451560e-01
      5.86033203e-02 1.40949916e-02 2.90441830e-02 8.43661278e-02
      2.69469887e-01 1.70867503e-01 3.39216739e-01 4.34767783e-01
      2.05587313e-01 1.61739081e-01 2.80870628e-02 4.62565385e-02
      4.34767783e-01 4.34767783e-01 2.72833139e-01 2.33074963e-01</_>
    <_>
      4.02550936e-01 4.02550936e-01 4.02550936e-01 1.65671840e-01
      1.46555483e-01 1.03289761e-01 3.59035060e-02 7.74668083e-02
      2.33050749e-01 4.02550936e-01 4.02550936e-01 1.55738875e-01
      1.62356347e-01 5.92713282e-02 5.65699209e-03 1.01911239e-01
      2.18351960e-01 5.93532026e-02 3.28488573e-02 1.98468491e-01
      1.58702195e-01 3.48234810e-02 3.32903229e-02 1.65181935e-01
      4.04659957e-01 1.69948414e-01 1.71986576e-02 4.04659957e-01
      4.04659957e-01 4.04659957e-01 3.96152735e-02 4.04659957e-01
      6.91192150e-02 9.36600473e-03 9.21232626e-03 7.22711906e-02
      3.02046537e-01 1.48080677e-01 2.68003382e-02 1.52486101e-01
      3.93822432e-01 3.69152457e-01 2.48676594e-02 3.19080889e-01
      3.93822432e-01 3.93822432e-01 5.01405522e-02 3.77167583e-01</_>
    <_>
      3.64250153e-01 3.64250153e-01 3.64250153e-01 2.41417363e-01
      4.47895527e-02 3.53120118e-02 2.17123292e-02 2.70550903e-02
      1.21259548e-01 2.31202155e-01 3.64250153e-01 3.64250153e-01
      1.77452758e-01 1.91777591e-02 1.93745539e-01 3.64250153e-01
      1.83108762e-01 1.35531530e-01 1.69557765e-01 2.16939613e-01
      3.31585139e-01 1.11107983e-01 1.35500476e-01 3.31585139e-01
      3.31585139e-01 3.01069412e-02 3.31585139e-01 3.31585139e-01
      3.31585139e-01 2.16594890e-01 1.44258901e-01 3.31585139e-01
      3.20849866e-01 6.69249296e-02 6.48466125e-02 3.20849866e-01
      3.20849866e-01 6.10398427e-02 8.21423382e-02 3.20849866e-01
      3.20849866e-01 2.08133146e-01 5.09551987e-02 3.20849866e-01
      3.20849866e-01 3.20849866e-01 7.22456649e-02 3.20849866e-01</_>
    <_>
      3.55468601e-01 3.55468601e-01 3.55468601e-01 7.40673989e-02
      1.96072593e-01 2.50168353e-01 9.89267826e-02 5.99541664e-02
      3.55468601e-01 3.55468601e-01 3.40791285e-01 3.32832217e-01
      6.56124055e-02 1.35841426e-02 3.88348810e-02 1.08856015e-01
      3.00649583e-01 3.00649583e-01 1.40492097e-01 3.00649583e-01
      3.00649583e-01 9.00704637e-02 2.15332776e-01 3.00649583e-01
      3.00649583e-01 5.04134893e-02 1.85896412e-01 3.00649583e-01
      3.00649583e-01 2.63136953e-01 5.40853925e-02 3.00649583e-01
      1.01375803e-01 1.23089552e-02 7.40949661e-02 1.84723794e-01
      2.75854915e-01 3.32932591e-01 3.32932591e-01 3.32932591e-01
      2.65629709e-01 1.18403398e-01 1.01815714e-02 9.97249112e-02
      3.32932591e-01 3.32932591e-01 3.32932591e-01 3.32932591e-01</_>
    <_>
      3.53693604e-01 3.53693604e-01 2.92406112e-01 5.31109720e-02
      2.38750175e-01 2.84100980e-01 8.21632892e-02 5.66926338e-02
      3.53693604e-01 3.53693604e-01 3.42590898e-01 3.53693604e-01
      6.15628883e-02 1.58704463e-02 4.50788625e-02 1.07358575e-01
      3.04163367e-01 3.04163367e-01 1.70798138e-01 3.04163367e-01
      3.04163367e-01 9.81885493e-02 1.90120369e-01 3.04163367e-01
      2.82122403e-01 5.43189347e-02 1.75554365e-01 3.04163367e-01
      3.04163367e-01 2.57905930e-01 4.47291806e-02 3.04163367e-01
      1.02756590e-01 9.67323221e-03 7.42762014e-02 1.91316068e-01
      2.67665863e-01 3.45229715e-01 3.45229715e-01 3.45229715e-01
      2.30426490e-01 1.19909190e-01 1.20492922e-02 1.10353090e-01
      3.45229715e-01 3.45229715e-01 3.45229715e-01 2.77912945e-01</_>
    <_>
      6.56820908e-02 3.62129658e-01 3.62129658e-01 3.62129658e-01
      1.18074521e-01 2.12108381e-02 6.12267293e-02 1.66310042e-01
      6.04927912e-02 3.62129658e-01 3.62129658e-01 3.62129658e-01
      8.26451331e-02 6.46521971e-02 2.67782182e-01 2.70303994e-01
      3.49905133e-01 8.27074200e-02 1.20886959e-01 3.49905133e-01
      3.49905133e-01 1.06891543e-01 3.50658633e-02 3.49905133e-01
      2.34119385e-01 6.63569793e-02 3.13026428e-01 3.49905133e-01
      3.40055972e-01 1.03420474e-01 3.79894003e-02 2.55438238e-01
      3.37489128e-01 5.33758141e-02 1.14029124e-01 3.37489128e-01
      3.37489128e-01 4.67784069e-02 3.37489128e-01 3.37489128e-01
      3.21630299e-01 6.92871064e-02 1.94238219e-02 2.58984655e-01
      3.37489128e-01 7.24329799e-02 1.87632404e-02 3.37489128e-01</_>
    <_>
      6.78439960e-02 3.34699988e-01 3.54395002e-01 3.54395002e-01
      9.02950540e-02 1.33401314e-02 5.36761358e-02 1.32555500e-01
      5.72229363e-02 3.54395002e-01 3.54395002e-01 3.54395002e-01
      6.72383383e-02 9.07299817e-02 3.38585734e-01 3.03977430e-01
      3.32914472e-01 3.50249000e-02 9.44751799e-02 3.32914472e-01
      3.32914472e-01 2.47006193e-02 1.67431995e-01 3.32914472e-01
      2.44203120e-01 1.27724215e-01 3.32914472e-01 3.32914472e-01
      3.32914472e-01 1.28412619e-01 5.58738001e-02 2.94097185e-01
      2.91004896e-01 1.01799173e-02 1.83483183e-01 3.56560230e-01
      3.56560230e-01 1.52014643e-01 3.56560230e-01 3.56560230e-01
      2.34945342e-01 6.17180765e-02 1.48802903e-02 1.63476974e-01
      3.56560230e-01 1.57728523e-01 4.43280749e-02 3.26192826e-01</_>
    <_>
      2.27755502e-01 3.47741991e-01 3.49845976e-01 3.49845976e-01
      5.33858091e-02 1.21887866e-02 8.93783942e-02 1.22043125e-01
      7.70369992e-02 2.15501219e-01 3.49845976e-01 3.49845976e-01
      9.49025452e-02 4.57251593e-02 3.49845976e-01 3.49845976e-01
      2.61023521e-01 2.13532988e-02 3.68931554e-02 2.53683329e-01
      1.29371762e-01 2.69602370e-02 1.70844216e-02 1.07413672e-01
      4.40819114e-01 1.22088782e-01 4.40819114e-01 4.40819114e-01
      2.08945110e-01 1.18987091e-01 2.57141054e-01 3.31948519e-01
      1.18459918e-01 2.90845130e-02 6.35876060e-02 1.67981178e-01
      3.35888833e-01 2.49136295e-02 3.35888833e-01 3.35888833e-01
      3.35888833e-01 1.91969946e-01 1.06795624e-01 3.23510557e-01
      3.35888833e-01 3.35888833e-01 7.88512677e-02 3.35888833e-01</_>
    <_>
      1.43086731e-01 3.39432716e-01 3.47973734e-01 3.47973734e-01
      5.19285761e-02 8.92639812e-03 3.61020900e-02 7.65433460e-02
      7.46572763e-02 3.16649616e-01 3.47973734e-01 3.47973734e-01
      1.13783784e-01 7.47971460e-02 3.47973734e-01 3.47973734e-01
      3.48924637e-01 2.68797912e-02 8.99882708e-03 3.10034573e-01
      1.70091122e-01 4.26515676e-02 3.49202529e-02 1.52331471e-01
      3.59941125e-01 9.44017172e-02 3.59941125e-01 3.59941125e-01
      3.59941125e-01 2.04825193e-01 1.65276930e-01 3.55167687e-01
      1.34557351e-01 2.53590550e-02 7.08540753e-02 2.01493010e-01
      3.39820713e-01 3.87476608e-02 2.73713946e-01 3.39820713e-01
      3.39820713e-01 1.92845240e-01 8.33297968e-02 3.39820713e-01
      3.39820713e-01 3.39820713e-01 5.77541776e-02 3.39820713e-01</_>
    <_>
      1.55344829e-01 3.45197409e-01 3.55027765e-01 3.55027765e-01
      4.59230803e-02 1.59136411e-02 9.20507312e-02 1.17912233e-01
      5.43312505e-02 2.29005128e-01 3.55027765e-01 3.55027765e-01
      9.25600156e-02 9.04988572e-02 3.55027765e-01 3.55027765e-01
      2.99015105e-01 1.54145267e-02 3.90268415e-02 3.30996782e-01
      3.09165388e-01 3.23673412e-02 1.27074532e-02 3.08292717e-01
      3.71877909e-01 1.81006178e-01 3.71877909e-01 3.71877909e-01
      2.07456231e-01 1.13018975e-01 1.79519698e-01 2.60838807e-01
      3.28927904e-01 3.13728824e-02 2.77048722e-02 3.28927904e-01
      3.28927904e-01 1.36602232e-02 2.30540186e-01 3.28927904e-01
      3.28927904e-01 1.61394760e-01 6.51762336e-02 3.08105171e-01
      3.28927904e-01 2.36172780e-01 5.71733750e-02 3.28927904e-01</_>
    <_>
      1.79639474e-01 3.32786024e-01 3.53607327e-01 3.53607327e-01
      4.62816432e-02 1.88897215e-02 8.64375681e-02 1.10404916e-01
      8.44375044e-02 2.28821397e-01 3.53607327e-01 3.53607327e-01
      1.18014172e-01 8.74388292e-02 3.53607327e-01 3.53607327e-01
      2.60381877e-01 3.24691162e-02 4.29561660e-02 2.58643925e-01
      1.49761185e-01 2.65578702e-02 1.73508637e-02 1.28164455e-01
      4.37111467e-01 1.54364824e-01 4.37111467e-01 4.37111467e-01
      2.44041011e-01 1.16772354e-01 2.29997158e-01 3.08317244e-01
      1.34826243e-01 2.84288488e-02 6.33549690e-02 1.80063978e-01
      3.44681472e-01 1.97609048e-02 2.54824132e-01 3.44681472e-01
      3.44681472e-01 1.92751676e-01 8.07258710e-02 3.39279681e-01
      3.44681472e-01 3.44681472e-01 6.47673458e-02 3.44681472e-01</_>
    <_>
      1.76753791e-03 1.23855183e-02 1.15609095e-02 1.56871520e-03
      3.23874921e-01 3.23874921e-01 3.23874921e-01 3.23874921e-01
      3.23874921e-01 6.37297183e-02 2.42982823e-02 2.18551457e-01
      3.23874921e-01 3.23874921e-01 3.23874921e-01 3.23874921e-01
      2.94434577e-01 2.94434577e-01 2.94434577e-01 2.94434577e-01
      1.78941786e-01 1.16039775e-01 1.52502909e-01 1.88425645e-01
      2.94434577e-01 2.75480956e-01 2.94434577e-01 2.94434577e-01
      2.94434577e-01 1.43110216e-01 1.27339080e-01 2.94434577e-01
      1.56050816e-01 1.04832865e-01 1.14950739e-01 2.65703470e-01
      2.04101205e-01 7.28239678e-03 2.71928497e-02 2.93162614e-01
      3.75699610e-01 3.00833762e-01 2.27431059e-01 3.75699610e-01
      3.75699610e-01 1.98225141e-01 5.07820323e-02 3.75699610e-01</_>
    <_>
      2.43881047e-01 2.94016935e-02 8.82037077e-03 1.37287065e-01
      3.47453147e-01 2.25269035e-01 3.47453147e-01 3.25729698e-01
      3.47453147e-01 1.00769922e-01 3.85739766e-02 3.47453147e-01
      3.47453147e-01 8.50139931e-02 1.31158933e-01 3.47453147e-01
      3.11136216e-01 3.11136216e-01 3.11136216e-01 3.11136216e-01
      1.30293608e-01 1.19887054e-01 2.30550304e-01 1.39878049e-01
      3.11136216e-01 1.35994241e-01 2.76303560e-01 3.11136216e-01
      2.73308814e-01 9.09496248e-02 1.93324968e-01 3.11136216e-01
      9.57958028e-02 9.45318490e-02 1.55311897e-01 1.59276351e-01
      1.41592860e-01 7.71939382e-02 3.95042002e-01 3.95042002e-01
      3.95042002e-01 6.87727332e-02 2.47835889e-01 3.95042002e-01
      2.09333181e-01 1.89753473e-02 1.08713582e-01 3.95042002e-01</_>
    <_>
      3.75573844e-01 4.66622785e-02 1.56230748e-01 3.75573844e-01
      3.75573844e-01 1.89449247e-02 2.28798017e-01 3.75573844e-01
      2.14715913e-01 4.01386851e-03 5.61559759e-02 2.78759599e-01
      2.76240706e-01 7.12872110e-03 9.41189602e-02 3.74879330e-01
      2.81310648e-01 9.77574214e-02 2.68159240e-01 2.81310648e-01
      2.81310648e-01 2.74860382e-01 2.32787549e-01 2.81310648e-01
      2.05743358e-01 1.45035714e-01 2.81310648e-01 2.81310648e-01
      1.03313714e-01 2.80820072e-01 2.81310648e-01 2.81310648e-01
      3.16949487e-01 3.16949487e-01 3.16785514e-01 2.24311277e-01
      6.14716671e-02 2.59515584e-01 3.16949487e-01 3.16949487e-01
      1.11934207e-01 3.16949487e-01 3.16949487e-01 3.16949487e-01
      1.44025952e-01 1.46689326e-01 9.43868160e-02 9.02169570e-02</_>
    <_>
      3.74133945e-01 5.37415892e-02 1.65293396e-01 3.74133945e-01
      3.74133945e-01 2.48389114e-02 2.39647195e-01 3.74133945e-01
      2.09264055e-01 5.60307316e-03 5.40072322e-02 2.81237334e-01
      2.72873849e-01 9.51278582e-03 9.02664140e-02 3.73586327e-01
      2.82469600e-01 9.89259109e-02 2.71838486e-01 2.82469600e-01
      2.82469600e-01 2.65634358e-01 2.24883988e-01 2.82469600e-01
      2.05213264e-01 1.47366598e-01 2.80690104e-01 2.82469600e-01
      1.06917687e-01 2.82469600e-01 2.82469600e-01 2.82469600e-01
      3.14197123e-01 3.14197123e-01 3.03527772e-01 2.37054855e-01
      9.08101201e-02 2.78738678e-01 3.14197123e-01 3.14197123e-01
      1.16261415e-01 3.14197123e-01 3.14197123e-01 3.14197123e-01
      1.42564952e-01 1.48492217e-01 9.36432108e-02 8.30380991e-02</_>
    <_>
      3.74552459e-01 4.74980846e-02 1.12547219e-01 3.74552459e-01
      3.74552459e-01 1.62096638e-02 1.60628289e-01 3.74552459e-01
      2.43116647e-01 8.09002202e-03 4.82348837e-02 3.15274149e-01
      2.96945125e-01 6.51016692e-03 6.86200857e-02 3.74552459e-01
      2.86402643e-01 1.04653329e-01 2.31757060e-01 2.86402643e-01
      2.86402643e-01 2.77869821e-01 2.16288045e-01 2.86402643e-01
      2.41982013e-01 1.36925280e-01 2.86402643e-01 2.86402643e-01
      1.11755818e-01 2.49954537e-01 2.86402643e-01 2.86402643e-01
      3.19433987e-01 3.19433987e-01 3.00590247e-01 2.07264513e-01
      5.69200292e-02 2.37853467e-01 3.19433987e-01 3.19433987e-01
      1.18624687e-01 3.19433987e-01 3.19433987e-01 3.19433987e-01
      1.78332835e-01 1.62663370e-01 9.90202576e-02 8.52971449e-02</_>
    <_>
      3.73223186e-01 2.75575183e-02 3.11857820e-01 3.73223186e-01
      3.73223186e-01 3.29860039e-02 3.73223186e-01 3.73223186e-01
      8.30319822e-02 2.77424324e-03 5.12657128e-02 1.41958654e-01
      1.66642651e-01 2.02993322e-02 1.61714256e-01 3.41577172e-01
      2.77684659e-01 1.34312451e-01 2.77684659e-01 2.77684659e-01
      2.60716945e-01 2.73702741e-01 2.77684659e-01 2.77684659e-01
      1.38997361e-01 1.98244929e-01 2.77684659e-01 2.77684659e-01
      8.11770037e-02 2.77684659e-01 2.77684659e-01 2.77684659e-01
      3.13282579e-01 3.13282579e-01 3.05438489e-01 2.03028485e-01
      6.49341568e-02 3.13282579e-01 3.13282579e-01 3.13282579e-01
      1.03764735e-01 3.13282579e-01 3.13282579e-01 3.13282579e-01
      1.51229143e-01 1.31096676e-01 1.00631692e-01 1.09643765e-01</_>
    <_>
      3.67124677e-01 3.33798155e-02 2.13311732e-01 3.67124677e-01
      3.67124677e-01 3.92887779e-02 3.67124677e-01 3.67124677e-01
      1.35246485e-01 3.34623712e-03 5.78109995e-02 2.13094413e-01
      2.12747559e-01 3.68157253e-02 1.71140239e-01 3.62366974e-01
      2.83083469e-01 1.39662921e-01 2.83083469e-01 2.83083469e-01
      2.79530823e-01 2.70841718e-01 2.67198861e-01 2.41313145e-01
      1.82200804e-01 1.90745756e-01 2.83083469e-01 2.83083469e-01
      8.77750814e-02 2.59238094e-01 2.83083469e-01 2.66904563e-01
      3.13255459e-01 3.13255459e-01 2.62929738e-01 1.63507193e-01
      1.38514876e-01 3.13255459e-01 3.13255459e-01 3.13255459e-01
      9.12976637e-02 3.13255459e-01 3.13255459e-01 3.13255459e-01
      1.81680202e-01 1.72570214e-01 1.13480017e-01 1.13066107e-01</_>
    <_>
      3.43511432e-01 1.30595595e-01 2.36611050e-02 3.43511432e-01
      3.43511432e-01 8.69646519e-02 6.27536252e-02 3.43511432e-01
      3.43511432e-01 6.84984773e-02 1.99726634e-02 3.43511432e-01
      3.43511432e-01 8.79091769e-02 1.03111565e-01 3.43511432e-01
      2.92121679e-01 2.30358407e-01 1.87334642e-01 2.92121679e-01
      2.80223519e-01 2.79186130e-01 1.70664161e-01 1.45820662e-01
      2.92121679e-01 2.38771170e-01 2.92121679e-01 2.92121679e-01
      9.31195617e-02 2.22737715e-01 2.92121679e-01 2.73415774e-01
      2.53939360e-01 3.31597298e-01 1.67847857e-01 8.37220028e-02
      7.60217011e-02 3.31597298e-01 3.31597298e-01 3.31597298e-01
      8.02023262e-02 1.64535910e-01 3.31597298e-01 2.65147269e-01
      2.80264199e-01 2.94134766e-01 2.06982568e-01 1.72463372e-01</_>
    <_>
      3.44315201e-01 1.61378503e-01 2.47873273e-02 3.44315201e-01
      3.44315201e-01 7.16834068e-02 3.42760086e-02 3.44315201e-01
      3.44315201e-01 9.82819200e-02 2.62194909e-02 3.44315201e-01
      3.44315201e-01 5.13643436e-02 4.66937385e-02 3.44315201e-01
      2.92836219e-01 1.96024179e-01 1.55420482e-01 2.92836219e-01
      2.91941583e-01 2.92836219e-01 1.98043063e-01 1.72333017e-01
      2.92836219e-01 1.68948859e-01 2.92836219e-01 2.92836219e-01
      1.32591799e-01 2.19532341e-01 2.92836219e-01 2.92836219e-01
      2.62116790e-01 3.17061245e-01 2.38623664e-01 9.88883525e-02
      7.05427453e-02 2.55484641e-01 3.17061245e-01 3.17061245e-01
      1.27503410e-01 2.74460703e-01 3.17061245e-01 3.17061245e-01
      2.89050430e-01 2.55493075e-01 1.63593262e-01 1.46093473e-01</_>
    <_>
      3.12380463e-01 2.22809374e-01 1.01880832e-02 1.21026576e-01
      3.12380463e-01 3.12380463e-01 4.53124754e-02 2.48437718e-01
      3.12380463e-01 3.12380463e-01 2.93764900e-02 2.78678745e-01
      3.12380463e-01 3.12380463e-01 9.76294801e-02 3.12380463e-01
      2.95234621e-01 2.95234621e-01 1.50530100e-01 2.95234621e-01
      2.48564929e-01 2.88123906e-01 1.16577007e-01 8.22322369e-02
      2.95234621e-01 2.95234621e-01 2.95234621e-01 2.95234621e-01
      9.39450264e-02 1.92686602e-01 2.95234621e-01 2.56859332e-01
      2.39962220e-01 3.18619996e-01 1.36528835e-01 8.14419389e-02
      1.52408734e-01 3.25092256e-01 3.25092256e-01 3.25092256e-01
      8.48754272e-02 1.83956876e-01 3.25092256e-01 2.67152965e-01
      3.25092256e-01 3.18827301e-01 1.56224638e-01 1.49175718e-01</_>
    <_>
      3.68837237e-01 4.16672416e-02 1.80521816e-01 3.68837237e-01
      3.68837237e-01 8.30329955e-02 3.47314805e-01 3.68837237e-01
      1.68262452e-01 3.15484824e-03 5.29883392e-02 2.17853695e-01
      2.32698679e-01 6.11576475e-02 1.81763738e-01 3.47545594e-01
      2.90723085e-01 2.41338789e-01 2.90723085e-01 2.90723085e-01
      1.61063597e-01 2.10234791e-01 2.30966941e-01 1.71405002e-01
      2.09503144e-01 2.48740494e-01 2.90723085e-01 2.90723085e-01
      8.29408988e-02 2.90723085e-01 2.90723085e-01 2.85837233e-01
      1.07704557e-01 9.13588777e-02 1.46140233e-01 1.83411926e-01
      1.26322135e-01 3.41226459e-01 3.41226459e-01 3.41226459e-01
      5.83574921e-02 2.34093502e-01 3.41226459e-01 3.02510500e-01
      2.28415072e-01 3.33267838e-01 3.05630445e-01 1.83245495e-01</_>
    <_>
      3.52625281e-01 4.02642637e-02 2.10003078e-01 3.52625281e-01
      3.52625281e-01 1.18491754e-01 3.52625281e-01 3.52625281e-01
      1.59766331e-01 6.07796945e-03 7.53475949e-02 2.60964602e-01
      2.31724277e-01 1.63477771e-02 1.93238601e-01 3.52625281e-01
      3.05878371e-01 2.62354523e-01 3.05878371e-01 3.05878371e-01
      1.39137775e-01 1.47807449e-01 2.16179535e-01 2.18459636e-01
      2.22678423e-01 1.86227664e-01 3.05878371e-01 3.05878371e-01
      8.41954872e-02 2.30351239e-01 3.05878371e-01 2.94385493e-01
      1.43762022e-01 6.82661682e-02 1.73911959e-01 2.68740624e-01
      2.25192294e-01 3.01307708e-01 3.58226597e-01 3.58226597e-01
      9.99176800e-02 3.11806738e-01 3.58226597e-01 3.58226597e-01
      1.79660544e-01 1.37885153e-01 1.51181385e-01 1.80194795e-01</_>
    <_>
      3.49690765e-01 3.25859450e-02 8.61446783e-02 3.49690765e-01
      3.49690765e-01 2.49461725e-01 2.39299133e-01 3.49690765e-01
      1.25589430e-01 2.77231052e-03 1.77388098e-02 1.45264238e-01
      2.74101883e-01 2.82006025e-01 2.98250645e-01 3.13981503e-01
      2.78591543e-01 2.78591543e-01 2.58137614e-01 2.78591543e-01
      2.49622986e-01 1.57249004e-01 9.75487456e-02 1.90663144e-01
      2.78591543e-01 2.78591543e-01 2.78591543e-01 2.78591543e-01
      2.08431721e-01 2.50764370e-01 2.78591543e-01 2.65408069e-01
      3.18511099e-01 2.38516226e-01 3.86421978e-02 2.21262068e-01
      1.36213437e-01 9.55213308e-02 1.70188695e-01 2.46537521e-01
      3.18511099e-01 3.18511099e-01 3.18511099e-01 3.18511099e-01
      3.18511099e-01 3.18511099e-01 4.17907871e-02 2.45279938e-01</_>
    <_>
      3.27421635e-01 1.46036088e-01 3.11936997e-02 3.27421635e-01
      3.27421635e-01 1.99024469e-01 9.28182155e-02 3.27421635e-01
      3.27421635e-01 4.60976660e-02 1.57670677e-02 3.16747099e-01
      3.27421635e-01 1.92405790e-01 1.89857736e-01 3.27421635e-01
      2.91359812e-01 2.91359812e-01 1.77497476e-01 2.91359812e-01
      2.63368011e-01 2.07875326e-01 9.20905471e-02 1.40600771e-01
      2.91359812e-01 2.91359812e-01 2.91359812e-01 2.91359812e-01
      1.78321272e-01 2.30359271e-01 2.91359812e-01 2.46517494e-01
      2.67273724e-01 2.43210763e-01 1.11756079e-01 1.23317592e-01
      9.55071375e-02 3.07630032e-01 3.07630032e-01 3.07630032e-01
      1.70218274e-01 2.74965197e-01 3.07630032e-01 3.07630032e-01
      3.07630032e-01 3.07630032e-01 1.94899306e-01 1.56529889e-01</_>
    <_>
      2.96433240e-01 2.57181525e-01 1.18058985e-02 1.85613170e-01
      2.96433240e-01 2.96433240e-01 5.18158302e-02 2.61648387e-01
      2.96433240e-01 2.96433240e-01 2.62685437e-02 2.96433240e-01
      2.96433240e-01 2.96433240e-01 1.92624897e-01 2.90488124e-01
      3.30626428e-01 3.30626428e-01 1.23888031e-01 3.16679388e-01
      2.27683738e-01 2.06800342e-01 5.63203320e-02 6.55447841e-02
      3.30626428e-01 3.30626428e-01 3.30626428e-01 3.30626428e-01
      1.87207326e-01 1.88941926e-01 1.69027075e-01 1.54237479e-01
      2.29142994e-01 1.89799860e-01 5.62469698e-02 9.05700400e-02
      2.55866706e-01 9.86486599e-02 1.79655030e-01 3.65786761e-01
      2.44575322e-01 2.79756606e-01 3.28518569e-01 2.77984262e-01
      3.65786761e-01 3.65786761e-01 2.38946721e-01 8.48355517e-02</_>
    <_>
      3.25795084e-01 2.30339039e-02 1.50614187e-01 3.39587688e-01
      3.39587688e-01 9.23758000e-02 1.98396355e-01 3.39587688e-01
      2.38826692e-01 9.76729989e-02 5.70853464e-02 2.43409812e-01
      3.39587688e-01 3.14370751e-01 1.21826768e-01 3.39587688e-01
      3.07836533e-01 2.23012716e-01 3.07836533e-01 3.07836533e-01
      1.47224918e-01 1.63030803e-01 1.98166505e-01 2.46679306e-01
      3.07836533e-01 3.07836533e-01 1.92467973e-01 3.07836533e-01
      3.07836533e-01 1.67980373e-01 9.70014706e-02 2.46577457e-01
      1.39175147e-01 1.12169273e-01 9.86419171e-02 1.56215489e-01
      9.81275216e-02 4.78332629e-03 1.90464016e-02 1.64158180e-01
      4.53032225e-01 1.08944573e-01 1.08319134e-01 4.53032225e-01
      4.53032225e-01 8.19412768e-02 2.02874541e-01 4.53032225e-01</_>
    <_>
      2.68196255e-01 6.81157634e-02 1.26342833e-01 3.13880116e-01
      3.28598887e-01 6.71269074e-02 3.22865039e-01 3.28598887e-01
      3.28598887e-01 1.63241208e-01 2.62567978e-02 3.28598887e-01
      3.28598887e-01 1.37698710e-01 5.24888262e-02 3.28598887e-01
      2.98332781e-01 9.88075882e-02 2.98332781e-01 2.98332781e-01
      2.95316637e-01 1.46269888e-01 2.49751806e-01 2.98332781e-01
      2.98332781e-01 1.68223843e-01 1.61613569e-01 2.98332781e-01
      2.22738475e-01 1.66564494e-01 2.47955069e-01 2.98332781e-01
      2.96517700e-01 2.96517700e-01 2.96517700e-01 2.96517700e-01
      2.93581069e-01 2.96517700e-01 2.96517700e-01 2.96517700e-01
      1.33017004e-01 2.10543796e-01 2.96517700e-01 2.96517700e-01
      1.47134379e-01 1.34948403e-01 9.13623646e-02 9.65078026e-02</_>
    <_>
      3.13213497e-01 1.07736729e-01 9.64967087e-02 3.13213497e-01
      3.13213497e-01 1.49247572e-01 1.01141736e-01 3.13213497e-01
      3.13213497e-01 2.99089521e-01 2.58999858e-02 2.60358214e-01
      3.13213497e-01 3.13213497e-01 2.67170388e-02 3.13213497e-01
      2.88094014e-01 1.94563374e-01 1.43022433e-01 2.88094014e-01
      2.88094014e-01 1.57178491e-01 1.30857572e-01 2.82833457e-01
      2.88094014e-01 2.88094014e-01 6.50955588e-02 2.88094014e-01
      2.88094014e-01 2.56449372e-01 2.88094014e-01 2.88094014e-01
      3.45725089e-01 2.84199029e-01 2.37514675e-01 3.45725089e-01
      1.77382663e-01 9.85291600e-02 4.87354323e-02 1.26537979e-01
      3.38760614e-01 3.45725089e-01 3.45725089e-01 3.45725089e-01
      2.02166840e-01 1.43928260e-01 9.19304416e-02 1.31824791e-01</_>
    <_>
      1.75811633e-01 5.47839142e-02 1.37935489e-01 3.06986839e-01
      3.09965611e-01 1.04120575e-01 2.89684832e-01 3.09965611e-01
      3.09965611e-01 3.09185714e-01 2.03018207e-02 2.83183545e-01
      3.09965611e-01 3.09965611e-01 4.78886887e-02 3.09965611e-01
      2.76830137e-01 1.25376731e-01 2.76830137e-01 2.76830137e-01
      2.76830137e-01 1.25366017e-01 2.26710692e-01 2.76830137e-01
      2.76830137e-01 2.76830137e-01 1.03887357e-01 2.76830137e-01
      2.76830137e-01 2.59787679e-01 2.64137387e-01 2.76830137e-01
      3.20127606e-01 2.37654671e-01 2.67259449e-01 3.20127606e-01
      3.20127606e-01 1.81409508e-01 6.65130168e-02 3.20127606e-01
      2.98530906e-01 3.20127606e-01 3.20127606e-01 3.20127606e-01
      1.12229556e-01 7.27537423e-02 3.91725041e-02 7.51328021e-02</_>
    <_>
      2.21190795e-01 7.38024786e-02 1.11145675e-01 2.63959289e-01
      3.29584301e-01 8.96472633e-02 2.54204363e-01 3.29584301e-01
      3.29584301e-01 2.61910558e-01 2.82908063e-02 3.29584301e-01
      3.29584301e-01 2.55384862e-01 3.57291475e-02 3.29584301e-01
      2.86727130e-01 9.61870924e-02 2.70623505e-01 2.86727130e-01
      2.86727130e-01 1.20049000e-01 2.39438772e-01 2.86727130e-01
      2.86727130e-01 2.29408622e-01 9.62242335e-02 2.86727130e-01
      2.86727130e-01 2.86727130e-01 2.02740714e-01 2.86727130e-01
      3.15288991e-01 2.13702157e-01 2.99913406e-01 3.15288991e-01
      3.15288991e-01 1.81641266e-01 4.42278795e-02 3.15288991e-01
      3.15288991e-01 3.15288991e-01 3.15288991e-01 3.15288991e-01
      1.30479500e-01 9.89716128e-02 2.88364291e-02 5.80884703e-02</_>
    <_>
      2.86443561e-01 6.09798767e-02 8.47117752e-02 2.91095227e-01
      3.38737160e-01 5.98152876e-02 2.97054231e-01 3.38737160e-01
      3.38737160e-01 1.23411074e-01 1.97843555e-02 3.38737160e-01
      3.38737160e-01 1.35973036e-01 6.74374700e-02 3.38737160e-01
      2.92724431e-01 9.92595106e-02 2.92724431e-01 2.92724431e-01
      2.63901353e-01 1.13569386e-01 2.78760344e-01 2.92724431e-01
      2.92724431e-01 2.18613401e-01 1.79455936e-01 2.92724431e-01
      2.88041115e-01 2.05653295e-01 1.93267539e-01 2.65024751e-01
      3.33188504e-01 2.70900846e-01 3.12899351e-01 3.33188504e-01
      3.33188504e-01 3.04614455e-01 2.37092093e-01 3.33188504e-01
      2.39623114e-01 1.90451697e-01 2.00472057e-01 2.56975055e-01
      1.35207623e-01 6.34530783e-02 2.59049702e-02 9.70661566e-02</_>
    <_>
      3.42289269e-01 5.54942228e-02 1.17621459e-01 3.42289269e-01
      3.42289269e-01 3.87072824e-02 1.67140052e-01 3.42289269e-01
      3.42289269e-01 5.35807870e-02 5.93841821e-02 3.42289269e-01
      3.42289269e-01 4.97609153e-02 6.37367144e-02 3.42289269e-01
      3.55892986e-01 6.46641850e-02 2.55556971e-01 3.55892986e-01
      2.20027193e-01 1.30480975e-01 1.77158862e-01 3.55892986e-01
      3.55892986e-01 8.30304921e-02 1.10277899e-01 3.55892986e-01
      2.13630259e-01 5.32573909e-02 7.75500014e-02 3.51124376e-01
      3.35327625e-01 3.35327625e-01 3.35327625e-01 3.35327625e-01
      3.35327625e-01 7.39181638e-02 2.42458493e-01 3.35327625e-01
      2.22660094e-01 3.45094353e-02 1.28348604e-01 3.35327625e-01
      8.09702799e-02 1.16447927e-02 4.94746380e-02 2.62499154e-01</_>
    <_>
      3.19926411e-01 3.32335979e-02 1.42498791e-01 3.27185422e-01
      3.04077059e-01 1.79414563e-02 2.98277110e-01 3.27185422e-01
      3.27185422e-01 6.45780936e-02 1.33052617e-01 3.27185422e-01
      3.27185422e-01 4.99571078e-02 1.56661421e-01 3.27185422e-01
      2.56124049e-01 2.52046250e-02 3.15845698e-01 3.15845698e-01
      1.63787037e-01 4.63648066e-02 3.15845698e-01 3.15845698e-01
      3.15845698e-01 8.07926506e-02 2.26180822e-01 3.15845698e-01
      2.91371226e-01 8.79412070e-02 2.30233938e-01 3.15845698e-01
      3.19670171e-01 6.59729987e-02 3.19670171e-01 3.19670171e-01
      3.19670171e-01 1.23112984e-02 1.45196766e-01 3.19670171e-01
      2.96458989e-01 9.53599289e-02 2.61353642e-01 3.19670171e-01
      2.87397265e-01 3.04998867e-02 8.41543600e-02 3.19670171e-01</_>
    <_>
      3.14081013e-01 1.41893730e-01 2.13513095e-02 3.14081013e-01
      3.14081013e-01 2.24296942e-01 3.24444659e-02 3.14081013e-01
      3.14081013e-01 3.05055737e-01 4.29345034e-02 2.62187839e-01
      3.14081013e-01 3.14081013e-01 4.25094105e-02 2.62545556e-01
      3.17495674e-01 3.06228906e-01 7.02555999e-02 3.17495674e-01
      3.08005840e-01 2.00433865e-01 7.48393312e-02 1.67416215e-01
      3.17495674e-01 3.17495674e-01 8.20343122e-02 2.44070828e-01
      3.17495674e-01 3.17495674e-01 1.36244327e-01 1.99402660e-01
      2.93747365e-01 1.95312843e-01 6.63952604e-02 1.50085524e-01
      3.19243848e-01 3.19243848e-01 7.27675036e-02 1.53855592e-01
      3.19243848e-01 3.19243848e-01 2.08225504e-01 3.19243848e-01
      3.19243848e-01 3.19243848e-01 3.30251195e-02 2.42094919e-01</_>
    <_>
      3.26510817e-01 4.73475121e-02 1.49234101e-01 3.26510817e-01
      3.26510817e-01 4.22121398e-02 2.53447294e-01 3.26510817e-01
      3.26510817e-01 3.08250692e-02 1.43988684e-01 3.26510817e-01
      3.26510817e-01 6.29472286e-02 1.66396767e-01 3.26510817e-01
      3.48552018e-01 1.41205788e-01 3.48552018e-01 3.48552018e-01
      2.65531421e-01 1.12810217e-01 1.74133077e-01 3.48552018e-01
      3.48552018e-01 1.74468592e-01 2.78896868e-01 3.48552018e-01
      9.07054171e-02 5.61636090e-02 5.92991412e-02 1.04743324e-01
      4.13466781e-01 2.61474311e-01 2.26631239e-01 4.13466781e-01
      4.13466781e-01 8.16707090e-02 4.07996237e-01 4.13466781e-01
      4.38945219e-02 6.59179920e-03 1.94560029e-02 5.83194755e-02
      8.65260288e-02 2.53232941e-02 1.38670914e-02 7.15448111e-02</_>
    <_>
      3.40037793e-01 4.42990772e-02 9.57184061e-02 3.40037793e-01
      3.40037793e-01 2.78204381e-02 1.88406944e-01 3.40037793e-01
      3.40037793e-01 8.91407132e-02 3.91336232e-02 3.40037793e-01
      3.40037793e-01 1.08107418e-01 5.51050082e-02 3.40037793e-01
      3.39358330e-01 9.06105936e-02 3.08223218e-01 3.39358330e-01
      2.84753859e-01 9.06177610e-02 1.61036059e-01 3.39358330e-01
      3.39358330e-01 1.96803644e-01 1.44732758e-01 3.39358330e-01
      2.47797221e-01 1.14799269e-01 1.08440831e-01 2.37333491e-01
      4.26600426e-01 2.67095268e-01 2.41957709e-01 4.26600426e-01
      4.26600426e-01 1.22938141e-01 1.28257215e-01 4.26600426e-01
      1.21365920e-01 1.47922650e-01 1.54077828e-01 1.30710497e-01
      1.36469051e-01 5.87108992e-02 1.00643858e-02 8.20473060e-02</_>
    <_>
      3.38256985e-01 7.62447938e-02 5.81259802e-02 3.38256985e-01
      3.38256985e-01 1.10999085e-01 4.93457317e-02 3.38256985e-01
      3.38256985e-01 1.28308699e-01 3.94864567e-02 3.38256985e-01
      3.38256985e-01 1.95192471e-01 3.47554721e-02 3.38256985e-01
      3.77493858e-01 2.50986278e-01 8.26389864e-02 3.77493858e-01
      1.98527187e-01 9.68895182e-02 3.47107798e-02 1.17078036e-01
      3.77493858e-01 3.39695036e-01 7.08253235e-02 3.77493858e-01
      3.45479667e-01 1.03356183e-01 5.11174239e-02 1.99061647e-01
      7.38310963e-02 2.70823315e-02 2.08946392e-02 8.05477798e-02
      1.33327544e-01 7.66984597e-02 6.43948317e-02 2.42819816e-01
      3.79422694e-01 1.03143610e-01 2.36718550e-01 3.79422694e-01
      3.79422694e-01 3.79422694e-01 3.31437856e-01 3.79422694e-01</_>
    <_>
      3.39291930e-01 5.57871424e-02 1.30953178e-01 3.44054729e-01
      3.26899111e-01 2.26480793e-02 1.61740154e-01 3.44054729e-01
      3.44054729e-01 3.37351412e-02 7.78928474e-02 3.44054729e-01
      3.44054729e-01 4.34741229e-02 9.11554843e-02 3.44054729e-01
      3.44905466e-01 5.12854829e-02 2.67248094e-01 3.44905466e-01
      2.21920356e-01 8.70405585e-02 3.06170791e-01 3.44905466e-01
      3.44905466e-01 9.61539820e-02 1.29607216e-01 3.44905466e-01
      2.10279167e-01 8.43913928e-02 8.85803550e-02 3.03164572e-01
      3.89097422e-01 1.68120772e-01 3.89097422e-01 3.89097422e-01
      3.29666406e-01 2.27585882e-02 2.39065871e-01 3.89097422e-01
      1.62505537e-01 7.27223307e-02 9.88088548e-02 2.67969429e-01
      8.33180919e-02 1.01327430e-02 5.79132810e-02 2.68783420e-01</_>
    <_>
      3.45698088e-01 8.02391917e-02 4.33242470e-02 3.45698088e-01
      3.45698088e-01 1.13739736e-01 3.70448716e-02 3.45698088e-01
      3.45698088e-01 1.11497231e-01 4.80771735e-02 3.45698088e-01
      3.45698088e-01 1.33423328e-01 2.45982781e-02 3.22833806e-01
      3.63886267e-01 1.95376307e-01 6.76391572e-02 3.63886267e-01
      2.31756717e-01 6.49586171e-02 3.22818197e-02 1.64115578e-01
      3.63886267e-01 2.31331334e-01 4.93362173e-02 3.63886267e-01
      3.63886267e-01 2.03715861e-01 4.67413887e-02 3.25594217e-01
      2.03580141e-01 3.91791612e-02 2.69879811e-02 2.20317811e-01
      1.64092273e-01 1.77211672e-01 5.18764108e-02 1.38138771e-01
      3.90294999e-01 3.90294999e-01 1.11690789e-01 3.90294999e-01
      3.90294999e-01 3.90294999e-01 1.27828464e-01 1.82436466e-01</_>
    <_>
      2.66333133e-01 3.88805754e-02 2.75063694e-01 3.08897942e-01
      2.37079710e-01 1.58581678e-02 3.08897942e-01 3.08897942e-01
      3.08897942e-01 5.09671383e-02 2.18997940e-01 3.08897942e-01
      3.08897942e-01 2.74382960e-02 2.70395756e-01 3.08897942e-01
      2.56631196e-01 2.74893586e-02 3.33461732e-01 3.33461732e-01
      2.02081338e-01 4.80787940e-02 2.58389682e-01 3.33461732e-01
      3.33461732e-01 4.85954806e-02 3.33461732e-01 3.33461732e-01
      1.83634251e-01 3.73129882e-02 1.46197259e-01 3.06773335e-01
      3.29071701e-01 2.41030976e-01 2.56505638e-01 3.29071701e-01
      3.29071701e-01 2.27233022e-01 3.29071701e-01 3.29071701e-01
      2.26038784e-01 7.64579251e-02 8.57901648e-02 2.21116632e-01
      1.63924634e-01 1.35872975e-01 2.34367862e-01 2.57472992e-01</_>
    <_>
      3.19115490e-01 3.68098803e-02 2.10949138e-01 3.19115490e-01
      3.19115490e-01 2.08321102e-02 3.07595193e-01 3.19115490e-01
      3.19115490e-01 3.21267880e-02 1.13217831e-01 3.19115490e-01
      3.19115490e-01 4.10557874e-02 1.60295248e-01 3.19115490e-01
      2.61008233e-01 3.35695334e-02 3.16113174e-01 3.16113174e-01
      1.18254282e-01 5.63535951e-02 3.16113174e-01 3.16113174e-01
      3.16113174e-01 5.63910380e-02 2.23733976e-01 3.16113174e-01
      3.16113174e-01 7.14054406e-02 2.29507074e-01 3.16113174e-01
      2.55255401e-01 9.96553600e-02 3.12567204e-01 3.12567204e-01
      3.12567204e-01 6.53416067e-02 1.87905014e-01 3.12567204e-01
      3.12567204e-01 9.53346342e-02 2.80568331e-01 3.12567204e-01
      3.12567204e-01 5.90112321e-02 9.66270268e-02 3.12567204e-01</_>
    <_>
      3.09032530e-01 1.67666808e-01 1.85946524e-02 3.09032530e-01
      3.09032530e-01 2.27276370e-01 1.14980154e-02 3.09032530e-01
      3.09032530e-01 3.03175271e-01 2.40921844e-02 2.69462138e-01
      3.09032530e-01 3.09032530e-01 2.21638586e-02 2.87337631e-01
      3.22899789e-01 2.74947733e-01 3.04176193e-02 3.22899789e-01
      3.22899789e-01 2.21000463e-01 4.82833050e-02 1.72629759e-01
      3.22899789e-01 3.22899789e-01 4.17724475e-02 2.72266328e-01
      3.22899789e-01 3.22899789e-01 1.10900022e-01 1.45795032e-01
      3.29088420e-01 2.51238763e-01 6.33233264e-02 1.21027768e-01
      2.40140617e-01 2.30920672e-01 1.03500687e-01 1.11556284e-01
      3.71776342e-01 3.71776342e-01 2.55016774e-01 1.82028934e-01
      3.71776342e-01 3.71776342e-01 8.21693018e-02 1.19450919e-01</_>
    <_>
      3.18198323e-01 1.32335529e-01 4.52923775e-02 3.18198323e-01
      3.18198323e-01 1.78276211e-01 4.44238260e-02 3.18198323e-01
      3.18198323e-01 1.97300270e-01 4.17793281e-02 3.18198323e-01
      3.18198323e-01 3.03600520e-01 2.55566072e-02 3.18198323e-01
      3.38177055e-01 2.63818741e-01 6.40540794e-02 3.38177055e-01
      1.80378988e-01 7.77530223e-02 2.74209213e-02 1.20397717e-01
      3.38177055e-01 3.38177055e-01 5.86121120e-02 3.38177055e-01
      3.38177055e-01 3.38177055e-01 6.20061308e-02 2.47511521e-01
      1.48963794e-01 5.42536192e-02 2.25363411e-02 1.11302547e-01
      2.81083882e-01 2.77672350e-01 1.18865505e-01 1.40091822e-01
      3.75731021e-01 3.75731021e-01 9.35124755e-02 3.75731021e-01
      3.75731021e-01 3.75731021e-01 1.72132298e-01 1.55269578e-01</_>
    <_>
      3.06514949e-01 1.87345266e-01 3.13794762e-02 3.06514949e-01
      3.06514949e-01 2.14638799e-01 3.05943619e-02 3.06514949e-01
      3.06514949e-01 2.57873237e-01 3.90280001e-02 3.06514949e-01
      3.06514949e-01 3.06514949e-01 1.62486415e-02 3.06514949e-01
      3.29925388e-01 2.95862585e-01 5.37311882e-02 3.29925388e-01
      2.33742863e-01 1.16496034e-01 3.26505415e-02 1.41142890e-01
      3.29925388e-01 3.29925388e-01 4.21240665e-02 3.29925388e-01
      3.29925388e-01 3.29925388e-01 7.96442702e-02 2.16828346e-01
      2.12667733e-01 1.10211380e-01 3.48699354e-02 1.27194911e-01
      1.99355021e-01 2.38391459e-01 1.13050461e-01 7.57538006e-02
      3.77386957e-01 3.77386957e-01 1.59415096e-01 3.77386957e-01
      3.77386957e-01 3.77386957e-01 1.70059741e-01 1.99827775e-01</_>
    <_>
      2.08000749e-01 4.72388566e-02 3.07309270e-01 3.07309270e-01
      1.97088286e-01 3.79613861e-02 3.07309270e-01 3.07309270e-01
      3.07309270e-01 3.72955874e-02 2.73368657e-01 3.07309270e-01
      3.07309270e-01 4.42153886e-02 2.78496474e-01 3.07309270e-01
      2.22544968e-01 8.77822340e-02 3.35798204e-01 3.35798204e-01
      1.88554615e-01 1.04767047e-01 3.35798204e-01 3.35798204e-01
      3.35798204e-01 9.47367549e-02 3.31726938e-01 3.35798204e-01
      1.29649043e-01 5.68521805e-02 1.46901265e-01 2.35971406e-01
      3.54696810e-01 1.35941043e-01 3.67835850e-01 3.67835850e-01
      1.15362614e-01 1.39685437e-01 3.67835850e-01 3.67835850e-01
      1.19983569e-01 4.08839062e-02 1.44919917e-01 2.58415490e-01
      7.34376535e-02 1.25585869e-01 3.00830007e-01 2.49980643e-01</_>
    <_>
      1.84143439e-01 1.57776520e-01 1.98981747e-01 2.67508924e-01
      3.17341983e-01 3.17341983e-01 3.17341983e-01 3.17341983e-01
      4.13103886e-02 8.05100203e-02 9.62632000e-02 6.13982342e-02
      3.17341983e-01 3.17341983e-01 3.17341983e-01 3.17341983e-01
      3.13497394e-01 2.23012730e-01 2.85594225e-01 3.13497394e-01
      1.52244613e-01 4.88352999e-02 2.36478634e-02 1.25014365e-01
      3.13497394e-01 3.13497394e-01 2.14949638e-01 3.13497394e-01
      3.13497394e-01 2.96407163e-01 7.48038366e-02 3.07372332e-01
      1.54504076e-01 7.42908716e-02 2.01852527e-02 8.43859240e-02
      3.67293686e-01 3.67293686e-01 6.83256462e-02 1.39931440e-01
      3.67293686e-01 3.67293686e-01 8.03982466e-02 2.74093330e-01
      3.67293686e-01 3.67293686e-01 1.08625270e-01 1.79843411e-01</_>
    <_>
      2.95106262e-01 1.75647631e-01 2.34345570e-01 2.95106262e-01
      2.95106262e-01 2.95106262e-01 2.95106262e-01 2.95106262e-01
      6.23456910e-02 1.21179670e-01 1.30822420e-01 6.86890036e-02
      2.95106262e-01 2.95106262e-01 2.95106262e-01 2.95106262e-01
      2.91153312e-01 2.88747400e-01 3.13805342e-01 3.13805342e-01
      5.69608882e-02 1.71348751e-02 3.66834737e-03 4.18638140e-02
      3.13805342e-01 3.13805342e-01 3.13805342e-01 3.13805342e-01
      3.13805342e-01 2.31521517e-01 2.42548082e-02 2.82679915e-01
      7.47375488e-02 2.89851110e-02 4.32488928e-03 4.76819165e-02
      2.81755775e-01 1.32818073e-01 1.43574215e-02 1.32053375e-01
      3.81796062e-01 3.77753407e-01 2.01944299e-02 3.81796062e-01
      3.81796062e-01 3.81796062e-01 2.91516762e-02 3.81796062e-01</_>
    <_>
      3.01357239e-01 3.01357239e-01 3.01357239e-01 3.01357239e-01
      3.01357239e-01 9.21154469e-02 2.00341970e-01 3.01357239e-01
      3.01357239e-01 3.01357239e-01 3.01357239e-01 3.01357239e-01
      1.10112555e-01 7.71213993e-02 8.30277726e-02 1.23444512e-01
      3.94292295e-01 6.74721748e-02 3.94292295e-01 3.94292295e-01
      3.94292295e-01 2.17066724e-02 3.94292295e-01 3.94292295e-01
      1.31240264e-01 1.43852951e-02 4.63705584e-02 1.79504573e-01
      5.64186648e-02 1.45039093e-02 1.08939838e-02 5.40703461e-02
      2.87980169e-01 1.46361161e-02 3.53675276e-01 3.53675276e-01
      3.49413276e-01 5.75348325e-02 3.53675276e-01 3.53675276e-01
      7.76290447e-02 1.71636902e-02 3.24381106e-02 9.30660740e-02
      2.79863596e-01 6.93632066e-02 2.51633435e-01 3.53675276e-01</_>
    <_>
      2.79289037e-01 2.79289037e-01 2.79289037e-01 2.79289037e-01
      2.79289037e-01 2.18054324e-01 2.37593010e-01 2.79289037e-01
      2.79289037e-01 2.79289037e-01 2.79289037e-01 2.79289037e-01
      1.38404340e-01 1.89945564e-01 1.94057614e-01 1.42455965e-01
      4.30819571e-01 1.96991771e-01 4.30819571e-01 4.30819571e-01
      2.58521140e-01 3.34960148e-02 3.01293433e-01 4.30819571e-01
      1.36351675e-01 1.86074246e-02 2.91478820e-02 1.66106135e-01
      6.48764446e-02 1.94790997e-02 1.16114337e-02 6.02807663e-02
      1.91618651e-01 1.26798544e-02 3.73967022e-01 3.73967022e-01
      3.68480533e-01 7.56903365e-02 3.73967022e-01 3.73967022e-01
      7.61451274e-02 2.31926497e-02 1.29314130e-02 6.16832003e-02
      2.67722040e-01 7.58806244e-02 1.75729424e-01 3.73967022e-01</_>
    <_>
      3.24195653e-01 1.36795342e-01 1.26775429e-01 3.24195653e-01
      3.24195653e-01 2.01958835e-01 2.21437365e-01 3.24195653e-01
      3.24195653e-01 1.09675743e-01 4.82740067e-02 3.24195653e-01
      3.24195653e-01 1.13347113e-01 6.42226338e-02 3.24195653e-01
      3.26606959e-01 1.66867524e-01 1.76416293e-01 3.26606959e-01
      1.66322768e-01 7.49663636e-02 5.94225489e-02 1.54585004e-01
      3.26606959e-01 2.24381909e-01 1.61223873e-01 3.26606959e-01
      3.26606959e-01 3.26606959e-01 3.26606959e-01 2.32407406e-01
      2.13219821e-01 1.50636896e-01 5.59988171e-02 1.17191583e-01
      3.33134472e-01 2.97082216e-01 2.39260364e-02 2.48329833e-01
      3.33134472e-01 3.33134472e-01 3.33134472e-01 1.62848830e-01
      3.33134472e-01 3.33134472e-01 7.53250122e-02 2.51166344e-01</_>
    <_>
      3.11516017e-01 1.64968312e-01 1.67842180e-01 3.11516017e-01
      3.11516017e-01 1.64792106e-01 1.55612379e-01 3.11516017e-01
      3.11516017e-01 1.04668081e-01 1.16672002e-01 3.11516017e-01
      3.11516017e-01 2.71324188e-01 1.24931023e-01 3.11516017e-01
      3.72443318e-01 1.67295143e-01 8.24120939e-02 3.64124417e-01
      8.87535661e-02 3.89094949e-02 7.64284469e-03 5.06977364e-02
      3.72443318e-01 3.72443318e-01 1.09801538e-01 3.72443318e-01
      3.72443318e-01 2.51822829e-01 2.42206473e-02 2.17405960e-01
      8.58224034e-02 4.05730829e-02 4.09099786e-03 3.97072844e-02
      3.81185263e-01 3.15945506e-01 1.43660828e-02 8.19572881e-02
      3.81185263e-01 3.81185263e-01 2.05635931e-02 2.93800592e-01
      3.81185263e-01 3.81185263e-01 2.72532459e-02 2.54649311e-01</_>
    <_>
      3.07579905e-01 1.75009429e-01 1.34251639e-01 3.07579905e-01
      3.07579905e-01 1.94635943e-01 1.69664815e-01 3.07579905e-01
      3.07579905e-01 1.23408474e-01 8.57703090e-02 3.07579905e-01
      3.07579905e-01 2.82728612e-01 1.49133220e-01 3.07579905e-01
      3.46235067e-01 1.91913143e-01 1.06015600e-01 3.45984370e-01
      1.39079079e-01 6.34167418e-02 1.54555477e-02 7.34888539e-02
      3.46235067e-01 3.46235067e-01 1.58381686e-01 3.46235067e-01
      3.46235067e-01 3.46235067e-01 4.36047092e-02 2.31306911e-01
      1.47006974e-01 8.04875791e-02 9.51949507e-03 5.80780059e-02
      3.78874332e-01 3.78874332e-01 3.40717956e-02 6.80716783e-02
      3.78874332e-01 3.78874332e-01 3.97301093e-02 2.60673463e-01
      3.78874332e-01 3.78874332e-01 4.21780534e-02 1.62125453e-01</_>
    <_>
      3.02320391e-01 1.32826909e-01 1.24859050e-01 3.02320391e-01
      3.02320391e-01 2.20287800e-01 2.43996933e-01 3.02320391e-01
      3.02320391e-01 1.87206298e-01 7.71347210e-02 3.02320391e-01
      3.02320391e-01 2.41942570e-01 1.58025086e-01 3.02320391e-01
      3.24016064e-01 2.02083930e-01 1.89973265e-01 3.24016064e-01
      1.62173182e-01 5.86464778e-02 1.23599377e-02 1.09768242e-01
      3.24016064e-01 3.24016064e-01 1.81804448e-01 3.24016064e-01
      3.24016064e-01 3.24016064e-01 7.03511909e-02 3.24016064e-01
      1.31224319e-01 6.16534501e-02 1.72886737e-02 8.18627626e-02
      3.40843141e-01 3.72781247e-01 6.74736127e-02 5.04844040e-02
      3.72781247e-01 3.72781247e-01 6.82450682e-02 3.24747980e-01
      3.72781247e-01 3.72781247e-01 1.05881311e-01 1.69765010e-01</_>
    <_>
      3.20395261e-01 2.99217217e-02 1.40586287e-01 3.20395261e-01
      3.20395261e-01 9.54100192e-02 2.74952710e-01 3.20395261e-01
      2.27387235e-01 2.42903251e-02 6.52085617e-02 2.95456499e-01
      3.20395261e-01 2.48604357e-01 2.64333308e-01 3.20395261e-01
      3.02348733e-01 1.59273535e-01 3.02348733e-01 3.02348733e-01
      3.02348733e-01 8.06778520e-02 2.84441561e-01 3.02348733e-01
      3.02348733e-01 3.02348733e-01 3.02348733e-01 3.02348733e-01
      1.46244854e-01 9.62571800e-02 9.92914438e-02 1.44742191e-01
      3.36362392e-01 5.54762594e-02 3.36362392e-01 3.36362392e-01
      2.76837796e-01 1.11261271e-01 3.36362392e-01 3.36362392e-01
      1.29257217e-01 2.60012764e-02 3.06732096e-02 1.22738436e-01
      2.90218651e-01 1.84401542e-01 2.73544073e-01 3.35259378e-01</_>
    <_>
      2.79966533e-01 4.52494472e-02 2.79966533e-01 2.79966533e-01
      2.79966533e-01 1.55584082e-01 2.79966533e-01 2.79966533e-01
      2.39714354e-01 1.35154203e-01 1.81727812e-01 2.79966533e-01
      2.79966533e-01 2.79966533e-01 2.79966533e-01 2.79966533e-01
      3.16574216e-01 2.06286743e-01 3.16574216e-01 3.16574216e-01
      2.96998113e-01 5.67982383e-02 3.16574216e-01 3.16574216e-01
      2.95494705e-01 2.82578439e-01 2.81006753e-01 3.16574216e-01
      6.83004782e-02 1.20411292e-02 3.59579809e-02 9.64257345e-02
      2.95093268e-01 4.14016694e-02 3.61739963e-01 3.61739963e-01
      1.93859771e-01 1.19371720e-01 3.61739963e-01 3.61739963e-01
      5.35215400e-02 1.66660491e-02 4.12372351e-02 7.96232894e-02
      1.75721288e-01 1.69011950e-01 3.61739963e-01 3.61739963e-01</_>
    <_>
      2.73077577e-01 3.82196419e-02 2.81322241e-01 2.81322241e-01
      2.81322241e-01 1.47156611e-01 2.81322241e-01 2.81322241e-01
      2.50508100e-01 1.14811651e-01 1.79286033e-01 2.81322241e-01
      2.81322241e-01 2.81322241e-01 2.81322241e-01 2.81322241e-01
      3.15173328e-01 1.81931987e-01 3.15173328e-01 3.15173328e-01
      3.15173328e-01 4.58720848e-02 3.15173328e-01 3.15173328e-01
      2.89338768e-01 2.69552946e-01 2.96778411e-01 3.15173328e-01
      8.33812654e-02 9.66623332e-03 3.94361168e-02 1.15123719e-01
      3.23802352e-01 4.16289568e-02 3.62206072e-01 3.62206072e-01
      1.90152615e-01 9.85381380e-02 3.62206072e-01 3.62206072e-01
      6.59845173e-02 1.59627795e-02 4.32810634e-02 9.43538919e-02
      1.45706907e-01 1.41978845e-01 3.62206072e-01 3.62206072e-01</_>
    <_>
      3.35267633e-01 3.72977406e-02 7.37950504e-02 3.35267633e-01
      3.35267633e-01 6.70023337e-02 1.44486725e-01 3.35267633e-01
      3.35267633e-01 3.30494009e-02 5.95836863e-02 3.35267633e-01
      3.35267633e-01 1.66651353e-01 1.81100398e-01 3.35267633e-01
      2.99844354e-01 1.06043272e-01 2.62978405e-01 2.99844354e-01
      2.99844354e-01 7.43987858e-02 2.99844354e-01 2.99844354e-01
      2.99844354e-01 2.63293177e-01 2.50559509e-01 2.99844354e-01
      2.38832697e-01 1.21553190e-01 1.36985213e-01 2.42970765e-01
      3.52076828e-01 5.61221503e-02 3.52076828e-01 3.52076828e-01
      1.47740558e-01 4.45796773e-02 3.52076828e-01 3.52076828e-01
      1.68171272e-01 2.64700148e-02 9.39127654e-02 2.32058704e-01
      1.54963642e-01 8.07689950e-02 3.21836770e-01 3.52076828e-01</_>
    <_>
      4.17736210e-02 8.58968347e-02 3.02298188e-01 3.02298188e-01
      1.57551661e-01 2.25459859e-01 3.02298188e-01 3.02298188e-01
      3.02298188e-01 9.28138122e-02 3.02298188e-01 3.02298188e-01
      2.31996968e-01 1.65246964e-01 3.02298188e-01 3.02298188e-01
      3.04200232e-01 3.04200232e-01 3.04200232e-01 3.04200232e-01
      3.04200232e-01 2.65529037e-01 3.00615150e-02 2.92227924e-01
      2.99457043e-01 2.98384815e-01 3.04200232e-01 3.04200232e-01
      9.29285511e-02 4.93954159e-02 9.22509376e-03 5.02056815e-02
      3.66882890e-01 2.09315583e-01 1.26820043e-01 3.66882890e-01
      2.46905684e-01 2.02735946e-01 3.66882890e-01 3.66882890e-01
      6.08303212e-02 1.78649630e-02 1.12322308e-02 3.16036232e-02
      2.04195186e-01 1.22648537e-01 3.66882890e-01 3.15397799e-01</_>
    <_>
      1.46553203e-01 4.92964461e-02 3.32183838e-01 3.32183838e-01
      1.95626587e-01 1.49410725e-01 3.32183838e-01 3.32183838e-01
      9.95394960e-02 6.77188337e-02 1.46401778e-01 2.87680209e-01
      3.32183838e-01 1.45153493e-01 3.32183838e-01 3.32183838e-01
      2.95846343e-01 2.56593704e-01 3.65498096e-01 3.65498096e-01
      7.49547407e-02 6.32187575e-02 6.46067560e-02 8.81443173e-02
      3.65498096e-01 2.04062909e-01 3.65498096e-01 3.65498096e-01
      2.31284723e-01 4.55504097e-02 1.02312922e-01 2.14017153e-01
      6.84492663e-02 5.34517914e-02 1.81032673e-01 1.87665150e-01
      2.04671219e-01 1.75764948e-01 3.72371882e-01 3.72371882e-01
      3.66536468e-01 3.51073667e-02 8.21540970e-03 2.23089948e-01
      3.72371882e-01 3.72371882e-01 2.10542575e-01 2.52137244e-01</_>
    <_>
      2.66316608e-02 1.53031096e-01 3.04329187e-01 2.20552593e-01
      3.87683064e-02 2.82529116e-01 3.04329187e-01 3.04329187e-01
      3.04329187e-01 9.65480506e-02 1.41830474e-01 3.04329187e-01
      3.04329187e-01 2.69248486e-01 3.04329187e-01 3.04329187e-01
      1.56259432e-01 2.96899855e-01 2.96899855e-01 2.96899855e-01
      2.96899855e-01 1.46887988e-01 1.20195240e-01 2.96899855e-01
      2.73015559e-01 2.96899855e-01 2.96899855e-01 2.96899855e-01
      2.65318662e-01 8.97138044e-02 8.28335360e-02 2.67498791e-01
      3.33708376e-01 1.00025140e-01 3.01160663e-02 3.33708376e-01
      3.33708376e-01 7.13801458e-02 1.67372078e-01 3.33708376e-01
      3.33708376e-01 5.37836961e-02 2.46300120e-02 3.33708376e-01
      3.33708376e-01 1.92695946e-01 1.45339936e-01 3.33708376e-01</_>
    <_>
      2.93006133e-02 4.68124375e-02 3.25685918e-01 3.25685918e-01
      1.60809606e-01 1.78942665e-01 3.25685918e-01 3.25685918e-01
      1.60896003e-01 8.56104270e-02 2.22112834e-01 2.69572556e-01
      2.93403417e-01 2.41002232e-01 3.25685918e-01 3.25685918e-01
      3.02386016e-01 3.02386016e-01 3.02386016e-01 3.02386016e-01
      3.02386016e-01 2.55125374e-01 5.58372140e-02 3.02386016e-01
      3.02386016e-01 3.02386016e-01 3.02386016e-01 3.02386016e-01
      8.29210654e-02 3.86263579e-02 3.04519106e-02 7.14371726e-02
      3.44234139e-01 3.10727417e-01 1.60223216e-01 3.44234139e-01
      3.32537800e-01 1.57849401e-01 3.44234139e-01 3.44234139e-01
      5.12070805e-02 2.07414571e-02 1.62521265e-02 4.87107709e-02
      2.01775789e-01 2.77455419e-01 3.06393504e-01 2.18151525e-01</_>
    <_>
      2.58039199e-02 7.38729984e-02 3.27317089e-01 3.27317089e-01
      1.22919686e-01 1.49435595e-01 3.27317089e-01 3.27317089e-01
      1.63665071e-01 8.67816880e-02 2.52504438e-01 3.01662683e-01
      2.66536891e-01 2.24118859e-01 3.27317089e-01 3.27317089e-01
      3.00869972e-01 2.87780941e-01 3.00869972e-01 3.00869972e-01
      3.00869972e-01 2.18402162e-01 6.12041093e-02 3.00869972e-01
      3.00869972e-01 2.96469808e-01 3.00869972e-01 3.00869972e-01
      1.68640837e-01 6.59157112e-02 3.54797058e-02 1.28882140e-01
      3.65184575e-01 2.56295204e-01 9.88240093e-02 3.65184575e-01
      3.65184575e-01 1.19580396e-01 3.65184575e-01 3.65184575e-01
      1.76857993e-01 5.22330552e-02 2.76984796e-02 1.35869369e-01
      1.68685704e-01 1.21751457e-01 2.45820507e-01 2.87852705e-01</_>
    <_>
      4.70847152e-02 4.46467251e-02 3.50113720e-01 3.50113720e-01
      1.27781153e-01 1.52907684e-01 3.50113720e-01 3.50113720e-01
      1.22526400e-01 7.63370246e-02 1.78818017e-01 2.26623297e-01
      2.83274353e-01 1.80794984e-01 3.50113720e-01 3.50113720e-01
      3.13163549e-01 3.13163549e-01 3.13163549e-01 3.13163549e-01
      3.13163549e-01 2.96671122e-01 5.80839142e-02 1.89942032e-01
      3.06069613e-01 2.61071205e-01 3.13163549e-01 3.13163549e-01
      6.48032427e-02 6.71805963e-02 8.12077671e-02 7.59033561e-02
      3.30645442e-01 2.99358547e-01 1.08758770e-01 3.30645442e-01
      2.12275729e-01 2.49302998e-01 3.30645442e-01 3.30645442e-01
      3.92748341e-02 1.74243581e-02 6.23135595e-03 2.75700931e-02
      2.97286242e-01 3.30645442e-01 3.25847983e-01 2.10252702e-01</_>
    <_>
      3.13325912e-01 3.13325912e-01 9.84316766e-02 2.12161139e-01
      3.13325912e-01 3.13325912e-01 1.68586269e-01 2.45886251e-01
      3.13325912e-01 3.13325912e-01 1.15426846e-01 2.22501494e-02
      3.13325912e-01 3.13325912e-01 1.77403778e-01 1.50370076e-01
      2.98010379e-01 2.98010379e-01 2.53590584e-01 2.98010379e-01
      9.36042741e-02 1.68437734e-02 8.48063380e-02 1.60481602e-01
      2.98010379e-01 2.98010379e-01 2.98010379e-01 2.98010379e-01
      2.98010379e-01 5.11885397e-02 2.98010379e-01 2.98010379e-01
      1.04275472e-01 2.13046037e-02 5.74424230e-02 1.39108315e-01
      3.47795427e-01 3.47795427e-01 1.08971745e-01 1.07041314e-01
      3.47795427e-01 9.93393883e-02 2.52824068e-01 3.47795427e-01
      3.47795427e-01 3.47795427e-01 1.88389897e-01 3.22746724e-01</_>
    <_>
      3.07787448e-01 3.05580586e-01 1.05269626e-01 2.07930386e-01
      3.07787448e-01 3.07787448e-01 1.78803951e-01 2.49988541e-01
      3.07787448e-01 3.07787448e-01 1.59793451e-01 1.87120289e-02
      3.07787448e-01 3.07787448e-01 2.10023537e-01 1.47096708e-01
      2.97326982e-01 2.97326982e-01 2.54099488e-01 2.97326982e-01
      1.15485065e-01 1.88102014e-02 8.71521011e-02 1.90722227e-01
      2.97326982e-01 2.97326982e-01 2.97326982e-01 2.97326982e-01
      2.97326982e-01 5.36101051e-02 2.76219606e-01 2.97326982e-01
      1.30178079e-01 2.58205235e-02 6.05531037e-02 1.67475119e-01
      3.38352829e-01 3.38352829e-01 1.31021783e-01 1.23750329e-01
      3.38352829e-01 9.24744755e-02 2.28243485e-01 3.38352829e-01
      3.38352829e-01 3.38352829e-01 2.29751930e-01 3.38352829e-01</_>
    <_>
      3.16470444e-01 2.22698450e-01 9.63318348e-02 2.01243162e-01
      3.32647085e-01 3.32647085e-01 1.39020368e-01 2.81072348e-01
      3.32647085e-01 3.32647085e-01 7.05636665e-02 2.92271730e-02
      3.32647085e-01 3.32647085e-01 1.35775104e-01 1.03093676e-01
      3.06278676e-01 3.06278676e-01 1.99711666e-01 3.06278676e-01
      1.56608492e-01 4.37026955e-02 8.58001933e-02 2.07878888e-01
      3.06278676e-01 3.06278676e-01 2.55422026e-01 3.06278676e-01
      3.06278676e-01 5.83035089e-02 2.46881574e-01 3.06278676e-01
      1.53129488e-01 2.22735405e-02 6.43924177e-02 2.07736701e-01
      3.32315415e-01 3.32315415e-01 9.81218740e-02 1.29222944e-01
      3.32315415e-01 1.15507029e-01 2.73867011e-01 3.32315415e-01
      3.32315415e-01 3.32315415e-01 2.00012818e-01 3.28871191e-01</_>
    <_>
      3.07496399e-01 2.99972266e-01 9.17928219e-02 2.43103072e-01
      3.07496399e-01 3.07496399e-01 1.63680315e-01 2.55888730e-01
      3.07496399e-01 3.07496399e-01 1.05804488e-01 2.47835685e-02
      3.07496399e-01 3.07496399e-01 1.82935193e-01 1.99990720e-01
      2.99646616e-01 2.99646616e-01 2.33690828e-01 2.99646616e-01
      8.59041661e-02 2.51305532e-02 5.36832362e-02 1.11454099e-01
      2.99646616e-01 2.99646616e-01 2.99646616e-01 2.99646616e-01
      2.99646616e-01 1.45596638e-01 2.99646616e-01 2.99646616e-01
      9.80295986e-02 4.84790578e-02 4.00290973e-02 8.57302397e-02
      3.48870873e-01 3.48870873e-01 5.92228062e-02 7.29321167e-02
      3.48870873e-01 3.22920442e-01 3.00442874e-01 3.48870873e-01
      3.48870873e-01 3.48870873e-01 1.06832489e-01 1.74796358e-01</_>
    <_>
      3.07860881e-01 2.08696112e-01 9.75588113e-02 3.07860881e-01
      3.07860881e-01 3.07860881e-01 1.81461200e-01 2.81718433e-01
      3.07860881e-01 3.07860881e-01 1.31599247e-01 1.88585240e-02
      3.07860881e-01 3.07860881e-01 1.89184189e-01 1.40951380e-01
      2.99674779e-01 2.99674779e-01 2.38084450e-01 2.99674779e-01
      1.24798179e-01 2.91747320e-02 5.52552417e-02 1.48594037e-01
      2.99674779e-01 2.99674779e-01 2.99674779e-01 2.99674779e-01
      2.99674779e-01 1.34718761e-01 2.69013643e-01 2.99674779e-01
      1.39405042e-01 5.20558916e-02 4.86635230e-02 1.31495461e-01
      3.38215768e-01 3.38215768e-01 7.56819546e-02 7.95623511e-02
      3.38215768e-01 3.01938862e-01 3.01947743e-01 3.38215768e-01
      3.38215768e-01 3.38215768e-01 1.54382974e-01 2.24158317e-01</_>
    <_>
      2.80357599e-01 2.43002385e-01 1.05145380e-01 2.80357599e-01
      2.80357599e-01 2.14743808e-01 1.08375333e-01 2.80357599e-01
      2.80357599e-01 2.80357599e-01 2.80357599e-01 2.47228518e-01
      2.36192405e-01 2.80357599e-01 2.80357599e-01 2.11944014e-01
      3.52135330e-01 3.52135330e-01 2.10734352e-01 3.52135330e-01
      3.52135330e-01 1.13009475e-01 2.26263385e-02 1.83313429e-01
      2.34694898e-01 3.52135330e-01 3.52135330e-01 3.14944386e-01
      6.64847344e-02 2.10703798e-02 1.51197677e-02 4.27289642e-02
      3.92089456e-01 1.03290059e-01 2.23084856e-02 1.90879673e-01
      3.92089456e-01 2.40542069e-01 7.76409730e-02 1.28714621e-01
      2.15488151e-01 8.20422620e-02 1.53279770e-02 8.70298892e-02
      3.92089456e-01 3.92089456e-01 3.92089456e-01 1.95906669e-01</_>
    <_>
      2.82314450e-01 2.82314450e-01 8.09440613e-02 2.08023250e-01
      2.82314450e-01 2.82314450e-01 1.96964830e-01 2.26096451e-01
      2.82314450e-01 2.82314450e-01 2.82314450e-01 1.64351970e-01
      2.42051005e-01 2.82314450e-01 2.82314450e-01 2.33506814e-01
      3.18091810e-01 3.18091810e-01 3.18091810e-01 2.68812269e-01
      1.55004961e-02 1.22397002e-02 7.60197407e-03 1.00749908e-02
      3.18091810e-01 3.18091810e-01 3.18091810e-01 3.18091810e-01
      3.18091810e-01 4.85271290e-02 1.04955994e-01 3.18091810e-01
      8.49646050e-03 5.05254464e-03 1.65661611e-03 4.28887783e-03
      1.97414845e-01 2.43678063e-01 1.14429176e-01 6.20087385e-02
      3.98180991e-01 2.55835414e-01 4.44645211e-02 3.98180991e-01
      3.98180991e-01 3.98180991e-01 1.42979667e-01 3.98180991e-01</_>
    <_>
      2.80675739e-01 2.80675739e-01 1.28077507e-01 2.09657684e-01
      2.80675739e-01 2.80675739e-01 2.52355158e-01 2.44588643e-01
      2.80675739e-01 2.80675739e-01 2.80675739e-01 1.50044248e-01
      1.93925858e-01 2.80675739e-01 2.80675739e-01 2.10232750e-01
      3.15771163e-01 3.15771163e-01 3.15771163e-01 2.78540641e-01
      5.76647883e-03 2.02725772e-02 2.65889987e-02 8.36395007e-03
      2.82042891e-01 3.15771163e-01 3.15771163e-01 3.15771163e-01
      3.15771163e-01 1.11196980e-01 1.68624848e-01 3.15771163e-01
      3.28191780e-02 2.17634048e-02 1.35618763e-03 9.82192159e-03
      2.91001081e-01 3.39898854e-01 1.58686996e-01 1.06416531e-01
      3.53594363e-01 3.36178422e-01 5.90392165e-02 3.53594363e-01
      3.53594363e-01 3.53594363e-01 1.28268108e-01 3.53594363e-01</_>
    <_>
      1.66940853e-01 2.95213073e-01 2.95213073e-01 2.17623517e-01
      2.05982506e-01 2.03402147e-01 2.95213073e-01 2.95213073e-01
      9.74173993e-02 2.95213073e-01 2.95213073e-01 1.67184293e-01
      1.27365679e-01 2.95213073e-01 2.95213073e-01 2.95213073e-01
      2.20095828e-01 2.42487252e-01 3.63113254e-01 3.63113254e-01
      7.59825669e-03 4.87795696e-02 7.73013979e-02 2.07735356e-02
      2.07219094e-01 3.63113254e-01 3.63113254e-01 3.63113254e-01
      1.05866916e-01 1.83356687e-01 3.02896738e-01 2.03754142e-01
      2.15038017e-06 0. 0. 2.15038017e-06 1.03504527e-02 3.04787303e-03
      8.12054612e-04 7.62908813e-03 4.33672518e-01 1.98900357e-01
      1.04905486e-01 3.64142329e-01 4.33672518e-01 4.33672518e-01
      2.45028943e-01 4.33672518e-01</_>
    <_>
      2.82124460e-01 2.82124460e-01 2.17328623e-01 2.23833427e-01
      2.82124460e-01 2.35641733e-01 1.96164861e-01 2.82124460e-01
      2.82124460e-01 2.82124460e-01 2.82124460e-01 8.53902996e-02
      2.09349364e-01 2.82124460e-01 2.82124460e-01 1.95891276e-01
      3.48066419e-01 3.48066419e-01 3.48066419e-01 3.48066419e-01
      6.69505224e-02 1.13146670e-01 7.86425024e-02 3.85002606e-02
      2.63310045e-01 3.48066419e-01 3.48066419e-01 3.48066419e-01
      5.41242249e-02 1.34436980e-01 1.62014842e-01 8.32810700e-02
      1.45664020e-02 1.40599879e-02 7.39587331e-03 8.01430829e-03
      2.27640659e-01 4.51052189e-01 2.45335013e-01 2.73470450e-02
      1.75907537e-01 9.52648073e-02 3.07443123e-02 1.04680605e-01
      4.51052189e-01 4.51052189e-01 4.51052189e-01 1.28429204e-01</_>
    <_>
      2.70668358e-01 2.70668358e-01 4.58098389e-02 2.06294775e-01
      2.70668358e-01 2.70668358e-01 1.13837637e-01 2.46056363e-01
      2.70668358e-01 2.70668358e-01 2.70668358e-01 2.70668358e-01
      2.70668358e-01 2.70668358e-01 2.70668358e-01 2.70668358e-01
      3.22644770e-01 3.22644770e-01 2.57404059e-01 3.22644770e-01
      2.15147600e-01 9.89727229e-02 2.94510853e-02 1.29132584e-01
      3.22644770e-01 3.22644770e-01 3.22644770e-01 3.22644770e-01
      1.57119289e-01 1.82769611e-01 2.04330266e-01 1.68383405e-01
      2.58800894e-01 1.09392896e-01 1.51704550e-02 1.40948340e-01
      1.53513193e-01 2.70139873e-01 1.73722878e-01 6.09193742e-02
      3.50527376e-01 2.37569332e-01 4.10064161e-02 3.07499409e-01
      3.50527376e-01 3.50527376e-01 3.50527376e-01 3.50527376e-01</_>
    <_>
      2.73417711e-01 2.73417711e-01 2.36557052e-01 2.73417711e-01
      2.73417711e-01 2.73417711e-01 2.61113256e-01 2.73417711e-01
      2.60784864e-01 2.73417711e-01 2.73417711e-01 1.52825534e-01
      1.43284768e-01 2.73417711e-01 2.73417711e-01 1.16879717e-01
      3.80813569e-01 3.80813569e-01 3.80813569e-01 3.80813569e-01
      6.90835789e-02 2.52026133e-02 1.77316330e-02 6.11187778e-02
      2.37739116e-01 3.80813569e-01 3.80813569e-01 1.88455820e-01
      1.26093790e-01 2.14589853e-02 3.02716601e-03 9.06593427e-02
      1.29401594e-01 2.52720732e-02 2.61942167e-02 1.28401518e-01
      2.69421816e-01 1.98049307e-01 6.25689700e-02 1.35136262e-01
      3.86145651e-01 1.60037711e-01 9.86862555e-03 1.94697678e-01
      4.56991971e-01 4.56991971e-01 3.47924680e-01 2.74646401e-01</_>
    <_>
      2.77465641e-01 2.37763599e-01 3.40214334e-02 2.32205704e-01
      2.77465641e-01 2.77465641e-01 6.19732067e-02 2.51271218e-01
      2.77465641e-01 2.77465641e-01 2.24695832e-01 2.77465641e-01
      2.77465641e-01 2.74350405e-01 2.77465641e-01 2.77465641e-01
      3.29237074e-01 3.29237074e-01 1.12483189e-01 3.29237074e-01
      3.29237074e-01 2.41666123e-01 1.23196170e-02 2.30280325e-01
      3.08097333e-01 3.29237074e-01 3.29237074e-01 3.29237074e-01
      7.71702677e-02 6.40711859e-02 6.09209500e-02 7.07067847e-02
      3.34088057e-01 2.85643995e-01 1.81154702e-02 3.31258357e-01
      3.34088057e-01 2.31963277e-01 7.85468444e-02 2.10018501e-01
      2.32032344e-01 7.60603398e-02 1.30380811e-02 1.56745821e-01
      3.34088057e-01 3.34088057e-01 3.34088057e-01 2.41841316e-01</_>
    <_>
      2.76581138e-01 2.67894030e-01 3.81593332e-02 2.08996862e-01
      2.76581138e-01 2.76581138e-01 6.82394132e-02 2.47264594e-01
      2.76581138e-01 2.76581138e-01 2.22632885e-01 2.76581138e-01
      2.76581138e-01 2.76581138e-01 2.76581138e-01 2.76581138e-01
      3.34584504e-01 3.34584504e-01 1.31312490e-01 3.34584504e-01
      3.34584504e-01 2.04331174e-01 1.16036544e-02 2.34426871e-01
      2.89794981e-01 3.34584504e-01 3.34584504e-01 3.34584504e-01
      8.19761530e-02 4.95872386e-02 3.90498675e-02 6.52651414e-02
      3.63557070e-01 2.19854757e-01 1.17555773e-02 2.97382206e-01
      3.63557070e-01 2.32334569e-01 6.47010729e-02 1.86562195e-01
      2.29650199e-01 9.65046138e-02 2.72807628e-02 1.47757515e-01
      3.63557070e-01 3.63557070e-01 3.43738854e-01 1.87099069e-01</_>
    <_>
      2.70237893e-01 2.70237893e-01 5.88793941e-02 2.44616121e-01
      2.70237893e-01 2.58845866e-01 8.44570473e-02 2.70237893e-01
      2.70237893e-01 2.70237893e-01 2.65289664e-01 2.43305892e-01
      2.70237893e-01 2.70237893e-01 2.70237893e-01 2.70237893e-01
      3.34858805e-01 3.34858805e-01 1.61884546e-01 3.34858805e-01
      3.34858805e-01 1.82745516e-01 1.08923065e-02 2.16733500e-01
      2.85476714e-01 3.34858805e-01 3.34858805e-01 3.34858805e-01
      9.24312919e-02 6.13981634e-02 5.22267371e-02 9.22431275e-02
      3.65361273e-01 1.80405885e-01 1.22150332e-02 2.55633414e-01
      3.65361273e-01 2.46068493e-01 3.34411003e-02 1.74690142e-01
      2.04795584e-01 1.18820697e-01 7.06010312e-02 1.64108872e-01
      3.65361273e-01 3.65361273e-01 3.65361273e-01 2.25168929e-01</_>
    <_>
      2.81572282e-01 2.81572282e-01 5.16686365e-02 2.02878624e-01
      2.81572282e-01 2.81572282e-01 8.60230401e-02 2.19424963e-01
      2.81572282e-01 2.81572282e-01 2.67984778e-01 2.41049677e-01
      2.81090170e-01 2.81572282e-01 2.81572282e-01 2.33695537e-01
      3.40091825e-01 3.40091825e-01 1.59716666e-01 3.40091825e-01
      3.40091825e-01 1.73373595e-01 2.29406487e-02 2.47626483e-01
      2.50354618e-01 3.40091825e-01 3.40091825e-01 3.40091825e-01
      5.41338027e-02 2.75826938e-02 2.39259191e-02 5.10943010e-02
      4.02587861e-01 1.51379079e-01 2.12598331e-02 2.43817151e-01
      3.71523321e-01 1.53513536e-01 1.03424508e-02 1.68069452e-01
      2.29075104e-01 2.69866437e-01 6.58926666e-02 4.92063425e-02
      4.02587861e-01 4.02587861e-01 1.65816829e-01 2.78246135e-01</_>
    <_>
      1.40146554e-01 1.50709242e-01 3.10855776e-01 3.10855776e-01
      1.64777994e-01 1.89486220e-01 1.70587361e-01 1.50523588e-01
      1.03441380e-01 2.36589357e-01 3.10855776e-01 3.10855776e-01
      3.10855776e-01 3.10855776e-01 3.10855776e-01 3.10855776e-01
      3.03759784e-01 3.03759784e-01 3.03759784e-01 7.20054582e-02
      2.08603829e-01 3.03759784e-01 3.03759784e-01 3.94872427e-02
      3.03759784e-01 3.03759784e-01 1.84079438e-01 2.39389062e-01
      2.71448880e-01 2.89179087e-01 1.69580966e-01 1.53479710e-01
      2.07194880e-01 2.97397107e-01 2.97397107e-01 1.50629461e-01
      2.97397107e-01 2.46765226e-01 2.97397107e-01 2.97397107e-01
      2.97397107e-01 2.17218563e-01 2.97397107e-01 2.97397107e-01
      2.45793983e-01 2.82747112e-02 3.46367173e-02 2.30993986e-01</_>
    <_>
      1.15759537e-01 2.80366510e-01 2.80366510e-01 1.76118091e-01
      1.61630690e-01 2.80366510e-01 2.80366510e-01 1.80070192e-01
      2.21305445e-01 2.74056524e-01 2.80366510e-01 2.80366510e-01
      2.80366510e-01 2.53068119e-01 2.77959198e-01 2.80366510e-01
      2.76495576e-01 3.62158686e-01 3.62158686e-01 2.93710262e-01
      6.70520365e-02 8.39346498e-02 1.00413352e-01 7.72675648e-02
      3.62158686e-01 3.62158686e-01 3.62158686e-01 3.62158686e-01
      5.40858470e-02 5.58348373e-02 8.12584832e-02 8.04543719e-02
      2.18037918e-01 9.99653116e-02 1.87496528e-01 3.05145532e-01
      3.46141964e-01 3.60752583e-01 3.60752583e-01 3.60752583e-01
      1.67654291e-01 3.91221493e-02 1.78505629e-02 1.37004554e-01
      2.99157798e-01 1.24494299e-01 1.77167937e-01 3.39472800e-01</_>
    <_>
      1.43457830e-01 2.74846405e-01 2.74846405e-01 1.86828345e-01
      1.97124854e-01 2.74846405e-01 2.74846405e-01 1.89881891e-01
      2.50492245e-01 2.74455994e-01 2.74846405e-01 2.74846405e-01
      2.74846405e-01 2.45471284e-01 2.53381491e-01 2.74846405e-01
      3.36570203e-01 3.49088699e-01 3.49088699e-01 2.84679621e-01
      7.62004629e-02 1.21238045e-01 1.36754900e-01 9.34498683e-02
      3.49088699e-01 3.49088699e-01 3.49088699e-01 3.49088699e-01
      5.38997911e-02 6.66896924e-02 9.48588103e-02 8.19867477e-02
      2.10828140e-01 5.70947155e-02 2.24736109e-01 3.75519842e-01
      3.75519842e-01 3.75519842e-01 3.75519842e-01 3.75519842e-01
      1.11455210e-01 1.70933176e-02 1.43948682e-02 1.09777041e-01
      1.58059061e-01 1.44580692e-01 2.30210647e-01 2.62872845e-01</_>
    <_>
      9.72060263e-02 1.63754851e-01 2.78469145e-01 2.59641051e-01
      1.80230051e-01 2.78469145e-01 2.78469145e-01 2.78469145e-01
      1.57567739e-01 2.46531770e-01 2.78469145e-01 2.78469145e-01
      2.78469145e-01 2.78469145e-01 2.78469145e-01 2.78469145e-01
      2.67815530e-01 3.12062562e-01 3.12062562e-01 3.12062562e-01
      5.71952723e-02 2.09514704e-02 3.25688049e-02 6.57436624e-02
      3.12062562e-01 3.12062562e-01 3.12062562e-01 3.12062562e-01
      2.93985069e-01 1.56679571e-01 1.77830100e-01 3.02957118e-01
      8.29068422e-02 1.36751654e-02 6.80363085e-03 7.24720508e-02
      9.70070064e-02 3.00964601e-02 1.92576442e-02 8.17884952e-02
      4.03465480e-01 2.86185294e-01 2.62596458e-01 4.03465480e-01
      4.03465480e-01 4.03465480e-01 3.81205939e-02 4.03465480e-01</_>
    <_>
      9.70140472e-02 1.72630489e-01 2.79358357e-01 2.68318057e-01
      1.83073893e-01 2.79358357e-01 2.79358357e-01 2.79358357e-01
      1.43964961e-01 2.26600751e-01 2.79358357e-01 2.79358357e-01
      2.79358357e-01 2.79358357e-01 2.79358357e-01 2.79358357e-01
      2.66977817e-01 3.09950650e-01 3.09950650e-01 3.09950650e-01
      6.09967485e-02 2.13291906e-02 2.69593988e-02 6.47485480e-02
      3.09950650e-01 3.09950650e-01 3.09950650e-01 3.09950650e-01
      3.09950650e-01 1.66806310e-01 1.71193659e-01 3.01403612e-01
      7.61781409e-02 1.76313631e-02 5.44846011e-03 6.02069721e-02
      1.31998926e-01 4.81945761e-02 2.04798728e-02 9.13863629e-02
      4.05032605e-01 2.94184327e-01 2.22043589e-01 4.05032605e-01
      4.05032605e-01 4.05032605e-01 3.95379476e-02 4.05032605e-01</_>
    <_>
      2.29233637e-01 2.72614688e-01 2.72614688e-01 1.84361219e-01
      2.72614688e-01 2.72614688e-01 2.72614688e-01 2.36057788e-01
      2.72614688e-01 1.26676753e-01 2.70241112e-01 2.72614688e-01
      2.72614688e-01 1.81997553e-01 2.52875477e-01 2.72614688e-01
      2.97152668e-01 2.97152668e-01 2.97152668e-01 2.97152668e-01
      2.23223165e-01 2.95506001e-01 2.84727812e-01 2.05011904e-01
      2.97152668e-01 2.97152668e-01 2.97152668e-01 2.97152668e-01
      8.77116919e-02 8.24576989e-02 8.67806450e-02 9.14183483e-02
      3.36054921e-01 3.07013541e-01 3.36054921e-01 3.36054921e-01
      3.36054921e-01 3.36054921e-01 3.36054921e-01 3.36054921e-01
      1.16582714e-01 4.19387082e-03 1.31659498e-02 1.30887166e-01
      1.21570773e-01 1.11756578e-01 1.58356294e-01 1.69100717e-01</_>
    <_>
      1.20221905e-01 2.80261904e-01 2.80261904e-01 1.95367798e-01
      1.65488258e-01 2.80261904e-01 2.80261904e-01 1.69532165e-01
      2.44192213e-01 2.66730994e-01 2.80261904e-01 2.80261904e-01
      2.80261904e-01 2.51399010e-01 2.57098049e-01 2.80261904e-01
      2.82528043e-01 3.65992486e-01 3.65992486e-01 2.67114997e-01
      5.35415746e-02 8.60921070e-02 9.40875486e-02 6.08089864e-02
      3.65992486e-01 3.65992486e-01 3.65992486e-01 3.65992486e-01
      5.69298007e-02 5.36285155e-02 8.26151296e-02 7.54779056e-02
      1.78712159e-01 8.31217170e-02 1.37693822e-01 2.63472229e-01
      3.74855012e-01 3.74855012e-01 3.74855012e-01 3.74855012e-01
      1.77784070e-01 2.90610921e-02 1.69048924e-02 1.56669229e-01
      2.78202921e-01 1.34082615e-01 1.94084123e-01 3.41524541e-01</_>
    <_>
      2.10059449e-01 2.76342422e-01 2.76342422e-01 9.99960303e-02
      2.76342422e-01 2.76342422e-01 2.76342422e-01 2.15935975e-01
      2.76342422e-01 2.35121220e-01 2.29930356e-01 2.76342422e-01
      2.76342422e-01 2.76342422e-01 1.57113448e-01 2.76342422e-01
      3.06110620e-01 3.06110620e-01 3.06110620e-01 3.06110620e-01
      1.92171529e-01 3.06110620e-01 3.06110620e-01 1.91438735e-01
      3.06110620e-01 3.06110620e-01 1.76953539e-01 3.06110620e-01
      1.23960890e-01 1.25772893e-01 9.50311199e-02 9.21982825e-02
      3.49870473e-01 3.15255344e-01 3.49870473e-01 3.49870473e-01
      3.49870473e-01 3.49870473e-01 3.49870473e-01 3.49870473e-01
      1.05056226e-01 2.31526643e-02 2.64590252e-02 1.15968682e-01
      7.91423619e-02 1.70067176e-02 2.31612958e-02 8.62684846e-02</_>
    <_>
      1.33322582e-01 2.76413471e-01 2.76413471e-01 1.86560094e-01
      2.72749275e-01 2.76413471e-01 2.76413471e-01 1.42827228e-01
      2.59683311e-01 2.76413471e-01 2.76413471e-01 2.76413471e-01
      2.76413471e-01 2.76413471e-01 1.35598466e-01 2.76413471e-01
      3.19330037e-01 3.19330037e-01 3.19330037e-01 2.31714278e-01
      2.00458571e-01 3.19330037e-01 3.19330037e-01 1.75201535e-01
      3.19330037e-01 3.19330037e-01 1.92950919e-01 2.93500602e-01
      9.74729434e-02 1.16525732e-01 8.85897651e-02 6.43182248e-02
      3.33444715e-01 3.33444715e-01 3.33444715e-01 3.33444715e-01
      3.33444715e-01 3.33444715e-01 3.33444715e-01 3.33444715e-01
      1.21676452e-01 2.09106505e-02 1.86150055e-02 1.09737314e-01
      1.80298731e-01 9.79992002e-02 9.25716311e-02 1.69920787e-01</_>
    <_>
      9.54328775e-02 2.82205582e-01 2.82205582e-01 2.28746802e-01
      2.13420883e-01 2.77620286e-01 2.82205582e-01 2.45141104e-01
      2.65306681e-01 2.14917526e-01 2.82205582e-01 2.82205582e-01
      2.82205582e-01 1.58840626e-01 2.31828183e-01 2.82205582e-01
      2.91941166e-01 2.91941166e-01 2.91941166e-01 2.87654370e-01
      1.89948946e-01 2.91941166e-01 2.91941166e-01 2.16862038e-01
      2.91941166e-01 2.91941166e-01 2.91941166e-01 2.91941166e-01
      1.00762233e-01 1.44315273e-01 1.52035654e-01 1.00331187e-01
      3.53336513e-01 2.30187908e-01 3.53336513e-01 3.53336513e-01
      3.53336513e-01 3.53336513e-01 3.53336513e-01 3.53336513e-01
      9.50598642e-02 9.92328767e-03 1.41447531e-02 9.62687954e-02
      1.04845926e-01 8.96027237e-02 1.18733890e-01 1.33546844e-01</_>
    <_>
      1.20428860e-01 2.73977280e-01 2.73977280e-01 1.86894983e-01
      2.73977280e-01 2.73977280e-01 2.73977280e-01 2.73977280e-01
      2.66726524e-01 2.47231022e-01 2.73977280e-01 2.73977280e-01
      2.73977280e-01 2.01111764e-01 1.56466410e-01 2.73977280e-01
      2.90220976e-01 2.90220976e-01 2.90220976e-01 2.90220976e-01
      2.78059423e-01 2.66536742e-01 2.90220976e-01 2.90220976e-01
      2.90220976e-01 2.90220976e-01 1.97804645e-01 2.90220976e-01
      1.31420135e-01 1.14125490e-01 9.87256914e-02 1.07320733e-01
      3.45219046e-01 2.48482645e-01 3.45219046e-01 3.45219046e-01
      3.45219046e-01 3.45219046e-01 3.45219046e-01 3.45219046e-01
      9.04019177e-02 1.31877102e-02 1.64756905e-02 9.89407152e-02
      1.33883253e-01 1.06092423e-01 1.48768023e-01 1.75653875e-01</_>
    <_>
      2.39886001e-01 2.80590087e-01 2.80590087e-01 1.75481111e-01
      2.80590087e-01 2.80590087e-01 2.80590087e-01 2.80590087e-01
      2.80590087e-01 1.19904190e-01 2.00390369e-01 2.80590087e-01
      2.80590087e-01 1.53699875e-01 2.08307788e-01 2.80590087e-01
      2.85572737e-01 2.85572737e-01 2.85572737e-01 2.85572737e-01
      2.85572737e-01 2.76366234e-01 2.85572737e-01 2.85572737e-01
      2.85572737e-01 2.29294106e-01 2.62750864e-01 2.85572737e-01
      1.58072039e-01 1.06812313e-01 9.78552252e-02 1.38624758e-01
      3.51483911e-01 2.47282296e-01 3.51483911e-01 3.51483911e-01
      3.51483911e-01 3.31426710e-01 3.51483911e-01 3.51483911e-01
      1.41674519e-01 2.02566311e-02 4.00433466e-02 1.65539637e-01
      1.06282353e-01 2.09090784e-02 5.42450175e-02 1.41724929e-01</_>
    <_>
      2.85037696e-01 2.85037696e-01 2.85037696e-01 2.85037696e-01
      2.85037696e-01 2.85037696e-01 2.75985360e-01 2.82525033e-01
      2.84109026e-01 2.85037696e-01 2.85037696e-01 2.64981419e-01
      1.18196182e-01 9.02974159e-02 8.06762651e-02 1.07822858e-01
      4.54715401e-01 4.54715401e-01 4.54715401e-01 4.54715401e-01 0.
      4.88551223e-06 4.88551223e-06 0. 2.10439309e-01 2.14555070e-01
      2.00404659e-01 1.94712669e-01 0. 0. 0. 0. 0. 0. 0. 0. 0.
      4.98753130e-01 4.98753130e-01 0. 0. 0. 0. 0. 0. 4.98753130e-01
      4.98753130e-01 0.</_>
    <_>
      2.42222950e-01 2.59144276e-01 2.59144276e-01 2.59144276e-01
      2.22835839e-01 2.59144276e-01 2.59144276e-01 2.59144276e-01
      1.93474904e-01 2.59144276e-01 2.59144276e-01 2.13964239e-01
      2.59144276e-01 2.59144276e-01 2.59144276e-01 2.59144276e-01
      3.24037015e-01 3.40716541e-01 3.40716541e-01 3.40716541e-01
      3.40155475e-02 3.70231830e-02 4.04619537e-02 3.50584202e-02
      3.40716541e-01 3.40716541e-01 3.40716541e-01 3.40716541e-01
      1.06955655e-01 1.56297043e-01 1.63788497e-01 1.04367010e-01
      7.21403994e-05 4.93489346e-03 4.93489346e-03 7.21403994e-05 0. 0.
      0. 0. 4.70064491e-01 4.70064491e-01 4.70064491e-01 4.70064491e-01
      1.41211614e-01 2.03848988e-01 1.89576522e-01 1.18233889e-01</_>
    <_>
      1.14352450e-01 7.08964989e-02 5.84678911e-02 9.89223793e-02
      7.15626478e-02 2.24707499e-01 2.76707202e-01 1.06431410e-01
      3.20542693e-01 3.20542693e-01 3.20542693e-01 3.20542693e-01
      3.20542693e-01 3.20542693e-01 3.20542693e-01 3.20542693e-01
      1.36183307e-01 3.19217026e-01 3.19217026e-01 2.41209418e-01
      1.20455578e-01 3.19217026e-01 3.19217026e-01 1.76664978e-01
      1.72720954e-01 3.19217026e-01 3.19217026e-01 3.19217026e-01
      8.55009258e-02 1.74095094e-01 2.61303663e-01 1.59167483e-01
      3.28843951e-01 3.28843951e-01 3.28843951e-01 3.28843951e-01
      2.10929826e-01 2.07388163e-01 5.28774336e-02 5.20007946e-02
      1.86839029e-01 3.28843951e-01 3.28843951e-01 1.49692520e-01
      3.05349797e-01 3.04025799e-01 7.72817805e-02 7.69640654e-02</_>
    <_>
      3.27881902e-01 3.27881902e-01 3.27881902e-01 3.27881902e-01
      3.27881902e-01 2.72024721e-01 1.83836967e-01 3.27881902e-01
      3.03261101e-01 1.93126917e-01 9.96699333e-02 2.03978419e-01
      1.83596104e-01 1.06993012e-01 5.24918847e-02 1.23183452e-01
      3.07396799e-01 3.07396799e-01 3.07396799e-01 3.07396799e-01
      1.74335346e-01 1.64793715e-01 2.05363587e-01 2.04015091e-01
      3.07396799e-01 3.07396799e-01 2.96468973e-01 3.07396799e-01
      1.62978008e-01 1.59397930e-01 1.63376451e-01 1.66064784e-01
      3.52929413e-01 3.52929413e-01 3.52929413e-01 3.52929413e-01 0.
      3.84849962e-04 3.84849962e-04 0. 3.52929413e-01 3.52929413e-01
      3.52929413e-01 3.52929413e-01 0. 1.09888759e-04 1.09888759e-04 0.</_>
    <_>
      2.70891815e-01 2.70891815e-01 2.70891815e-01 2.70891815e-01
      2.05442891e-01 2.70891815e-01 2.70891815e-01 1.80352539e-01
      2.70891815e-01 2.70891815e-01 2.70891815e-01 2.70891815e-01
      1.57876328e-01 2.70891815e-01 2.70891815e-01 1.30558997e-01
      3.60896826e-01 3.60896826e-01 3.60896826e-01 3.60896826e-01 0.
      8.73346871e-05 8.73346871e-05 0. 3.45963061e-01 3.60896826e-01
      3.60896826e-01 3.08585018e-01 0. 1.53523448e-04 1.53523448e-04 0.
      9.72283110e-02 7.30722621e-02 7.68752247e-02 1.01062939e-01
      3.19860548e-01 3.19860548e-01 3.19860548e-01 3.19860548e-01
      2.11087868e-01 1.61729023e-01 1.68277130e-01 2.19931111e-01
      3.19860548e-01 3.19860548e-01 3.19860548e-01 3.19860548e-01</_>
    <_>
      2.53620267e-01 2.53620267e-01 2.53620267e-01 2.53620267e-01
      2.53620267e-01 2.53620267e-01 2.53620267e-01 2.53620267e-01
      2.53620267e-01 2.24622145e-01 2.39968419e-01 2.53620267e-01
      2.37076968e-01 2.47671217e-01 2.53620267e-01 2.53620267e-01
      3.40199947e-01 3.40199947e-01 3.40199947e-01 3.40199947e-01
      4.84694801e-02 3.21322680e-02 3.92292738e-02 5.95782958e-02
      3.40199947e-01 3.40199947e-01 3.40199947e-01 3.40199947e-01
      1.26131892e-01 1.10404447e-01 1.18492126e-01 1.41787708e-01
      3.05259705e-01 1.63782626e-01 2.12425560e-01 3.58727723e-01
      6.18471205e-03 4.83753253e-03 6.02896931e-03 5.62703330e-03
      4.06388432e-01 4.06388432e-01 4.06388432e-01 4.06388432e-01
      7.65846223e-02 1.31383240e-01 1.16486616e-01 6.84845895e-02</_>
    <_>
      3.09852034e-01 1.80374995e-01 2.04265356e-01 3.09852034e-01
      2.57797480e-01 1.06411800e-01 1.30805045e-01 2.91788489e-01
      3.09852034e-01 2.20072195e-01 2.16950789e-01 3.09852034e-01
      3.09852034e-01 1.76632717e-01 1.99656337e-01 3.09852034e-01
      3.75904411e-01 2.23911136e-01 2.80306876e-01 3.75904411e-01
      3.22879032e-07 9.35448315e-06 9.35448315e-06 3.22879032e-07
      3.75904411e-01 3.75904411e-01 3.75904411e-01 3.75904411e-01
      7.95232058e-02 2.79803667e-02 4.80156057e-02 1.01485156e-01 0. 0.
      0. 0. 0. 0. 0. 0. 4.98753130e-01 4.98753130e-01 4.98753130e-01
      4.98753130e-01 0. 0. 0. 0.</_>
    <_>
      2.84145355e-01 2.84145355e-01 2.84145355e-01 2.84145355e-01
      2.46249527e-01 2.84145355e-01 2.84145355e-01 2.10902721e-01
      2.84145355e-01 2.84145355e-01 2.47220397e-01 2.79245675e-01
      1.63472354e-01 1.83792785e-01 1.70741051e-01 1.31839395e-01
      3.16520214e-01 3.34471703e-01 3.34471703e-01 2.54616380e-01
      1.15726940e-01 2.72270143e-01 3.34471703e-01 1.57857448e-01
      2.34075963e-01 3.34471703e-01 3.34471703e-01 1.80089295e-01
      7.00635388e-02 1.48328468e-01 1.90768272e-01 9.65281129e-02
      2.28000849e-01 2.68893808e-01 2.68893808e-01 2.68893808e-01
      1.41870588e-01 2.68893808e-01 2.68893808e-01 1.75388113e-01
      2.07247123e-01 2.68893808e-01 2.68893808e-01 2.46344656e-01
      2.68893808e-01 2.68893808e-01 2.68893808e-01 2.60316283e-01</_>
    <_>
      1.36823863e-01 3.11482280e-01 3.08684736e-01 1.38963982e-01
      3.89463991e-01 3.89463991e-01 3.89463991e-01 3.89463991e-01
      1.96525697e-02 5.68601079e-02 6.07075915e-02 2.28438526e-02
      7.71931335e-02 2.54557669e-01 2.69238293e-01 8.92592147e-02
      4.41853851e-01 4.41853851e-01 4.41853851e-01 4.41853851e-01
      3.74635719e-02 5.00903353e-02 3.44202481e-02 2.31118612e-02
      8.71929750e-02 3.01285625e-01 3.17167312e-01 1.00222878e-01 0.
      1.13011556e-04 1.13011556e-04 0. 1.02152869e-01 1.32633224e-01
      1.58449903e-01 1.26400769e-01 3.66964906e-01 3.66964906e-01
      3.66964906e-01 3.66964906e-01 3.66724953e-02 4.52767573e-02
      5.96914850e-02 4.91350666e-02 2.24736273e-01 3.34300578e-01
      3.66964906e-01 2.86830515e-01</_>
    <_>
      3.11823398e-01 3.11823398e-01 3.11823398e-01 3.11823398e-01
      2.83954978e-01 3.11823398e-01 3.11823398e-01 3.11823398e-01
      1.29265696e-01 1.26801074e-01 1.92181319e-01 1.84355631e-01
      1.36538237e-01 1.78888962e-01 2.22131506e-01 1.78666860e-01
      3.44491988e-01 3.44491988e-01 3.44491988e-01 3.44491988e-01
      9.79770571e-02 9.83641595e-02 1.01381794e-01 9.96933058e-02
      3.44491988e-01 3.44491988e-01 3.44491988e-01 3.44491988e-01
      4.44193594e-02 4.40787338e-02 4.32521775e-02 4.33744639e-02
      3.52929503e-01 3.52929503e-01 3.52929503e-01 3.52929503e-01
      3.52929503e-01 3.52929503e-01 3.52929503e-01 3.52929503e-01
      2.54756037e-06 8.19062479e-05 8.19062479e-05 2.54756037e-06
      5.19190735e-06 0. 0. 5.19190735e-06</_>
    <_>
      2.97763497e-01 2.97763497e-01 2.97763497e-01 2.97763497e-01
      2.97763497e-01 2.97763497e-01 2.97763497e-01 2.97763497e-01
      1.69670701e-01 2.19182774e-01 2.22377628e-01 1.70770153e-01
      1.80911869e-01 1.37701944e-01 1.57694221e-01 2.36046225e-01
      3.04686040e-01 3.04686040e-01 3.04686040e-01 3.04686040e-01
      2.86646605e-01 2.41141155e-01 2.53016144e-01 3.04686040e-01
      3.04686040e-01 2.04907537e-01 2.97421008e-01 3.04686040e-01
      6.19630963e-02 3.91575284e-02 4.41280715e-02 7.08610937e-02
      3.63136321e-01 3.63136321e-01 3.63136321e-01 3.63136321e-01
      3.63136321e-01 3.63136321e-01 2.18523398e-01 2.21000791e-01
      1.47413254e-01 1.27978802e-01 9.19386521e-02 1.13691807e-01
      1.40207738e-01 1.42119274e-01 6.73491731e-02 6.84865788e-02</_>
    <_>
      2.58981526e-01 2.59108305e-01 2.59108305e-01 2.53053129e-01
      1.98866189e-01 2.32849374e-01 2.36253724e-01 2.12954536e-01
      2.59108305e-01 2.59108305e-01 2.59108305e-01 2.59108305e-01
      2.59108305e-01 2.59108305e-01 2.59108305e-01 2.59108305e-01
      3.50711435e-01 3.50711435e-01 3.50711435e-01 3.50711435e-01
      2.96321269e-02 2.94181909e-02 3.33458968e-02 3.64366993e-02
      3.50711435e-01 3.50711435e-01 3.50711435e-01 3.50711435e-01
      3.74749079e-02 5.02781756e-02 5.15840687e-02 4.16123830e-02 0.
      7.84412914e-05 7.84412914e-05 0. 3.52928966e-01 3.52928966e-01
      3.52928966e-01 3.52928966e-01 0. 1.24905072e-03 1.24905072e-03 0.
      3.52928966e-01 3.52928966e-01 3.52928966e-01 3.52928966e-01</_>
    <_>
      2.98834056e-01 2.98834056e-01 2.98834056e-01 2.90198326e-01
      2.80468494e-01 1.96104854e-01 1.25232816e-01 2.03933716e-01
      2.98834056e-01 2.98834056e-01 2.98834056e-01 2.98834056e-01
      1.65341333e-01 1.57504633e-01 1.71072096e-01 1.78558812e-01
      2.69315153e-01 2.69315153e-01 2.69315153e-01 2.69315153e-01
      2.69315153e-01 2.69315153e-01 2.69315153e-01 2.69315153e-01
      2.69315153e-01 2.02723175e-01 1.75773591e-01 2.52910674e-01
      2.69315153e-01 1.97802499e-01 1.56169191e-01 2.69315153e-01
      2.64529049e-01 2.55006164e-01 2.64529049e-01 2.64529049e-01
      2.52120107e-01 2.64529049e-01 2.64529049e-01 2.64529049e-01
      2.64529049e-01 2.64529049e-01 1.72207981e-01 2.12438464e-01
      2.64529049e-01 2.64529049e-01 2.64529049e-01 1.55711979e-01</_>
    <_>
      2.84356087e-01 2.84356087e-01 2.84356087e-01 2.84356087e-01
      1.00870527e-01 2.04029962e-01 2.80603230e-01 1.71291709e-01
      2.84356087e-01 2.84356087e-01 2.84356087e-01 2.84356087e-01
      1.43181399e-01 1.99241549e-01 2.84356087e-01 2.22154811e-01
      1.09149389e-01 3.71270984e-01 3.71270984e-01 2.60583162e-01
      1.56732187e-01 1.58404395e-01 2.05350742e-01 2.08453581e-01
      2.45050862e-01 3.71270984e-01 3.71270984e-01 3.71270984e-01
      5.34089021e-02 5.49720600e-02 1.11630775e-01 1.16611987e-01
      1.77578166e-01 1.77374512e-01 2.32681021e-01 2.32253268e-01
      3.49661440e-01 3.49661440e-01 3.49661440e-01 3.49661440e-01
      6.89583272e-02 7.01021850e-02 1.39860690e-01 1.42618969e-01
      3.23964775e-01 3.22894275e-01 1.99017316e-01 1.94894135e-01</_>
    <_>
      2.78424114e-01 2.78424114e-01 2.78424114e-01 2.78424114e-01
      2.78424114e-01 2.78424114e-01 2.78424114e-01 2.48107791e-01
      2.78424114e-01 2.78424114e-01 2.78424114e-01 2.63456404e-01
      1.34956971e-01 1.77212894e-01 1.67464316e-01 1.15710810e-01
      3.32744092e-01 3.68576139e-01 3.68576139e-01 3.65025848e-01
      8.75957385e-02 1.28596768e-01 1.73757195e-01 1.33966163e-01
      1.46645159e-01 3.63894314e-01 3.68576139e-01 1.74437717e-01
      9.01078880e-02 1.36186019e-01 1.97035372e-01 1.50399238e-01
      2.71803021e-01 2.71803021e-01 2.71803021e-01 2.71803021e-01
      1.94805101e-01 2.27402136e-01 2.01828465e-01 1.68050706e-01
      2.71803021e-01 2.71803021e-01 2.71803021e-01 2.71803021e-01
      2.59459674e-01 2.71803021e-01 2.45101333e-01 2.15316698e-01</_>
    <_>
      4.18835014e-01 4.18835014e-01 4.18835014e-01 4.18835014e-01
      8.32196623e-02 8.03541839e-02 7.52762929e-02 7.76674971e-02
      2.76988089e-01 2.44344264e-01 2.10888386e-01 2.48959929e-01
      8.45674500e-02 7.97495916e-02 7.73709491e-02 8.16363916e-02
      2.39356712e-01 2.33120933e-01 2.25418583e-01 2.29641199e-01
      2.62371659e-01 2.62371659e-01 2.62371659e-01 2.62371659e-01
      2.46160179e-01 2.44644016e-01 2.35388443e-01 2.35856235e-01
      2.62371659e-01 2.62371659e-01 2.62371659e-01 2.62371659e-01
      3.62265974e-01 3.62265974e-01 3.62265974e-01 3.62265974e-01
      2.05730528e-01 3.62265974e-01 3.62265974e-01 3.57376218e-01
      9.21147317e-02 9.97486413e-02 1.05072163e-01 9.71541107e-02
      6.85857667e-04 1.13274495e-03 1.30082096e-03 8.74256832e-04</_>
    <_>
      2.81355292e-01 2.79529482e-01 2.53467709e-01 2.53234744e-01
      1.62575573e-01 1.47475049e-01 1.40946999e-01 1.48270503e-01
      2.81355292e-01 2.81355292e-01 2.81355292e-01 2.81355292e-01
      2.81355292e-01 2.81355292e-01 2.81355292e-01 2.59541303e-01
      2.74214864e-01 3.45641166e-01 3.45641166e-01 2.55996376e-01
      7.82641247e-02 1.80594757e-01 2.67916471e-01 1.44611776e-01
      3.45641166e-01 3.45641166e-01 3.45641166e-01 3.45641166e-01
      2.85092760e-02 2.85818595e-02 5.45805395e-02 5.45112453e-02
      3.06647539e-01 3.06647539e-01 3.06647539e-01 3.06647539e-01
      1.82758972e-01 1.79873124e-01 3.06647539e-01 3.06647539e-01
      2.04454601e-01 2.00541154e-01 3.06647539e-01 3.06647539e-01
      1.09452568e-01 1.05363920e-01 1.93275318e-01 1.90954924e-01</_>
    <_>
      2.78706372e-01 2.78706372e-01 2.78706372e-01 2.78706372e-01
      1.47302598e-01 2.78706372e-01 2.78706372e-01 1.59831181e-01
      2.59151548e-01 2.78706372e-01 2.78706372e-01 2.78706372e-01
      1.31406471e-01 2.52759039e-01 2.78706372e-01 1.57746971e-01
      2.66533226e-01 4.42388058e-01 4.42388058e-01 2.42214441e-01
      2.43170895e-02 2.56959237e-02 1.59068704e-02 1.41434902e-02
      1.85598597e-01 4.42388058e-01 4.42388058e-01 1.81525528e-01
      6.78479448e-02 7.02646300e-02 4.85704020e-02 4.51871194e-02
      2.50085413e-01 2.52227426e-01 1.53890237e-01 1.48737565e-01
      2.95388341e-01 2.95388341e-01 2.95388341e-01 2.95388341e-01
      2.57244855e-01 2.59921283e-01 1.66539043e-01 1.62430286e-01
      2.95388341e-01 2.95388341e-01 2.39827618e-01 2.37036124e-01</_>
    <_>
      0. 0. 0. 0. 0. 8.31106299e-05 8.31106299e-05 0. 3.72117728e-01
      3.72117728e-01 2.75409013e-01 3.72117728e-01 3.72117728e-01
      3.47795695e-01 3.27280164e-01 3.72117728e-01 2.27279335e-01
      2.95703262e-01 2.95703262e-01 2.95703262e-01 2.95703262e-01
      2.95703262e-01 2.95703262e-01 2.95703262e-01 2.66430229e-01
      2.95703262e-01 2.95703262e-01 2.95703262e-01 0. 0. 0. 0.
      4.98753130e-01 4.98753130e-01 4.98753130e-01 4.98753130e-01 0. 0.
      0. 0. 0. 0. 0. 0. 0. 0. 0. 0.</_>
    <_>
      0. 5.94167250e-05 5.94167250e-05 0. 3.52929503e-01 3.52929503e-01
      3.52929503e-01 3.52929503e-01 0. 4.44746474e-05 4.44746474e-05 0.
      3.52929503e-01 3.52929503e-01 3.52929503e-01 3.52929503e-01
      2.95144588e-01 2.72702396e-01 2.73399264e-01 2.95144588e-01
      2.60269910e-01 1.06823236e-01 1.05528146e-01 2.51934826e-01
      2.58097529e-01 1.72348410e-01 1.72526002e-01 2.54522771e-01
      2.95144588e-01 2.60309458e-01 2.95144588e-01 2.95144588e-01
      7.24589154e-02 3.23231071e-02 3.41007076e-02 7.07155392e-02
      3.43533248e-01 1.66324452e-01 2.07819015e-01 3.43533248e-01
      2.63805211e-01 1.54336214e-01 1.79960102e-01 2.81721890e-01
      3.43533248e-01 3.43533248e-01 3.43533248e-01 3.43533248e-01</_>
    <_>
      3.41692537e-01 3.41692537e-01 3.41692537e-01 3.41692537e-01
      2.47252256e-01 3.41692537e-01 3.41692537e-01 1.75210401e-01
      2.55327791e-01 1.98934168e-01 1.59185871e-01 1.97950840e-01
      9.52274725e-02 1.12515166e-01 9.49906483e-02 6.47150651e-02
      2.87515759e-01 4.31394070e-01 4.31394070e-01 1.74172521e-01
      2.83035845e-03 4.40556416e-03 4.22354368e-03 2.44762772e-03
      1.30164787e-01 3.34429860e-01 2.77054787e-01 6.12931103e-02
      1.83981508e-01 3.30307782e-01 3.45311850e-01 1.97335795e-01 0.
      8.10881465e-06 8.10881465e-06 0. 2.74862409e-01 2.73842514e-01
      2.26779878e-01 2.28483513e-01 3.63775253e-01 3.63775253e-01
      3.63775253e-01 3.63775253e-01 1.22679308e-01 2.80923694e-01
      3.10508847e-01 1.49929598e-01</_>
    <_>
      0. 1.39476178e-05 1.39476178e-05 0. 2.06959918e-01 2.45924488e-01
      3.35370719e-01 2.14073181e-01 3.71342450e-01 3.71342450e-01
      2.25794971e-01 3.71342450e-01 3.56693298e-01 1.62237853e-01
      1.64695263e-01 2.98886716e-01 3.52807015e-01 3.52807015e-01
      3.52807015e-01 3.52807015e-01 1.20790511e-01 1.60558581e-01
      1.55730158e-01 1.03862837e-01 9.64662582e-02 1.63218021e-01
      1.55879483e-01 9.08252075e-02 2.29679033e-01 3.52807015e-01
      3.52807015e-01 2.30181649e-01 0. 0. 0. 0. 0. 0. 0. 0.
      4.98753130e-01 4.98753130e-01 4.98753130e-01 4.98753130e-01 0. 0.
      0. 0.</_>
    <_>
      2.56884277e-01 2.80952305e-01 2.80952305e-01 2.26951748e-01
      2.80952305e-01 2.80952305e-01 2.29801789e-01 2.51560181e-01
      2.03499839e-01 2.80952305e-01 2.80952305e-01 2.26434946e-01
      1.37697175e-01 2.80952305e-01 2.80952305e-01 1.43126875e-01
      3.91207606e-01 3.91207606e-01 3.35916102e-01 3.91207606e-01
      3.91207606e-01 2.64650434e-01 7.84848332e-02 2.71464109e-01
      1.65535718e-01 1.96788892e-01 1.80501074e-01 1.49848655e-01
      8.58473184e-04 2.98475847e-03 3.38980951e-03 1.31969596e-03
      5.25036275e-01 5.25036275e-01 3.64053816e-01 5.25036275e-01
      1.28526911e-01 9.58747193e-02 4.98040468e-02 8.39083195e-02 0. 0.
      0. 0. 0. 0. 0. 0.</_>
    <_>
      2.88787454e-01 2.88787454e-01 2.88787454e-01 2.88787454e-01
      2.88787454e-01 2.88787454e-01 2.82509297e-01 2.88787454e-01
      2.88787454e-01 2.88787454e-01 2.88787454e-01 2.31164396e-01
      8.23249221e-02 9.64813679e-02 8.85474384e-02 7.71819949e-02
      4.46182728e-01 4.46182728e-01 4.46182728e-01 4.46182728e-01
      2.48482719e-01 2.14236423e-01 1.73955604e-01 2.08355948e-01
      8.64743963e-02 4.41313460e-02 4.15533222e-02 8.22127089e-02
      1.10288849e-03 4.32927016e-04 2.59953289e-04 9.56363103e-04
      4.98753130e-01 4.98753130e-01 4.98753130e-01 4.98753130e-01 0. 0.
      0. 0. 0. 0. 0. 0. 0. 0. 0. 0.</_>
    <_>
      2.94465542e-01 1.66423112e-01 1.62333354e-01 2.94465542e-01
      2.94465542e-01 8.66339803e-02 7.87770674e-02 2.94465542e-01
      2.94465542e-01 2.94465542e-01 2.94465542e-01 2.94465542e-01
      2.94465542e-01 1.97683454e-01 1.52049616e-01 2.94465542e-01
      3.08438063e-01 3.08438063e-01 3.08438063e-01 3.08438063e-01
      2.78442223e-02 5.02788052e-02 4.25870456e-02 2.01034192e-02
      3.08438063e-01 3.08438063e-01 2.94394612e-01 3.08438063e-01
      3.08438063e-01 1.30420253e-01 1.77518398e-01 3.08438063e-01
      3.17857643e-06 4.58700451e-05 4.58700451e-05 3.17857643e-06
      1.42400302e-02 1.04400702e-02 9.44225304e-03 1.28537640e-02
      3.57910812e-01 3.14891607e-01 3.57910812e-01 3.57910812e-01
      3.57910812e-01 3.57910812e-01 3.57910812e-01 3.57910812e-01</_>
    <_>
      2.72726357e-01 2.72726357e-01 2.72726357e-01 2.72726357e-01
      2.72726357e-01 2.41886005e-01 2.26583242e-01 2.72726357e-01
      2.72726357e-01 2.72726357e-01 2.34525457e-01 2.72726357e-01
      2.45097980e-01 1.80994928e-01 1.54561549e-01 2.15140030e-01
      3.19814324e-01 3.19814324e-01 3.19814324e-01 3.19814324e-01
      2.94429809e-01 2.53364742e-01 2.17329279e-01 2.72189379e-01
      3.19814324e-01 2.46226773e-01 2.15716079e-01 3.19814324e-01
      3.12778950e-02 3.16905119e-02 2.88582072e-02 3.06446999e-02
      4.96891171e-01 4.96891171e-01 4.96891171e-01 4.96891171e-01 0.
      7.53346376e-06 7.53346376e-06 0. 4.81769033e-02 5.69497459e-02
      3.09942774e-02 3.01504489e-02 0. 0. 0. 0.</_>
    <_>
      3.32345992e-01 1.22344464e-01 1.28653929e-01 3.32345992e-01
      3.32345992e-01 1.20857313e-01 1.60980731e-01 3.32345992e-01
      3.32345992e-01 1.37005210e-01 8.69221017e-02 3.32345992e-01
      3.32345992e-01 9.34964865e-02 7.70690292e-02 3.32345992e-01
      3.17671180e-01 8.47424567e-02 1.05597444e-01 3.17671180e-01
      3.17671180e-01 1.48338795e-01 1.38160303e-01 3.17671180e-01
      3.17671180e-01 1.10868171e-01 9.51441601e-02 3.17671180e-01
      3.17671180e-01 2.55637050e-01 2.08294898e-01 3.17671180e-01
      2.99398571e-01 1.03049181e-01 8.94326568e-02 2.99398571e-01
      2.99398571e-01 1.75611764e-01 1.47869378e-01 2.99398571e-01
      2.99398571e-01 2.18368500e-01 1.68227181e-01 2.99398571e-01
      2.99398571e-01 2.85248101e-01 2.26314932e-01 2.99398571e-01</_>
    <_>
      3.41233701e-01 1.18992023e-01 6.64496794e-02 3.41233701e-01
      3.41233701e-01 8.70861486e-02 5.90353869e-02 3.41233701e-01
      3.41233701e-01 1.41134188e-01 3.01303193e-02 3.41233701e-01
      3.41233701e-01 1.13742508e-01 4.07335907e-02 3.41233701e-01
      3.42412561e-01 8.12513903e-02 4.76951487e-02 3.42412561e-01
      3.42412561e-01 1.04818121e-01 2.95591597e-02 3.42412561e-01
      3.42412561e-01 1.12758443e-01 4.66692485e-02 3.42412561e-01
      3.42412561e-01 1.44245550e-01 4.65996601e-02 3.42412561e-01
      2.89478779e-01 1.13308638e-01 5.96984476e-02 2.89478779e-01
      2.89478779e-01 2.29654938e-01 2.17500895e-01 2.89478779e-01
      2.89478779e-01 1.78122923e-01 1.04637563e-01 2.89478779e-01
      2.89478779e-01 2.89478779e-01 2.89478779e-01 2.89478779e-01</_>
    <_>
      2.68125147e-01 2.68125147e-01 2.68125147e-01 2.68125147e-01
      2.25751251e-01 2.68125147e-01 2.68125147e-01 1.70972258e-01
      2.68125147e-01 2.68125147e-01 2.68125147e-01 2.68125147e-01
      2.25088716e-01 2.60340095e-01 2.13670194e-01 1.84709534e-01
      2.99957961e-01 2.99957961e-01 2.99957961e-01 2.99957961e-01
      2.99957961e-01 2.99957961e-01 2.46971816e-01 2.37730086e-01
