<?xml version="1.0"?>
<opencv_storage>
<opencv_ml_svm>
  <format>3</format>
  <svmType>C_SVC</svmType>
  <kernel>
    <type>LINEAR</type></kernel>
  <C>450.</C>
  <term_criteria><epsilon>1.0000000000000000e-02</epsilon>
    <iterations>1500</iterations></term_criteria>
  <var_count>48</var_count>
  <class_count>4</class_count>
  <class_labels type_id="opencv-matrix">
    <rows>4</rows>
    <cols>1</cols>
    <dt>i</dt>
    <data>
      2 3 7 10</data></class_labels>
  <sv_total>6</sv_total>
  <support_vectors>
    <_>
      -5.32407522e+00 -7.30420160e+00 -4.80944681e+00 -6.41267419e-01
      1.70672381e+00 5.65384579e+00 -3.40083313e+00 1.34860468e+00
      1.42999934e-02 -2.54713821e+00 -4.45932913e+00 -1.63463116e+00
      1.34860468e+00 -2.10560560e+00 -9.81271788e-02 3.74396801e+00
      -8.84664655e-01 9.85054398e+00 7.10726452e+00 -3.77733207e+00
      1.97825813e+00 2.22101784e+00 2.38080525e+00 1.55015838e+00
      -3.77733207e+00 -2.18638277e+00 6.52506638e+00 -3.64551753e-01
      -1.98935986e+00 3.57177806e+00 7.95422888e+00 2.77695251e+00
      -6.28300142e+00 5.96925735e+00 3.12839580e+00 6.61050129e+00
      -6.37378216e+00 1.07330132e+00 6.91482127e-01 3.65992665e-01
      4.42307405e-02 3.54901624e+00 1.35900593e+00 1.66280067e+00
      3.28577280e+00 4.70169276e-01 1.94582343e+00 -1.85892618e+00</_>
    <_>
      -4.84408140e+00 -1.24282837e+00 4.74389791e-01 9.77444500e-02
      7.72650242e-02 -3.47496653e+00 1.70232654e+00 5.40366888e-01
      1.86703777e+00 3.11473250e+00 -3.43991542e+00 -2.02514529e+00
      5.40366888e-01 1.23971045e+00 -3.62969089e+00 -3.98560882e-01
      4.75610137e-01 3.62517327e-01 2.72348404e+00 9.40090597e-01
      -1.87756252e+00 2.99787951e+00 1.67626131e+00 -7.92243719e-01
      1.07025445e+00 7.86568880e-01 -1.19535327e+00 9.40090597e-01
      -1.71322370e+00 -3.33764315e+00 -9.32863057e-01 -2.20826530e+00
      -1.06491625e+00 8.31577015e+00 -7.26002216e-01 -1.09069991e+00
      -2.46277642e+00 -2.06314611e+00 1.22497642e+00 -1.09612191e+00
      1.46339917e+00 -2.83668805e-02 3.48773408e+00 3.20406222e+00
      1.45238650e+00 -1.90939195e-02 2.14180422e+00 -1.14452207e+00</_>
    <_>
      -7.80723020e-02 -3.22004938e+00 -1.44359723e-01 2.26858115e+00
      -1.96623608e-01 -3.98230004e+00 5.19885659e-01 5.22525907e-01
      1.63163638e+00 8.68685544e-01 -4.58596087e+00 -6.68277979e-01
      -2.79064439e-02 2.13723040e+00 -4.62734985e+00 1.62654921e-01
      1.10296082e+00 1.24547648e+00 3.50561762e+00 9.43091869e-01
      -1.93681404e-01 -2.69596314e+00 5.90289235e-01 1.59777358e-01
      4.77101803e-01 5.07783127e+00 -3.34927738e-01 5.03997862e-01
      -3.45957339e-01 -1.24414094e-01 2.36413407e+00 -1.34211516e+00
      6.07806444e-01 4.56593961e-01 -1.45977986e+00 2.39538002e+00
      -1.48409784e+00 -1.44094670e+00 2.46191120e+00 2.77993608e+00
      -2.41946921e-01 -1.38481605e+00 6.66146219e-01 2.26751304e+00
      3.25441265e+00 1.52381241e+00 -3.60158658e+00 -8.38874280e-01</_>
    <_>
      2.30013132e+00 1.10060978e+00 -1.13512814e+00 -3.95026147e-01
      1.54718244e+00 -6.53268385e+00 -8.09958935e-01 -8.86965275e-01
      1.48068652e-01 4.80288935e+00 6.98308468e-01 -2.14119697e+00
      -8.86965275e-01 1.03119087e+00 -3.59469461e+00 -1.86390793e+00
      -2.22272500e-01 -4.48147249e+00 1.40626454e+00 1.57332766e+00
      2.64739573e-01 1.88126802e+00 -2.69089967e-01 8.76051486e-01
      1.53540742e+00 -3.95152903e+00 -2.41982698e+00 9.39324975e-01
      -8.68977845e-01 -3.94281459e+00 -3.43938184e+00 -1.24212348e+00
      3.67531371e+00 6.46017981e+00 -1.86368906e+00 3.00914317e-01
      -1.55691803e+00 2.92638093e-01 -2.71632171e+00 -7.79025078e-01
      -2.95800529e-02 -1.17920184e+00 1.55423653e+00 2.63235688e+00
      1.28827798e+00 -2.11958498e-01 -3.63745403e+00 -1.08299088e+00</_>
    <_>
      2.41011000e+00 -3.94689608e+00 -2.24017000e+00 1.90160990e+00
      1.22453235e-01 -2.99183416e+00 2.77109802e-01 2.36899346e-01
      1.08917367e+00 -5.87102771e-01 -2.93295121e+00 -6.08817220e-01
      3.01218063e-01 1.54606879e+00 -3.14206910e+00 -1.38873398e+00
      9.06155229e-01 1.97111398e-01 2.97039986e+00 1.29012465e+00
      -2.11691952e+00 -2.61522484e+00 6.12547040e-01 -2.51619935e-01
      1.37552428e+00 4.02558804e+00 -5.19753337e-01 -9.35159922e-01
      3.61579180e-01 3.79530013e-01 -6.31886840e-01 -1.23520756e+00
      3.42811656e+00 -7.12456882e-01 2.97414541e-01 -1.26311290e+00
      2.35478187e+00 -2.09818649e+00 1.16936147e+00 5.90761960e-01
      -1.14413762e+00 -2.41208029e+00 1.69228709e+00 2.28748131e+00
      2.40351439e+00 2.66927195e+00 -5.92765951e+00 1.33831716e+00</_>
    <_>
      9.29478347e-01 -7.11485243e+00 -3.16710211e-02 1.74839997e+00
      -2.51487494e-01 -6.96657896e-01 3.69427276e+00 1.01625252e+00
      2.96378493e+00 -1.72482622e+00 -3.07753015e+00 4.31294870e+00
      2.16792896e-01 6.22266889e-01 -9.93083239e-01 -2.33168334e-01
      1.25655699e+00 3.55444193e-01 1.77713370e+00 1.39270103e+00
      -4.70407218e-01 -5.68807316e+00 2.24015093e+00 -7.05208004e-01
      2.11875290e-01 3.97010183e+00 9.58787560e-01 1.12020409e+00
      2.44223595e-01 1.67528307e+00 1.10783555e-01 -7.90258825e-01
      1.00905168e+00 -3.96907401e+00 2.91103959e+00 1.89265296e-01
      1.79703259e+00 -9.55190897e-01 -1.64576784e-01 3.38569462e-01
      1.17354953e+00 1.82257843e+00 -2.04486585e+00 -2.25712729e+00
      9.37858701e-01 1.37151909e+00 -5.10854864e+00 2.84109259e+00</_></support_vectors>
  <uncompressed_sv_total>92</uncompressed_sv_total>
  <uncompressed_support_vectors>
    <_>
      3.47460479e-01 1.72124654e-02 1.37884747e-02 3.47460479e-01
      3.47460479e-01 7.17681497e-02 7.45505020e-02 3.47460479e-01
      3.47460479e-01 6.96180686e-02 3.94581556e-02 3.47460479e-01
      3.47460479e-01 1.11608610e-01 2.53598914e-02 3.47460479e-01
      3.30302328e-01 1.74120277e-01 1.86883181e-01 3.30302328e-01
      2.91095972e-01 1.64421365e-01 1.63933545e-01 2.92193234e-01
      3.30302328e-01 1.98409066e-01 6.34417161e-02 3.30302328e-01
      3.30302328e-01 1.82560205e-01 8.05578902e-02 2.80583590e-01
      2.41259530e-01 1.81727245e-01 1.75980091e-01 2.68330336e-01
      1.66124165e-01 1.93699431e-02 1.17304232e-02 1.66399747e-01
      3.77688169e-01 2.83232212e-01 1.20717734e-01 3.77688169e-01
      3.77688169e-01 2.80220240e-01 4.81318086e-02 3.77688169e-01</_>
    <_>
      1.72967911e-01 2.95442306e-02 2.54520744e-01 3.20843577e-01
      2.38938391e-01 1.35525614e-01 3.20843577e-01 3.20843577e-01
      3.20843577e-01 6.70576021e-02 8.37926492e-02 3.13176394e-01
      3.20843577e-01 1.98226616e-01 2.43369877e-01 3.20843577e-01
      3.02924037e-01 3.21226567e-01 3.21226567e-01 3.21226567e-01
      1.02033593e-01 1.37007311e-01 2.24773616e-01 1.99015334e-01
      3.21226567e-01 3.21027011e-01 3.21226567e-01 3.21226567e-01
      1.41503066e-01 7.18753263e-02 1.03391834e-01 1.66309863e-01
      1.05409034e-01 2.34842580e-02 8.14640447e-02 2.44757369e-01
      3.32539320e-01 1.83560655e-01 3.24125886e-01 3.32539320e-01
      2.03986824e-01 1.82005707e-02 6.86092526e-02 2.63773859e-01
      3.32539320e-01 3.32539320e-01 3.32539320e-01 3.32539320e-01</_>
    <_>
      2.78051525e-01 5.33946604e-02 1.73446074e-01 3.39161038e-01
      3.39161038e-01 6.87269419e-02 2.49632865e-01 3.39161038e-01
      3.39161038e-01 5.43047674e-02 3.53002548e-02 3.39161038e-01
      3.39161038e-01 5.44926897e-02 8.33546296e-02 3.39161038e-01
      3.33067298e-01 1.49283126e-01 3.33067298e-01 3.33067298e-01
      1.29721075e-01 1.25763163e-01 2.77493894e-01 3.33067298e-01
      3.33067298e-01 1.00517221e-01 1.37163922e-01 3.33067298e-01
      2.06838995e-01 6.85755759e-02 1.08629659e-01 3.33067298e-01
      1.48517549e-01 1.92569971e-01 3.39070410e-01 3.39070410e-01
      1.56679109e-01 5.29455803e-02 3.39070410e-01 3.39070410e-01
      3.39070410e-01 6.24363981e-02 2.56462097e-01 3.39070410e-01
      1.65070981e-01 1.13856765e-02 9.10485461e-02 3.39070410e-01</_>
    <_>
      1.90745741e-01 2.70194449e-02 2.02098936e-01 3.36556256e-01
      2.85644889e-01 1.41129181e-01 3.09493423e-01 3.36556256e-01
      3.26618433e-01 5.67979068e-02 8.61658826e-02 3.36556256e-01
      3.36556256e-01 1.14773862e-01 1.56617343e-01 3.36556256e-01
      3.35491389e-01 2.46499166e-01 3.35491389e-01 3.35491389e-01
      1.25060871e-01 9.50861648e-02 1.84856594e-01 3.31170321e-01
      3.35491389e-01 2.18978763e-01 2.45640263e-01 3.35491389e-01
      1.57755986e-01 1.05369948e-01 1.11964256e-01 2.18563110e-01
      3.11486453e-01 1.21908627e-01 3.61368328e-01 3.61368328e-01
      3.61368328e-01 3.58522646e-02 2.35938415e-01 3.61368328e-01
      2.72837013e-01 1.92869026e-02 1.49537906e-01 3.61368328e-01
      2.15088740e-01 4.45573442e-02 6.41903728e-02 1.58347860e-01</_>
    <_>
      3.25795084e-01 2.30339039e-02 1.50614187e-01 3.39587688e-01
      3.39587688e-01 9.23758000e-02 1.98396355e-01 3.39587688e-01
      2.38826692e-01 9.76729989e-02 5.70853464e-02 2.43409812e-01
      3.39587688e-01 3.14370781e-01 1.21826768e-01 3.39587688e-01
      3.07836533e-01 2.23012716e-01 3.07836533e-01 3.07836533e-01
      1.47224918e-01 1.63030803e-01 1.98166505e-01 2.46679306e-01
      3.07836533e-01 3.07836533e-01 1.92467973e-01 3.07836533e-01
      3.07836533e-01 1.67980373e-01 9.70014706e-02 2.46577457e-01
      1.39175147e-01 1.12169281e-01 9.86419171e-02 1.56215489e-01
      9.81275216e-02 4.78332629e-03 1.90464016e-02 1.64158180e-01
      4.53032225e-01 1.08944573e-01 1.08319134e-01 4.53032225e-01
      4.53032225e-01 8.19412768e-02 2.02874541e-01 4.53032225e-01</_>
    <_>
      2.91711390e-01 1.62926212e-01 1.35340124e-01 2.91711390e-01
      2.91711390e-01 2.91711390e-01 2.91711390e-01 2.91711390e-01
      2.91711390e-01 2.91711390e-01 8.57109651e-02 1.13603890e-01
      2.91711390e-01 2.91711390e-01 1.92384034e-01 2.09771171e-01
      3.28557700e-01 3.28557700e-01 3.28557700e-01 3.28557700e-01
      1.12971216e-01 3.12371086e-02 1.80691965e-02 8.06572512e-02
      3.28557700e-01 3.28557700e-01 3.28557700e-01 3.28557700e-01
      8.50650221e-02 1.75650805e-01 2.27383018e-01 1.50841922e-01
      2.36631975e-01 7.33945444e-02 1.37350298e-02 1.31591707e-01
      1.17040180e-01 6.39987886e-02 1.81762695e-01 2.42371649e-01
      3.27509403e-01 2.79665589e-01 1.34287879e-01 2.05244869e-01
      4.28672552e-01 4.28672552e-01 1.01691328e-01 4.28672552e-01</_>
    <_>
      2.81331629e-01 2.90839709e-02 1.57101154e-01 3.30357343e-01
      3.30357343e-01 2.18487103e-02 3.30357343e-01 3.30357343e-01
      3.30357343e-01 3.08849197e-02 8.97371694e-02 3.30357343e-01
      3.30357343e-01 2.91326623e-02 9.27598998e-02 3.30357343e-01
      3.05539876e-01 7.04524592e-02 3.05539876e-01 3.05539876e-01
      2.67527461e-01 8.47091973e-02 2.63263792e-01 3.05539876e-01
      3.05539876e-01 1.20101638e-01 2.16631591e-01 3.05539876e-01
      2.17492938e-01 1.42163113e-01 2.48151973e-01 3.05539876e-01
      3.29173148e-01 2.41255060e-01 2.04531506e-01 3.29173148e-01
      3.29173148e-01 2.61442125e-01 3.25756520e-01 3.29173148e-01
      1.99325845e-01 1.50190443e-01 2.57769257e-01 3.01146150e-01
      1.73137113e-01 1.01126090e-01 8.32586959e-02 1.49089962e-01</_>
    <_>
      2.82857895e-01 5.66910878e-02 1.62737951e-01 2.99017817e-01
      2.99017817e-01 1.33476004e-01 2.99017817e-01 2.99017817e-01
      2.99017817e-01 2.20473498e-01 2.74689887e-02 2.99017817e-01
      2.99017817e-01 2.99017817e-01 1.24185890e-01 2.99017817e-01
      3.04610401e-01 2.08606303e-01 3.04610401e-01 3.04610401e-01
      3.04610401e-01 1.09060675e-01 1.07320100e-01 2.86196828e-01
      3.04610401e-01 3.04610401e-01 3.04610401e-01 3.04610401e-01
      1.38234228e-01 1.62466332e-01 1.92317247e-01 1.52739033e-01
      3.22529078e-01 2.72801369e-01 6.11828640e-02 3.22529078e-01
      3.22529078e-01 3.22529078e-01 3.22529078e-01 3.22529078e-01
      8.88853073e-02 4.84252237e-02 8.77725258e-02 1.26743987e-01
      3.22529078e-01 3.22529078e-01 1.52730092e-01 1.70508772e-01</_>
    <_>
      2.78838158e-01 1.05368696e-01 1.00144900e-01 2.63008237e-01
      3.08250308e-01 1.60418883e-01 2.46447995e-01 3.08250308e-01
      3.08250308e-01 2.62118906e-01 1.95921957e-02 3.08250308e-01
      3.08250308e-01 3.08250308e-01 9.04185772e-02 3.08250308e-01
      3.14885378e-01 2.28566498e-01 3.14885378e-01 3.14885378e-01
      2.21701309e-01 1.31928995e-01 1.15704283e-01 1.83216408e-01
      3.14885378e-01 3.14885378e-01 2.26978093e-01 3.14885378e-01
      2.83208251e-01 2.35964388e-01 1.41249076e-01 1.69780284e-01
      3.01000148e-01 3.01000148e-01 6.93509132e-02 3.01000148e-01
      3.01000148e-01 1.42299324e-01 3.01000148e-01 3.01000148e-01
      3.01000148e-01 2.62521029e-01 1.83077469e-01 2.05679357e-01
      3.01000148e-01 2.41901815e-01 1.48460260e-02 2.08924636e-01</_>
    <_>
      3.22404176e-01 7.58214220e-02 8.28187913e-02 3.22404176e-01
      3.22404176e-01 1.06954604e-01 2.68045664e-01 3.22404176e-01
      3.22404176e-01 7.56319165e-02 1.37484064e-02 3.22404176e-01
      3.22404176e-01 2.01885641e-01 1.50533646e-01 3.22404176e-01
      3.23557854e-01 2.17139110e-01 3.23557854e-01 3.23557854e-01
      2.47336537e-01 1.47810459e-01 1.39722630e-01 2.25652814e-01
      3.23557854e-01 3.23557854e-01 3.23557854e-01 3.23557854e-01
      1.20885760e-01 1.09329596e-01 1.27921179e-01 1.42810181e-01
      3.65832835e-01 3.65832835e-01 9.08551738e-02 3.65832835e-01
      3.65832835e-01 2.16384828e-01 3.65832835e-01 3.65832835e-01
      1.18700467e-01 6.90421090e-02 1.30369544e-01 2.13005841e-01
      1.84442312e-01 6.80380538e-02 2.76336633e-02 1.32777944e-01</_>
    <_>
      3.13213497e-01 1.07736729e-01 9.64967087e-02 3.13213497e-01
      3.13213497e-01 1.49247572e-01 1.01141736e-01 3.13213497e-01
      3.13213497e-01 2.99089521e-01 2.58999858e-02 2.60358214e-01
      3.13213497e-01 3.13213497e-01 2.67170388e-02 3.13213497e-01
      2.88094014e-01 1.94563374e-01 1.43022433e-01 2.88094014e-01
      2.88094014e-01 1.57178491e-01 1.30857587e-01 2.82833457e-01
      2.88094014e-01 2.88094014e-01 6.50955588e-02 2.88094014e-01
      2.88094014e-01 2.56449372e-01 2.88094014e-01 2.88094014e-01
      3.45725089e-01 2.84199029e-01 2.37514675e-01 3.45725089e-01
      1.77382663e-01 9.85291600e-02 4.87354323e-02 1.26537979e-01
      3.38760614e-01 3.45725089e-01 3.45725089e-01 3.45725089e-01
      2.02166840e-01 1.43928260e-01 9.19304416e-02 1.31824791e-01</_>
    <_>
      3.14429790e-01 1.61818698e-01 7.04828724e-02 3.14429790e-01
      3.14429790e-01 1.51524261e-01 2.42104400e-02 3.14429790e-01
      3.14429790e-01 2.79001504e-01 3.02285273e-02 2.94550061e-01
      3.14429790e-01 2.90185302e-01 1.93319637e-02 3.14429790e-01
      3.07832628e-01 1.99430406e-01 5.78436106e-02 3.07832628e-01
      3.07832628e-01 1.36057377e-01 6.59356788e-02 2.37373158e-01
      3.07832628e-01 3.07832628e-01 8.43800306e-02 3.07832628e-01
      2.73286223e-01 2.39337862e-01 2.90202469e-01 2.87627459e-01
      3.09348464e-01 2.44508669e-01 1.29646957e-01 3.09348464e-01
      2.48050526e-01 1.99046075e-01 1.53368652e-01 2.04405680e-01
      2.05450848e-01 3.09348464e-01 3.09348464e-01 3.09348464e-01
      3.09348464e-01 3.09348464e-01 1.39760554e-01 1.49149865e-01</_>
    <_>
      3.12485099e-01 1.70499355e-01 9.86825675e-02 3.12485099e-01
      3.12485099e-01 1.62452593e-01 5.09479344e-02 3.12485099e-01
      3.12485099e-01 2.95298338e-01 3.21774073e-02 2.42237344e-01
      3.12485099e-01 3.12485099e-01 3.14916670e-02 3.12485099e-01
      3.09827775e-01 2.13321522e-01 9.78431180e-02 3.09827775e-01
      2.87871122e-01 1.32622957e-01 7.82392770e-02 2.13279501e-01
      3.09827775e-01 3.09827775e-01 1.20910697e-01 3.09827775e-01
      2.82059401e-01 2.86610842e-01 2.68493503e-01 2.47747451e-01
      2.88972825e-01 1.76079810e-01 6.56338260e-02 2.26413146e-01
      1.58952072e-01 2.88972825e-01 2.88972825e-01 2.34023884e-01
      2.47201771e-01 2.88972825e-01 2.88972825e-01 2.88972825e-01
      2.88972825e-01 2.88972825e-01 2.80011237e-01 1.51484266e-01</_>
    <_>
      2.21190795e-01 7.38024861e-02 1.11145675e-01 2.63959289e-01
      3.29584301e-01 8.96472633e-02 2.54204363e-01 3.29584301e-01
      3.29584301e-01 2.61910558e-01 2.82908063e-02 3.29584301e-01
      3.29584301e-01 2.55384862e-01 3.57291475e-02 3.29584301e-01
      2.86727130e-01 9.61870924e-02 2.70623505e-01 2.86727130e-01
      2.86727130e-01 1.20049000e-01 2.39438772e-01 2.86727130e-01
      2.86727130e-01 2.29408622e-01 9.62242335e-02 2.86727130e-01
      2.86727130e-01 2.86727130e-01 2.02740714e-01 2.86727130e-01
      3.15288991e-01 2.13702157e-01 2.99913406e-01 3.15288991e-01
      3.15288991e-01 1.81641266e-01 4.42278795e-02 3.15288991e-01
      3.15288991e-01 3.15288991e-01 3.15288991e-01 3.15288991e-01
      1.30479500e-01 9.89715979e-02 2.88364291e-02 5.80884703e-02</_>
    <_>
      2.86443561e-01 6.09798767e-02 8.47117752e-02 2.91095227e-01
      3.38737160e-01 5.98152876e-02 2.97054231e-01 3.38737160e-01
      3.38737160e-01 1.23411074e-01 1.97843555e-02 3.38737160e-01
      3.38737160e-01 1.35973036e-01 6.74374700e-02 3.38737160e-01
      2.92724431e-01 9.92595106e-02 2.92724431e-01 2.92724431e-01
      2.63901353e-01 1.13569386e-01 2.78760344e-01 2.92724431e-01
      2.92724431e-01 2.18613401e-01 1.79455936e-01 2.92724431e-01
      2.88041115e-01 2.05653310e-01 1.93267539e-01 2.65024751e-01
      3.33188504e-01 2.70900846e-01 3.12899351e-01 3.33188504e-01
      3.33188504e-01 3.04614455e-01 2.37092093e-01 3.33188504e-01
      2.39623114e-01 1.90451697e-01 2.00472057e-01 2.56975055e-01
      1.35207623e-01 6.34530783e-02 2.59049702e-02 9.70661566e-02</_>
    <_>
      2.68006116e-01 1.04199968e-01 9.25886482e-02 2.50992507e-01
      3.12200397e-01 2.36599579e-01 2.01258868e-01 3.12200397e-01
      3.12200397e-01 3.12200397e-01 2.07770094e-02 2.31439993e-01
      3.12200397e-01 3.12200397e-01 9.93050486e-02 3.12200397e-01
      3.09359431e-01 3.09359431e-01 2.63505042e-01 3.09359431e-01
      1.91817373e-01 1.28772914e-01 8.62342790e-02 1.40677139e-01
      3.09359431e-01 3.09359431e-01 2.05195576e-01 3.09359431e-01
      3.09359431e-01 2.93638915e-01 1.47905022e-01 1.63533926e-01
      2.51165897e-01 1.20315060e-01 2.14175265e-02 1.50829241e-01
      2.80230463e-01 3.05378675e-01 3.05378675e-01 3.05378675e-01
      3.05378675e-01 3.05378675e-01 2.28859544e-01 1.75180301e-01
      3.05378675e-01 3.05378675e-01 1.93773970e-01 2.10345268e-01</_>
    <_>
      2.70319849e-01 9.51026902e-02 1.05894886e-01 2.97498137e-01
      3.08762610e-01 2.33649254e-01 2.17601702e-01 3.08762610e-01
      3.08762610e-01 3.08762610e-01 1.80456322e-02 1.95978239e-01
      3.08762610e-01 3.08762610e-01 8.40386003e-02 3.08762610e-01
      3.05579573e-01 3.05579573e-01 2.67849684e-01 3.05579573e-01
      1.97907329e-01 1.28245100e-01 8.34094882e-02 1.42792404e-01
      3.05579573e-01 3.05579573e-01 1.96137726e-01 3.05579573e-01
      3.05579573e-01 3.05579573e-01 1.62802652e-01 1.73886314e-01
      2.79956400e-01 1.22279011e-01 1.60649344e-02 1.44391537e-01
      2.67128021e-01 2.99149483e-01 2.99149483e-01 2.99149483e-01
      2.99149483e-01 2.99149483e-01 2.36567691e-01 1.88351616e-01
      2.99149483e-01 2.99149483e-01 2.17259422e-01 2.14810565e-01</_>
    <_>
      3.44880283e-01 3.14211249e-02 6.03014044e-02 3.44880283e-01
      3.44880283e-01 4.24591973e-02 9.25420001e-02 3.44880283e-01
      3.44880283e-01 7.00138733e-02 3.84415388e-02 3.44880283e-01
      3.44880283e-01 1.50135800e-01 3.32302526e-02 3.44880283e-01
      3.35399032e-01 9.83645543e-02 1.29240379e-01 3.35399032e-01
      3.17980707e-01 1.25271946e-01 1.05415039e-01 3.35399032e-01
      3.35399032e-01 2.20184639e-01 5.94558530e-02 3.35399032e-01
      3.35399032e-01 1.82327837e-01 7.80640543e-02 2.75761366e-01
      3.13118815e-01 1.78807184e-01 1.44401655e-01 3.16822410e-01
      1.03362709e-01 1.01285717e-02 6.66950420e-02 2.54544020e-01
      3.76852512e-01 2.61092722e-01 1.47335336e-01 3.76852512e-01
      3.76852512e-01 7.23575503e-02 4.21893820e-02 3.76852512e-01</_>
    <_>
      3.43007624e-01 4.46390845e-02 6.56817257e-02 3.43007624e-01
      3.43007624e-01 7.23283812e-02 1.00536682e-01 3.43007624e-01
      3.43007624e-01 1.05954416e-01 3.68462317e-02 3.43007624e-01
      3.43007624e-01 1.41666055e-01 3.22497673e-02 3.43007624e-01
      3.59641552e-01 1.87325373e-01 1.38402805e-01 3.59641552e-01
      2.35438153e-01 1.58064127e-01 8.49775299e-02 2.17385456e-01
      3.59641552e-01 2.49298915e-01 6.60685226e-02 3.59641552e-01
      3.59641552e-01 1.77872762e-01 6.01401143e-02 2.42459670e-01
      1.30725726e-01 1.50943682e-01 8.89953375e-02 1.20746695e-01
      1.14746496e-01 5.68240546e-02 3.23056951e-02 1.21273331e-01
      3.91662747e-01 3.05967927e-01 9.85121727e-02 3.91662747e-01
      3.91662747e-01 3.91662747e-01 1.76771104e-01 3.91662747e-01</_>
    <_>
      3.31372291e-01 3.32849324e-02 1.18061662e-01 3.32897872e-01
      3.32897872e-01 6.88710883e-02 2.53527850e-01 3.32897872e-01
      3.32897872e-01 4.73884381e-02 4.82020825e-02 3.32897872e-01
      3.32897872e-01 1.12892725e-01 9.86884087e-02 3.32897872e-01
      3.44444573e-01 2.37641200e-01 3.44444573e-01 3.44444573e-01
      2.30288461e-01 1.97940528e-01 1.93856820e-01 2.79906183e-01
      3.44444573e-01 2.41141140e-01 2.12600529e-01 3.44444573e-01
      1.11971542e-01 7.45913237e-02 6.38628453e-02 1.14916086e-01
      4.18747813e-01 2.47397125e-01 1.91119239e-01 4.18747813e-01
      4.18747813e-01 4.45966572e-02 3.23145986e-01 4.18747813e-01
      1.32253170e-01 2.00664587e-02 4.45614122e-02 1.87929541e-01
      1.33212253e-01 4.98351008e-02 5.38326129e-02 1.09317079e-01</_>
    <_>
      3.40444833e-01 8.16578940e-02 1.50447458e-01 3.40444833e-01
      3.40444833e-01 4.02073823e-02 1.68352991e-01 3.40444833e-01
      3.40444833e-01 4.82245982e-02 5.23430854e-02 3.40444833e-01
      3.40444833e-01 4.67699803e-02 5.35016432e-02 3.40444833e-01
      3.73864353e-01 9.60156918e-02 2.78559595e-01 3.73864353e-01
      1.59380957e-01 8.32895041e-02 1.02784954e-01 3.03810716e-01
      3.73864353e-01 8.88738558e-02 9.85167548e-02 3.73864353e-01
      2.14737445e-01 4.46305685e-02 9.83079299e-02 3.73864353e-01
      2.12291807e-01 1.26837745e-01 1.46744788e-01 3.40091854e-01
      2.37549722e-01 2.22036671e-02 3.10313880e-01 3.56565773e-01
      3.25361371e-01 2.97572110e-02 3.56565773e-01 3.56565773e-01
      1.28138155e-01 9.00256634e-03 1.14303388e-01 3.56565773e-01</_>
    <_>
      3.42289269e-01 5.54942228e-02 1.17621459e-01 3.42289269e-01
      3.42289269e-01 3.87072824e-02 1.67140052e-01 3.42289269e-01
      3.42289269e-01 5.35807870e-02 5.93841821e-02 3.42289269e-01
      3.42289269e-01 4.97609153e-02 6.37367144e-02 3.42289269e-01
      3.55892986e-01 6.46641850e-02 2.55556941e-01 3.55892986e-01
      2.20027193e-01 1.30480975e-01 1.77158877e-01 3.55892986e-01
      3.55892986e-01 8.30304921e-02 1.10277899e-01 3.55892986e-01
      2.13630259e-01 5.32573909e-02 7.75500014e-02 3.51124376e-01
      3.35327625e-01 3.35327625e-01 3.35327625e-01 3.35327625e-01
      3.35327625e-01 7.39181638e-02 2.42458493e-01 3.35327625e-01
      2.22660109e-01 3.45094353e-02 1.28348604e-01 3.35327625e-01
      8.09702799e-02 1.16447927e-02 4.94746380e-02 2.62499154e-01</_>
    <_>
      3.44525993e-01 2.81507540e-02 1.10881194e-01 3.44525993e-01
      3.44525993e-01 2.33291034e-02 1.17304675e-01 3.44525993e-01
      3.44525993e-01 5.72567247e-02 5.89111485e-02 3.44525993e-01
      3.44525993e-01 1.05586424e-01 4.10283431e-02 3.44525993e-01
      3.46269965e-01 6.95752725e-02 1.74698025e-01 3.46269965e-01
      2.39367157e-01 8.53534341e-02 1.16943449e-01 3.46269965e-01
      3.46269965e-01 1.75756812e-01 8.36276039e-02 3.46269965e-01
      3.46269965e-01 1.07723996e-01 9.31500196e-02 3.24561000e-01
      3.01690906e-01 1.49760589e-01 1.85473263e-01 3.01690906e-01
      1.90612793e-01 5.46215400e-02 3.01690906e-01 3.01690906e-01
      3.01690906e-01 1.52147785e-01 2.73908496e-01 3.01690906e-01
      2.43948117e-01 3.01690906e-01 2.56409824e-01 2.00715378e-01</_>
    <_>
      3.38788956e-01 3.79146263e-02 6.28902987e-02 3.38788956e-01
      3.38788956e-01 8.30270052e-02 1.19840346e-01 3.38788956e-01
      3.38788956e-01 9.59127471e-02 3.41959260e-02 3.38788956e-01
      3.38788956e-01 1.99297830e-01 4.06843759e-02 3.38788956e-01
      3.53973091e-01 1.99460790e-01 1.89496934e-01 3.53973091e-01
      1.73312858e-01 1.02114774e-01 7.00577945e-02 1.68756008e-01
      3.53973091e-01 3.44329029e-01 9.46361646e-02 3.53973091e-01
      3.53973091e-01 1.47268593e-01 5.74986823e-02 2.60616422e-01
      1.83969229e-01 1.07391411e-02 1.23325614e-02 1.87588006e-01
      1.61721930e-01 9.87743121e-03 5.70728667e-02 3.39135349e-01
      4.36724424e-01 7.98055381e-02 6.04109876e-02 4.36724424e-01
      4.36724424e-01 8.29902962e-02 4.46735024e-02 4.36724424e-01</_>
    <_>
      3.13626915e-01 3.64099182e-02 2.04768404e-01 3.13626915e-01
      3.00195307e-01 1.69031359e-02 3.09617132e-01 3.13626915e-01
      3.13626915e-01 4.23375256e-02 1.85289845e-01 3.13626915e-01
      3.13626915e-01 2.05267854e-02 2.05586106e-01 3.13626915e-01
      2.89378941e-01 2.66078990e-02 3.18745375e-01 3.18745375e-01
      1.52196154e-01 3.88439372e-02 3.18745375e-01 3.18745375e-01
      3.18745375e-01 5.09338416e-02 2.96865106e-01 3.18745375e-01
      2.04411268e-01 5.42882420e-02 2.02607244e-01 3.18745375e-01
      3.28419268e-01 5.79694323e-02 3.28419268e-01 3.28419268e-01
      3.28419268e-01 3.80798951e-02 1.72603324e-01 3.28419268e-01
      2.27212414e-01 5.09253852e-02 2.20113233e-01 3.28419268e-01
      3.09692919e-01 3.07807308e-02 8.70386586e-02 3.28419268e-01</_>
    <_>
      3.16042811e-01 2.74146143e-02 1.99064165e-01 3.16042811e-01
      2.89863080e-01 1.77701414e-02 3.05351436e-01 3.16042811e-01
      3.16042811e-01 3.07393912e-02 1.74932152e-01 3.16042811e-01
      3.16042811e-01 2.00948454e-02 2.18533248e-01 3.16042811e-01
      2.72723973e-01 3.21158879e-02 3.19839180e-01 3.19839180e-01
      1.39887795e-01 4.86758836e-02 3.19839180e-01 3.19839180e-01
      3.19839180e-01 5.21452837e-02 3.00646484e-01 3.19839180e-01
      2.04380617e-01 6.33227229e-02 2.10922137e-01 3.19839180e-01
      3.28743339e-01 7.03253075e-02 3.28743339e-01 3.28743339e-01
      3.28743339e-01 3.28216553e-02 1.64577067e-01 3.28743339e-01
      2.21240804e-01 6.71938509e-02 2.34088123e-01 3.28743339e-01
      3.00388724e-01 3.06424834e-02 8.75745565e-02 3.28743339e-01</_>
    <_>
      3.10745686e-01 1.44547537e-01 1.93112977e-02 3.10745686e-01
      3.10745686e-01 2.30573267e-01 3.51110362e-02 3.10745686e-01
      3.10745686e-01 3.03662151e-01 4.09453101e-02 2.69930184e-01
      3.10745686e-01 3.10745686e-01 2.69490704e-02 2.78953791e-01
      3.25119585e-01 3.25119585e-01 7.29176030e-02 3.25119585e-01
      2.47751608e-01 1.63296193e-01 4.70897816e-02 1.24828286e-01
      3.25119585e-01 3.25119585e-01 6.13201223e-02 3.05721730e-01
      3.25119585e-01 3.10354978e-01 1.01346396e-01 2.18070671e-01
      2.57929653e-01 1.62426874e-01 3.65993418e-02 1.11844823e-01
      3.24417800e-01 3.24417800e-01 6.68903664e-02 1.79047525e-01
      3.24417800e-01 3.24417800e-01 1.49785966e-01 3.24417800e-01
      3.24417800e-01 3.24417800e-01 3.10178418e-02 3.05517405e-01</_>
    <_>
      3.26594621e-01 4.18963917e-02 1.18717946e-01 3.26594621e-01
      3.26594621e-01 3.16384360e-02 2.79572040e-01 3.26594621e-01
      3.26594621e-01 6.09776042e-02 5.96208312e-02 3.26594621e-01
      3.26594621e-01 1.73769638e-01 1.04617082e-01 3.26594621e-01
      3.10821474e-01 6.57597482e-02 3.10821474e-01 3.10821474e-01
      2.29654312e-01 5.18590659e-02 2.40165174e-01 3.10821474e-01
      3.10821474e-01 2.53273904e-01 1.85060278e-01 3.10821474e-01
      2.98623115e-01 1.14871792e-01 1.31519139e-01 2.85896152e-01
      3.23881596e-01 4.19201180e-02 1.84495449e-01 3.23881596e-01
      3.23881596e-01 1.21489644e-01 8.69504362e-02 3.23881596e-01
      3.23881596e-01 8.06914717e-02 8.86493400e-02 3.19918871e-01
      3.23881596e-01 3.23881596e-01 1.18138604e-01 2.71437705e-01</_>
    <_>
      3.13762814e-01 1.47234440e-01 4.97868024e-02 3.13762814e-01
      3.13762814e-01 1.57906950e-01 7.46788457e-02 3.13762814e-01
      3.13762814e-01 2.34105632e-01 3.12740132e-02 3.13762814e-01
      3.13762814e-01 3.13762814e-01 1.97259467e-02 3.13762814e-01
      3.06676477e-01 1.97648898e-01 1.16451375e-01 3.06676477e-01
      3.06676477e-01 1.63514301e-01 1.10199131e-01 2.66790748e-01
      3.06676477e-01 3.06676477e-01 3.84827219e-02 3.06676477e-01
      3.06676477e-01 2.99668968e-01 1.27241269e-01 2.61582792e-01
      3.27394217e-01 1.87248170e-01 1.29325986e-01 2.54170060e-01
      1.95669070e-01 8.31160322e-02 1.08190812e-02 1.09874733e-01
      3.27394217e-01 3.27394217e-01 2.68640339e-01 3.27394217e-01
      3.27394217e-01 3.27394217e-01 2.18763929e-02 3.27394217e-01</_>
    <_>
      3.14657867e-01 1.37895003e-01 5.33287413e-02 3.14657867e-01
      3.14657867e-01 1.60060972e-01 8.86283442e-02 3.14657867e-01
      3.14657867e-01 2.19893903e-01 3.20328213e-02 3.14657867e-01
      3.14657867e-01 3.14657867e-01 3.25091928e-02 3.14657867e-01
      3.07502955e-01 2.07323059e-01 1.30945206e-01 3.07502955e-01
      3.07502955e-01 1.52172565e-01 1.00291520e-01 2.64299870e-01
      3.07502955e-01 3.07502955e-01 5.77662475e-02 3.07502955e-01
      3.07502955e-01 2.80197084e-01 1.26949593e-01 2.71769464e-01
      3.12123030e-01 1.60656944e-01 1.02239057e-01 2.46481955e-01
      2.13693053e-01 8.72495398e-02 1.22981183e-02 1.17048591e-01
      3.33396852e-01 3.33396852e-01 2.60174721e-01 3.33396852e-01
      3.33396852e-01 3.33396852e-01 2.21512597e-02 3.33396852e-01</_>
    <_>
      3.21839929e-01 2.91816201e-02 1.52394891e-01 3.24962467e-01
      2.84172237e-01 1.78079195e-02 3.16856414e-01 3.24962467e-01
      3.24962467e-01 5.30204847e-02 1.43996075e-01 3.24962467e-01
      3.24962467e-01 3.12336478e-02 1.71761408e-01 3.24962467e-01
      2.50148296e-01 3.34880240e-02 3.24038118e-01 3.24038118e-01
      1.51733071e-01 4.98504527e-02 3.24038118e-01 3.24038118e-01
      3.24038118e-01 6.87729791e-02 2.60143608e-01 3.24038118e-01
      2.30368808e-01 7.24794641e-02 2.04514667e-01 3.24038118e-01
      3.19808781e-01 7.71244690e-02 3.19808781e-01 3.19808781e-01
      3.19808781e-01 3.70937400e-02 2.03000486e-01 3.19808781e-01
      2.50252903e-01 7.19373003e-02 2.09087893e-01 3.19808781e-01
      3.19808781e-01 4.61990833e-02 1.28048539e-01 3.19808781e-01</_>
    <_>
      3.14081013e-01 1.41893730e-01 2.13513095e-02 3.14081013e-01
      3.14081013e-01 2.24296942e-01 3.24444659e-02 3.14081013e-01
      3.14081013e-01 3.05055737e-01 4.29345034e-02 2.62187839e-01
      3.14081013e-01 3.14081013e-01 4.25094105e-02 2.62545556e-01
      3.17495674e-01 3.06228906e-01 7.02555999e-02 3.17495674e-01
      3.08005840e-01 2.00433865e-01 7.48393312e-02 1.67416215e-01
      3.17495674e-01 3.17495674e-01 8.20343122e-02 2.44070828e-01
      3.17495674e-01 3.17495674e-01 1.36244327e-01 1.99402660e-01
      2.93747365e-01 1.95312843e-01 6.63952604e-02 1.50085524e-01
      3.19243848e-01 3.19243848e-01 7.27675036e-02 1.53855607e-01
      3.19243848e-01 3.19243848e-01 2.08225504e-01 3.19243848e-01
      3.19243848e-01 3.19243848e-01 3.30251195e-02 2.42094919e-01</_>
    <_>
      3.14663619e-01 1.39415309e-01 1.59122851e-02 3.14663619e-01
      3.14663619e-01 2.20247641e-01 2.53744069e-02 3.14663619e-01
      3.14663619e-01 2.90905118e-01 4.60115485e-02 2.63395876e-01
      3.14663619e-01 3.14663619e-01 4.40123454e-02 2.77242571e-01
      3.18942159e-01 2.97417402e-01 6.69480339e-02 3.18942159e-01
      3.07509154e-01 1.99705556e-01 7.16766790e-02 1.63653478e-01
      3.18942159e-01 3.18942159e-01 9.17096063e-02 2.55887479e-01
      3.18942159e-01 3.18942159e-01 1.34072766e-01 1.87884584e-01
      3.12544078e-01 2.09547624e-01 6.19521700e-02 1.47650570e-01
      3.21175426e-01 3.21175426e-01 7.52892345e-02 1.51395291e-01
      3.21175426e-01 3.21175426e-01 1.87545002e-01 3.21175426e-01
      3.21175426e-01 3.21175426e-01 3.06053441e-02 2.06842288e-01</_>
    <_>
      3.10405701e-01 1.47147641e-01 4.74559739e-02 3.10405701e-01
      3.10405701e-01 1.80693835e-01 8.91856551e-02 3.10405701e-01
      3.10405701e-01 2.52817541e-01 3.16747762e-02 3.10405701e-01
      3.10405701e-01 3.10405701e-01 1.74425617e-02 3.10405701e-01
      3.24204594e-01 2.57107168e-01 1.49144039e-01 3.24204594e-01
      2.65104681e-01 1.39393568e-01 8.51181373e-02 1.90689623e-01
      3.24204594e-01 3.24204594e-01 7.07816407e-02 3.24204594e-01
      3.24204594e-01 2.50265747e-01 1.16221748e-01 2.51578540e-01
      1.90481335e-01 9.02246982e-02 3.37857902e-02 1.23043321e-01
      2.58079678e-01 1.71074286e-01 2.68284213e-02 1.08666763e-01
      3.64675432e-01 3.64675432e-01 1.66522175e-01 3.64675432e-01
      3.64675432e-01 3.64675432e-01 3.99181619e-02 3.64675432e-01</_>
    <_>
      3.22128654e-01 1.04331166e-01 8.31894055e-02 3.22128654e-01
      3.22128654e-01 1.19240150e-01 1.53073519e-01 3.22128654e-01
      3.22128654e-01 2.10799709e-01 3.02858409e-02 3.22128654e-01
      3.22128654e-01 2.49444455e-01 6.01222441e-02 3.22128654e-01
      3.71946454e-01 2.57913888e-01 3.19577843e-01 3.71946454e-01
      1.57569200e-01 9.09092501e-02 7.73383602e-02 1.34760261e-01
      3.71946454e-01 3.71946454e-01 1.82964548e-01 3.71946454e-01
      1.39860481e-01 8.80007818e-02 6.95053264e-02 1.14313014e-01
      3.57919425e-01 2.74927557e-01 2.88463384e-02 3.30112815e-01
      1.27877355e-01 4.68931943e-02 4.01721112e-02 1.10375352e-01
      3.57919425e-01 8.14302042e-02 3.62682939e-02 3.57919425e-01
      3.57919425e-01 3.57919425e-01 4.58243117e-02 3.57919425e-01</_>
    <_>
      3.26028466e-01 9.79402065e-02 6.53446540e-02 3.26028466e-01
      3.26028466e-01 1.01035878e-01 1.02952167e-01 3.26028466e-01
      3.26028466e-01 1.72564581e-01 3.22709866e-02 3.26028466e-01
      3.26028466e-01 2.83733338e-01 1.97945591e-02 3.26028466e-01
      3.09865862e-01 1.42263785e-01 1.47517502e-01 3.09865862e-01
      3.09865862e-01 1.23968758e-01 1.16906419e-01 3.09865862e-01
      3.09865862e-01 3.09865862e-01 6.21770434e-02 3.09865862e-01
      3.09865862e-01 2.27064759e-01 1.29951060e-01 2.92269409e-01
      3.12836379e-01 1.82571888e-01 1.45978779e-01 3.12836379e-01
      2.21392244e-01 7.53819346e-02 3.27817984e-02 2.04375461e-01
      3.12836379e-01 3.12836379e-01 2.45875686e-01 3.12836379e-01
      3.12836379e-01 3.12836379e-01 3.61005105e-02 3.12836379e-01</_>
    <_>
      3.14333051e-01 7.28858635e-02 1.81760535e-01 3.14333051e-01
      3.14333051e-01 7.19002187e-02 2.59070843e-01 3.14333051e-01
      3.14333051e-01 4.54809032e-02 2.02480569e-01 3.14333051e-01
      3.14333051e-01 9.35998634e-02 2.09648341e-01 3.14333051e-01
      3.42928261e-01 2.21714139e-01 3.42928261e-01 3.42928261e-01
      2.65561491e-01 1.10737905e-01 1.41976953e-01 2.81762004e-01
      3.42928261e-01 2.27078199e-01 3.41278285e-01 3.42928261e-01
      5.13445511e-02 2.88596004e-02 3.60670127e-02 6.54150695e-02
      4.15718466e-01 2.44322971e-01 2.17420161e-01 4.15718466e-01
      4.15718466e-01 3.93403992e-02 4.15718466e-01 4.15718466e-01
      5.02946638e-02 1.13001326e-02 2.66904160e-02 8.54381248e-02
      8.61965492e-02 2.10163686e-02 1.19695207e-02 6.73865452e-02</_>
    <_>
      3.25281054e-01 1.09503359e-01 6.47034049e-02 3.25281054e-01
      3.25281054e-01 9.57781225e-02 1.31472930e-01 3.25281054e-01
      3.25281054e-01 2.04686508e-01 4.31624725e-02 3.25281054e-01
      3.25281054e-01 2.51558989e-01 2.47034039e-02 3.25281054e-01
      3.17039818e-01 1.13711923e-01 1.90531373e-01 3.17039818e-01
      3.06268543e-01 1.08250603e-01 1.14555880e-01 3.15161377e-01
      3.17039818e-01 2.91384250e-01 4.41345759e-02 3.17039818e-01
      3.17039818e-01 2.29371965e-01 1.05635293e-01 2.76472300e-01
      2.92052925e-01 2.05272973e-01 1.00090958e-01 2.53261924e-01
      1.33768141e-01 2.85929710e-01 2.92052925e-01 1.85783327e-01
      2.92052925e-01 2.92052925e-01 2.30146006e-01 2.92052925e-01
      2.92052925e-01 2.92052925e-01 1.09964132e-01 2.90682107e-01</_>
    <_>
      3.35544169e-01 5.25893569e-02 7.36046731e-02 3.35544169e-01
      3.35544169e-01 3.99334244e-02 2.03706041e-01 3.35544169e-01
      3.35544169e-01 1.13826759e-01 3.32568139e-02 3.35544169e-01
      3.35544169e-01 1.66529775e-01 5.34743927e-02 3.35544169e-01
      3.16337556e-01 7.43578300e-02 2.95551270e-01 3.16337556e-01
      2.89178371e-01 8.80028978e-02 1.89369634e-01 3.16337556e-01
      3.16337556e-01 2.29335636e-01 1.13667525e-01 3.16337556e-01
      3.16337556e-01 1.48534566e-01 1.04405753e-01 2.78989464e-01
      3.26370806e-01 2.30064988e-01 2.21940845e-01 3.26370806e-01
      3.26370806e-01 1.43624634e-01 1.77934706e-01 3.26370806e-01
      3.26370806e-01 1.80777535e-01 1.31711200e-01 2.77852476e-01
      3.26370806e-01 2.21681818e-01 1.61649808e-02 1.62851170e-01</_>
    <_>
      3.27326268e-01 1.83239002e-02 1.09115504e-01 3.27326268e-01
      3.27326268e-01 2.25302074e-02 3.03346246e-01 3.27326268e-01
      3.27326268e-01 6.81468174e-02 5.68522587e-02 3.27326268e-01
      3.27326268e-01 1.09099932e-01 1.22645572e-01 3.27326268e-01
      3.28530550e-01 6.75103813e-02 3.28530550e-01 3.28530550e-01
      2.62511194e-01 7.07232952e-02 2.29673862e-01 3.28530550e-01
      3.28530550e-01 1.79898605e-01 2.20033616e-01 3.28530550e-01
      2.30572939e-01 1.00255057e-01 1.14620365e-01 2.46517345e-01
      3.45581472e-01 1.93282560e-01 1.67216897e-01 3.45581472e-01
      3.45581472e-01 2.51019806e-01 3.45581472e-01 3.45581472e-01
      1.67179927e-01 6.39144480e-02 4.78685014e-02 1.44125253e-01
      2.62757957e-01 2.19981492e-01 2.22810552e-01 2.21151695e-01</_>
    <_>
      1.99053362e-01 3.08571178e-02 1.97507486e-01 3.16329449e-01
      2.34097630e-01 1.66185901e-01 3.16329449e-01 3.16329449e-01
      2.03465462e-01 8.70343670e-02 2.00975269e-01 3.16329449e-01
      3.16329449e-01 2.12182909e-01 3.16329449e-01 3.16329449e-01
      3.16050619e-01 3.12012494e-01 3.16050619e-01 3.16050619e-01
      1.96785942e-01 8.79395902e-02 1.95726559e-01 3.16050619e-01
      3.16050619e-01 2.53954947e-01 3.16050619e-01 3.16050619e-01
      1.39468372e-01 3.58581729e-02 5.06974459e-02 1.66453481e-01
      3.80338401e-01 5.26406616e-02 1.84994385e-01 3.80338401e-01
      3.80338401e-01 3.66150327e-02 1.80901855e-01 3.80338401e-01
      2.17630848e-01 1.85928214e-02 4.34709340e-02 3.44009101e-01
      3.15823853e-01 2.25145184e-02 2.15272494e-02 2.79025018e-01</_>
    <_>
      3.34638119e-01 4.03624624e-02 2.48651747e-02 2.55411834e-01
      3.34638119e-01 2.41712987e-01 2.26838812e-01 3.34638119e-01
      3.34638119e-01 6.76869601e-02 1.76917762e-02 3.34638119e-01
      3.34638119e-01 1.58764109e-01 7.28936568e-02 3.34638119e-01
      3.10982645e-01 2.80265421e-01 2.64743268e-01 3.10982645e-01
      2.17858866e-01 8.93766284e-02 5.18956520e-02 1.94428280e-01
      3.10982645e-01 2.59189337e-01 9.40442085e-02 3.10982645e-01
      3.10982645e-01 3.10982645e-01 6.40080646e-02 3.03194821e-01
      2.33705014e-01 9.50254649e-02 2.39420813e-02 1.79643884e-01
      3.59541535e-01 3.17003787e-01 5.05347364e-02 1.64831504e-01
      3.59541535e-01 3.59541535e-01 9.50504318e-02 3.09293330e-01
      3.59541535e-01 3.59541535e-01 8.06008130e-02 1.10254943e-01</_>
    <_>
      3.43935639e-01 2.52016466e-02 1.72561780e-02 3.16268533e-01
      3.43935639e-01 1.75274596e-01 1.58927932e-01 3.43935639e-01
      3.43935639e-01 3.88924927e-02 1.25642214e-02 3.43935639e-01
      3.43935639e-01 8.07619393e-02 5.82284220e-02 3.43935639e-01
      3.09118718e-01 2.61687785e-01 2.32144877e-01 3.09118718e-01
      2.59448141e-01 1.05058931e-01 8.79341960e-02 2.61280596e-01
      3.09118718e-01 1.72073066e-01 9.48873088e-02 3.09118718e-01
      3.09118718e-01 3.09118718e-01 1.12673678e-01 3.09118718e-01
      1.88099444e-01 6.12088479e-02 5.67982942e-02 2.45727628e-01
      2.18642771e-01 2.97316134e-01 1.68627948e-01 1.85490340e-01
      3.49393189e-01 3.49393189e-01 1.74970478e-01 3.49393189e-01
      3.49393189e-01 3.49393189e-01 1.37536779e-01 1.86602235e-01</_>
    <_>
      2.39591658e-01 3.91051210e-02 2.41174802e-01 3.05347323e-01
      2.18151838e-01 1.45707220e-01 3.05347323e-01 3.05347323e-01
      3.05347323e-01 2.04229787e-01 2.18205407e-01 3.05347323e-01
      3.05347323e-01 1.23077668e-01 2.32161149e-01 3.05347323e-01
      3.06528896e-01 3.06528896e-01 3.06528896e-01 3.06528896e-01
      1.94083408e-01 1.08837225e-01 2.49834299e-01 3.06528896e-01
      3.06528896e-01 1.71115696e-01 3.06528896e-01 3.06528896e-01
      1.14942737e-01 3.82546671e-02 1.04647897e-01 2.80034274e-01
      3.07576954e-01 2.90233921e-02 1.94928303e-01 3.89820397e-01
      3.89820397e-01 2.71708295e-02 2.93647975e-01 3.89820397e-01
      1.57978594e-01 7.84736034e-03 6.25879243e-02 3.73707443e-01
      1.60718322e-01 7.39908312e-03 6.40660897e-02 3.48184735e-01</_>
    <_>
      3.31647038e-01 1.64734758e-02 7.35879466e-02 3.31647038e-01
      3.31647038e-01 1.15754016e-01 1.89026579e-01 3.31647038e-01
      3.31647038e-01 2.45558359e-02 8.95989612e-02 3.31647038e-01
      3.31647038e-01 1.83572263e-01 1.40077919e-01 3.31647038e-01
      3.01222324e-01 2.73148447e-01 3.01222324e-01 3.01222324e-01
      1.47521302e-01 1.58805951e-01 1.75288677e-01 2.76548445e-01
      3.01222324e-01 2.81556875e-01 1.85557634e-01 3.01222324e-01
      3.01222324e-01 1.31254613e-01 8.59872550e-02 2.92328596e-01
      2.14795664e-01 1.25356661e-02 6.50971979e-02 3.38341504e-01
      2.64881998e-01 5.92337735e-02 2.88020372e-01 3.38341504e-01
      3.38341504e-01 8.45014006e-02 2.46989671e-02 3.10610712e-01
      3.38341504e-01 3.38341504e-01 5.70050739e-02 3.31068993e-01</_>
    <_>
      3.24195653e-01 1.36795342e-01 1.26775429e-01 3.24195653e-01
      3.24195653e-01 2.01958835e-01 2.21437365e-01 3.24195653e-01
      3.24195653e-01 1.09675743e-01 4.82740067e-02 3.24195653e-01
      3.24195653e-01 1.13347113e-01 6.42226338e-02 3.24195653e-01
      3.26606959e-01 1.66867524e-01 1.76416293e-01 3.26606959e-01
      1.66322768e-01 7.49663636e-02 5.94225489e-02 1.54585004e-01
      3.26606959e-01 2.24381909e-01 1.61223873e-01 3.26606959e-01
      3.26606959e-01 3.26606959e-01 3.26606959e-01 2.32407406e-01
      2.13219821e-01 1.50636896e-01 5.59988171e-02 1.17191583e-01
      3.33134472e-01 2.97082216e-01 2.39260364e-02 2.48329833e-01
      3.33134472e-01 3.33134472e-01 3.33134472e-01 1.62848830e-01
      3.33134472e-01 3.33134472e-01 7.53250122e-02 2.51166344e-01</_>
    <_>
      3.20973217e-01 6.94332942e-02 1.10744804e-01 3.20973217e-01
      3.20973217e-01 1.95487320e-01 2.55659997e-01 3.20973217e-01
      3.20973217e-01 3.10306586e-02 6.94563985e-02 3.20973217e-01
      3.20973217e-01 1.76514730e-01 1.22454681e-01 3.20973217e-01
      3.45480531e-01 1.65527254e-01 1.94420338e-01 3.45480531e-01
      1.72167569e-01 4.05245759e-02 1.69862211e-02 1.44989803e-01
      3.45480531e-01 3.14880818e-01 1.12332329e-01 3.45480531e-01
      3.45480531e-01 2.60102034e-01 3.05524431e-02 3.18772644e-01
      1.34847373e-01 6.84479848e-02 8.86490941e-03 6.87963068e-02
      3.70230556e-01 3.08748364e-01 1.84296034e-02 9.64048132e-02
      3.70230556e-01 3.70230556e-01 3.17198150e-02 3.56608212e-01
      3.70230556e-01 3.70230556e-01 2.54098382e-02 2.22456694e-01</_>
    <_>
      2.52557665e-01 8.69465768e-02 2.01242402e-01 3.05479914e-01
      3.05479914e-01 1.70705482e-01 2.92296439e-01 3.05479914e-01
      3.05479914e-01 6.60247579e-02 2.02819198e-01 3.05479914e-01
      3.05479914e-01 1.95756152e-01 1.82989612e-01 3.05479914e-01
      3.62238795e-01 1.62352026e-01 2.73965627e-01 3.62238795e-01
      9.49782804e-02 2.31263936e-02 1.96013208e-02 8.96076113e-02
      3.62238795e-01 3.12690407e-01 2.04720691e-01 3.62238795e-01
      3.62238795e-01 1.32783696e-01 4.65497188e-02 2.47845158e-01
      1.13921680e-01 2.17031538e-02 2.94322846e-03 8.68562013e-02
      2.87396073e-01 1.38772875e-01 1.91330519e-02 1.56093553e-01
      3.85726720e-01 3.26715410e-01 2.04900820e-02 3.81045848e-01
      3.85726720e-01 3.85726720e-01 3.25547941e-02 3.85726720e-01</_>
    <_>
      3.17679286e-01 5.46546727e-02 8.77095386e-02 3.17679286e-01
      3.17679286e-01 2.15637147e-01 2.83132672e-01 3.17679286e-01
      3.17679286e-01 3.30165587e-02 7.20873922e-02 3.17679286e-01
      3.17679286e-01 1.69739962e-01 1.30471170e-01 3.17679286e-01
      3.32237035e-01 2.26556316e-01 2.91899115e-01 3.32237035e-01
      1.08696803e-01 2.68538613e-02 1.59544423e-02 9.42985043e-02
      3.32237035e-01 3.15256655e-01 1.49774194e-01 3.32237035e-01
      3.32237035e-01 2.28389621e-01 4.68520001e-02 3.32237035e-01
      1.06695801e-01 3.63444723e-02 1.42177790e-02 7.33091831e-02
      2.42335543e-01 1.59231573e-01 1.32772606e-02 8.69676396e-02
      3.85297984e-01 3.85297984e-01 5.98900914e-02 3.85297984e-01
      3.85297984e-01 3.85297984e-01 2.75704972e-02 3.73401910e-01</_>
    <_>
      3.11516017e-01 1.64968312e-01 1.67842180e-01 3.11516017e-01
      3.11516017e-01 1.64792106e-01 1.55612379e-01 3.11516017e-01
      3.11516017e-01 1.04668081e-01 1.16672017e-01 3.11516017e-01
      3.11516017e-01 2.71324188e-01 1.24931023e-01 3.11516017e-01
      3.72443318e-01 1.67295143e-01 8.24121013e-02 3.64124388e-01
      8.87535661e-02 3.89094949e-02 7.64284469e-03 5.06977364e-02
      3.72443318e-01 3.72443318e-01 1.09801538e-01 3.72443318e-01
      3.72443318e-01 2.51822829e-01 2.42206473e-02 2.17405945e-01
      8.58224109e-02 4.05730866e-02 4.09099832e-03 3.97072881e-02
      3.81185263e-01 3.15945506e-01 1.43660847e-02 8.19572955e-02
      3.81185263e-01 3.81185263e-01 2.05635950e-02 2.93800622e-01
      3.81185263e-01 3.81185263e-01 2.72532478e-02 2.54649311e-01</_>
    <_>
      3.03315133e-01 1.38794690e-01 1.13001414e-01 3.03315133e-01
      3.03315133e-01 2.47730002e-01 2.23220244e-01 3.03315133e-01
      3.03315133e-01 1.78049356e-01 6.38579652e-02 3.03315133e-01
      3.03315133e-01 2.52502561e-01 1.34910196e-01 3.03315133e-01
      3.26056451e-01 2.20310271e-01 1.69162646e-01 3.26056451e-01
      1.62877485e-01 5.57474941e-02 8.43293220e-03 1.08681642e-01
      3.26056451e-01 3.26056451e-01 1.56094134e-01 3.26056451e-01
      3.26056451e-01 3.26056451e-01 5.65847009e-02 3.26056451e-01
      1.35333985e-01 6.41195327e-02 1.25728436e-02 7.91487396e-02
      3.37815404e-01 3.52056831e-01 5.95751405e-02 4.24179211e-02
      3.78228605e-01 3.78228605e-01 5.13315722e-02 3.44979525e-01
      3.78228605e-01 3.78228605e-01 8.42578709e-02 1.51616618e-01</_>
    <_>
      3.02320391e-01 1.32826895e-01 1.24859050e-01 3.02320391e-01
      3.02320391e-01 2.20287800e-01 2.43996903e-01 3.02320391e-01
      3.02320391e-01 1.87206298e-01 7.71347210e-02 3.02320391e-01
      3.02320391e-01 2.41942570e-01 1.58025086e-01 3.02320391e-01
      3.24016064e-01 2.02083930e-01 1.89973265e-01 3.24016064e-01
      1.62173182e-01 5.86464778e-02 1.23599367e-02 1.09768242e-01
      3.24016064e-01 3.24016064e-01 1.81804419e-01 3.24016064e-01
      3.24016064e-01 3.24016064e-01 7.03511760e-02 3.24016064e-01
      1.31224304e-01 6.16534427e-02 1.72886718e-02 8.18627477e-02
      3.40843111e-01 3.72781247e-01 6.74736053e-02 5.04844002e-02
      3.72781247e-01 3.72781247e-01 6.82450533e-02 3.24747950e-01
      3.72781247e-01 3.72781247e-01 1.05881304e-01 1.69765010e-01</_>
    <_>
      3.35692853e-01 1.93816330e-02 5.38719110e-02 3.35692853e-01
      3.35692853e-01 6.40490502e-02 1.43346757e-01 3.35692853e-01
      3.35692853e-01 8.33550747e-03 3.93297821e-02 3.35692853e-01
      3.35692853e-01 1.66684851e-01 1.94421694e-01 3.35692853e-01
      2.94029444e-01 1.36282071e-01 2.61600614e-01 2.94029444e-01
      2.94029444e-01 1.25970155e-01 2.77302146e-01 2.94029444e-01
      2.94029444e-01 2.94029444e-01 2.94029444e-01 2.94029444e-01
      1.96091920e-01 1.54823482e-01 1.60975859e-01 1.93202257e-01
      3.21147025e-01 1.10107444e-01 3.21147025e-01 3.21147025e-01
      1.92081377e-01 1.51476458e-01 3.21147025e-01 3.21147025e-01
      2.02959836e-01 6.02111369e-02 2.25187615e-02 1.66317090e-01
      3.21147025e-01 2.86258042e-01 2.34427392e-01 3.10045511e-01</_>
    <_>
      2.79966533e-01 4.52494472e-02 2.79966533e-01 2.79966533e-01
      2.79966533e-01 1.55584082e-01 2.79966533e-01 2.79966533e-01
      2.39714354e-01 1.35154203e-01 1.81727812e-01 2.79966533e-01
      2.79966533e-01 2.79966533e-01 2.79966533e-01 2.79966533e-01
      3.16574216e-01 2.06286743e-01 3.16574216e-01 3.16574216e-01
      2.96998113e-01 5.67982383e-02 3.16574216e-01 3.16574216e-01
      2.95494705e-01 2.82578439e-01 2.81006753e-01 3.16574216e-01
      6.83004782e-02 1.20411292e-02 3.59579809e-02 9.64257345e-02
      2.95093268e-01 4.14016694e-02 3.61739963e-01 3.61739963e-01
      1.93859771e-01 1.19371720e-01 3.61739963e-01 3.61739963e-01
      5.35215400e-02 1.66660491e-02 4.12372351e-02 7.96232894e-02
      1.75721288e-01 1.69011950e-01 3.61739963e-01 3.61739963e-01</_>
    <_>
      3.35706323e-01 2.56932136e-02 1.67631969e-01 3.35706323e-01
      3.35706323e-01 8.98597315e-02 2.77662992e-01 3.35706323e-01
      1.77754015e-01 2.64727231e-02 5.48482686e-02 2.18922257e-01
      3.35706323e-01 2.60149390e-01 2.35819802e-01 3.35706323e-01
      2.94865698e-01 1.44788578e-01 2.94865698e-01 2.94865698e-01
      2.94865698e-01 9.45314541e-02 2.84956127e-01 2.94865698e-01
      2.94865698e-01 2.94865698e-01 2.94865698e-01 2.94865698e-01
      1.93943992e-01 1.31749123e-01 1.15390897e-01 1.87495455e-01
      3.35412651e-01 6.73479661e-02 3.35412651e-01 3.35412651e-01
      2.22513944e-01 4.53105792e-02 3.35412651e-01 3.35412651e-01
      2.17439458e-01 3.94244902e-02 2.86195669e-02 1.92153454e-01
      3.35412651e-01 1.80562779e-01 1.84002504e-01 3.35412651e-01</_>
    <_>
      3.35832834e-01 3.02872136e-02 2.19141226e-02 3.35832834e-01
      3.35832834e-01 8.31887051e-02 1.33638337e-01 3.35832834e-01
      3.35832834e-01 2.29614619e-02 1.76991578e-02 3.35832834e-01
      3.35832834e-01 2.08126709e-01 1.55050293e-01 3.35832834e-01
      2.95664668e-01 1.62432283e-01 2.54429013e-01 2.95664668e-01
      2.95664668e-01 1.22508585e-01 2.11971670e-01 2.95664668e-01
      2.95664668e-01 2.95664668e-01 2.77871728e-01 2.95664668e-01
      2.53151834e-01 1.62930906e-01 1.35959461e-01 2.18480587e-01
      3.15557688e-01 8.61244351e-02 2.74102151e-01 3.15557688e-01
      2.28622288e-01 4.71739508e-02 3.15557688e-01 3.15557688e-01
      3.15557688e-01 8.13603699e-02 1.36007546e-02 2.32996419e-01
      3.15557688e-01 2.92908907e-01 1.26015663e-01 3.15557688e-01</_>
    <_>
      3.17359179e-01 5.73618263e-02 2.93177199e-02 3.17359179e-01
      3.17359179e-01 1.12445258e-01 1.93227768e-01 3.17359179e-01
      3.17359179e-01 5.14557697e-02 2.58937348e-02 3.17359179e-01
      3.17359179e-01 2.82032400e-01 2.32600540e-01 3.17359179e-01
      3.22085291e-01 1.32052049e-01 3.12631607e-01 3.22085291e-01
      3.22085291e-01 3.58569920e-02 1.95567161e-01 3.22085291e-01
      3.22085291e-01 3.17265987e-01 2.81751752e-01 3.22085291e-01
      1.39228806e-01 2.71636788e-02 3.33371274e-02 1.35514081e-01
      3.35922688e-01 3.58475968e-02 3.35922688e-01 3.35922688e-01
      3.35922688e-01 3.31054553e-02 3.35922688e-01 3.35922688e-01
      1.69224620e-01 2.91158743e-02 2.67822295e-02 1.59664199e-01
      3.35922688e-01 1.26244187e-01 1.40988797e-01 3.35922688e-01</_>
    <_>
      2.98496932e-01 2.08254069e-01 6.68260381e-02 2.98496932e-01
      2.98496932e-01 2.55359113e-01 1.80766344e-01 2.98496932e-01
      2.98496932e-01 1.22184262e-01 3.50358374e-02 2.04864398e-01
      2.98496932e-01 2.98496932e-01 2.83492327e-01 2.98496932e-01
      3.48516285e-01 3.48516285e-01 2.53401697e-01 3.48516285e-01
      1.35756791e-01 3.68411131e-02 3.30069140e-02 1.42221361e-01
      3.48516285e-01 3.48516285e-01 3.48516285e-01 3.48516285e-01
      1.53730243e-01 5.22232056e-02 2.10948158e-02 1.18960053e-01
      1.52021900e-01 5.99398836e-03 1.05246499e-01 2.82051414e-01
      3.30876708e-01 2.99817100e-02 3.30876708e-01 3.30876708e-01
      3.30876708e-01 1.31704852e-01 1.11922016e-02 3.10768157e-01
      3.30876708e-01 3.30876708e-01 4.01819274e-02 3.30876708e-01</_>
    <_>
      2.97644943e-01 2.32981727e-01 4.77057025e-02 2.97644943e-01
      2.97644943e-01 2.97644943e-01 1.56111047e-01 2.97644943e-01
      2.97644943e-01 1.76703393e-01 2.93289963e-02 2.52942741e-01
      2.97644943e-01 2.97644943e-01 2.04224199e-01 2.63793170e-01
      3.33945692e-01 3.33945692e-01 2.35582680e-01 3.33945692e-01
      2.10200250e-01 9.36868638e-02 5.30414730e-02 1.56427771e-01
      3.33945692e-01 3.33945692e-01 3.33945692e-01 3.33945692e-01
      1.91347122e-01 1.35334775e-01 8.75264481e-02 1.33009195e-01
      1.61346033e-01 7.09975883e-03 8.90285894e-02 2.59788841e-01
      3.34231794e-01 4.04078998e-02 3.09661597e-01 3.34231794e-01
      3.34231794e-01 1.27372399e-01 7.10313953e-03 3.30605567e-01
      3.34231794e-01 3.34231794e-01 4.24085036e-02 3.34231794e-01</_>
    <_>
      3.35267633e-01 3.72977406e-02 7.37950578e-02 3.35267633e-01
      3.35267633e-01 6.70023412e-02 1.44486725e-01 3.35267633e-01
      3.35267633e-01 3.30494009e-02 5.95836863e-02 3.35267633e-01
      3.35267633e-01 1.66651353e-01 1.81100398e-01 3.35267633e-01
      2.99844354e-01 1.06043272e-01 2.62978405e-01 2.99844354e-01
      2.99844354e-01 7.43987858e-02 2.99844354e-01 2.99844354e-01
      2.99844354e-01 2.63293177e-01 2.50559509e-01 2.99844354e-01
      2.38832697e-01 1.21553190e-01 1.36985213e-01 2.42970765e-01
      3.52076828e-01 5.61221503e-02 3.52076828e-01 3.52076828e-01
      1.47740558e-01 4.45796773e-02 3.52076828e-01 3.52076828e-01
      1.68171272e-01 2.64700148e-02 9.39127654e-02 2.32058704e-01
      1.54963642e-01 8.07689950e-02 3.21836770e-01 3.52076828e-01</_>
    <_>
      3.43676865e-01 1.97768137e-02 2.03065258e-02 3.43676865e-01
      3.43676865e-01 5.10924831e-02 7.93285370e-02 3.43676865e-01
      3.43676865e-01 2.57985648e-02 2.40255687e-02 3.43676865e-01
      3.43676865e-01 1.64585158e-01 1.16696030e-01 3.43676865e-01
      3.01650286e-01 1.15844853e-01 2.12434128e-01 3.01650286e-01
      3.01650286e-01 9.82899889e-02 3.01650286e-01 3.01650286e-01
      3.01650286e-01 2.72293419e-01 2.06819385e-01 3.01650286e-01
      2.75626600e-01 1.46471947e-01 1.31951153e-01 2.45098427e-01
      3.40514183e-01 7.11229146e-02 3.40514183e-01 3.40514183e-01
      2.48811275e-01 4.55577560e-02 3.40514183e-01 3.40514183e-01
      2.10741639e-01 3.84707116e-02 6.56668916e-02 2.15178490e-01
      2.80672848e-01 1.04340427e-01 2.13745281e-01 3.40514183e-01</_>
    <_>
      3.27881902e-01 3.27881902e-01 3.27881902e-01 3.27881902e-01
      3.27881902e-01 2.72024721e-01 1.83836967e-01 3.27881902e-01
      3.03261101e-01 1.93126917e-01 9.96699333e-02 2.03978419e-01
      1.83596104e-01 1.06993012e-01 5.24918847e-02 1.23183452e-01
      3.07396799e-01 3.07396799e-01 3.07396799e-01 3.07396799e-01
      1.74335346e-01 1.64793715e-01 2.05363587e-01 2.04015091e-01
      3.07396799e-01 3.07396799e-01 2.96468973e-01 3.07396799e-01
      1.62978008e-01 1.59397930e-01 1.63376451e-01 1.66064784e-01
      3.52929413e-01 3.52929413e-01 3.52929413e-01 3.52929413e-01 0.
      3.84849962e-04 3.84849962e-04 0. 3.52929413e-01 3.52929413e-01
      3.52929413e-01 3.52929413e-01 0. 1.09888759e-04 1.09888759e-04 0.</_>
    <_>
      2.70891815e-01 2.70891815e-01 2.70891815e-01 2.70891815e-01
      2.05442891e-01 2.70891815e-01 2.70891815e-01 1.80352539e-01
      2.70891815e-01 2.70891815e-01 2.70891815e-01 2.70891815e-01
      1.57876328e-01 2.70891815e-01 2.70891815e-01 1.30559012e-01
      3.60896826e-01 3.60896826e-01 3.60896826e-01 3.60896826e-01 0.
      8.73346871e-05 8.73346871e-05 0. 3.45963061e-01 3.60896826e-01
      3.60896826e-01 3.08585018e-01 0. 1.53523448e-04 1.53523448e-04 0.
      9.72283036e-02 7.30722621e-02 7.68752247e-02 1.01062931e-01
      3.19860548e-01 3.19860548e-01 3.19860548e-01 3.19860548e-01
      2.11087868e-01 1.61729023e-01 1.68277130e-01 2.19931111e-01
      3.19860548e-01 3.19860548e-01 3.19860548e-01 3.19860548e-01</_>
    <_>
      3.09852034e-01 1.80374995e-01 2.04265356e-01 3.09852034e-01
      2.57797480e-01 1.06411792e-01 1.30805045e-01 2.91788489e-01
      3.09852034e-01 2.20072165e-01 2.16950789e-01 3.09852034e-01
      3.09852034e-01 1.76632717e-01 1.99656337e-01 3.09852034e-01
      3.75904411e-01 2.23911136e-01 2.80306876e-01 3.75904411e-01
      3.22879032e-07 9.35448315e-06 9.35448315e-06 3.22879032e-07
      3.75904411e-01 3.75904411e-01 3.75904411e-01 3.75904411e-01
      7.95232058e-02 2.79803667e-02 4.80156057e-02 1.01485148e-01 0. 0.
      0. 0. 0. 0. 0. 0. 4.98753130e-01 4.98753130e-01 4.98753130e-01
      4.98753130e-01 0. 0. 0. 0.</_>
    <_>
      2.84356087e-01 2.84356087e-01 2.84356087e-01 2.84356087e-01
      1.00870527e-01 2.04029962e-01 2.80603230e-01 1.71291709e-01
      2.84356087e-01 2.84356087e-01 2.84356087e-01 2.84356087e-01
      1.43181399e-01 1.99241549e-01 2.84356087e-01 2.22154811e-01
      1.09149396e-01 3.71270984e-01 3.71270984e-01 2.60583162e-01
      1.56732202e-01 1.58404410e-01 2.05350757e-01 2.08453596e-01
      2.45050862e-01 3.71270984e-01 3.71270984e-01 3.71270984e-01
      5.34089059e-02 5.49720638e-02 1.11630782e-01 1.16612002e-01
      1.77578166e-01 1.77374512e-01 2.32681021e-01 2.32253268e-01
      3.49661440e-01 3.49661440e-01 3.49661440e-01 3.49661440e-01
      6.89583272e-02 7.01021850e-02 1.39860690e-01 1.42618969e-01
      3.23964775e-01 3.22894275e-01 1.99017286e-01 1.94894135e-01</_>
    <_>
      2.78706372e-01 2.78706372e-01 2.78706372e-01 2.78706372e-01
      1.47302598e-01 2.78706372e-01 2.78706372e-01 1.59831181e-01
      2.59151548e-01 2.78706372e-01 2.78706372e-01 2.78706372e-01
      1.31406471e-01 2.52759039e-01 2.78706372e-01 1.57746971e-01
      2.66533256e-01 4.42388058e-01 4.42388058e-01 2.42214441e-01
      2.43170895e-02 2.56959237e-02 1.59068704e-02 1.41434902e-02
      1.85598597e-01 4.42388058e-01 4.42388058e-01 1.81525528e-01
      6.78479448e-02 7.02646300e-02 4.85704020e-02 4.51871194e-02
      2.50085413e-01 2.52227426e-01 1.53890237e-01 1.48737565e-01
      2.95388341e-01 2.95388341e-01 2.95388341e-01 2.95388341e-01
      2.57244855e-01 2.59921283e-01 1.66539043e-01 1.62430286e-01
      2.95388341e-01 2.95388341e-01 2.39827618e-01 2.37036124e-01</_>
    <_>
      3.32345992e-01 1.22344464e-01 1.28653929e-01 3.32345992e-01
      3.32345992e-01 1.20857313e-01 1.60980731e-01 3.32345992e-01
      3.32345992e-01 1.37005210e-01 8.69221017e-02 3.32345992e-01
      3.32345992e-01 9.34964865e-02 7.70690292e-02 3.32345992e-01
      3.17671180e-01 8.47424567e-02 1.05597444e-01 3.17671180e-01
      3.17671180e-01 1.48338795e-01 1.38160303e-01 3.17671180e-01
      3.17671180e-01 1.10868171e-01 9.51441601e-02 3.17671180e-01
      3.17671180e-01 2.55637050e-01 2.08294898e-01 3.17671180e-01
      2.99398571e-01 1.03049181e-01 8.94326568e-02 2.99398571e-01
      2.99398571e-01 1.75611764e-01 1.47869378e-01 2.99398571e-01
      2.99398571e-01 2.18368500e-01 1.68227181e-01 2.99398571e-01
      2.99398571e-01 2.85248101e-01 2.26314932e-01 2.99398571e-01</_>
    <_>
      3.41233701e-01 1.18992023e-01 6.64496794e-02 3.41233701e-01
      3.41233701e-01 8.70861486e-02 5.90353869e-02 3.41233701e-01
      3.41233701e-01 1.41134188e-01 3.01303193e-02 3.41233701e-01
      3.41233701e-01 1.13742508e-01 4.07335907e-02 3.41233701e-01
      3.42412561e-01 8.12513903e-02 4.76951487e-02 3.42412561e-01
      3.42412561e-01 1.04818121e-01 2.95591597e-02 3.42412561e-01
      3.42412561e-01 1.12758443e-01 4.66692485e-02 3.42412561e-01
      3.42412561e-01 1.44245550e-01 4.65996601e-02 3.42412561e-01
      2.89478779e-01 1.13308638e-01 5.96984476e-02 2.89478779e-01
      2.89478779e-01 2.29654938e-01 2.17500895e-01 2.89478779e-01
      2.89478779e-01 1.78122923e-01 1.04637563e-01 2.89478779e-01
      2.89478779e-01 2.89478779e-01 2.89478779e-01 2.89478779e-01</_>
    <_>
      1.95109732e-02 2.19099782e-02 1.39772119e-02 1.62164997e-02
      3.14151496e-01 3.14151496e-01 3.14151496e-01 3.14151496e-01
      3.14151496e-01 6.91986829e-02 6.19809330e-02 3.14151496e-01
      3.14151496e-01 3.14151496e-01 3.14151496e-01 3.14151496e-01
      2.69049197e-01 2.69049197e-01 2.69049197e-01 2.69049197e-01
      2.51411617e-01 2.69049197e-01 2.69049197e-01 2.32942894e-01
      2.69049197e-01 2.69049197e-01 2.69049197e-01 2.69049197e-01
      2.21547499e-01 1.88790277e-01 1.74796671e-01 2.01711535e-01
      2.71582603e-01 2.80043930e-01 2.80043930e-01 2.29975238e-01
      1.54392943e-01 1.74938947e-01 1.49730295e-01 1.36668429e-01
      2.80043930e-01 2.80043930e-01 2.80043930e-01 2.80043930e-01
      2.80043930e-01 2.80043930e-01 2.63051808e-01 2.80043930e-01</_>
    <_>
      2.58729160e-01 2.58729160e-01 2.58729160e-01 2.58729160e-01
      2.58729160e-01 2.58729160e-01 2.58729160e-01 2.58729160e-01
      1.96866706e-01 2.58729160e-01 2.58729160e-01 1.70898587e-01
      2.53532708e-01 2.58729160e-01 2.58729160e-01 2.48763531e-01
      3.40434045e-01 3.40434045e-01 3.40434045e-01 3.40434045e-01
      3.82381044e-02 7.21676275e-02 8.49331394e-02 5.14052361e-02
      3.40434045e-01 3.40434045e-01 3.40434045e-01 3.40434045e-01
      6.80668131e-02 1.32547051e-01 1.48527399e-01 9.29901302e-02
      3.04050177e-01 3.04050177e-01 3.04050177e-01 3.04050177e-01
      3.04050177e-01 3.04050177e-01 3.04050177e-01 3.04050177e-01
      2.34979585e-01 2.32607499e-01 2.60225058e-01 2.80453771e-01
      2.42965966e-02 9.84309800e-03 1.40417507e-02 2.84988135e-02</_>
    <_>
      2.53765792e-01 2.15321898e-01 2.22578630e-01 2.53765792e-01
      2.53765792e-01 2.53765792e-01 2.53765792e-01 2.53765792e-01
      2.53765792e-01 2.53765792e-01 2.53765792e-01 2.53765792e-01
      2.53765792e-01 2.53765792e-01 2.53765792e-01 2.53765792e-01
      2.77842760e-01 2.77842760e-01 2.77842760e-01 2.77842760e-01
      2.77842760e-01 1.45636678e-01 1.42517716e-01 2.63270497e-01
      2.77842760e-01 2.48917848e-01 2.77842760e-01 2.77842760e-01
      2.77842760e-01 1.03358649e-01 2.04405308e-01 2.77842760e-01
      3.27226907e-01 2.26756677e-01 2.05721438e-01 3.27226907e-01
      2.59991556e-01 5.35587072e-02 2.50267833e-02 2.14011788e-01
      3.27226907e-01 1.72846377e-01 3.27226907e-01 3.27226907e-01
      3.27226907e-01 7.82153159e-02 2.37327181e-02 3.27226907e-01</_>
    <_>
      2.65283912e-01 2.65283912e-01 2.65283912e-01 2.65283912e-01
      1.69625431e-01 2.65283912e-01 2.65283912e-01 1.62769392e-01
      2.65283912e-01 2.65283912e-01 2.65283912e-01 2.65283912e-01
      2.25060314e-01 2.65283912e-01 2.65283912e-01 2.16618359e-01
      2.95372605e-01 3.70862097e-01 3.70862097e-01 2.89107203e-01
      8.32874607e-03 7.97960162e-03 6.95555611e-03 7.28772534e-03
      3.70862097e-01 3.70862097e-01 3.70862097e-01 3.70862097e-01
      1.47479068e-06 0. 0. 1.47479068e-06 3.52929503e-01 3.52929503e-01
      3.52929503e-01 3.52929503e-01 3.52929503e-01 3.52929503e-01
      3.52929503e-01 3.52929503e-01 1.07512089e-04 0. 0. 1.07512089e-04
      6.32838492e-05 0. 0. 6.32838492e-05</_>
    <_>
      2.60961086e-01 3.10657695e-02 4.28001098e-02 2.83920616e-01
      3.62340719e-01 6.10132031e-02 9.13519189e-02 3.64559978e-01
      3.64559978e-01 1.23841412e-01 7.17996806e-02 3.64559978e-01
      3.64559978e-01 1.06256530e-01 7.20305145e-02 3.64559978e-01
      2.84228355e-01 1.25982553e-01 1.23344496e-01 2.95511991e-01
      3.00830424e-01 2.71556109e-01 2.74375200e-01 3.00830424e-01
      3.00830424e-01 1.02929540e-01 8.71101767e-02 3.00830424e-01
      3.00830424e-01 2.30767354e-01 1.85313255e-01 3.00830424e-01
      2.74848133e-01 2.73111016e-01 2.74848133e-01 2.74848133e-01
      2.74848133e-01 2.22265020e-01 2.10774571e-01 2.74848133e-01
      2.74848133e-01 2.30400741e-01 1.56796739e-01 2.74848133e-01
      2.74848133e-01 2.00244710e-01 1.76621392e-01 2.74848133e-01</_>
    <_>
      5.91367856e-02 4.73938398e-02 4.35756892e-02 5.43492697e-02
      1.58584267e-01 3.26639622e-01 3.26639622e-01 1.53864488e-01
      3.26639622e-01 1.92338467e-01 2.16276288e-01 3.26639622e-01
      3.26639622e-01 3.26639622e-01 3.26639622e-01 3.26639622e-01
      1.53238073e-01 3.37127775e-01 3.37127775e-01 1.52243555e-01
      9.72331502e-03 6.13935618e-03 6.78636553e-03 1.01272147e-02
      3.37127775e-01 3.37127775e-01 3.37127775e-01 3.37127775e-01
      3.37127775e-01 1.39474675e-01 1.44901678e-01 3.37127775e-01
      3.31757180e-02 7.62031460e-03 9.62567795e-03 3.52901556e-02
      8.48464424e-07 1.66058373e-06 1.66058373e-06 8.48464424e-07
      4.98088092e-01 4.98088092e-01 4.98088092e-01 4.98088092e-01
      4.17697756e-03 8.53523798e-03 7.71159632e-03 3.45043954e-03</_>
    <_>
      1.80527121e-02 1.34557504e-02 1.29998205e-02 1.80186275e-02
      1.90538451e-01 1.73089445e-01 1.29501730e-01 1.57914758e-01
      1.80772215e-01 1.45869344e-01 9.77308601e-02 1.42999083e-01
      4.47938532e-01 4.47938532e-01 4.47938532e-01 4.47938532e-01
      1.48551360e-01 1.06389031e-01 8.69075358e-02 1.35896966e-01
      3.19976151e-01 6.61854222e-02 7.92023093e-02 3.19976151e-01
      3.19976151e-01 3.19976151e-01 3.19976151e-01 3.19976151e-01
      3.19976151e-01 2.03087106e-01 2.57720888e-01 3.19976151e-01
      3.50149244e-01 2.32981984e-02 4.17588428e-02 3.50149244e-01
      3.50149244e-01 1.65168438e-02 3.80177163e-02 3.50149244e-01
      3.50149244e-01 4.26551998e-02 8.03640485e-02 3.50149244e-01
      3.50149244e-01 1.29007911e-02 5.67158461e-02 3.50149244e-01</_>
    <_>
      2.51863003e-01 2.51863003e-01 2.51863003e-01 2.51863003e-01
      2.35872775e-01 2.51863003e-01 2.51863003e-01 2.31856465e-01
      2.51863003e-01 2.51863003e-01 2.51863003e-01 2.51863003e-01
      2.51863003e-01 2.51863003e-01 2.51863003e-01 2.51863003e-01
      3.52928847e-01 3.52928847e-01 3.52928847e-01 3.52928847e-01
      2.94521218e-04 7.13318295e-04 1.39610562e-03 9.98946372e-04
      3.52928847e-01 3.52928847e-01 3.52928847e-01 3.52928847e-01 0.
      1.10974843e-05 1.10974843e-05 0. 4.87746559e-02 2.73874737e-02
      5.01354411e-02 7.28726238e-02 3.74839514e-01 3.19791704e-01
      1.94812372e-01 3.74795884e-01 6.16745055e-02 3.80352698e-02
      3.24274376e-02 5.59787117e-02 3.74839514e-01 3.74839514e-01
      3.64907384e-01 3.74839514e-01</_>
    <_>
      3.03430229e-01 3.03430229e-01 1.14237741e-01 2.49091804e-01
      3.03430229e-01 3.03430229e-01 2.09000900e-01 3.03430229e-01
      3.03430229e-01 3.03430229e-01 1.27116054e-01 2.02103660e-01
      3.03430229e-01 2.29287222e-01 9.52395573e-02 1.51601061e-01
      2.92358220e-01 2.92358220e-01 2.47928515e-01 2.88359523e-01
      1.47650287e-01 7.08167404e-02 4.79627065e-02 1.17558293e-01
      2.92358220e-01 2.92358220e-01 2.71206856e-01 2.28435785e-01
      2.92358220e-01 2.92358220e-01 2.92358220e-01 2.92358220e-01
      3.09871316e-01 9.94236916e-02 6.82653636e-02 2.65640199e-01
      2.46390384e-02 3.72801721e-02 3.72772366e-02 2.54410394e-02
      4.47809279e-01 4.47809279e-01 4.47809279e-01 4.47809279e-01
      4.94064614e-02 4.55612577e-02 4.22294848e-02 4.39352207e-02</_>
    <_>
      2.85834163e-01 2.85834163e-01 2.85834163e-01 2.85834163e-01
      2.83048511e-01 2.85834163e-01 2.85834163e-01 2.85834163e-01
      2.85834163e-01 2.20201761e-01 2.34921351e-01 2.85834163e-01
      1.44381300e-01 1.39114559e-01 1.31279588e-01 1.43550918e-01
      3.69562119e-01 3.96677017e-01 3.96677017e-01 3.96677017e-01 0. 0.
      0. 0. 1.91852838e-01 3.96677017e-01 3.96677017e-01 1.89447522e-01
      0. 0. 0. 0. 0. 0. 0. 0. 0. 0. 0. 0. 0. 0. 0. 0. 0. 0. 0. 0.</_>
    <_>
      3.38385820e-01 3.38385820e-01 3.38385820e-01 3.38385820e-01
      3.38385820e-01 3.38385820e-01 3.38385820e-01 3.38385820e-01
      1.03541777e-01 8.53734463e-02 8.32874551e-02 9.41078886e-02
      1.21113807e-01 1.05680846e-01 9.76280570e-02 1.06810004e-01
      4.45413679e-01 4.45413679e-01 4.45413679e-01 4.45413679e-01
      6.76610470e-02 6.72652870e-02 6.23029880e-02 6.15423247e-02
      2.24486053e-01 2.28942037e-01 2.03695104e-01 1.95123479e-01
      2.81830058e-02 2.76390109e-02 2.54184194e-02 2.50645094e-02
      4.98753130e-01 4.98753130e-01 4.98753130e-01 4.98753130e-01 0. 0.
      0. 0. 0. 0. 0. 0. 0. 0. 0. 0.</_>
    <_>
      2.74864525e-01 2.74864525e-01 2.74864525e-01 2.74864525e-01
      1.50817409e-01 2.67166942e-01 2.74864525e-01 2.03533053e-01
      2.74864525e-01 2.74864525e-01 2.74864525e-01 2.74864525e-01
      1.28890753e-01 2.31627524e-01 2.74864525e-01 1.89563274e-01
      1.46958515e-01 4.21077639e-01 4.21077639e-01 2.32803628e-01
      4.29057479e-02 4.11801264e-02 5.10061309e-02 5.29520437e-02
      2.23508492e-01 4.21077639e-01 4.21077639e-01 3.16847682e-01
      8.64583924e-02 1.15735002e-01 1.36708751e-01 1.09197624e-01
      2.92943448e-01 2.92943448e-01 2.92943448e-01 2.92943448e-01
      2.92943448e-01 2.92943448e-01 2.83791065e-01 2.68564731e-01
      2.68450260e-01 2.92943448e-01 2.92943448e-01 2.92943448e-01 0.
      1.26096738e-05 1.26096738e-05 0.</_>
    <_>
      3.05941463e-01 1.15156896e-01 9.04960483e-02 3.05941463e-01
      3.05941463e-01 2.10281923e-01 1.82264477e-01 3.05941463e-01
      3.05941463e-01 1.74207509e-01 1.10943653e-01 3.05941463e-01
      3.05941463e-01 2.54310280e-01 2.04747871e-01 3.05941463e-01
      2.69762129e-01 2.30697840e-01 2.15334564e-01 2.69762129e-01
      2.45335475e-01 1.45301744e-01 1.52966231e-01 2.55532384e-01
      2.69762129e-01 2.69762129e-01 2.69762129e-01 2.69762129e-01
      2.69762129e-01 2.69762129e-01 2.69762129e-01 2.69762129e-01
      2.75176406e-01 2.01116607e-01 2.23607838e-01 2.81061262e-01
      2.12664619e-01 1.66619718e-01 1.49020210e-01 1.96279138e-01
      2.81061262e-01 2.81061262e-01 2.81061262e-01 2.81061262e-01
      2.81061262e-01 2.55610049e-01 2.81061262e-01 2.81061262e-01</_>
    <_>
      3.00633073e-01 1.98680952e-01 2.21062183e-01 3.00633073e-01
      2.58837283e-01 1.14797734e-01 1.38718113e-01 2.94877291e-01
      3.00633073e-01 2.40070477e-01 2.29205936e-01 3.00633073e-01
      3.00633073e-01 1.72977790e-01 1.99776858e-01 3.00633073e-01
      3.66200477e-01 2.64819890e-01 3.27068537e-01 3.66200477e-01
      5.54575934e-04 7.05566606e-04 7.43459503e-04 6.15157478e-04
      3.66200477e-01 3.66200477e-01 3.66200477e-01 3.66200477e-01
      6.58856332e-02 2.64342669e-02 4.49664146e-02 8.69362280e-02 0. 0.
      0. 0. 0. 0. 0. 0. 0. 7.04615593e-01 7.04615593e-01 0. 0. 0. 0. 0.</_>
    <_>
      1.85238734e-01 7.78514817e-02 7.07693771e-02 1.77995950e-01
      2.51424521e-01 2.94184268e-01 2.82669246e-01 2.15716049e-01
      3.22650760e-01 1.09223776e-01 8.34630057e-02 3.22650760e-01
      3.22650760e-01 3.22650760e-01 3.22650760e-01 3.22650760e-01
      2.61680603e-01 2.61680603e-01 2.61680603e-01 2.26197347e-01
      2.32300892e-01 2.61680603e-01 2.61680603e-01 1.93975985e-01
      2.61680603e-01 2.61680603e-01 2.61680603e-01 2.61680603e-01
      2.61680603e-01 2.60992914e-01 2.23938182e-01 2.27148354e-01
      1.17098294e-01 1.73320010e-01 1.52669355e-01 9.63402838e-02
      3.15588027e-01 3.35324556e-01 1.66967079e-01 1.06900677e-01
      2.73333967e-01 2.49287143e-01 1.90995470e-01 2.14147702e-01
      3.35324556e-01 3.35324556e-01 3.35324556e-01 3.35324556e-01</_>
    <_>
      2.83852398e-01 2.58912116e-01 2.66875863e-01 2.83852398e-01
      2.83852398e-01 2.83852398e-01 2.83852398e-01 2.83852398e-01
      2.59094566e-01 1.20729856e-01 1.24563292e-01 2.62453645e-01
      2.57608235e-01 1.82830766e-01 1.92773208e-01 2.69105911e-01
      2.74054557e-01 2.67873287e-01 2.74054557e-01 2.74054557e-01
      2.74054557e-01 1.50031894e-01 1.93463698e-01 2.74054557e-01
      2.74054557e-01 2.10213840e-01 2.33436584e-01 2.74054557e-01
      2.74054557e-01 1.94260105e-01 2.30639845e-01 2.74054557e-01
      3.33404303e-01 6.35041520e-02 9.57679972e-02 3.33404303e-01
      3.33336055e-01 4.68420871e-02 5.26900552e-02 3.33404303e-01
      3.33404303e-01 1.29431084e-01 1.51792288e-01 3.33404303e-01
      3.33404303e-01 1.71030656e-01 1.42222822e-01 3.33404303e-01</_>
    <_>
      2.99107224e-01 9.09004509e-02 1.13568254e-01 2.99107224e-01
      2.99107224e-01 1.39257759e-01 1.19107917e-01 2.99107224e-01
      2.99107224e-01 2.61341125e-01 2.15928137e-01 2.99107224e-01
      2.99107224e-01 2.79614449e-01 1.82870358e-01 2.99107224e-01
      3.01085502e-01 1.69878691e-01 1.42892897e-01 3.01085502e-01
      1.10526703e-01 1.30712330e-01 1.52557656e-01 1.25463530e-01
      3.01085502e-01 3.01085502e-01 2.52041698e-01 3.01085502e-01
      3.01085502e-01 3.01085502e-01 3.01085502e-01 3.01085502e-01
      3.59379090e-02 9.55455899e-02 1.19994596e-01 5.43536171e-02
      1.13860652e-01 2.98616916e-01 2.58290112e-01 7.86791369e-02
      3.29629898e-01 3.29629898e-01 3.29629898e-01 3.29629898e-01
      3.29629898e-01 3.29629898e-01 1.82486087e-01 3.29629898e-01</_>
    <_>
      3.10986251e-01 1.48470059e-01 1.29463524e-01 3.10986251e-01
      3.10986251e-01 2.57196993e-01 2.07644656e-01 3.10986251e-01
      3.10986251e-01 1.22249000e-01 9.10135582e-02 3.10986251e-01
      3.10986251e-01 1.85637549e-01 1.32032380e-01 3.10986251e-01
      2.91830480e-01 2.91830480e-01 2.43914604e-01 2.91830480e-01
      2.91830480e-01 1.70602396e-01 1.29962057e-01 2.91830480e-01
      2.91830480e-01 2.45502591e-01 1.78515315e-01 2.91830480e-01
      2.91830480e-01 1.71501458e-01 1.18587561e-01 2.73237765e-01
      2.80734062e-01 2.12765202e-01 1.62511647e-01 2.80734062e-01
      2.80734062e-01 2.05913484e-01 1.82752684e-01 2.80734062e-01
      2.80734062e-01 1.93378344e-01 1.55580863e-01 2.80734062e-01
      2.80734062e-01 2.80734062e-01 2.80734062e-01 2.80734062e-01</_>
    <_>
      3.04584712e-01 1.34588659e-01 1.23739958e-01 3.04584712e-01
      3.04584712e-01 2.93666840e-01 2.56838560e-01 3.04584712e-01
      3.04584712e-01 1.26943782e-01 4.66673486e-02 3.04584712e-01
      3.04584712e-01 2.18009636e-01 5.76991551e-02 3.04584712e-01
      2.97423571e-01 2.97423571e-01 2.97423571e-01 2.97423571e-01
      1.87872455e-01 1.70786157e-01 1.88791409e-01 1.90122038e-01
      2.97423571e-01 2.20509082e-01 6.15926795e-02 2.97423571e-01
      2.97423571e-01 2.84793556e-01 1.39871061e-01 2.97423571e-01
      1.77054822e-01 1.04896374e-01 9.25942585e-02 1.52040720e-01
      7.25876167e-02 5.24478629e-02 4.06425297e-02 6.04487285e-02
      3.37132066e-01 3.37132066e-01 3.37132066e-01 3.37132066e-01
      3.37132066e-01 3.37132066e-01 3.37132066e-01 3.37132066e-01</_>
    <_>
      2.93917149e-01 1.97186649e-01 2.59024113e-01 2.93917149e-01
      2.93917149e-01 2.93917149e-01 2.93917149e-01 2.93917149e-01
      8.76645222e-02 8.15950036e-02 7.81502277e-02 8.22427049e-02
      2.93917149e-01 2.93917149e-01 2.93917149e-01 2.93917149e-01
      3.08517843e-01 3.08517843e-01 3.08517843e-01 3.08517843e-01
      3.08517843e-01 8.97290260e-02 1.84998676e-01 3.08517843e-01
      3.08517843e-01 3.08517843e-01 3.08517843e-01 3.08517843e-01
      2.95223370e-02 3.02032623e-02 2.11608484e-02 2.40235608e-02
      3.80814224e-01 2.08157927e-01 3.80814224e-01 3.80814224e-01
      3.80814224e-01 2.87377805e-01 3.80814224e-01 3.80814224e-01
      6.28743507e-03 6.32947776e-03 6.36881823e-03 6.39742240e-03
      9.85241262e-04 2.71216250e-05 2.71216250e-05 9.85241262e-04</_>
    <_>
      3.05235475e-01 1.36927709e-01 2.39813954e-01 3.05235475e-01
      3.05235475e-01 1.06075086e-01 2.12924808e-01 3.05235475e-01
      3.05235475e-01 1.30076826e-01 1.89070791e-01 3.05235475e-01
      3.05235475e-01 1.30124003e-01 2.21702054e-01 3.05235475e-01
      3.00409049e-01 1.48496717e-01 2.69150794e-01 3.00409049e-01
      2.64705390e-01 1.16063982e-01 1.53391555e-01 2.98616111e-01
      3.00409049e-01 2.08776593e-01 3.00409049e-01 3.00409049e-01
      2.89551497e-01 1.32617205e-01 1.45098090e-01 2.98274964e-01
      2.76787847e-01 1.40139893e-01 2.40084201e-01 2.76787847e-01
      2.66003102e-01 2.01283589e-01 2.76787847e-01 2.76787847e-01
      2.76787847e-01 1.44499168e-01 1.47263736e-01 2.76787847e-01
      2.76787847e-01 2.76787847e-01 2.76787847e-01 2.76787847e-01</_>
    <_>
      3.43093723e-01 9.38932598e-02 1.24546714e-01 3.43093723e-01
      3.43093723e-01 4.32449058e-02 1.15815498e-01 3.43093723e-01
      3.43093723e-01 9.45254341e-02 6.07821085e-02 3.43093723e-01
      3.43093723e-01 4.38487753e-02 2.64976118e-02 3.43093723e-01
      3.50802392e-01 2.47286353e-02 1.00399725e-01 3.50802392e-01
      3.50802392e-01 1.46148533e-01 1.66285276e-01 3.50802392e-01
      3.50802392e-01 2.42899098e-02 3.66047863e-03 3.36999446e-01
      3.50802392e-01 1.04970850e-01 1.91697218e-02 2.69927502e-01
      3.54373425e-01 2.86993057e-01 2.26664513e-01 3.54373425e-01
      3.54373425e-01 3.17582726e-01 1.92310184e-01 3.54373425e-01
      3.54373425e-01 1.50395855e-01 3.35060023e-02 2.02551514e-01
      1.39442906e-01 7.10751563e-02 1.93716995e-02 8.56340826e-02</_>
    <_>
      1.14829256e-03 4.35606251e-03 4.95155435e-03 1.58979872e-03
      3.51515621e-01 3.51515621e-01 3.51515621e-01 3.51515621e-01
      3.40278745e-02 6.79534450e-02 4.48292159e-02 1.22227510e-02
      3.51515621e-01 3.51515621e-01 3.51515621e-01 3.51515621e-01
      3.48099053e-01 3.48099053e-01 3.48099053e-01 3.48099053e-01
      3.73378210e-02 5.17230630e-02 5.75869083e-02 3.70217636e-02
      3.48099053e-01 3.48099053e-01 3.48099053e-01 3.48099053e-01
      2.91953441e-02 7.41136521e-02 1.00636333e-01 4.36953083e-02 0. 0.
      0. 0. 0. 0. 0. 0. 0. 0. 0. 0. 0. 0. 0. 0.</_>
    <_>
      8.23005065e-02 8.73297304e-02 9.92806926e-02 9.39801112e-02
      3.47138554e-01 3.47138554e-01 3.47138554e-01 3.47138554e-01
      1.27195399e-02 2.57615726e-02 2.54914630e-02 1.28768040e-02
      3.43897700e-01 3.47138554e-01 3.47138554e-01 3.47138554e-01
      3.39641452e-01 3.39641452e-01 3.39641452e-01 3.39641452e-01
      3.81186567e-02 6.39720112e-02 7.79042467e-02 5.38481586e-02
      3.35464776e-01 3.39641452e-01 3.39641452e-01 3.39641452e-01
      6.16881140e-02 1.51157618e-01 1.70397893e-01 7.98249468e-02
      3.62250660e-07 1.54480935e-04 1.54402340e-04 3.54440886e-07
      8.15588329e-03 7.94360321e-03 8.01638234e-03 8.30941368e-03
      4.02269900e-01 3.34576875e-01 1.10453948e-01 2.49942809e-01
      4.02269900e-01 4.02269900e-01 4.02269900e-01 4.02269900e-01</_></uncompressed_support_vectors>
  <decision_functions>
    <_>
      <sv_count>1</sv_count>
      <rho>5.3841662352873394e+00</rho>
      <alpha>
        1.</alpha>
      <index>
        0</index></_>
    <_>
      <sv_count>1</sv_count>
      <rho>6.3007547777602466e-02</rho>
      <alpha>
        1.</alpha>
      <index>
        1</index></_>
    <_>
      <sv_count>1</sv_count>
      <rho>4.5869503803060558e+00</rho>
      <alpha>
        1.</alpha>
      <index>
        2</index></_>
    <_>
      <sv_count>1</sv_count>
      <rho>-2.6076197449548428e+00</rho>
      <alpha>
        1.</alpha>
      <index>
        3</index></_>
    <_>
      <sv_count>1</sv_count>
      <rho>2.9537657246529818e+00</rho>
      <alpha>
        1.</alpha>
      <index>
        4</index></_>
    <_>
      <sv_count>1</sv_count>
      <rho>5.8028617114321728e+00</rho>
      <alpha>
        1.</alpha>
      <index>
        5</index></_></decision_functions></opencv_ml_svm>
</opencv_storage>
