<?xml version="1.0"?>
<opencv_storage>
<opencv_ml_svm>
  <format>3</format>
  <svmType>C_SVC</svmType>
  <kernel>
    <type>LINEAR</type></kernel>
  <C>450.</C>
  <term_criteria><epsilon>1.0000000000000000e-02</epsilon>
    <iterations>1500</iterations></term_criteria>
  <var_count>48</var_count>
  <class_count>5</class_count>
  <class_labels type_id="opencv-matrix">
    <rows>5</rows>
    <cols>1</cols>
    <dt>i</dt>
    <data>
      2 6 8 9 10</data></class_labels>
  <sv_total>10</sv_total>
  <support_vectors>
    <_>
      5.76335013e-01 -1.56722033e+00 -3.26183915e-01 1.37283087e+00
      -1.75216928e-01 -1.16705036e+00 2.30986327e-01 3.27663720e-01
      1.54322207e+00 -5.54743707e-01 -1.55595613e+00 6.27013385e-01
      6.34159207e-01 -4.58018601e-01 -1.57584536e+00 8.31877366e-02
      -9.83704999e-02 1.08727801e+00 2.95060098e-01 -1.57160968e-01
      -1.05287731e+00 1.20589352e+00 1.84549075e-02 -1.31991774e-01
      2.64415562e-01 3.82459313e-01 5.77952206e-01 1.87065452e-01
      -1.36544943e+00 5.99142373e-01 1.90331292e+00 -4.52256680e-01
      4.54824343e-02 1.39704859e+00 -1.56124786e-01 -1.66575015e-01
      -1.61723626e+00 -8.94710720e-02 3.52165461e-01 2.01307997e-01
      7.27944076e-02 -1.76571965e-01 1.69088054e+00 -2.74332970e-01
      2.23039404e-01 -9.48094055e-02 5.42516410e-01 -8.41538683e-02</_>
    <_>
      2.97341180e+00 -6.02766871e-01 -9.49835837e-01 3.47300315e+00
      -1.05179772e-01 -2.34117770e+00 1.04700530e+00 -5.88259935e-01
      4.33257008e+00 2.48294681e-01 -2.37054205e+00 2.97678685e+00
      -4.88960184e-02 -1.42754450e-01 -2.31588149e+00 9.70816970e-01
      5.09159744e-01 -4.23941314e-01 1.20016420e+00 1.61710605e-01
      -1.86042130e+00 -1.78310490e+00 2.71642041e+00 6.17913064e-03
      1.87217876e-01 1.25703800e+00 -3.55537534e-01 1.61710605e-01
      -2.50512314e+00 2.41767907e+00 7.47133911e-01 -1.31458569e+00
      -8.07095096e-02 9.22137320e-01 -1.55666184e+00 1.87670141e-01
      -1.40826988e+00 -4.80928332e-01 -5.28566957e-01 1.45409930e+00
      3.10590327e-01 1.26344323e+00 6.32191122e-01 -3.29596639e-01
      -5.61326683e-01 -1.10512149e+00 8.96658599e-01 1.55721986e+00</_>
    <_>
      9.72507775e-01 -2.00727272e+00 -1.06547010e+00 1.48767006e+00
      3.84458572e-01 -4.09394473e-01 1.38229561e+00 4.64559466e-01
      1.45249140e+00 -1.54764950e-01 -3.90128446e+00 -1.15086257e+00
      1.18405914e+00 -1.30955160e-01 -1.54847074e+00 1.02536000e-01
      -1.46563947e-01 -4.83851492e-01 -7.08441809e-02 -2.56674379e-01
      -4.31345224e-01 -1.41075194e+00 6.02520645e-01 9.34017301e-01
      5.80073714e-01 -2.80238837e-01 -3.69714469e-01 1.71779290e-01
      -4.82652374e-02 5.68777204e-01 1.28971028e+00 -2.78260447e-02
      -6.76868737e-01 -1.72484279e-01 2.90330946e-01 4.22704637e-01
      -8.09302926e-01 -5.08290887e-01 1.19462419e+00 1.29856789e+00
      -2.35102296e-01 1.67626664e-01 1.91321298e-01 4.72416133e-01
      5.45062482e-01 7.71598518e-01 3.07143986e-01 4.42587316e-01</_>
    <_>
      -7.67628327e-02 -3.21126270e+00 -1.47666380e-01 2.27021503e+00
      -1.91087648e-01 -3.98596931e+00 5.13873518e-01 5.29218793e-01
      1.63246143e+00 8.69725883e-01 -4.59024763e+00 -6.64779723e-01
      -3.56297046e-02 2.14175367e+00 -4.63102531e+00 1.57407284e-01
      1.10367131e+00 1.24866343e+00 3.50902724e+00 9.47342396e-01
      -1.92087129e-01 -2.69592047e+00 5.95991969e-01 1.52312100e-01
      4.76309329e-01 5.07630301e+00 -3.31747234e-01 5.04980683e-01
      -3.40103865e-01 -1.25476807e-01 2.35921359e+00 -1.33971202e+00
      6.09098673e-01 4.50638533e-01 -1.46035171e+00 2.38939214e+00
      -1.48275948e+00 -1.43633866e+00 2.45801735e+00 2.77527356e+00
      -2.44108319e-01 -1.38146627e+00 6.66650593e-01 2.27148080e+00
      3.26387644e+00 1.52198744e+00 -3.60495019e+00 -8.39744985e-01</_>
    <_>
      1.18730485e+00 2.27360892e+00 -1.43917513e+00 -5.24411023e-01
      2.26781964e+00 2.20745325e+00 -1.15184553e-01 -6.09968960e-01
      -9.21806991e-01 2.62946486e-01 2.35720921e+00 -3.09828103e-01
      -1.15369666e+00 1.25857651e+00 2.73974371e+00 4.38020885e-01
      1.55786705e+00 -1.10951757e+00 -3.00332326e-02 4.85909462e-01
      4.35930520e-01 -2.70133352e+00 -3.08581162e-02 5.55804610e-01
      4.13528085e-01 4.44578268e-02 -1.00468683e+00 4.05562609e-01
      -3.46675634e-01 -5.17355762e-02 -4.77578163e+00 -1.02738786e+00
      9.65756297e-01 -1.22140968e+00 2.73056626e-01 -4.64353770e-01
      1.92606246e+00 -6.90827370e-01 -1.69898510e+00 8.38458121e-01
      1.05635965e+00 1.85135829e+00 -3.25184345e+00 -3.85926723e-01
      -4.04185504e-01 -4.72938120e-01 -1.36497676e-01 -2.73364097e-01</_>
    <_>
      2.00285745e+00 -2.43425155e+00 8.47728789e-01 5.23207605e-01
      1.26063049e+00 -4.43987012e-01 1.46752608e+00 1.77904832e+00
      -1.78138173e+00 -4.78191227e-01 -2.27549601e+00 -2.24456358e+00
      -2.55494207e-01 1.44803607e+00 8.06810379e-01 9.50239480e-01
      4.36705977e-01 -1.27575052e+00 -1.70948124e+00 6.91210687e-01
      2.60634869e-01 -1.64377713e+00 1.05150783e+00 2.45791674e+00
      2.17092127e-01 -8.33744287e-01 -1.66908872e+00 2.36315906e-01
      2.08994842e+00 4.56706673e-01 -2.98869133e+00 7.98297524e-01
      -2.22276974e+00 -1.54072344e+00 7.23939419e-01 1.56188917e+00
      1.24651432e+00 -2.57893753e+00 1.58871651e+00 8.01108658e-01
      -1.38969243e-01 -1.77028298e-01 -1.77620971e+00 -8.98707006e-03
      4.54813510e-01 1.33971095e+00 -6.88452303e-01 3.50063778e-02</_>
    <_>
      -3.21232170e-01 -3.84333432e-01 -6.02295883e-02 1.09689140e+00
      7.63360322e-01 6.50224328e-01 1.20016134e+00 9.84078765e-01
      -6.50124431e-01 1.09861231e+00 1.53000534e+00 -1.73676538e+00
      -2.44236916e-01 8.84711027e-01 8.73800159e-01 -4.08800185e-01
      1.31999934e+00 -1.57164168e+00 1.57961392e+00 1.49572515e+00
      -3.39857936e-01 -2.45658827e+00 1.22977662e+00 7.36225963e-01
      9.71430242e-01 3.74665231e-01 -2.66425276e+00 4.69082415e-01
      -9.75005701e-02 1.10628140e+00 -3.34375906e+00 3.37992370e-01
      2.02649772e-01 -3.28442407e+00 2.22215220e-01 5.45915663e-01
      2.44802475e+00 -8.93603981e-01 7.96498179e-01 -3.42216313e-01
      6.22843206e-01 1.52717316e+00 -2.88410306e+00 1.21565080e+00
      1.24361503e+00 7.60986507e-01 -3.21165371e+00 1.34539163e+00</_>
    <_>
      -2.47005725e+00 -3.91948175e+00 1.92230150e-01 2.29056931e+00
      -8.14505696e-01 -1.46330774e+00 1.05778730e+00 1.18475246e+00
      1.97206581e+00 -1.03729987e+00 -4.24528599e+00 -4.31105852e+00
      1.31924295e+00 -1.31889597e-01 -1.91338792e-01 -2.94287562e-01
      -3.28417242e-01 -9.71350789e-01 -8.40522349e-01 -2.63607919e-01
      -1.75702661e-01 -8.08490276e-01 -1.80278492e+00 2.24264169e+00
      2.95484573e-01 -1.65383554e+00 -1.00888468e-01 -3.17412376e-01
      2.68491244e+00 -8.31792831e-01 2.55712152e+00 1.05798614e+00
      -1.05208445e+00 1.03754497e+00 -8.46354723e-01 1.02161407e+00
      1.42735231e+00 -1.21578030e-01 1.55039024e+00 1.31865978e+00
      -7.59911180e-01 3.09314668e-01 2.15609264e+00 -1.19097853e+00
      5.95793486e-01 -7.63791129e-02 2.26051116e+00 -4.42091554e-01</_>
    <_>
      -4.75067234e+00 -4.32983112e+00 2.23889995e+00 5.13087559e+00
      -1.64069831e+00 -1.66402757e-01 8.41469169e-01 2.87904239e+00
      4.19869471e+00 2.46783331e-01 -1.23733521e+00 -5.59880924e+00
      1.74928224e+00 -7.77592838e-01 -2.30036807e+00 -1.23607886e+00
      1.50580144e+00 2.36861730e+00 8.89314562e-02 6.73949480e-01
      -1.47883356e+00 3.39764833e+00 -3.70066476e+00 6.72213435e-01
      6.87443554e-01 1.94463253e+00 2.02011037e+00 1.39221549e+00
      7.05365062e-01 -3.92810988e+00 2.94214463e+00 1.40379620e+00
      3.99096340e-01 -9.74823833e-01 -2.06627917e+00 2.96704459e+00
      1.58676648e+00 6.64355457e-01 1.19741237e+00 -1.14911413e+00
      3.10929883e-02 -1.41092026e+00 2.33074456e-01 1.10657346e+00
      1.84601879e+00 1.83700275e+00 -1.89388835e+00 -1.16223466e+00</_>
    <_>
      -2.51734829e+00 -3.61210033e-02 1.38772631e+00 1.13546097e+00
      5.00790215e+00 1.81368434e+00 -1.12980719e+01 8.20710945e+00
      5.46482658e+00 -3.20184946e+00 8.78707886e+00 -1.11802924e+00
      1.71435487e+00 -2.36561894e+00 -9.00101960e-01 3.03047395e+00
      2.48563576e+00 3.62665820e+00 5.69745541e+00 -7.26345778e-02
      2.59902620e+00 9.99016571e+00 -1.80479181e+00 -8.09668446e+00
      -2.93553734e+00 8.17630959e+00 4.01911765e-01 6.02356195e+00
      -7.81277299e-01 1.17585409e+00 -1.98921514e+00 -7.00231791e-01
      7.10277748e+00 -7.51252413e+00 3.64218354e+00 -7.66820550e-01
      2.80118203e+00 5.89309573e-01 5.28448915e+00 -3.52785444e+00
      1.04978333e+01 -4.53785038e+00 -6.58064508e+00 -1.19816053e+00
      3.27774739e+00 4.03253603e+00 -1.11264896e+01 5.61059618e+00</_></support_vectors>
  <uncompressed_sv_total>141</uncompressed_sv_total>
  <uncompressed_support_vectors>
    <_>
      3.47460479e-01 1.72124654e-02 1.37884747e-02 3.47460479e-01
      3.47460479e-01 7.17681497e-02 7.45505020e-02 3.47460479e-01
      3.47460479e-01 6.96180686e-02 3.94581594e-02 3.47460479e-01
      3.47460479e-01 1.11608610e-01 2.53598914e-02 3.47460479e-01
      3.30302328e-01 1.74120277e-01 1.86883152e-01 3.30302328e-01
      2.91095972e-01 1.64421365e-01 1.63933545e-01 2.92193234e-01
      3.30302328e-01 1.98409081e-01 6.34417161e-02 3.30302328e-01
      3.30302328e-01 1.82560205e-01 8.05578902e-02 2.80583590e-01
      2.41259500e-01 1.81727245e-01 1.75980076e-01 2.68330336e-01
      1.66124150e-01 1.93699449e-02 1.17304232e-02 1.66399747e-01
      3.77688140e-01 2.83232182e-01 1.20717734e-01 3.77688140e-01
      3.77688140e-01 2.80220240e-01 4.81318086e-02 3.77688140e-01</_>
    <_>
      1.72967911e-01 2.95442306e-02 2.54520744e-01 3.20843577e-01
      2.38938391e-01 1.35525614e-01 3.20843577e-01 3.20843577e-01
      3.20843577e-01 6.70576021e-02 8.37926492e-02 3.13176394e-01
      3.20843577e-01 1.98226616e-01 2.43369877e-01 3.20843577e-01
      3.02924037e-01 3.21226567e-01 3.21226567e-01 3.21226567e-01
      1.02033593e-01 1.37007311e-01 2.24773616e-01 1.99015334e-01
      3.21226567e-01 3.21027011e-01 3.21226567e-01 3.21226567e-01
      1.41503066e-01 7.18753263e-02 1.03391834e-01 1.66309863e-01
      1.05409034e-01 2.34842580e-02 8.14640447e-02 2.44757369e-01
      3.32539320e-01 1.83560655e-01 3.24125886e-01 3.32539320e-01
      2.03986824e-01 1.82005707e-02 6.86092526e-02 2.63773859e-01
      3.32539320e-01 3.32539320e-01 3.32539320e-01 3.32539320e-01</_>
    <_>
      2.78051525e-01 5.33946604e-02 1.73446089e-01 3.39161038e-01
      3.39161038e-01 6.87269419e-02 2.49632865e-01 3.39161038e-01
      3.39161038e-01 5.43047674e-02 3.53002548e-02 3.39161038e-01
      3.39161038e-01 5.44926897e-02 8.33546296e-02 3.39161038e-01
      3.33067298e-01 1.49283126e-01 3.33067298e-01 3.33067298e-01
      1.29721075e-01 1.25763163e-01 2.77493894e-01 3.33067298e-01
      3.33067298e-01 1.00517221e-01 1.37163922e-01 3.33067298e-01
      2.06838995e-01 6.85755759e-02 1.08629659e-01 3.33067298e-01
      1.48517549e-01 1.92569956e-01 3.39070410e-01 3.39070410e-01
      1.56679094e-01 5.29455766e-02 3.39070410e-01 3.39070410e-01
      3.39070410e-01 6.24363907e-02 2.56462067e-01 3.39070410e-01
      1.65070981e-01 1.13856755e-02 9.10485387e-02 3.39070410e-01</_>
    <_>
      1.90745741e-01 2.70194449e-02 2.02098936e-01 3.36556256e-01
      2.85644889e-01 1.41129181e-01 3.09493423e-01 3.36556256e-01
      3.26618433e-01 5.67979068e-02 8.61658826e-02 3.36556256e-01
      3.36556256e-01 1.14773862e-01 1.56617343e-01 3.36556256e-01
      3.35491389e-01 2.46499196e-01 3.35491389e-01 3.35491389e-01
      1.25060871e-01 9.50861648e-02 1.84856594e-01 3.31170291e-01
      3.35491389e-01 2.18978763e-01 2.45640263e-01 3.35491389e-01
      1.57755986e-01 1.05369948e-01 1.11964256e-01 2.18563110e-01
      3.11486453e-01 1.21908627e-01 3.61368328e-01 3.61368328e-01
      3.61368328e-01 3.58522646e-02 2.35938415e-01 3.61368328e-01
      2.72837013e-01 1.92869026e-02 1.49537906e-01 3.61368328e-01
      2.15088740e-01 4.45573442e-02 6.41903728e-02 1.58347830e-01</_>
    <_>
      1.67822897e-01 3.45203169e-02 2.68422991e-01 3.44050854e-01
      2.75692403e-01 5.92640489e-02 2.59935588e-01 3.44050854e-01
      3.44050854e-01 9.65968296e-02 8.13413337e-02 3.00090253e-01
      3.44050854e-01 1.74555108e-01 1.40515149e-01 3.44050854e-01
      3.07351321e-01 1.90726876e-01 3.07351321e-01 3.07351321e-01
      1.97512552e-01 2.81607151e-01 2.77717978e-01 2.62491077e-01
      3.07351321e-01 2.50879794e-01 1.95226729e-01 3.07351321e-01
      1.96101308e-01 1.30506635e-01 1.14637762e-01 2.32812822e-01
      3.34519118e-01 3.34519118e-01 3.34519118e-01 3.34519118e-01
      9.86102000e-02 9.03003365e-02 3.34519118e-01 3.34519118e-01
      2.85505384e-01 7.77050629e-02 1.43015325e-01 3.34519118e-01
      1.97872713e-01 6.03411123e-02 5.34096770e-02 2.04465374e-01</_>
    <_>
      1.70756429e-01 2.97122952e-02 2.24954829e-01 3.35208535e-01
      2.96556056e-01 1.19014859e-01 3.18535417e-01 3.35208535e-01
      3.14278036e-01 1.07837349e-01 5.80869690e-02 1.87954709e-01
      3.35208535e-01 2.98503399e-01 1.57374561e-01 3.35208535e-01
      3.01208615e-01 2.45021269e-01 3.01208615e-01 3.01208615e-01
      1.27772912e-01 1.64828271e-01 2.24973053e-01 2.64384896e-01
      3.01208615e-01 3.01208615e-01 2.18385175e-01 3.01208615e-01
      3.01208615e-01 1.33839577e-01 9.30664092e-02 2.52181083e-01
      1.33923352e-01 1.54266194e-01 1.63579717e-01 2.53043234e-01
      1.54511601e-01 1.47827221e-02 9.33457613e-02 3.99690777e-01
      3.99690777e-01 8.00287053e-02 1.07699715e-01 3.99690777e-01
      3.99690777e-01 9.29240733e-02 7.26371780e-02 3.99690777e-01</_>
    <_>
      1.24203481e-01 3.46287526e-02 2.78978109e-01 3.33260953e-01
      2.51785278e-01 1.04375809e-01 3.33260953e-01 3.33260953e-01
      3.33260953e-01 1.13605320e-01 6.47519529e-02 2.00606495e-01
      3.33260953e-01 2.60682404e-01 1.90397218e-01 3.33260953e-01
      2.96926379e-01 2.51439571e-01 3.02299410e-01 3.02299410e-01
      1.44629508e-01 2.08057716e-01 2.51300126e-01 2.42177561e-01
      3.02299410e-01 3.02299410e-01 2.65643775e-01 3.02299410e-01
      2.43065059e-01 1.02173671e-01 9.79025215e-02 2.30192408e-01
      2.51699328e-01 3.15594852e-01 2.77007520e-01 2.95731127e-01
      1.54892489e-01 2.39714738e-02 1.38787791e-01 3.41566592e-01
      3.41566592e-01 5.69525473e-02 1.35218069e-01 3.41566592e-01
      3.41566592e-01 1.03256367e-01 1.00440085e-01 3.41566592e-01</_>
    <_>
      1.81905806e-01 6.48238212e-02 1.42663136e-01 2.55864829e-01
      3.14655632e-01 1.63987696e-01 3.14655632e-01 3.14655632e-01
      3.14655632e-01 3.14655632e-01 1.95165053e-02 2.24466383e-01
      3.14655632e-01 3.14655632e-01 6.34128153e-02 3.14655632e-01
      2.78351009e-01 1.94106489e-01 2.78351009e-01 2.78351009e-01
      2.78351009e-01 1.40694439e-01 1.67382032e-01 2.78351009e-01
      2.78351009e-01 2.78351009e-01 1.57392606e-01 2.78351009e-01
      2.78351009e-01 2.78351009e-01 2.44281858e-01 2.29108319e-01
      2.76212603e-01 2.06217453e-01 8.99441689e-02 2.76212603e-01
      2.76212603e-01 2.76212603e-01 2.76212603e-01 2.76212603e-01
      2.61158645e-01 2.76212603e-01 2.76212603e-01 2.76212603e-01
      2.76212603e-01 2.76212603e-01 1.46894529e-01 1.32721469e-01</_>
    <_>
      2.91711390e-01 1.62926212e-01 1.35340124e-01 2.91711390e-01
      2.91711390e-01 2.91711390e-01 2.91711390e-01 2.91711390e-01
      2.91711390e-01 2.91711390e-01 8.57109651e-02 1.13603890e-01
      2.91711390e-01 2.91711390e-01 1.92384034e-01 2.09771171e-01
      3.28557700e-01 3.28557700e-01 3.28557700e-01 3.28557700e-01
      1.12971202e-01 3.12371068e-02 1.80691965e-02 8.06572437e-02
      3.28557700e-01 3.28557700e-01 3.28557700e-01 3.28557700e-01
      8.50650147e-02 1.75650805e-01 2.27383003e-01 1.50841907e-01
      2.36631975e-01 7.33945444e-02 1.37350298e-02 1.31591707e-01
      1.17040180e-01 6.39987886e-02 1.81762695e-01 2.42371649e-01
      3.27509403e-01 2.79665560e-01 1.34287879e-01 2.05244869e-01
      4.28672552e-01 4.28672552e-01 1.01691328e-01 4.28672552e-01</_>
    <_>
      2.81331629e-01 2.90839709e-02 1.57101154e-01 3.30357343e-01
      3.30357343e-01 2.18487103e-02 3.30357343e-01 3.30357343e-01
      3.30357343e-01 3.08849197e-02 8.97371694e-02 3.30357343e-01
      3.30357343e-01 2.91326586e-02 9.27598998e-02 3.30357343e-01
      3.05539876e-01 7.04524592e-02 3.05539876e-01 3.05539876e-01
      2.67527461e-01 8.47091973e-02 2.63263792e-01 3.05539876e-01
      3.05539876e-01 1.20101638e-01 2.16631591e-01 3.05539876e-01
      2.17492938e-01 1.42163113e-01 2.48151973e-01 3.05539876e-01
      3.29173148e-01 2.41255060e-01 2.04531506e-01 3.29173148e-01
      3.29173148e-01 2.61442125e-01 3.25756520e-01 3.29173148e-01
      1.99325845e-01 1.50190443e-01 2.57769257e-01 3.01146150e-01
      1.73137113e-01 1.01126090e-01 8.32586959e-02 1.49089962e-01</_>
    <_>
      2.91132718e-01 6.67354912e-02 1.57786220e-01 2.98468679e-01
      2.98468679e-01 1.45951554e-01 2.93199152e-01 2.98468679e-01
      2.98468679e-01 2.18936622e-01 3.26208696e-02 2.98468679e-01
      2.98468679e-01 2.98468679e-01 1.18219599e-01 2.98468679e-01
      3.07040393e-01 2.29582250e-01 3.07040393e-01 3.07040393e-01
      3.07040393e-01 1.14037804e-01 9.72427651e-02 2.76264668e-01
      3.07040393e-01 3.07040393e-01 2.92196244e-01 3.07040393e-01
      1.42987460e-01 1.56996399e-01 1.72264934e-01 1.59302428e-01
      3.24027061e-01 2.68413723e-01 7.02025965e-02 3.24027061e-01
      3.06723833e-01 3.24027061e-01 3.24027061e-01 3.24027061e-01
      9.98739824e-02 5.10988422e-02 7.50611797e-02 1.28683731e-01
      3.24027061e-01 3.24027061e-01 1.80750489e-01 1.52654544e-01</_>
    <_>
      2.74234831e-01 1.06025152e-01 1.01697244e-01 2.78695077e-01
      3.06615978e-01 1.59133613e-01 2.38727033e-01 3.06615978e-01
      3.06615978e-01 2.69363046e-01 2.16450859e-02 3.06615978e-01
      3.06615978e-01 3.06615978e-01 9.51017812e-02 3.06615978e-01
      3.12507778e-01 2.54779398e-01 3.12507778e-01 3.12507778e-01
      2.05872834e-01 1.62597224e-01 1.29767194e-01 1.77324921e-01
      3.12507778e-01 3.12507778e-01 2.57721931e-01 3.12507778e-01
      2.26890847e-01 2.35397354e-01 1.72271088e-01 1.60946205e-01
      3.11202526e-01 3.11202526e-01 7.97446296e-02 2.04379126e-01
      2.35466242e-01 3.11202526e-01 3.11202526e-01 3.11202526e-01
      2.51379400e-01 2.22470209e-01 1.83736056e-01 2.11530566e-01
      3.11202526e-01 2.95375079e-01 4.30259444e-02 1.78738743e-01</_>
    <_>
      3.13213497e-01 1.07736729e-01 9.64967087e-02 3.13213497e-01
      3.13213497e-01 1.49247572e-01 1.01141736e-01 3.13213497e-01
      3.13213497e-01 2.99089521e-01 2.58999858e-02 2.60358214e-01
      3.13213497e-01 3.13213497e-01 2.67170388e-02 3.13213497e-01
      2.88094014e-01 1.94563374e-01 1.43022433e-01 2.88094014e-01
      2.88094014e-01 1.57178491e-01 1.30857572e-01 2.82833457e-01
      2.88094014e-01 2.88094014e-01 6.50955588e-02 2.88094014e-01
      2.88094014e-01 2.56449372e-01 2.88094014e-01 2.88094014e-01
      3.45725089e-01 2.84199029e-01 2.37514675e-01 3.45725089e-01
      1.77382663e-01 9.85291600e-02 4.87354323e-02 1.26537979e-01
      3.38760614e-01 3.45725089e-01 3.45725089e-01 3.45725089e-01
      2.02166840e-01 1.43928260e-01 9.19304416e-02 1.31824791e-01</_>
    <_>
      3.14429790e-01 1.61818698e-01 7.04828724e-02 3.14429790e-01
      3.14429790e-01 1.51524261e-01 2.42104400e-02 3.14429790e-01
      3.14429790e-01 2.79001504e-01 3.02285273e-02 2.94550061e-01
      3.14429790e-01 2.90185302e-01 1.93319637e-02 3.14429790e-01
      3.07832628e-01 1.99430406e-01 5.78436106e-02 3.07832628e-01
      3.07832628e-01 1.36057377e-01 6.59356788e-02 2.37373158e-01
      3.07832628e-01 3.07832628e-01 8.43800306e-02 3.07832628e-01
      2.73286223e-01 2.39337862e-01 2.90202469e-01 2.87627459e-01
      3.09348464e-01 2.44508669e-01 1.29646957e-01 3.09348464e-01
      2.48050526e-01 1.99046075e-01 1.53368652e-01 2.04405680e-01
      2.05450863e-01 3.09348464e-01 3.09348464e-01 3.09348464e-01
      3.09348464e-01 3.09348464e-01 1.39760554e-01 1.49149865e-01</_>
    <_>
      2.01981798e-01 6.41281158e-02 1.32344618e-01 2.92436779e-01
      3.13575417e-01 2.07374960e-01 2.95731068e-01 3.13575417e-01
      3.13575417e-01 3.13575417e-01 1.76312272e-02 1.61129624e-01
      3.13575417e-01 3.13575417e-01 6.23022877e-02 3.13575417e-01
      2.86009103e-01 2.58562833e-01 2.86009103e-01 2.86009103e-01
      2.46751502e-01 1.43999979e-01 1.28303617e-01 2.29582593e-01
      2.86009103e-01 2.86009103e-01 1.66909367e-01 2.86009103e-01
      2.18110278e-01 2.51174569e-01 2.86009103e-01 2.61470944e-01
      2.87231386e-01 1.61607251e-01 3.83298546e-02 2.76008457e-01
      2.68914819e-01 2.87231386e-01 2.87231386e-01 2.87231386e-01
      1.52265191e-01 2.25344613e-01 2.87231386e-01 2.87231386e-01
      2.87231386e-01 2.87231386e-01 2.22635910e-01 1.93652600e-01</_>
    <_>
      1.48613110e-01 4.77675870e-02 1.62725955e-01 2.79467553e-01
      3.15611929e-01 1.27885297e-01 3.15611929e-01 3.15611929e-01
      3.15611929e-01 3.14598620e-01 1.83766373e-02 2.21700743e-01
      3.15611929e-01 3.15611929e-01 7.61881471e-02 3.15611929e-01
      2.82487124e-01 1.63976774e-01 2.82487124e-01 2.82487124e-01
      2.82487124e-01 1.18701115e-01 2.03633294e-01 2.82487124e-01
      2.82487124e-01 2.82487124e-01 1.66599840e-01 2.82487124e-01
      2.37359762e-01 2.46326342e-01 2.67336428e-01 2.45152742e-01
      3.11092377e-01 1.93602920e-01 1.13636553e-01 3.11092377e-01
      3.11092377e-01 2.98657596e-01 3.03655207e-01 3.11092377e-01
      1.20590121e-01 2.00249299e-01 3.11092377e-01 2.88956970e-01
      2.47867405e-01 2.40430608e-01 1.07220620e-01 1.11003868e-01</_>
    <_>
      1.39993638e-01 5.20062968e-02 1.54674530e-01 2.56044328e-01
      3.19928467e-01 1.31109774e-01 3.19928467e-01 3.19928467e-01
      3.19928467e-01 3.17988425e-01 1.61715690e-02 2.12925151e-01
      3.19928467e-01 3.19928467e-01 6.80658445e-02 3.19928467e-01
      2.79562473e-01 1.62385941e-01 2.79562473e-01 2.79562473e-01
      2.79562473e-01 1.30520672e-01 2.10391670e-01 2.79562473e-01
      2.79562473e-01 2.79562473e-01 1.53914422e-01 2.79562473e-01
      2.70758688e-01 2.69416481e-01 2.46564195e-01 2.32198939e-01
      2.99560249e-01 2.45939389e-01 1.47015750e-01 2.99560249e-01
      2.99560249e-01 2.63103008e-01 2.99560249e-01 2.99560249e-01
      1.83339834e-01 2.58572668e-01 2.99560249e-01 2.68463731e-01
      2.51573086e-01 2.20883816e-01 1.01792656e-01 1.10810786e-01</_>
    <_>
      3.12485099e-01 1.70499355e-01 9.86825675e-02 3.12485099e-01
      3.12485099e-01 1.62452593e-01 5.09479344e-02 3.12485099e-01
      3.12485099e-01 2.95298338e-01 3.21774073e-02 2.42237344e-01
      3.12485099e-01 3.12485099e-01 3.14916670e-02 3.12485099e-01
      3.09827775e-01 2.13321537e-01 9.78431180e-02 3.09827775e-01
      2.87871122e-01 1.32622957e-01 7.82392770e-02 2.13279501e-01
      3.09827775e-01 3.09827775e-01 1.20910697e-01 3.09827775e-01
      2.82059401e-01 2.86610842e-01 2.68493503e-01 2.47747451e-01
      2.88972825e-01 1.76079810e-01 6.56338260e-02 2.26413146e-01
      1.58952072e-01 2.88972825e-01 2.88972825e-01 2.34023884e-01
      2.47201771e-01 2.88972825e-01 2.88972825e-01 2.88972825e-01
      2.88972825e-01 2.88972825e-01 2.80011237e-01 1.51484266e-01</_>
    <_>
      2.21190795e-01 7.38024786e-02 1.11145675e-01 2.63959289e-01
      3.29584301e-01 8.96472633e-02 2.54204363e-01 3.29584301e-01
      3.29584301e-01 2.61910558e-01 2.82908063e-02 3.29584301e-01
      3.29584301e-01 2.55384862e-01 3.57291475e-02 3.29584301e-01
      2.86727130e-01 9.61870924e-02 2.70623505e-01 2.86727130e-01
      2.86727130e-01 1.20049000e-01 2.39438772e-01 2.86727130e-01
      2.86727130e-01 2.29408622e-01 9.62242335e-02 2.86727130e-01
      2.86727130e-01 2.86727130e-01 2.02740714e-01 2.86727130e-01
      3.15288991e-01 2.13702157e-01 2.99913406e-01 3.15288991e-01
      3.15288991e-01 1.81641266e-01 4.42278795e-02 3.15288991e-01
      3.15288991e-01 3.15288991e-01 3.15288991e-01 3.15288991e-01
      1.30479500e-01 9.89716128e-02 2.88364291e-02 5.80884703e-02</_>
    <_>
      2.68006146e-01 1.04199968e-01 9.25886333e-02 2.50992507e-01
      3.12200397e-01 2.36599579e-01 2.01258868e-01 3.12200397e-01
      3.12200397e-01 3.12200397e-01 2.07770094e-02 2.31439993e-01
      3.12200397e-01 3.12200397e-01 9.93050486e-02 3.12200397e-01
      3.09359431e-01 3.09359431e-01 2.63505042e-01 3.09359431e-01
      1.91817373e-01 1.28772914e-01 8.62342790e-02 1.40677139e-01
      3.09359431e-01 3.09359431e-01 2.05195576e-01 3.09359431e-01
      3.09359431e-01 2.93638915e-01 1.47905022e-01 1.63533926e-01
      2.51165897e-01 1.20315060e-01 2.14175247e-02 1.50829241e-01
      2.80230463e-01 3.05378675e-01 3.05378675e-01 3.05378675e-01
      3.05378675e-01 3.05378675e-01 2.28859544e-01 1.75180301e-01
      3.05378675e-01 3.05378675e-01 1.93773970e-01 2.10345283e-01</_>
    <_>
      1.96652040e-01 6.65326640e-02 1.31083339e-01 2.65299588e-01
      3.19432765e-01 2.05177173e-01 2.78619587e-01 3.19432765e-01
      3.19432765e-01 3.19432765e-01 1.79865938e-02 1.69941589e-01
      3.19432765e-01 3.19432765e-01 5.43288514e-02 3.19432765e-01
      2.78434128e-01 2.40400821e-01 2.78434128e-01 2.78434128e-01
      2.47257099e-01 1.50746882e-01 1.43534184e-01 2.42638156e-01
      2.78434128e-01 2.78434128e-01 1.49543643e-01 2.78434128e-01
      2.78434128e-01 2.78434128e-01 2.78434128e-01 2.36634165e-01
      2.74712622e-01 1.53349698e-01 5.19113988e-02 2.74712622e-01
      2.47295231e-01 2.74712622e-01 2.74712622e-01 2.74712622e-01
      2.74712622e-01 2.74712622e-01 2.74712622e-01 2.74712622e-01
      2.74712622e-01 2.74712622e-01 2.16387495e-01 1.81460753e-01</_>
    <_>
      2.26307645e-01 2.17609197e-01 2.27255523e-01 2.72084683e-01
      2.72084683e-01 2.72084683e-01 2.72084683e-01 2.72084683e-01
      2.13984117e-01 2.18499526e-01 2.17799634e-01 2.07554951e-01
      2.72084683e-01 2.66044229e-01 2.72084683e-01 2.72084683e-01
      3.30890805e-01 2.59704590e-01 2.85770983e-01 3.30890805e-01
      3.30890805e-01 1.19940350e-02 8.54804143e-02 3.30890805e-01
      3.30890805e-01 2.28018925e-01 2.85351425e-01 3.30890805e-01
      1.56104878e-01 4.34262678e-02 4.26704884e-02 1.47328675e-01
      3.59843522e-01 1.63605511e-02 1.17552251e-01 3.59843522e-01
      3.59843522e-01 3.39391492e-02 1.74491048e-01 3.59843522e-01
      1.96143612e-01 3.84675227e-02 1.48551557e-02 1.53194025e-01
      3.59843522e-01 3.23418230e-01 7.45315328e-02 3.59843522e-01</_>
    <_>
      1.42255455e-01 1.16947696e-01 1.25602886e-01 2.10233256e-01
      3.20268124e-01 3.20268124e-01 3.20268124e-01 3.20268124e-01
      1.77498281e-01 1.79919124e-01 1.12775281e-01 7.57909417e-02
      3.20268124e-01 3.20268124e-01 3.20268124e-01 3.20268124e-01
      3.14943433e-01 3.14943433e-01 3.14943433e-01 3.14943433e-01
      1.02082163e-01 1.31642045e-02 1.75650939e-02 1.33584157e-01
      3.14943433e-01 3.14943433e-01 3.14943433e-01 3.14943433e-01
      3.14943433e-01 1.13964655e-01 4.70524654e-02 2.45356068e-01
      1.56069472e-01 8.06901418e-03 2.02667955e-02 2.15320781e-01
      3.51619631e-01 2.08254203e-01 1.05317511e-01 3.51619631e-01
      3.51619631e-01 1.60940513e-01 2.11560521e-02 3.21253598e-01
      3.51619631e-01 3.51619631e-01 1.21184446e-01 3.29253584e-01</_>
    <_>
      1.84143439e-01 1.57776520e-01 1.98981747e-01 2.67508924e-01
      3.17341983e-01 3.17341983e-01 3.17341983e-01 3.17341983e-01
      4.13103886e-02 8.05100203e-02 9.62632000e-02 6.13982342e-02
      3.17341983e-01 3.17341983e-01 3.17341983e-01 3.17341983e-01
      3.13497394e-01 2.23012730e-01 2.85594225e-01 3.13497394e-01
      1.52244613e-01 4.88352999e-02 2.36478634e-02 1.25014365e-01
      3.13497394e-01 3.13497394e-01 2.14949638e-01 3.13497394e-01
      3.13497394e-01 2.96407163e-01 7.48038366e-02 3.07372332e-01
      1.54504076e-01 7.42908716e-02 2.01852527e-02 8.43859240e-02
      3.67293686e-01 3.67293686e-01 6.83256462e-02 1.39931440e-01
      3.67293686e-01 3.67293686e-01 8.03982466e-02 2.74093330e-01
      3.67293686e-01 3.67293686e-01 1.08625270e-01 1.79843411e-01</_>
    <_>
      1.54149324e-01 1.75528646e-01 1.51494294e-01 1.39632195e-01
      2.79942065e-01 2.79942065e-01 2.79942065e-01 2.79942065e-01
      2.79942065e-01 2.79942065e-01 2.79942065e-01 2.10171238e-01
      2.79942065e-01 2.79942065e-01 2.79942065e-01 2.68951744e-01
      3.35156351e-01 3.35156351e-01 3.35156351e-01 3.35156351e-01
      2.25134343e-01 8.22992772e-02 2.59916127e-01 3.35156351e-01
      3.35156351e-01 1.76283464e-01 1.09474339e-01 2.84065336e-01
      1.61212295e-01 1.68205649e-02 2.17312668e-02 2.17161864e-01
      3.21858615e-01 2.93464307e-02 2.34960541e-01 3.84479582e-01
      3.05343866e-01 3.20736319e-02 3.20276827e-01 3.84479582e-01
      1.94668427e-01 4.87988582e-03 2.81601641e-02 3.15271705e-01
      1.85102820e-01 1.50867067e-02 1.53571561e-01 3.84479582e-01</_>
    <_>
      2.88572282e-01 2.24525943e-01 2.37157702e-01 2.88572282e-01
      2.88572282e-01 1.74284890e-01 1.86550960e-01 2.88572282e-01
      2.88572282e-01 2.57621825e-01 1.75904110e-01 2.88572282e-01
      2.88572282e-01 2.18701750e-01 1.18113592e-01 2.88572282e-01
      3.39722425e-01 7.44312033e-02 1.00218594e-01 3.48684788e-01
      2.27659553e-01 8.74966383e-03 2.71293763e-02 3.37887496e-01
      3.48684788e-01 2.68232077e-01 1.00461662e-01 3.48684788e-01
      3.48684788e-01 9.18254405e-02 1.82607993e-02 3.48684788e-01
      2.91464716e-01 9.68506094e-03 4.15506214e-02 3.42662692e-01
      3.42662692e-01 8.49852636e-02 1.05981655e-01 3.42662692e-01
      3.42662692e-01 6.32993132e-02 9.62001923e-03 3.42662692e-01
      3.42662692e-01 2.54515976e-01 2.34083626e-02 3.42662692e-01</_>
    <_>
      2.45006263e-01 2.03925386e-01 2.70942152e-01 2.93110907e-01
      2.93110907e-01 2.93110907e-01 2.93110907e-01 2.93110907e-01
      7.45925754e-02 9.43076238e-02 1.40374169e-01 1.21073820e-01
      2.93110907e-01 2.93110907e-01 2.93110907e-01 2.93110907e-01
      3.11872542e-01 2.09190801e-01 2.68657088e-01 3.11872542e-01
      1.45508572e-01 3.64036299e-02 3.17657217e-02 1.46194503e-01
      3.11872542e-01 3.11872542e-01 3.11872542e-01 3.11872542e-01
      3.11872542e-01 3.11872542e-01 1.08941056e-01 2.14667872e-01
      2.10202217e-01 3.55342962e-02 1.25953704e-02 1.88588083e-01
      3.36501747e-01 8.68273079e-02 3.70482579e-02 3.36501747e-01
      3.36501747e-01 3.36501747e-01 3.00616324e-02 3.35557461e-01
      3.36501747e-01 3.36501747e-01 2.04471070e-02 3.36501747e-01</_>
    <_>
      2.95106262e-01 1.75647631e-01 2.34345570e-01 2.95106262e-01
      2.95106262e-01 2.95106262e-01 2.95106262e-01 2.95106262e-01
      6.23456910e-02 1.21179670e-01 1.30822420e-01 6.86890036e-02
      2.95106262e-01 2.95106262e-01 2.95106262e-01 2.95106262e-01
      2.91153312e-01 2.88747400e-01 3.13805342e-01 3.13805342e-01
      5.69608882e-02 1.71348751e-02 3.66834737e-03 4.18638140e-02
      3.13805342e-01 3.13805342e-01 3.13805342e-01 3.13805342e-01
      3.13805342e-01 2.31521517e-01 2.42548082e-02 2.82679915e-01
      7.47375488e-02 2.89851110e-02 4.32488928e-03 4.76819165e-02
      2.81755775e-01 1.32818073e-01 1.43574215e-02 1.32053375e-01
      3.81796062e-01 3.77753407e-01 2.01944299e-02 3.81796062e-01
      3.81796062e-01 3.81796062e-01 2.91516762e-02 3.81796062e-01</_>
    <_>
      2.54585505e-01 2.53124088e-01 2.54585505e-01 2.54585505e-01
      2.54585505e-01 2.54585505e-01 2.54585505e-01 2.54585505e-01
      2.10287347e-01 2.50752747e-01 2.54585505e-01 2.20274344e-01
      2.54585505e-01 2.54585505e-01 2.54585505e-01 2.54585505e-01
      3.38058472e-01 3.38058472e-01 2.91804135e-01 3.38058472e-01
      1.16080604e-01 2.01882515e-02 4.45718430e-02 1.55643910e-01
      3.38058472e-01 3.38058472e-01 3.38058472e-01 3.38058472e-01
      2.05398381e-01 2.31035482e-02 2.00134260e-03 1.69315428e-01
      1.82073608e-01 9.01311357e-03 1.20667599e-01 3.25625956e-01
      3.25625956e-01 3.09657268e-02 3.25625956e-01 3.25625956e-01
      3.25625956e-01 8.36636201e-02 5.84416743e-03 3.04177016e-01
      3.25625956e-01 3.25625956e-01 1.33906221e-02 3.25625956e-01</_>
    <_>
      3.01357239e-01 3.01357239e-01 3.01357239e-01 3.01357239e-01
      3.01357239e-01 9.21154469e-02 2.00341970e-01 3.01357239e-01
      3.01357239e-01 3.01357239e-01 3.01357239e-01 3.01357239e-01
      1.10112555e-01 7.71213993e-02 8.30277726e-02 1.23444512e-01
      3.94292295e-01 6.74721748e-02 3.94292295e-01 3.94292295e-01
      3.94292295e-01 2.17066724e-02 3.94292295e-01 3.94292295e-01
      1.31240264e-01 1.43852951e-02 4.63705584e-02 1.79504573e-01
      5.64186648e-02 1.45039093e-02 1.08939838e-02 5.40703461e-02
      2.87980169e-01 1.46361161e-02 3.53675276e-01 3.53675276e-01
      3.49413276e-01 5.75348325e-02 3.53675276e-01 3.53675276e-01
      7.76290447e-02 1.71636902e-02 3.24381106e-02 9.30660740e-02
      2.79863596e-01 6.93632066e-02 2.51633435e-01 3.53675276e-01</_>
    <_>
      2.93647468e-01 2.93647468e-01 2.93647468e-01 2.93647468e-01
      2.93647468e-01 1.59636304e-01 1.37601301e-01 2.93647468e-01
      2.73781300e-01 2.93647468e-01 2.93647468e-01 2.93647468e-01
      1.16091684e-01 1.71015307e-01 1.96185723e-01 1.42897487e-01
      3.26048315e-01 1.43553391e-01 2.25468233e-01 3.26048315e-01
      3.26048315e-01 2.06818338e-02 2.92954415e-01 3.26048315e-01
      3.21182519e-01 3.93287167e-02 2.33633276e-02 3.00182551e-01
      3.26048315e-01 7.50026777e-02 1.47614842e-02 3.26048315e-01
      1.87395632e-01 2.79780701e-02 2.52631158e-01 3.56930435e-01
      3.56930435e-01 2.48652548e-01 3.56930435e-01 3.56930435e-01
      1.94158047e-01 6.10474832e-02 5.80374943e-03 1.18934706e-01
      3.56930435e-01 2.26995394e-01 7.27415010e-02 2.92344362e-01</_>
    <_>
      2.86028206e-01 2.86028206e-01 2.31540933e-01 2.86028206e-01
      2.86028206e-01 2.86028206e-01 2.86028206e-01 2.86028206e-01
      7.97270834e-02 1.20029710e-01 1.65643916e-01 1.27475560e-01
      2.46896103e-01 2.86028206e-01 2.86028206e-01 2.86028206e-01
      3.24365854e-01 3.24365854e-01 2.85533458e-01 3.24365854e-01
      3.06290761e-02 5.57264732e-03 7.94366002e-03 3.37209404e-02
      3.24365854e-01 3.24365854e-01 3.24365854e-01 3.24365854e-01
      3.24365854e-01 1.54499173e-01 1.88178010e-02 2.17095375e-01
      6.79560527e-02 3.85036692e-03 1.89149473e-02 8.44886601e-02
      2.11310938e-01 5.80178238e-02 3.27622704e-02 1.82126448e-01
      4.07682151e-01 2.62387574e-01 1.85606126e-02 4.07682151e-01
      4.07682151e-01 4.07682151e-01 3.63495722e-02 4.07682151e-01</_>
    <_>
      2.72507638e-01 2.72507638e-01 2.72507638e-01 2.72507638e-01
      1.90763623e-01 1.98130146e-01 2.04204917e-01 2.07714394e-01
      2.72507638e-01 2.72507638e-01 2.72507638e-01 2.72507638e-01
      2.72507638e-01 2.06142932e-01 2.27347031e-01 2.72507638e-01
      1.89104915e-01 2.92797014e-02 6.08596615e-02 2.49430791e-01
      1.79480955e-01 1.06890965e-02 1.55667933e-02 1.78548709e-01
      4.58595484e-01 3.83247584e-01 2.84919173e-01 4.58595484e-01
      3.25818211e-01 9.48950723e-02 3.80907580e-02 2.51279324e-01
      2.49981627e-01 1.07746935e-02 4.02047113e-02 2.81651944e-01
      3.12734395e-01 1.05884233e-02 1.46630123e-01 3.44470620e-01
      3.44470620e-01 1.69420719e-01 8.18865187e-03 3.33332539e-01
      3.44470620e-01 3.44470620e-01 2.02658456e-02 3.44470620e-01</_>
    <_>
      2.20068753e-01 2.23780334e-01 2.40593523e-01 2.55666703e-01
      2.77980626e-01 2.77980626e-01 2.77980626e-01 2.77980626e-01
      2.28659466e-01 2.14893341e-01 1.71575546e-01 1.84850797e-01
      2.77980626e-01 2.77980626e-01 2.69218683e-01 2.77980626e-01
      3.24857712e-01 2.09606811e-01 2.22244546e-01 3.43485951e-01
      9.34850127e-02 1.95994265e-02 1.68284029e-02 8.91397372e-02
      3.43485951e-01 3.43485951e-01 2.30819270e-01 3.43485951e-01
      3.43485951e-01 2.00941473e-01 5.89190535e-02 3.05476248e-01
      1.19347937e-01 6.22551143e-03 1.41389742e-02 1.22730806e-01
      2.22501218e-01 4.22686636e-02 6.40639216e-02 2.63538539e-01
      3.89396966e-01 2.87669361e-01 1.42638693e-02 3.89396966e-01
      3.89396966e-01 3.89396966e-01 2.46407650e-02 3.89396966e-01</_>
    <_>
      1.45081237e-01 1.53170571e-01 1.72207683e-01 1.63185805e-01
      2.90888160e-01 2.49747410e-01 2.90888160e-01 2.90888160e-01
      2.89776683e-01 2.50486314e-01 1.91981748e-01 2.40919665e-01
      2.90888160e-01 2.90888160e-01 2.90888160e-01 2.90888160e-01
      3.20392191e-01 1.67963624e-01 3.20392191e-01 3.20392191e-01
      3.06336045e-01 3.35191675e-02 3.01252216e-01 3.20392191e-01
      3.20392191e-01 2.35993192e-01 2.13311240e-01 3.20392191e-01
      1.74566641e-01 2.84615103e-02 4.19920757e-02 1.80887833e-01
      3.26120943e-01 1.82232782e-02 2.93204993e-01 3.26120943e-01
      3.26120943e-01 2.03280635e-02 2.92132199e-01 3.26120943e-01
      2.81665772e-01 3.74852903e-02 5.31704538e-02 2.81652391e-01
      3.26120943e-01 1.04254372e-01 1.13099359e-01 3.26120943e-01</_>
    <_>
      1.06379978e-01 1.31458163e-01 1.20999686e-01 1.01395525e-01
      3.04179072e-01 3.04179072e-01 3.04179072e-01 3.04179072e-01
      2.81043321e-01 2.30063245e-01 1.57217130e-01 2.15892524e-01
      3.04179072e-01 3.04179072e-01 3.04179072e-01 3.04179072e-01
      3.13050270e-01 2.12268218e-01 3.13050270e-01 3.13050270e-01
      2.69902378e-01 3.80297489e-02 3.10215503e-01 3.13050270e-01
      3.13050270e-01 2.81172961e-01 2.35023171e-01 3.13050270e-01
      1.70123786e-01 2.20275838e-02 4.06347439e-02 1.67067215e-01
      3.24216872e-01 1.50581729e-02 3.22093368e-01 3.24216872e-01
      3.24216872e-01 1.22521939e-02 3.06188703e-01 3.24216872e-01
      2.68073708e-01 3.31042036e-02 5.15488908e-02 2.66115040e-01
      3.24216872e-01 9.96347517e-02 1.08754389e-01 3.24216872e-01</_>
    <_>
      1.76732793e-01 1.58268347e-01 2.57812411e-01 2.78330624e-01
      2.78330624e-01 2.18620613e-01 2.78330624e-01 2.78330624e-01
      2.60604799e-01 2.24128217e-01 1.90069884e-01 2.29466215e-01
      2.78330624e-01 2.78330624e-01 2.78330624e-01 2.78330624e-01
      3.30419064e-01 1.72201827e-01 3.30419064e-01 3.30419064e-01
      3.30419064e-01 2.22844183e-02 2.06922665e-01 3.30419064e-01
      3.30419064e-01 2.29577631e-01 2.19072774e-01 3.30419064e-01
      1.74382702e-01 1.91759020e-02 1.50699271e-02 1.66707471e-01
      3.31960291e-01 1.83382891e-02 2.48163149e-01 3.31960291e-01
      3.31960291e-01 2.16914471e-02 3.14741403e-01 3.31960291e-01
      2.71698624e-01 4.41362634e-02 3.04125976e-02 2.57234752e-01
      3.31960291e-01 1.44452587e-01 1.01558670e-01 3.31960291e-01</_>
    <_>
      1.27116770e-01 7.33495280e-02 3.00973952e-01 3.00973952e-01
      1.89916402e-01 2.06182346e-01 3.00973952e-01 3.00973952e-01
      3.00973952e-01 1.16518535e-01 2.33652383e-01 3.00973952e-01
      3.00973952e-01 1.15915455e-01 3.00973952e-01 3.00973952e-01
      2.98673362e-01 2.98673362e-01 2.98673362e-01 2.98673362e-01
      2.98673362e-01 1.79972723e-01 8.27951357e-02 2.98673362e-01
      2.98673362e-01 1.63763449e-01 2.98673362e-01 2.98673362e-01
      1.87003717e-01 3.02177351e-02 5.48683479e-02 2.98673362e-01
      3.45662266e-01 1.56715631e-01 1.10969871e-01 3.45662266e-01
      3.45662266e-01 1.35558605e-01 3.45662266e-01 3.45662266e-01
      1.78343937e-01 2.01063845e-02 6.89596534e-02 3.45662266e-01
      8.73910114e-02 6.15334325e-02 2.92372882e-01 3.00882071e-01</_>
    <_>
      1.40074030e-01 2.03806888e-02 3.35137963e-01 3.36447716e-01
      2.58979112e-01 1.47598967e-01 3.36447716e-01 3.36447716e-01
      3.81427221e-02 5.41102588e-02 6.63193464e-02 1.19216494e-01
      3.36447716e-01 3.36447716e-01 2.70653158e-01 3.36447716e-01
      2.98287004e-01 2.23677129e-01 3.15234989e-01 3.15234989e-01
      1.46997720e-01 9.39791724e-02 9.63469595e-02 1.60194188e-01
      3.15234989e-01 3.15234989e-01 2.87806988e-01 3.15234989e-01
      3.15234989e-01 2.02677265e-01 7.86667019e-02 2.57138640e-01
      1.42081127e-01 5.88304512e-02 4.55206260e-02 1.30843073e-01
      3.28844875e-01 3.28844875e-01 2.65123874e-01 3.28844875e-01
      3.28844875e-01 1.34489208e-01 1.38410917e-02 3.28844875e-01
      3.28844875e-01 3.28844875e-01 7.79715478e-02 3.19769114e-01</_>
    <_>
      4.17736210e-02 8.58968347e-02 3.02298188e-01 3.02298188e-01
      1.57551661e-01 2.25459859e-01 3.02298188e-01 3.02298188e-01
      3.02298188e-01 9.28138122e-02 3.02298188e-01 3.02298188e-01
      2.31996968e-01 1.65246964e-01 3.02298188e-01 3.02298188e-01
      3.04200232e-01 3.04200232e-01 3.04200232e-01 3.04200232e-01
      3.04200232e-01 2.65529037e-01 3.00615150e-02 2.92227924e-01
      2.99457043e-01 2.98384815e-01 3.04200232e-01 3.04200232e-01
      9.29285511e-02 4.93954159e-02 9.22509376e-03 5.02056815e-02
      3.66882890e-01 2.09315583e-01 1.26820043e-01 3.66882890e-01
      2.46905684e-01 2.02735946e-01 3.66882890e-01 3.66882890e-01
      6.08303212e-02 1.78649630e-02 1.12322308e-02 3.16036232e-02
      2.04195186e-01 1.22648537e-01 3.66882890e-01 3.15397799e-01</_>
    <_>
      2.05395773e-01 3.27696949e-02 3.53791475e-01 3.54976296e-01
      3.00035894e-01 9.37859267e-02 3.54976296e-01 3.54976296e-01
      4.30500284e-02 1.45451929e-02 7.18846321e-02 1.77321225e-01
      3.16351533e-01 2.02377737e-01 2.13221848e-01 3.54976296e-01
      2.83380061e-01 1.90296233e-01 2.99058229e-01 2.99058229e-01
      2.23546326e-01 2.10968688e-01 1.53346807e-01 2.64554590e-01
      2.99058229e-01 2.41016284e-01 2.20346317e-01 2.99058229e-01
      2.99058229e-01 1.65016696e-01 1.48400858e-01 2.99058229e-01
      2.28434026e-01 1.93844482e-01 9.60375071e-02 1.94336593e-01
      1.63390800e-01 2.93071657e-01 1.55327857e-01 2.18368679e-01
      3.62456828e-01 2.20272571e-01 1.31054938e-01 3.62456828e-01
      3.62456828e-01 3.62456828e-01 1.25708833e-01 2.61216283e-01</_>
    <_>
      1.50846690e-01 5.12327366e-02 3.28557253e-01 3.28557253e-01
      2.14437082e-01 1.73889726e-01 3.28557253e-01 3.28557253e-01
      1.19625784e-01 7.60173649e-02 1.47669420e-01 2.57721812e-01
      3.28557253e-01 1.76498666e-01 3.28557253e-01 3.28557253e-01
      2.88594246e-01 2.69563884e-01 3.46532285e-01 3.46532285e-01
      4.33995239e-02 4.55025099e-02 5.80346175e-02 7.66133517e-02
      3.46532285e-01 2.73731709e-01 3.46532285e-01 3.46532285e-01
      3.17436963e-01 7.13792816e-02 6.61851987e-02 2.04452872e-01
      6.78515881e-02 3.34482156e-02 1.39819935e-01 2.89680362e-01
      2.14745700e-01 3.40454280e-02 3.36584985e-01 3.81588638e-01
      3.81588638e-01 9.35595185e-02 1.85743496e-02 3.25526237e-01
      3.81588638e-01 1.67224109e-01 3.11031118e-02 3.81588638e-01</_>
    <_>
      2.21978828e-01 4.94495854e-02 3.24616373e-01 3.24616373e-01
      3.24616373e-01 2.18542099e-01 3.13728899e-01 3.24616373e-01
      7.77618363e-02 4.57443595e-02 9.96934325e-02 2.31551468e-01
      3.24616373e-01 2.08199143e-01 2.27055401e-01 3.24616373e-01
      3.04903030e-01 2.82706112e-01 2.97109216e-01 3.04903030e-01
      9.17609408e-02 7.92523250e-02 1.08916514e-01 1.68212190e-01
      3.04903030e-01 2.92242467e-01 3.04903030e-01 3.04903030e-01
      3.04903030e-01 1.35567352e-01 1.39112502e-01 3.04903030e-01
      5.55216148e-02 3.97072323e-02 8.08772296e-02 1.60473660e-01
      3.11211973e-01 3.25711995e-01 2.24316388e-01 3.67596656e-01
      3.67596656e-01 1.74429044e-01 4.55919951e-02 2.88299233e-01
      3.67596656e-01 3.67596656e-01 1.35371134e-01 1.77935213e-01</_>
    <_>
      1.04324959e-01 1.37022391e-01 3.31032723e-01 3.31032723e-01
      2.00369567e-01 2.25750282e-01 3.31032723e-01 3.31032723e-01
      9.78412703e-02 6.33986071e-02 2.52888471e-01 2.74040759e-01
      2.40881830e-01 8.80861282e-02 3.31032723e-01 3.31032723e-01
      3.49990100e-01 3.22628140e-01 3.49990100e-01 3.49990100e-01
      1.49731755e-01 1.11099400e-01 7.66608566e-02 1.35652930e-01
      3.49990100e-01 1.39820084e-01 3.49990100e-01 3.49990100e-01
      1.08505018e-01 5.34018241e-02 1.45637646e-01 2.07435623e-01
      1.28332436e-01 6.45276681e-02 2.35577345e-01 3.89911979e-01
      1.84141308e-01 9.26850513e-02 3.89978051e-01 3.89978051e-01
      7.18825310e-02 4.38530259e-02 1.58436280e-02 3.93627398e-02
      3.89978051e-01 3.89978051e-01 2.31358215e-01 2.33871177e-01</_>
    <_>
      2.10872665e-02 9.18129012e-02 3.12115550e-01 3.12115550e-01
      6.77082315e-02 1.32555515e-01 3.12115550e-01 3.12115550e-01
      3.12115550e-01 9.85459313e-02 2.53935009e-01 3.12115550e-01
      2.65236914e-01 2.04884604e-01 3.12115550e-01 3.12115550e-01
      2.93147683e-01 2.40343973e-01 2.96606213e-01 2.96606213e-01
      2.96606213e-01 1.62977815e-01 3.73091996e-02 2.96606213e-01
      2.96606213e-01 2.73773193e-01 2.96606213e-01 2.96606213e-01
      2.79948384e-01 8.54962692e-02 3.82471867e-02 2.17852309e-01
      3.36254448e-01 1.51685163e-01 1.82829760e-02 3.36254448e-01
      3.36254448e-01 8.75408202e-02 2.84704775e-01 3.36254448e-01
      3.23478013e-01 5.79225421e-02 1.45470956e-02 2.51687229e-01
      3.01341861e-01 1.87300801e-01 1.90799594e-01 3.13791543e-01</_>
    <_>
      2.66316608e-02 1.53031096e-01 3.04329187e-01 2.20552593e-01
      3.87683064e-02 2.82529116e-01 3.04329187e-01 3.04329187e-01
      3.04329187e-01 9.65480506e-02 1.41830474e-01 3.04329187e-01
      3.04329187e-01 2.69248486e-01 3.04329187e-01 3.04329187e-01
      1.56259432e-01 2.96899855e-01 2.96899855e-01 2.96899855e-01
      2.96899855e-01 1.46887988e-01 1.20195240e-01 2.96899855e-01
      2.73015559e-01 2.96899855e-01 2.96899855e-01 2.96899855e-01
      2.65318662e-01 8.97138044e-02 8.28335360e-02 2.67498791e-01
      3.33708376e-01 1.00025140e-01 3.01160663e-02 3.33708376e-01
      3.33708376e-01 7.13801458e-02 1.67372078e-01 3.33708376e-01
      3.33708376e-01 5.37836961e-02 2.46300120e-02 3.33708376e-01
      3.33708376e-01 1.92695946e-01 1.45339936e-01 3.33708376e-01</_>
    <_>
      2.50893906e-02 1.50379419e-01 3.01844984e-01 3.00087571e-01
      5.05494773e-02 2.33658999e-01 3.01844984e-01 3.01844984e-01
      3.01844984e-01 1.00961894e-01 1.71581075e-01 3.01844984e-01
      2.97568172e-01 2.46136278e-01 3.01844984e-01 3.01844984e-01
      2.08304986e-01 2.88788676e-01 2.89932400e-01 2.89932400e-01
      2.89932400e-01 1.37119025e-01 8.89860541e-02 2.89932400e-01
      2.89932400e-01 2.89932400e-01 2.89932400e-01 2.89932400e-01
      2.89256275e-01 8.96601379e-02 7.24168122e-02 2.72312462e-01
      3.34401041e-01 9.08357576e-02 3.84210572e-02 3.34401041e-01
      3.34401041e-01 6.79160282e-02 1.56808898e-01 3.34401041e-01
      3.34401041e-01 5.19654937e-02 3.20667438e-02 3.34401041e-01
      3.34401041e-01 1.90696239e-01 1.51801080e-01 3.34401041e-01</_>
    <_>
      7.30463862e-02 2.69992761e-02 3.14479560e-01 3.14479560e-01
      2.15446293e-01 1.46500126e-01 3.14479560e-01 3.14479560e-01
      2.77333349e-01 1.99306175e-01 1.71040386e-01 2.18981311e-01
      3.14479560e-01 1.91800967e-01 3.14479560e-01 3.14479560e-01
      3.50884527e-01 3.50884527e-01 3.50884527e-01 3.50884527e-01
      2.04706579e-01 1.51848778e-01 5.28428033e-02 9.63227004e-02
      3.50884527e-01 1.91854402e-01 3.50884527e-01 3.50884527e-01
      6.92443922e-02 1.42362807e-02 5.37548363e-02 1.13692537e-01
      3.59563023e-01 2.16487929e-01 1.18364125e-01 2.50858665e-01
      2.11689278e-01 1.38245627e-01 3.62754405e-01 3.62754405e-01
      1.51748881e-01 2.52316855e-02 8.02944154e-02 2.20557883e-01
      3.62754405e-01 3.62754405e-01 1.92199662e-01 1.93126336e-01</_>
    <_>
      1.54364914e-01 3.64226885e-02 3.13367724e-01 3.13367724e-01
      2.99655020e-01 1.11531742e-01 3.13367724e-01 3.13367724e-01
      2.02696383e-01 1.26865044e-01 1.81656539e-01 2.70621926e-01
      3.13367724e-01 1.36638507e-01 3.13367724e-01 3.13367724e-01
      3.42061609e-01 3.01902950e-01 3.42061609e-01 3.42061609e-01
      2.43967146e-01 2.04997733e-01 7.91942775e-02 1.08071662e-01
      3.42061609e-01 1.36521548e-01 3.42061609e-01 3.42061609e-01
      1.30271584e-01 3.51353548e-02 9.84698609e-02 1.93300590e-01
      3.32915872e-01 3.32915872e-01 1.52366132e-01 2.93502748e-01
      3.32915872e-01 1.29701599e-01 3.32915872e-01 3.32915872e-01
      2.60203421e-01 1.61123760e-02 8.33413750e-02 3.32915872e-01
      2.59710521e-01 1.45305157e-01 8.34877416e-02 1.87215090e-01</_>
    <_>
      2.58039199e-02 7.38729984e-02 3.27317089e-01 3.27317089e-01
      1.22919686e-01 1.49435595e-01 3.27317089e-01 3.27317089e-01
      1.63665071e-01 8.67816880e-02 2.52504438e-01 3.01662683e-01
      2.66536891e-01 2.24118859e-01 3.27317089e-01 3.27317089e-01
      3.00869972e-01 2.87780941e-01 3.00869972e-01 3.00869972e-01
      3.00869972e-01 2.18402162e-01 6.12041093e-02 3.00869972e-01
      3.00869972e-01 2.96469808e-01 3.00869972e-01 3.00869972e-01
      1.68640837e-01 6.59157112e-02 3.54797058e-02 1.28882140e-01
      3.65184575e-01 2.56295204e-01 9.88240093e-02 3.65184575e-01
      3.65184575e-01 1.19580396e-01 3.65184575e-01 3.65184575e-01
      1.76857993e-01 5.22330552e-02 2.76984796e-02 1.35869369e-01
      1.68685704e-01 1.21751457e-01 2.45820507e-01 2.87852705e-01</_>
    <_>
      1.63570181e-01 1.83479674e-02 3.36184531e-01 3.36184531e-01
      2.81599432e-01 1.11093082e-01 3.36184531e-01 3.36184531e-01
      3.34208012e-02 2.42378823e-02 5.66442385e-02 7.94220716e-02
      3.33358586e-01 2.78280973e-01 3.36184531e-01 3.36184531e-01
      2.64901280e-01 2.30235875e-01 3.00981253e-01 3.00981253e-01
      1.72085613e-01 1.95112929e-01 2.12052360e-01 1.85870185e-01
      3.00981253e-01 3.00981253e-01 3.00981253e-01 3.00981253e-01
      2.24962652e-01 1.85230985e-01 2.14478657e-01 2.28378370e-01
      2.53701627e-01 1.74010694e-01 7.72181004e-02 1.61049500e-01
      1.62957668e-01 2.51144022e-01 3.12925786e-01 3.12925786e-01
      3.12925786e-01 4.80869450e-02 6.01296797e-02 3.12925786e-01
      3.12925786e-01 3.12925786e-01 3.02079439e-01 3.09815705e-01</_>
    <_>
      3.54862139e-02 5.79292178e-02 3.29782009e-01 3.29782009e-01
      1.23358272e-01 1.57024473e-01 3.29782009e-01 3.29782009e-01
      1.38975456e-01 9.69469622e-02 2.14118928e-01 2.37358928e-01
      2.98675984e-01 2.82085896e-01 3.29782009e-01 3.29782009e-01
      3.01170021e-01 2.95864731e-01 3.01170021e-01 3.01170021e-01
      3.01170021e-01 1.88128039e-01 3.33182588e-02 3.01170021e-01
      3.01170021e-01 3.01170021e-01 3.01170021e-01 3.01170021e-01
      1.74024850e-01 5.20571619e-02 2.87970118e-02 1.50990397e-01
      3.42567563e-01 1.67063147e-01 1.76970232e-02 3.42567563e-01
      3.42567563e-01 1.25522643e-01 3.42567563e-01 3.42567563e-01
      2.02091485e-01 2.72888541e-02 1.11916251e-02 1.86035872e-01
      3.26985091e-01 2.89720058e-01 2.05089033e-01 2.37900436e-01</_>
    <_>
      6.05973303e-02 5.86548597e-02 6.06442802e-02 6.63034841e-02
      3.40164721e-01 2.65971661e-01 2.70763248e-01 3.40164721e-01
      3.40164721e-01 3.40164721e-01 1.78603791e-02 1.94833979e-01
      3.40164721e-01 3.40164721e-01 5.35779893e-02 3.19279283e-01
      2.85680264e-01 2.85680264e-01 2.52038211e-01 2.85680264e-01
      2.85680264e-01 2.13599086e-01 1.55990586e-01 2.85680264e-01
      2.85680264e-01 2.85680264e-01 1.52314544e-01 2.85680264e-01
      2.34291986e-01 2.01494232e-01 2.05763683e-01 2.22997025e-01
      3.23205471e-01 1.48342595e-01 2.79972374e-01 3.23205471e-01
      3.23205471e-01 2.27839444e-02 3.23205471e-01 3.23205471e-01
      1.70603007e-01 1.35370985e-01 2.31227309e-01 2.59553522e-01
      3.23205471e-01 2.57999063e-01 7.94901028e-02 1.67164043e-01</_>
    <_>
      3.07787448e-01 3.05580586e-01 1.05269626e-01 2.07930386e-01
      3.07787448e-01 3.07787448e-01 1.78803951e-01 2.49988541e-01
      3.07787448e-01 3.07787448e-01 1.59793451e-01 1.87120289e-02
      3.07787448e-01 3.07787448e-01 2.10023537e-01 1.47096708e-01
      2.97326982e-01 2.97326982e-01 2.54099488e-01 2.97326982e-01
      1.15485065e-01 1.88102014e-02 8.71521011e-02 1.90722227e-01
      2.97326982e-01 2.97326982e-01 2.97326982e-01 2.97326982e-01
      2.97326982e-01 5.36101051e-02 2.76219606e-01 2.97326982e-01
      1.30178079e-01 2.58205235e-02 6.05531037e-02 1.67475119e-01
      3.38352829e-01 3.38352829e-01 1.31021783e-01 1.23750329e-01
      3.38352829e-01 9.24744755e-02 2.28243485e-01 3.38352829e-01
      3.38352829e-01 3.38352829e-01 2.29751930e-01 3.38352829e-01</_>
    <_>
      2.86244750e-01 1.83900461e-01 1.07002623e-01 2.30224088e-01
      3.28616947e-01 3.28616947e-01 1.43171445e-01 3.28616947e-01
      3.28616947e-01 3.28616947e-01 5.20807058e-02 4.03629094e-02
      3.28616947e-01 3.28616947e-01 1.23961799e-01 1.42753258e-01
      3.04471016e-01 3.04471016e-01 2.11151659e-01 3.04471016e-01
      1.04134880e-01 4.16395254e-02 6.53357208e-02 1.27223521e-01
      3.04471016e-01 3.04471016e-01 2.92134941e-01 3.04471016e-01
      3.04471016e-01 6.84007928e-02 2.96138227e-01 3.04471016e-01
      1.06234595e-01 1.42853577e-02 5.34238070e-02 1.45180494e-01
      3.47029656e-01 2.67441869e-01 1.02674261e-01 2.07581863e-01
      3.47029656e-01 1.51060104e-01 2.95383424e-01 3.47029656e-01
      3.47029656e-01 3.47029656e-01 1.98054314e-01 2.90705979e-01</_>
    <_>
      1.86639979e-01 1.16555534e-01 1.28459767e-01 2.00413480e-01
      3.39546949e-01 3.39546949e-01 1.89908162e-01 3.39546949e-01
      3.39546949e-01 3.39546949e-01 1.74434632e-02 7.45525435e-02
      3.39546949e-01 3.39546949e-01 1.01727173e-01 1.79442585e-01
      3.11578959e-01 3.11578959e-01 2.15441257e-01 3.11578959e-01
      1.80897892e-01 9.80970040e-02 7.61927664e-02 1.75562844e-01
      3.11578959e-01 3.11578959e-01 2.37896100e-01 3.11578959e-01
      2.38966361e-01 8.55731368e-02 2.66278923e-01 3.11578959e-01
      1.96890622e-01 1.59954969e-02 9.08498466e-02 2.79456168e-01
      3.30162793e-01 1.69079050e-01 1.24818102e-01 3.30162793e-01
      3.30162793e-01 1.41834691e-01 2.97631085e-01 3.30162793e-01
      3.30162793e-01 3.30162793e-01 1.09875530e-01 2.28787616e-01</_>
    <_>
      3.06887180e-01 2.75893301e-01 1.19916663e-01 2.45638534e-01
      3.06887180e-01 3.06887180e-01 1.85071811e-01 3.06887180e-01
      3.06887180e-01 3.06887180e-01 9.73484665e-02 2.20079720e-02
      3.06887180e-01 3.06887180e-01 1.68700412e-01 1.41378015e-01
      2.95771897e-01 2.95771897e-01 2.40245789e-01 2.95771897e-01
      1.85509011e-01 1.96556337e-02 7.00846687e-02 2.38349989e-01
      2.95771897e-01 2.95771897e-01 2.95771897e-01 2.95771897e-01
      2.95771897e-01 1.97902098e-02 2.34698087e-01 2.95771897e-01
      2.04495430e-01 2.57736705e-02 5.85257336e-02 2.41129428e-01
      3.34598631e-01 3.34598631e-01 7.57229105e-02 1.73417389e-01
      3.34598631e-01 6.28005043e-02 2.19219446e-01 3.34598631e-01
      3.34598631e-01 3.34598631e-01 1.45269379e-01 3.34598631e-01</_>
    <_>
      6.67483956e-02 5.96878342e-02 6.19783252e-02 5.43474592e-02
      3.26669753e-01 3.06362957e-01 3.26669753e-01 3.26669753e-01
      3.26669753e-01 3.26669753e-01 1.65288560e-02 1.35402769e-01
      3.26669753e-01 3.26669753e-01 1.25509501e-01 3.26669753e-01
      2.93391973e-01 2.93391973e-01 2.93391973e-01 2.93391973e-01
      2.93391973e-01 1.11550041e-01 2.22029939e-01 2.93391973e-01
      2.93391973e-01 2.93391973e-01 2.14225769e-01 2.93391973e-01
      1.65677801e-01 9.27250832e-02 1.46685705e-01 2.39084557e-01
      3.42914969e-01 1.33835040e-02 2.18125582e-01 3.42914969e-01
      3.42914969e-01 7.49105960e-02 2.12691993e-01 3.42914969e-01
      1.77470744e-01 6.33266270e-02 1.29351065e-01 2.59713680e-01
      3.42914969e-01 3.42914969e-01 5.65528832e-02 2.63695270e-01</_>
    <_>
      3.07496399e-01 2.99972266e-01 9.17928219e-02 2.43103072e-01
      3.07496399e-01 3.07496399e-01 1.63680315e-01 2.55888730e-01
      3.07496399e-01 3.07496399e-01 1.05804488e-01 2.47835685e-02
      3.07496399e-01 3.07496399e-01 1.82935193e-01 1.99990720e-01
      2.99646616e-01 2.99646616e-01 2.33690828e-01 2.99646616e-01
      8.59041661e-02 2.51305532e-02 5.36832362e-02 1.11454099e-01
      2.99646616e-01 2.99646616e-01 2.99646616e-01 2.99646616e-01
      2.99646616e-01 1.45596638e-01 2.99646616e-01 2.99646616e-01
      9.80295986e-02 4.84790578e-02 4.00290973e-02 8.57302397e-02
      3.48870873e-01 3.48870873e-01 5.92228062e-02 7.29321167e-02
      3.48870873e-01 3.22920442e-01 3.00442874e-01 3.48870873e-01
      3.48870873e-01 3.48870873e-01 1.06832489e-01 1.74796358e-01</_>
    <_>
      3.07860881e-01 2.08696112e-01 9.75588113e-02 3.07860881e-01
      3.07860881e-01 3.07860881e-01 1.81461200e-01 2.81718433e-01
      3.07860881e-01 3.07860881e-01 1.31599247e-01 1.88585240e-02
      3.07860881e-01 3.07860881e-01 1.89184189e-01 1.40951380e-01
      2.99674779e-01 2.99674779e-01 2.38084450e-01 2.99674779e-01
      1.24798179e-01 2.91747320e-02 5.52552417e-02 1.48594037e-01
      2.99674779e-01 2.99674779e-01 2.99674779e-01 2.99674779e-01
      2.99674779e-01 1.34718761e-01 2.69013643e-01 2.99674779e-01
      1.39405042e-01 5.20558916e-02 4.86635230e-02 1.31495461e-01
      3.38215768e-01 3.38215768e-01 7.56819546e-02 7.95623511e-02
      3.38215768e-01 3.01938862e-01 3.01947743e-01 3.38215768e-01
      3.38215768e-01 3.38215768e-01 1.54382974e-01 2.24158317e-01</_>
    <_>
      2.84972578e-01 2.84972578e-01 1.33518413e-01 2.84972578e-01
      2.84972578e-01 2.44170129e-01 2.00201333e-01 2.84972578e-01
      2.84972578e-01 2.84972578e-01 2.76101470e-01 1.33071065e-01
      1.46706656e-01 2.84972578e-01 2.84972578e-01 1.82423711e-01
      3.44027013e-01 3.44027013e-01 3.44027013e-01 3.44027013e-01
      3.07439774e-01 4.35075834e-02 7.16835214e-03 1.31036922e-01
      1.96641430e-01 3.44027013e-01 3.44027013e-01 3.44027013e-01
      6.34509102e-02 1.55278780e-02 3.95311117e-02 9.97423828e-02
      3.37706178e-01 4.58826721e-02 9.42854397e-03 1.44962057e-01
      4.10133094e-01 1.39732137e-01 4.71377894e-02 1.55967548e-01
      1.48890346e-01 1.89126238e-01 6.60756081e-02 7.46233091e-02
      4.10133094e-01 4.10133094e-01 4.10133094e-01 2.68082261e-01</_>
    <_>
      2.87981331e-01 2.87981331e-01 1.21823974e-01 2.67390341e-01
      2.87981331e-01 2.87981331e-01 1.32396951e-01 2.87981331e-01
      2.87981331e-01 2.87981331e-01 2.28911415e-01 1.08195826e-01
      1.92870826e-01 2.87981331e-01 2.87981331e-01 2.13423148e-01
      3.59767824e-01 3.59767824e-01 3.16238523e-01 3.59767824e-01
      1.45615056e-01 8.79765451e-02 3.52845490e-02 8.78425911e-02
      2.64581561e-01 3.59767824e-01 3.59767824e-01 3.51396292e-01
      1.19707264e-01 3.41060683e-02 1.23164812e-02 4.69241627e-02
      3.05348545e-01 3.31730656e-02 1.59591753e-02 2.13637277e-01
      2.39883736e-01 5.69607206e-02 1.32187260e-02 1.11524969e-01
      4.37643141e-01 1.38314709e-01 1.43516166e-02 2.37502545e-01
      4.37643141e-01 4.37643141e-01 8.92634466e-02 3.51690859e-01</_>
    <_>
      2.61052758e-01 2.61052758e-01 2.45144621e-01 2.61052758e-01
      2.61052758e-01 2.44356275e-01 2.02086493e-01 2.61052758e-01
      2.34499469e-01 2.61052758e-01 2.61052758e-01 2.02597678e-01
      2.43362084e-01 2.61052758e-01 2.61052758e-01 2.61052758e-01
      3.45284343e-01 3.45284343e-01 3.45284343e-01 3.45284343e-01
      7.03783035e-02 9.50078145e-02 3.27488743e-02 5.61298691e-02
      3.45284343e-01 3.45284343e-01 3.45284343e-01 3.45284343e-01
      9.75930020e-02 6.84262142e-02 4.96426113e-02 8.89177546e-02
      2.72130013e-01 2.35533044e-01 2.14974299e-01 2.36661181e-01
      2.72130013e-01 2.72130013e-01 2.72130013e-01 2.72130013e-01
      2.72130013e-01 2.21165583e-01 1.80172741e-01 1.69420972e-01
      2.72130013e-01 2.72130013e-01 2.72130013e-01 2.51017153e-01</_>
    <_>
      2.89132446e-01 1.29975274e-01 1.31681472e-01 2.89132446e-01
      2.89132446e-01 1.82019502e-01 1.68479070e-01 2.89132446e-01
      2.89132446e-01 1.57344297e-01 2.47664168e-01 2.89132446e-01
      2.89132446e-01 2.50774503e-01 2.89132446e-01 2.89132446e-01
      3.30860615e-01 3.30860615e-01 2.75594980e-01 3.30860615e-01
      2.23768011e-01 2.00359687e-01 4.37072664e-02 9.12603289e-02
      2.98391134e-01 3.30860615e-01 3.30860615e-01 3.30860615e-01
      6.79894388e-02 1.01917505e-01 1.54871315e-01 1.88260496e-01
      3.87199610e-01 1.59123093e-01 2.55940072e-02 1.86622903e-01
      1.45269975e-01 4.57526781e-02 3.28608118e-02 9.27395448e-02
      3.87199610e-01 2.87907034e-01 1.23675428e-01 1.58746660e-01
      3.87199610e-01 3.87199610e-01 1.71601549e-01 3.87199610e-01</_>
    <_>
      3.01542014e-01 3.01542014e-01 1.67306975e-01 1.40054390e-01
      3.01542014e-01 2.70505846e-01 1.53092474e-01 3.01542014e-01
      2.30494589e-01 3.01542014e-01 2.96390861e-01 6.89770877e-02
      2.39893794e-01 3.01542014e-01 2.73764372e-01 1.70219213e-01
      3.37615013e-01 3.37615013e-01 3.37615013e-01 3.37615013e-01
      9.42294747e-02 1.42940089e-01 9.54613313e-02 9.48340967e-02
      3.32345188e-01 3.37615013e-01 3.37615013e-01 3.23276103e-01
      5.49476407e-02 1.74805313e-01 1.11484282e-01 6.58803657e-02
      1.98503241e-01 8.90090391e-02 7.43895993e-02 2.57251650e-01
      3.33741635e-01 5.02268411e-02 7.75441229e-02 3.61622632e-01
      2.64367253e-01 1.19482636e-01 6.49676546e-02 1.23238921e-01
      3.61622632e-01 3.61622632e-01 3.61622632e-01 3.61622632e-01</_>
    <_>
      2.86237836e-01 2.86237836e-01 2.37399489e-01 1.63317725e-01
      2.81256318e-01 2.77620912e-01 2.50180990e-01 2.86237836e-01
      2.80243456e-01 2.86237836e-01 2.24479303e-01 9.71615389e-02
      1.89793482e-01 2.86237836e-01 2.79680043e-01 1.81848049e-01
      3.20832223e-01 3.46150130e-01 3.46150130e-01 3.46150130e-01
      1.46799505e-01 1.77103668e-01 1.08260676e-01 1.33145034e-01
      2.88224369e-01 3.46150130e-01 3.46150130e-01 3.17005843e-01
      5.15741184e-02 1.29142806e-01 7.54917935e-02 5.95156103e-02
      3.01534504e-01 1.61959320e-01 4.22303826e-02 1.53956592e-01
      3.30398470e-01 3.30398470e-01 3.30398470e-01 2.46884868e-01
      1.17367096e-01 2.56872866e-02 2.33811084e-02 1.18250482e-01
      3.30398470e-01 3.30398470e-01 3.30398470e-01 3.30398470e-01</_>
    <_>
      3.01117867e-01 3.01117867e-01 2.18394160e-01 1.51590809e-01
      3.01117867e-01 3.01117867e-01 2.07990587e-01 3.01117867e-01
      2.79145032e-01 3.01117867e-01 1.99541911e-01 8.88956934e-02
      1.47549018e-01 3.01117867e-01 2.85796255e-01 1.38779968e-01
      3.51304770e-01 3.51304770e-01 3.51304770e-01 3.51304770e-01
      1.13774367e-01 1.97060183e-01 1.29760057e-01 1.17265418e-01
      2.33727917e-01 3.51304770e-01 3.51304770e-01 2.65085101e-01
      5.56145720e-02 1.76234797e-01 1.05066590e-01 5.95324896e-02
      1.78851157e-01 1.08638629e-01 4.09261733e-02 1.18355371e-01
      3.43723536e-01 3.43723536e-01 3.04387689e-01 3.30147088e-01
      1.28136724e-01 3.26992124e-02 2.05351561e-02 9.30511430e-02
      3.43723536e-01 3.43723536e-01 3.43723536e-01 3.43723536e-01</_>
    <_>
      2.77846545e-01 2.77846545e-01 4.89117689e-02 2.04566836e-01
      2.77846545e-01 2.77846545e-01 1.65766910e-01 1.72054872e-01
      2.77846545e-01 2.77846545e-01 2.75080889e-01 2.40928397e-01
      2.77846545e-01 2.77846545e-01 2.77846545e-01 2.59610474e-01
      3.12563002e-01 3.12563002e-01 2.89177984e-01 2.51648903e-01
      1.98914289e-01 4.05261777e-02 4.55237133e-03 1.54523164e-01
      3.12563002e-01 3.12563002e-01 3.12563002e-01 3.12563002e-01
      3.12563002e-01 2.30088197e-02 5.21905124e-02 3.12563002e-01
      2.55803138e-01 6.08747005e-02 6.63388334e-03 1.95103332e-01
      2.70809323e-01 1.33769616e-01 3.03817019e-02 1.50633588e-01
      3.84004653e-01 1.74945831e-01 4.80503216e-02 3.84004653e-01
      3.84004653e-01 3.84004653e-01 6.20890036e-02 3.84004653e-01</_>
    <_>
      2.78633684e-01 2.78633684e-01 6.64714798e-02 2.48310193e-01
      2.78633684e-01 2.78633684e-01 1.65065885e-01 2.59642392e-01
      2.78633684e-01 2.78633684e-01 2.40583137e-01 1.43904805e-01
      2.78633684e-01 2.78633684e-01 2.78633684e-01 2.43225962e-01
      3.17539781e-01 3.17539781e-01 3.17539781e-01 2.97901928e-01
      9.25604552e-02 3.88763025e-02 1.50773088e-02 6.64504394e-02
      3.17539781e-01 3.17539781e-01 3.17539781e-01 3.17539781e-01
      2.85269082e-01 1.82858519e-02 7.06745759e-02 3.17539781e-01
      1.14464059e-01 1.20504620e-02 8.51855555e-04 9.49537382e-02
      2.94692755e-01 3.37873012e-01 1.37179881e-01 9.58286226e-02
      3.82573992e-01 1.82500213e-01 4.47502285e-02 3.82573992e-01
      3.82573992e-01 3.82573992e-01 2.13171169e-01 2.80549526e-01</_>
    <_>
      1.66940853e-01 2.95213073e-01 2.95213073e-01 2.17623517e-01
      2.05982506e-01 2.03402147e-01 2.95213073e-01 2.95213073e-01
      9.74173993e-02 2.95213073e-01 2.95213073e-01 1.67184293e-01
      1.27365679e-01 2.95213073e-01 2.95213073e-01 2.95213073e-01
      2.20095828e-01 2.42487252e-01 3.63113254e-01 3.63113254e-01
      7.59825669e-03 4.87795696e-02 7.73013979e-02 2.07735356e-02
      2.07219094e-01 3.63113254e-01 3.63113254e-01 3.63113254e-01
      1.05866916e-01 1.83356687e-01 3.02896738e-01 2.03754142e-01
      2.15038017e-06 0. 0. 2.15038017e-06 1.03504527e-02 3.04787303e-03
      8.12054612e-04 7.62908813e-03 4.33672518e-01 1.98900357e-01
      1.04905486e-01 3.64142329e-01 4.33672518e-01 4.33672518e-01
      2.45028943e-01 4.33672518e-01</_>
    <_>
      2.82124460e-01 2.82124460e-01 2.17328623e-01 2.23833427e-01
      2.82124460e-01 2.35641733e-01 1.96164861e-01 2.82124460e-01
      2.82124460e-01 2.82124460e-01 2.82124460e-01 8.53902996e-02
      2.09349364e-01 2.82124460e-01 2.82124460e-01 1.95891276e-01
      3.48066419e-01 3.48066419e-01 3.48066419e-01 3.48066419e-01
      6.69505224e-02 1.13146670e-01 7.86425024e-02 3.85002606e-02
      2.63310045e-01 3.48066419e-01 3.48066419e-01 3.48066419e-01
      5.41242249e-02 1.34436980e-01 1.62014842e-01 8.32810700e-02
      1.45664020e-02 1.40599879e-02 7.39587331e-03 8.01430829e-03
      2.27640659e-01 4.51052189e-01 2.45335013e-01 2.73470450e-02
      1.75907537e-01 9.52648073e-02 3.07443123e-02 1.04680605e-01
      4.51052189e-01 4.51052189e-01 4.51052189e-01 1.28429204e-01</_>
    <_>
      2.79512405e-01 2.40726560e-01 3.57362479e-02 2.05490828e-01
      2.79512405e-01 2.79512405e-01 8.92150328e-02 2.63809741e-01
      2.79512405e-01 2.79512405e-01 2.22217187e-01 2.61006057e-01
      2.79512405e-01 2.78418630e-01 2.76201516e-01 2.79512405e-01
      3.21593642e-01 3.21593642e-01 1.86176896e-01 3.21593642e-01
      3.21593642e-01 1.92651659e-01 2.11987160e-02 2.29651958e-01
      3.21593642e-01 3.21593642e-01 3.21593642e-01 3.21593642e-01
      7.28639513e-02 1.06395938e-01 1.40975952e-01 8.90921131e-02
      3.34491730e-01 2.56363899e-01 1.08791357e-02 3.34491730e-01
      3.34491730e-01 2.38966033e-01 9.04332474e-02 2.25693822e-01
      2.61023641e-01 9.17031914e-02 1.62744727e-02 1.51427418e-01
      3.34491730e-01 3.34491730e-01 3.04307997e-01 2.50662148e-01</_>
    <_>
      2.77465641e-01 2.37763599e-01 3.40214334e-02 2.32205704e-01
      2.77465641e-01 2.77465641e-01 6.19732067e-02 2.51271218e-01
      2.77465641e-01 2.77465641e-01 2.24695832e-01 2.77465641e-01
      2.77465641e-01 2.74350405e-01 2.77465641e-01 2.77465641e-01
      3.29237074e-01 3.29237074e-01 1.12483189e-01 3.29237074e-01
      3.29237074e-01 2.41666123e-01 1.23196170e-02 2.30280325e-01
      3.08097333e-01 3.29237074e-01 3.29237074e-01 3.29237074e-01
      7.71702677e-02 6.40711859e-02 6.09209500e-02 7.07067847e-02
      3.34088057e-01 2.85643995e-01 1.81154702e-02 3.31258357e-01
      3.34088057e-01 2.31963277e-01 7.85468444e-02 2.10018501e-01
      2.32032344e-01 7.60603398e-02 1.30380811e-02 1.56745821e-01
      3.34088057e-01 3.34088057e-01 3.34088057e-01 2.41841316e-01</_>
    <_>
      2.69254208e-01 2.69254208e-01 2.61067986e-01 2.08873793e-01
      2.69254208e-01 2.69254208e-01 2.69254208e-01 2.69254208e-01
      2.51166105e-01 8.69970843e-02 2.69254208e-01 2.69254208e-01
      2.69254208e-01 1.31891862e-01 2.69254208e-01 2.69254208e-01
      3.16328704e-01 3.16328704e-01 3.16328704e-01 3.16328704e-01
      2.76795655e-01 2.04108313e-01 1.45344630e-01 2.69253522e-01
      3.16328704e-01 2.06595600e-01 3.16328704e-01 3.16328704e-01
      1.03394441e-01 3.08911595e-02 7.67076388e-02 1.55831382e-01
      3.58509392e-01 1.17939793e-01 2.21882865e-01 3.58509392e-01
      3.58509392e-01 3.58509392e-01 3.58509392e-01 3.58509392e-01
      1.42547280e-01 4.21273848e-03 4.64784838e-02 2.02245697e-01
      1.79177046e-01 9.69825685e-02 1.24153301e-01 2.04394728e-01</_>
    <_>
      1.09956078e-01 2.85388082e-01 2.85388082e-01 2.04269037e-01
      1.79376394e-01 2.85388082e-01 2.85388082e-01 2.03983322e-01
      1.41028672e-01 2.85388082e-01 2.85388082e-01 2.28174642e-01
      2.85388082e-01 2.85388082e-01 2.85388082e-01 2.54120290e-01
      3.39145541e-01 3.39145541e-01 3.39145541e-01 3.39145541e-01
      7.22458363e-02 4.26986888e-02 2.59761624e-02 5.17786816e-02
      3.39145541e-01 3.39145541e-01 3.39145541e-01 3.39145541e-01
      1.66649461e-01 6.05360419e-02 6.91393092e-02 1.72738537e-01
      1.14364065e-01 8.79672170e-02 1.22397482e-01 1.45834208e-01
      1.88271597e-01 1.74678341e-01 3.33794862e-01 3.31561446e-01
      3.48734796e-01 2.12482616e-01 6.64342269e-02 3.48734796e-01
      3.48734796e-01 3.39352965e-01 3.08569539e-02 3.48734796e-01</_>
    <_>
      1.40146554e-01 1.50709242e-01 3.10855776e-01 3.10855776e-01
      1.64777994e-01 1.89486220e-01 1.70587361e-01 1.50523588e-01
      1.03441380e-01 2.36589357e-01 3.10855776e-01 3.10855776e-01
      3.10855776e-01 3.10855776e-01 3.10855776e-01 3.10855776e-01
      3.03759784e-01 3.03759784e-01 3.03759784e-01 7.20054582e-02
      2.08603829e-01 3.03759784e-01 3.03759784e-01 3.94872427e-02
      3.03759784e-01 3.03759784e-01 1.84079438e-01 2.39389062e-01
      2.71448880e-01 2.89179087e-01 1.69580966e-01 1.53479710e-01
      2.07194880e-01 2.97397107e-01 2.97397107e-01 1.50629461e-01
      2.97397107e-01 2.46765226e-01 2.97397107e-01 2.97397107e-01
      2.97397107e-01 2.17218563e-01 2.97397107e-01 2.97397107e-01
      2.45793983e-01 2.82747112e-02 3.46367173e-02 2.30993986e-01</_>
    <_>
      2.68284619e-01 2.68284619e-01 2.68284619e-01 2.68284619e-01
      2.68284619e-01 2.68284619e-01 2.68284619e-01 2.68284619e-01
      2.39766419e-01 5.18491678e-02 2.54788578e-01 2.68284619e-01
      2.68284619e-01 9.22270119e-02 2.68284619e-01 2.68284619e-01
      2.94635862e-01 2.94635862e-01 2.94635862e-01 2.94635862e-01
      2.94635862e-01 2.94635862e-01 1.93870902e-01 1.36281863e-01
      2.94635862e-01 2.13718012e-01 2.94635862e-01 2.94635862e-01
      1.68099865e-01 7.44164735e-02 1.23577937e-01 2.54680812e-01
      3.30608279e-01 2.08407283e-01 2.97413170e-01 3.30608279e-01
      3.30608279e-01 2.38380730e-01 3.30608279e-01 3.30608279e-01
      1.92970753e-01 7.52844475e-03 1.03493616e-01 3.26024085e-01
      1.48357779e-01 2.79377867e-02 1.24533921e-01 2.62445688e-01</_>
    <_>
      1.43457830e-01 2.74846405e-01 2.74846405e-01 1.86828345e-01
      1.97124854e-01 2.74846405e-01 2.74846405e-01 1.89881891e-01
      2.50492245e-01 2.74455994e-01 2.74846405e-01 2.74846405e-01
      2.74846405e-01 2.45471284e-01 2.53381491e-01 2.74846405e-01
      3.36570203e-01 3.49088699e-01 3.49088699e-01 2.84679621e-01
      7.62004629e-02 1.21238045e-01 1.36754900e-01 9.34498683e-02
      3.49088699e-01 3.49088699e-01 3.49088699e-01 3.49088699e-01
      5.38997911e-02 6.66896924e-02 9.48588103e-02 8.19867477e-02
      2.10828140e-01 5.70947155e-02 2.24736109e-01 3.75519842e-01
      3.75519842e-01 3.75519842e-01 3.75519842e-01 3.75519842e-01
      1.11455210e-01 1.70933176e-02 1.43948682e-02 1.09777041e-01
      1.58059061e-01 1.44580692e-01 2.30210647e-01 2.62872845e-01</_>
    <_>
      9.72060263e-02 1.63754851e-01 2.78469145e-01 2.59641051e-01
      1.80230051e-01 2.78469145e-01 2.78469145e-01 2.78469145e-01
      1.57567739e-01 2.46531770e-01 2.78469145e-01 2.78469145e-01
      2.78469145e-01 2.78469145e-01 2.78469145e-01 2.78469145e-01
      2.67815530e-01 3.12062562e-01 3.12062562e-01 3.12062562e-01
      5.71952723e-02 2.09514704e-02 3.25688049e-02 6.57436624e-02
      3.12062562e-01 3.12062562e-01 3.12062562e-01 3.12062562e-01
      2.93985069e-01 1.56679571e-01 1.77830100e-01 3.02957118e-01
      8.29068422e-02 1.36751654e-02 6.80363085e-03 7.24720508e-02
      9.70070064e-02 3.00964601e-02 1.92576442e-02 8.17884952e-02
      4.03465480e-01 2.86185294e-01 2.62596458e-01 4.03465480e-01
      4.03465480e-01 4.03465480e-01 3.81205939e-02 4.03465480e-01</_>
    <_>
      9.70140472e-02 1.72630489e-01 2.79358357e-01 2.68318057e-01
      1.83073893e-01 2.79358357e-01 2.79358357e-01 2.79358357e-01
      1.43964961e-01 2.26600751e-01 2.79358357e-01 2.79358357e-01
      2.79358357e-01 2.79358357e-01 2.79358357e-01 2.79358357e-01
      2.66977817e-01 3.09950650e-01 3.09950650e-01 3.09950650e-01
      6.09967485e-02 2.13291906e-02 2.69593988e-02 6.47485480e-02
      3.09950650e-01 3.09950650e-01 3.09950650e-01 3.09950650e-01
      3.09950650e-01 1.66806310e-01 1.71193659e-01 3.01403612e-01
      7.61781409e-02 1.76313631e-02 5.44846011e-03 6.02069721e-02
      1.31998926e-01 4.81945761e-02 2.04798728e-02 9.13863629e-02
      4.05032605e-01 2.94184327e-01 2.22043589e-01 4.05032605e-01
      4.05032605e-01 4.05032605e-01 3.95379476e-02 4.05032605e-01</_>
    <_>
      2.10059449e-01 2.76342422e-01 2.76342422e-01 9.99960303e-02
      2.76342422e-01 2.76342422e-01 2.76342422e-01 2.15935975e-01
      2.76342422e-01 2.35121220e-01 2.29930356e-01 2.76342422e-01
      2.76342422e-01 2.76342422e-01 1.57113448e-01 2.76342422e-01
      3.06110620e-01 3.06110620e-01 3.06110620e-01 3.06110620e-01
      1.92171529e-01 3.06110620e-01 3.06110620e-01 1.91438735e-01
      3.06110620e-01 3.06110620e-01 1.76953539e-01 3.06110620e-01
      1.23960890e-01 1.25772893e-01 9.50311199e-02 9.21982825e-02
      3.49870473e-01 3.15255344e-01 3.49870473e-01 3.49870473e-01
      3.49870473e-01 3.49870473e-01 3.49870473e-01 3.49870473e-01
      1.05056226e-01 2.31526643e-02 2.64590252e-02 1.15968682e-01
      7.91423619e-02 1.70067176e-02 2.31612958e-02 8.62684846e-02</_>
    <_>
      1.59314200e-01 2.73588657e-01 2.73588657e-01 2.39750028e-01
      2.73588657e-01 2.73588657e-01 2.37888575e-01 1.49556652e-01
      2.63801366e-01 2.73588657e-01 2.73588657e-01 2.73588657e-01
      2.73588657e-01 2.73588657e-01 1.31711930e-01 2.73588657e-01
      3.08231533e-01 3.08231533e-01 3.08231533e-01 2.57184952e-01
      2.18863443e-01 3.08231533e-01 3.08231533e-01 2.13873625e-01
      3.08231533e-01 3.08231533e-01 1.38321519e-01 3.08231533e-01
      1.41546860e-01 1.47937924e-01 9.53500941e-02 8.32699761e-02
      3.53482842e-01 1.36380836e-01 3.66265625e-01 3.84645879e-01
      3.84645879e-01 2.29343086e-01 3.84645879e-01 3.84645879e-01
      8.78282860e-02 3.35361175e-02 3.72777730e-02 9.19301584e-02
      1.72037214e-01 5.11779189e-02 3.67293321e-02 1.47663370e-01</_>
    <_>
      8.14647153e-02 2.68753916e-01 2.68753916e-01 2.45830745e-01
      2.63453752e-01 2.68753916e-01 2.68753916e-01 2.68753916e-01
      1.31493300e-01 2.68753916e-01 2.68753916e-01 2.68753916e-01
      2.68753916e-01 2.68753916e-01 2.21430153e-01 2.68753916e-01
      3.37465078e-01 3.37465078e-01 3.37465078e-01 3.37465078e-01
      1.27387851e-01 1.24365844e-01 7.00071380e-02 6.73551559e-02
      3.37465078e-01 3.37465078e-01 3.09875458e-01 3.37465078e-01
      1.40540838e-01 1.34058222e-01 1.09859087e-01 1.11812375e-01
      1.05645068e-01 5.10402136e-02 3.29936519e-02 8.30729008e-02
      2.45025933e-01 1.31858960e-01 3.52107435e-01 3.52107435e-01
      3.52107435e-01 2.53078878e-01 1.08650267e-01 2.75712132e-01
      3.52107435e-01 3.52107435e-01 3.94099504e-02 3.52107435e-01</_>
    <_>
      1.41918123e-01 2.71363318e-01 2.71363318e-01 2.52771765e-01
      2.71363318e-01 2.71363318e-01 2.71363318e-01 1.93852872e-01
      2.36661434e-01 2.71363318e-01 2.71363318e-01 2.71363318e-01
      2.71363318e-01 2.71363318e-01 1.57906607e-01 2.41560057e-01
      3.45140129e-01 3.45140129e-01 3.45140129e-01 3.45140129e-01
      7.80299529e-02 5.57491221e-02 5.90922572e-02 8.11532140e-02
      3.45140129e-01 3.45140129e-01 3.15977454e-01 3.45140129e-01
      8.28772262e-02 6.91272393e-02 1.22865945e-01 1.29770309e-01
      2.90638000e-01 6.80445135e-02 1.56565204e-01 3.84822577e-01
      3.98205638e-01 2.91127741e-01 3.98205638e-01 3.98205638e-01
      1.86478123e-01 8.54209289e-02 1.33946896e-01 2.21125990e-01
      1.91153243e-01 9.30727348e-02 4.86936904e-02 1.31830186e-01</_>
    <_>
      1.76174581e-01 2.66410202e-01 2.66410202e-01 1.93371847e-01
      2.66410202e-01 2.66410202e-01 2.66410202e-01 2.51271904e-01
      2.66410202e-01 2.66410202e-01 2.66410202e-01 2.66410202e-01
      2.66410202e-01 2.66410202e-01 1.18647069e-01 2.66410202e-01
      3.47939014e-01 3.47939014e-01 3.47939014e-01 3.47939014e-01
      1.60282210e-01 1.00029141e-01 6.71009347e-02 1.25600621e-01
      3.47939014e-01 3.47939014e-01 2.48509601e-01 3.47939014e-01
      8.88374299e-02 7.35670924e-02 8.79636183e-02 1.01585284e-01
      3.37802589e-01 5.87252080e-02 1.65188313e-01 4.14792359e-01
      4.14792359e-01 1.73171073e-01 4.14792359e-01 4.14792359e-01
      1.49488598e-01 5.41313179e-02 7.58532807e-02 1.77912876e-01
      1.96782306e-01 6.07124604e-02 4.64692600e-02 1.59870505e-01</_>
    <_>
      1.33290023e-01 2.79434413e-01 2.79434413e-01 2.79434413e-01
      1.81188628e-01 2.79434413e-01 2.79434413e-01 2.79434413e-01
      2.48811513e-01 1.09413818e-01 2.79434413e-01 2.79434413e-01
      2.77176589e-01 1.22762963e-01 2.79434413e-01 2.79434413e-01
      3.00055861e-01 3.52395147e-01 3.52395147e-01 3.52395147e-01
      7.45964274e-02 7.45665794e-03 3.92069072e-02 1.30241320e-01
      3.52395147e-01 3.10105860e-01 3.52395147e-01 3.52395147e-01
      9.85456854e-02 2.96815801e-02 8.36219192e-02 1.53234735e-01
      3.25182438e-01 1.43764131e-02 1.91489264e-01 3.78945947e-01
      3.78945947e-01 9.31031704e-02 3.78945947e-01 3.78945947e-01
      2.67707527e-01 6.76362216e-03 2.51356550e-02 3.23937505e-01
      1.75876677e-01 9.93916020e-03 6.00517653e-02 2.42093921e-01</_>
    <_>
      1.20428860e-01 2.73977280e-01 2.73977280e-01 1.86894983e-01
      2.73977280e-01 2.73977280e-01 2.73977280e-01 2.73977280e-01
      2.66726524e-01 2.47231022e-01 2.73977280e-01 2.73977280e-01
      2.73977280e-01 2.01111764e-01 1.56466410e-01 2.73977280e-01
      2.90220976e-01 2.90220976e-01 2.90220976e-01 2.90220976e-01
      2.78059423e-01 2.66536742e-01 2.90220976e-01 2.90220976e-01
      2.90220976e-01 2.90220976e-01 1.97804645e-01 2.90220976e-01
      1.31420135e-01 1.14125490e-01 9.87256914e-02 1.07320733e-01
      3.45219046e-01 2.48482645e-01 3.45219046e-01 3.45219046e-01
      3.45219046e-01 3.45219046e-01 3.45219046e-01 3.45219046e-01
      9.04019177e-02 1.31877102e-02 1.64756905e-02 9.89407152e-02
      1.33883253e-01 1.06092423e-01 1.48768023e-01 1.75653875e-01</_>
    <_>
      1.55022249e-01 2.89049029e-01 2.89049029e-01 2.07185179e-01
      2.89049029e-01 2.89049029e-01 2.89049029e-01 2.16185868e-01
      2.01961100e-01 2.89049029e-01 2.89049029e-01 1.61299735e-01
      2.89049029e-01 2.89049029e-01 1.95451111e-01 1.62685364e-01
      3.52699816e-01 3.52699816e-01 3.52699816e-01 3.52699816e-01
      1.61419526e-01 1.43516779e-01 1.35270178e-01 1.61367416e-01
      3.52699816e-01 3.52699816e-01 2.09343225e-01 2.66612589e-01
      1.22082524e-01 8.82022604e-02 8.78150165e-02 1.17474042e-01
      2.87499040e-01 6.00320511e-02 1.32813871e-01 3.02921176e-01
      3.02921176e-01 2.78460413e-01 3.02921176e-01 3.02921176e-01
      3.02921176e-01 1.38812214e-01 5.88581450e-02 2.33723283e-01
      3.02921176e-01 3.02921176e-01 6.39074519e-02 3.02921176e-01</_>
    <_>
      2.39886001e-01 2.80590087e-01 2.80590087e-01 1.75481111e-01
      2.80590087e-01 2.80590087e-01 2.80590087e-01 2.80590087e-01
      2.80590087e-01 1.19904190e-01 2.00390369e-01 2.80590087e-01
      2.80590087e-01 1.53699875e-01 2.08307788e-01 2.80590087e-01
      2.85572737e-01 2.85572737e-01 2.85572737e-01 2.85572737e-01
      2.85572737e-01 2.76366234e-01 2.85572737e-01 2.85572737e-01
      2.85572737e-01 2.29294106e-01 2.62750864e-01 2.85572737e-01
      1.58072039e-01 1.06812313e-01 9.78552252e-02 1.38624758e-01
      3.51483911e-01 2.47282296e-01 3.51483911e-01 3.51483911e-01
      3.51483911e-01 3.31426710e-01 3.51483911e-01 3.51483911e-01
      1.41674519e-01 2.02566311e-02 4.00433466e-02 1.65539637e-01
      1.06282353e-01 2.09090784e-02 5.42450175e-02 1.41724929e-01</_>
    <_>
      2.85037696e-01 2.85037696e-01 2.85037696e-01 2.85037696e-01
      2.85037696e-01 2.85037696e-01 2.75985360e-01 2.82525033e-01
      2.84109026e-01 2.85037696e-01 2.85037696e-01 2.64981419e-01
      1.18196182e-01 9.02974159e-02 8.06762651e-02 1.07822858e-01
      4.54715401e-01 4.54715401e-01 4.54715401e-01 4.54715401e-01 0.
      4.88551223e-06 4.88551223e-06 0. 2.10439309e-01 2.14555070e-01
      2.00404659e-01 1.94712669e-01 0. 0. 0. 0. 0. 0. 0. 0. 0.
      4.98753130e-01 4.98753130e-01 0. 0. 0. 0. 0. 0. 4.98753130e-01
      4.98753130e-01 0.</_>
    <_>
      3.27881902e-01 3.27881902e-01 3.27881902e-01 3.27881902e-01
      3.27881902e-01 2.72024721e-01 1.83836967e-01 3.27881902e-01
      3.03261101e-01 1.93126917e-01 9.96699333e-02 2.03978419e-01
      1.83596104e-01 1.06993012e-01 5.24918847e-02 1.23183452e-01
      3.07396799e-01 3.07396799e-01 3.07396799e-01 3.07396799e-01
      1.74335346e-01 1.64793715e-01 2.05363587e-01 2.04015091e-01
      3.07396799e-01 3.07396799e-01 2.96468973e-01 3.07396799e-01
      1.62978008e-01 1.59397930e-01 1.63376451e-01 1.66064784e-01
      3.52929413e-01 3.52929413e-01 3.52929413e-01 3.52929413e-01 0.
      3.84849962e-04 3.84849962e-04 0. 3.52929413e-01 3.52929413e-01
      3.52929413e-01 3.52929413e-01 0. 1.09888759e-04 1.09888759e-04 0.</_>
    <_>
      2.11177438e-01 2.22618014e-01 3.02732617e-01 3.02732617e-01
      7.61827230e-02 1.03600726e-01 1.47524267e-01 1.31947771e-01
      3.02732617e-01 3.02732617e-01 3.02732617e-01 3.02732617e-01
      2.02526286e-01 3.02732617e-01 3.02732617e-01 2.70030767e-01
      6.29061460e-02 2.23744586e-01 3.03639501e-01 1.48148671e-01
      9.69784986e-03 2.23848801e-02 1.57430582e-02 6.84635527e-03
      4.43237990e-01 4.43237990e-01 4.43237990e-01 4.43237990e-01
      1.04945540e-01 1.02987818e-01 1.01216987e-01 9.38853025e-02
      3.79167765e-01 3.79167765e-01 3.79167765e-01 3.63732994e-01
      2.96606034e-01 3.79167765e-01 3.58553976e-01 1.50470689e-01
      9.30504277e-02 1.25872225e-01 1.32150143e-01 8.77158865e-02 0. 0.
      0. 0.</_>
    <_>
      3.09852034e-01 1.80374995e-01 2.04265356e-01 3.09852034e-01
      2.57797480e-01 1.06411800e-01 1.30805045e-01 2.91788489e-01
      3.09852034e-01 2.20072195e-01 2.16950789e-01 3.09852034e-01
      3.09852034e-01 1.76632717e-01 1.99656337e-01 3.09852034e-01
      3.75904411e-01 2.23911136e-01 2.80306876e-01 3.75904411e-01
      3.22879032e-07 9.35448315e-06 9.35448315e-06 3.22879032e-07
      3.75904411e-01 3.75904411e-01 3.75904411e-01 3.75904411e-01
      7.95232058e-02 2.79803667e-02 4.80156057e-02 1.01485156e-01 0. 0.
      0. 0. 0. 0. 0. 0. 4.98753130e-01 4.98753130e-01 4.98753130e-01
      4.98753130e-01 0. 0. 0. 0.</_>
    <_>
      1.36823863e-01 3.11482280e-01 3.08684736e-01 1.38963982e-01
      3.89463991e-01 3.89463991e-01 3.89463991e-01 3.89463991e-01
      1.96525697e-02 5.68601079e-02 6.07075915e-02 2.28438526e-02
      7.71931335e-02 2.54557669e-01 2.69238293e-01 8.92592147e-02
      4.41853851e-01 4.41853851e-01 4.41853851e-01 4.41853851e-01
      3.74635719e-02 5.00903353e-02 3.44202481e-02 2.31118612e-02
      8.71929750e-02 3.01285625e-01 3.17167312e-01 1.00222878e-01 0.
      1.13011556e-04 1.13011556e-04 0. 1.02152869e-01 1.32633224e-01
      1.58449903e-01 1.26400769e-01 3.66964906e-01 3.66964906e-01
      3.66964906e-01 3.66964906e-01 3.66724953e-02 4.52767573e-02
      5.96914850e-02 4.91350666e-02 2.24736273e-01 3.34300578e-01
      3.66964906e-01 2.86830515e-01</_>
    <_>
      2.58981526e-01 2.59108305e-01 2.59108305e-01 2.53053129e-01
      1.98866189e-01 2.32849374e-01 2.36253724e-01 2.12954536e-01
      2.59108305e-01 2.59108305e-01 2.59108305e-01 2.59108305e-01
      2.59108305e-01 2.59108305e-01 2.59108305e-01 2.59108305e-01
      3.50711435e-01 3.50711435e-01 3.50711435e-01 3.50711435e-01
      2.96321269e-02 2.94181909e-02 3.33458968e-02 3.64366993e-02
      3.50711435e-01 3.50711435e-01 3.50711435e-01 3.50711435e-01
      3.74749079e-02 5.02781756e-02 5.15840687e-02 4.16123830e-02 0.
      7.84412914e-05 7.84412914e-05 0. 3.52928966e-01 3.52928966e-01
      3.52928966e-01 3.52928966e-01 0. 1.24905072e-03 1.24905072e-03 0.
      3.52928966e-01 3.52928966e-01 3.52928966e-01 3.52928966e-01</_>
    <_>
      2.84356087e-01 2.84356087e-01 2.84356087e-01 2.84356087e-01
      1.00870527e-01 2.04029962e-01 2.80603230e-01 1.71291709e-01
      2.84356087e-01 2.84356087e-01 2.84356087e-01 2.84356087e-01
      1.43181399e-01 1.99241549e-01 2.84356087e-01 2.22154811e-01
      1.09149389e-01 3.71270984e-01 3.71270984e-01 2.60583162e-01
      1.56732187e-01 1.58404395e-01 2.05350742e-01 2.08453581e-01
      2.45050862e-01 3.71270984e-01 3.71270984e-01 3.71270984e-01
      5.34089021e-02 5.49720600e-02 1.11630775e-01 1.16611987e-01
      1.77578166e-01 1.77374512e-01 2.32681021e-01 2.32253268e-01
      3.49661440e-01 3.49661440e-01 3.49661440e-01 3.49661440e-01
      6.89583272e-02 7.01021850e-02 1.39860690e-01 1.42618969e-01
      3.23964775e-01 3.22894275e-01 1.99017316e-01 1.94894135e-01</_>
    <_>
      2.78706372e-01 2.78706372e-01 2.78706372e-01 2.78706372e-01
      1.47302598e-01 2.78706372e-01 2.78706372e-01 1.59831181e-01
      2.59151548e-01 2.78706372e-01 2.78706372e-01 2.78706372e-01
      1.31406471e-01 2.52759039e-01 2.78706372e-01 1.57746971e-01
      2.66533226e-01 4.42388058e-01 4.42388058e-01 2.42214441e-01
      2.43170895e-02 2.56959237e-02 1.59068704e-02 1.41434902e-02
      1.85598597e-01 4.42388058e-01 4.42388058e-01 1.81525528e-01
      6.78479448e-02 7.02646300e-02 4.85704020e-02 4.51871194e-02
      2.50085413e-01 2.52227426e-01 1.53890237e-01 1.48737565e-01
      2.95388341e-01 2.95388341e-01 2.95388341e-01 2.95388341e-01
      2.57244855e-01 2.59921283e-01 1.66539043e-01 1.62430286e-01
      2.95388341e-01 2.95388341e-01 2.39827618e-01 2.37036124e-01</_>
    <_>
      0. 5.94167250e-05 5.94167250e-05 0. 3.52929503e-01 3.52929503e-01
      3.52929503e-01 3.52929503e-01 0. 4.44746474e-05 4.44746474e-05 0.
      3.52929503e-01 3.52929503e-01 3.52929503e-01 3.52929503e-01
      2.95144588e-01 2.72702396e-01 2.73399264e-01 2.95144588e-01
      2.60269910e-01 1.06823236e-01 1.05528146e-01 2.51934826e-01
      2.58097529e-01 1.72348410e-01 1.72526002e-01 2.54522771e-01
      2.95144588e-01 2.60309458e-01 2.95144588e-01 2.95144588e-01
      7.24589154e-02 3.23231071e-02 3.41007076e-02 7.07155392e-02
      3.43533248e-01 1.66324452e-01 2.07819015e-01 3.43533248e-01
      2.63805211e-01 1.54336214e-01 1.79960102e-01 2.81721890e-01
      3.43533248e-01 3.43533248e-01 3.43533248e-01 3.43533248e-01</_>
    <_>
      3.32345992e-01 1.22344464e-01 1.28653929e-01 3.32345992e-01
      3.32345992e-01 1.20857313e-01 1.60980731e-01 3.32345992e-01
      3.32345992e-01 1.37005210e-01 8.69221017e-02 3.32345992e-01
      3.32345992e-01 9.34964865e-02 7.70690292e-02 3.32345992e-01
      3.17671180e-01 8.47424567e-02 1.05597444e-01 3.17671180e-01
      3.17671180e-01 1.48338795e-01 1.38160303e-01 3.17671180e-01
      3.17671180e-01 1.10868171e-01 9.51441601e-02 3.17671180e-01
      3.17671180e-01 2.55637050e-01 2.08294898e-01 3.17671180e-01
      2.99398571e-01 1.03049181e-01 8.94326568e-02 2.99398571e-01
      2.99398571e-01 1.75611764e-01 1.47869378e-01 2.99398571e-01
      2.99398571e-01 2.18368500e-01 1.68227181e-01 2.99398571e-01
      2.99398571e-01 2.85248101e-01 2.26314932e-01 2.99398571e-01</_>
    <_>
      3.41233701e-01 1.18992023e-01 6.64496794e-02 3.41233701e-01
      3.41233701e-01 8.70861486e-02 5.90353869e-02 3.41233701e-01
      3.41233701e-01 1.41134188e-01 3.01303193e-02 3.41233701e-01
      3.41233701e-01 1.13742508e-01 4.07335907e-02 3.41233701e-01
      3.42412561e-01 8.12513903e-02 4.76951487e-02 3.42412561e-01
      3.42412561e-01 1.04818121e-01 2.95591597e-02 3.42412561e-01
      3.42412561e-01 1.12758443e-01 4.66692485e-02 3.42412561e-01
      3.42412561e-01 1.44245550e-01 4.65996601e-02 3.42412561e-01
      2.89478779e-01 1.13308638e-01 5.96984476e-02 2.89478779e-01
      2.89478779e-01 2.29654938e-01 2.17500895e-01 2.89478779e-01
      2.89478779e-01 1.78122923e-01 1.04637563e-01 2.89478779e-01
      2.89478779e-01 2.89478779e-01 2.89478779e-01 2.89478779e-01</_>
    <_>
      2.68125147e-01 2.68125147e-01 2.68125147e-01 2.68125147e-01
      2.25751251e-01 2.68125147e-01 2.68125147e-01 1.70972258e-01
      2.68125147e-01 2.68125147e-01 2.68125147e-01 2.68125147e-01
      2.25088716e-01 2.60340095e-01 2.13670194e-01 1.84709534e-01
      2.99957961e-01 2.99957961e-01 2.99957961e-01 2.99957961e-01
      2.99957961e-01 2.99957961e-01 2.46971816e-01 2.37730086e-01
      2.99957961e-01 2.99957961e-01 2.99957961e-01 2.64029324e-01
      1.70757889e-03 1.08957861e-03 1.00076816e-03 1.60012557e-03
      4.69383568e-01 4.69383568e-01 4.69383568e-01 4.69383568e-01
      1.00310557e-02 1.05319275e-02 9.59496573e-03 9.37499572e-03
      9.96820722e-03 7.42104510e-03 5.86011074e-03 8.36313609e-03
      2.44090945e-01 7.65425563e-02 4.77077104e-02 2.13687584e-01</_>
    <_>
      1.42805442e-01 4.16498072e-02 8.74285400e-02 2.05224186e-01
      3.37237060e-01 3.37237060e-01 3.37237060e-01 3.37237060e-01
      1.19620398e-01 8.50703493e-02 8.67819265e-02 1.25901103e-01
      3.37237060e-01 3.37237060e-01 3.37237060e-01 2.89329648e-01
      2.79973507e-01 2.79973507e-01 2.79973507e-01 2.52037525e-01
      2.79973507e-01 2.79973507e-01 2.79973507e-01 2.79973507e-01
      2.75572240e-01 2.79973507e-01 2.79973507e-01 1.96836829e-01
      1.69365555e-01 1.82889104e-01 1.66157037e-01 1.54229701e-01
      2.82369614e-01 2.82369614e-01 2.82369614e-01 2.82369614e-01
      2.82369614e-01 2.82369614e-01 2.81074792e-01 2.82369614e-01
      1.94977418e-01 1.94167122e-01 1.73764914e-01 1.73869997e-01
      2.82369614e-01 1.96700722e-01 1.72483832e-01 2.75191754e-01</_>
    <_>
      1.81282341e-01 4.20760840e-01 4.20760840e-01 1.68715850e-01
      1.73728764e-01 2.22526997e-01 1.87799618e-01 1.19402103e-01
      1.63643524e-01 4.20760840e-01 4.20760840e-01 1.79660395e-01
      7.06586055e-03 1.33999825e-01 1.41007319e-01 1.17576653e-02
      5.39435506e-01 5.39435506e-01 3.48704934e-01 5.39435506e-01 0.
      1.88205922e-05 1.88205922e-05 0. 5.08757494e-03 2.12830957e-03
      1.29430660e-03 3.70283425e-03 0. 0. 0. 0. 0. 0. 0. 0. 0. 0. 0. 0.
      0. 0. 0. 0. 4.98753130e-01 4.98753130e-01 4.98753130e-01
      4.98753130e-01</_>
    <_>
      2.58729160e-01 2.58729160e-01 2.58729160e-01 2.58729160e-01
      2.58729160e-01 2.58729160e-01 2.58729160e-01 2.58729160e-01
      1.96866706e-01 2.58729160e-01 2.58729160e-01 1.70898587e-01
      2.53532708e-01 2.58729160e-01 2.58729160e-01 2.48763531e-01
      3.40434045e-01 3.40434045e-01 3.40434045e-01 3.40434045e-01
      3.82381044e-02 7.21676275e-02 8.49331394e-02 5.14052361e-02
      3.40434045e-01 3.40434045e-01 3.40434045e-01 3.40434045e-01
      6.80668131e-02 1.32547051e-01 1.48527399e-01 9.29901376e-02
      3.04050177e-01 3.04050177e-01 3.04050177e-01 3.04050177e-01
      3.04050177e-01 3.04050177e-01 3.04050177e-01 3.04050177e-01
      2.34979585e-01 2.32607499e-01 2.60225087e-01 2.80453771e-01
      2.42965966e-02 9.84309800e-03 1.40417507e-02 2.84988135e-02</_>
    <_>
      2.83608913e-01 2.85335094e-01 2.85335094e-01 2.49623135e-01
      2.85335094e-01 2.85335094e-01 2.85335094e-01 2.85335094e-01
      1.29583076e-01 2.85335094e-01 2.85335094e-01 1.42535329e-01
      2.39828840e-01 1.95528597e-01 1.61796510e-01 2.09853798e-01
      3.43297154e-01 3.43297154e-01 2.16831118e-01 3.43297154e-01
      3.43297154e-01 3.43297154e-01 9.84096527e-02 3.43297154e-01
      3.05178046e-01 1.32849753e-01 6.11405186e-02 2.29445547e-01
      2.09123328e-01 5.64747304e-02 7.58442516e-03 1.36405900e-01
      2.97689050e-01 2.97689050e-01 1.17606215e-01 2.97689050e-01
      1.83201402e-01 2.97689050e-01 2.97689050e-01 2.02332422e-01
      2.56795675e-01 7.32658133e-02 3.48769613e-02 1.96457714e-01
      2.97689050e-01 2.97689050e-01 2.97689050e-01 2.97689050e-01</_>
    <_>
      2.53765792e-01 2.15321898e-01 2.22578600e-01 2.53765792e-01
      2.53765792e-01 2.53765792e-01 2.53765792e-01 2.53765792e-01
      2.53765792e-01 2.53765792e-01 2.53765792e-01 2.53765792e-01
      2.53765792e-01 2.53765792e-01 2.53765792e-01 2.53765792e-01
      2.77842760e-01 2.77842760e-01 2.77842760e-01 2.77842760e-01
      2.77842760e-01 1.45636678e-01 1.42517716e-01 2.63270497e-01
      2.77842760e-01 2.48917848e-01 2.77842760e-01 2.77842760e-01
      2.77842760e-01 1.03358649e-01 2.04405308e-01 2.77842760e-01
      3.27226907e-01 2.26756677e-01 2.05721438e-01 3.27226907e-01
      2.59991556e-01 5.35587072e-02 2.50267815e-02 2.14011788e-01
      3.27226907e-01 1.72846362e-01 3.27226907e-01 3.27226907e-01
      3.27226907e-01 7.82153159e-02 2.37327162e-02 3.27226907e-01</_>
    <_>
      2.66930819e-01 2.04185262e-01 1.79518476e-01 2.66930819e-01
      2.66930819e-01 2.15312541e-01 2.12657914e-01 2.66930819e-01
      2.66930819e-01 2.65292972e-01 2.40346715e-01 2.66930819e-01
      2.66930819e-01 2.66930819e-01 2.59578109e-01 2.57462323e-01
      2.85853058e-01 2.85853058e-01 2.85853058e-01 2.85853058e-01
      2.85853058e-01 7.36836269e-02 6.32301420e-02 2.85853058e-01
      2.85853058e-01 2.85853058e-01 2.85853058e-01 2.85853058e-01
      2.82717168e-01 9.78922695e-02 8.45224708e-02 2.71920234e-01
      3.02712500e-01 1.36324942e-01 1.10819668e-01 3.02712500e-01
      3.02712500e-01 1.53134048e-01 1.33281291e-01 3.02712500e-01
      3.02712500e-01 1.81728378e-01 1.47918031e-01 3.02712500e-01
      3.02712500e-01 2.76069522e-01 2.46368781e-01 3.02712500e-01</_>
    <_>
      2.38042518e-01 1.97819650e-01 2.76794016e-01 2.93398499e-01
      3.68123114e-01 3.68123114e-01 3.68123114e-01 3.68123114e-01
      1.23293204e-02 1.69562660e-02 2.94404458e-02 2.21496597e-02
      1.03150085e-01 2.45469987e-01 3.20746034e-01 1.42122820e-01
      3.96206141e-01 3.96206141e-01 3.96206141e-01 3.96206141e-01
      3.73769067e-02 1.20055825e-01 1.28209576e-01 3.67326029e-02
      1.37966082e-01 3.50032330e-01 3.96206141e-01 1.79132342e-01
      1.02022365e-02 4.13280465e-02 4.45175432e-02 1.04164230e-02
      4.98753130e-01 4.98753130e-01 4.98753130e-01 4.98753130e-01 0.
      7.30351821e-05 7.30351821e-05 0. 0. 0. 0. 0. 0. 0. 0. 0.</_>
    <_>
      1.73424687e-02 1.03892284e-02 1.57139525e-02 2.00274065e-02
      4.41619366e-01 2.15074226e-01 2.61217684e-01 4.41619366e-01
      1.66598875e-02 9.87346563e-03 1.54683320e-02 1.97132975e-02
      4.41619366e-01 1.82036951e-01 2.56494492e-01 4.41619366e-01
      3.19228619e-01 1.00116335e-01 9.05291513e-02 3.19228619e-01
      3.19228619e-01 1.69985384e-01 1.70989335e-01 3.19228619e-01
      3.19228619e-01 8.26860070e-02 9.17370096e-02 3.19228619e-01
      3.19228619e-01 2.13497311e-01 2.10641906e-01 3.19228619e-01
      2.68329054e-01 1.47331253e-01 1.76513940e-01 2.68329054e-01
      2.68329054e-01 2.68329054e-01 2.68329054e-01 2.68329054e-01
      2.68329054e-01 1.93076953e-01 2.07774803e-01 2.68329054e-01
      2.68329054e-01 2.68329054e-01 2.68329054e-01 2.68329054e-01</_>
    <_>
      1.77832134e-02 1.24018788e-02 5.49634313e-03 1.05427802e-02
      3.80750239e-01 2.93605357e-01 1.13386318e-01 2.05900431e-01
      1.78949416e-01 2.06264749e-01 1.77029267e-01 1.52866229e-01
      3.80750239e-01 3.80750239e-01 3.80750239e-01 3.80750239e-01
      2.74370760e-01 2.40000203e-01 1.19611464e-01 1.72092468e-01
      2.74370760e-01 2.74370760e-01 2.65091896e-01 2.74370760e-01
      2.74370760e-01 2.74370760e-01 2.10896879e-01 2.74370760e-01
      2.74370760e-01 2.74370760e-01 1.96317077e-01 2.54813522e-01
      3.36996377e-01 3.36996377e-01 3.36996377e-01 3.36996377e-01
      3.36996377e-01 3.36996377e-01 1.20222323e-01 2.24864036e-01
      3.36996377e-01 2.41838425e-01 1.55919567e-01 2.25154787e-01
      4.08155136e-02 3.16928923e-02 1.01352343e-02 1.96276084e-02</_>
    <_>
      0. 2.88561532e-05 2.88561532e-05 0. 3.80940378e-01 3.80940378e-01
      3.80940378e-01 3.80940378e-01 0. 2.30679816e-05 2.30679816e-05 0.
      3.80940378e-01 2.19512090e-01 2.78055996e-01 3.80940378e-01
      2.56449640e-01 8.29191282e-02 1.26264438e-01 2.97519684e-01
      3.54126960e-01 3.04061353e-01 3.54126960e-01 3.54126960e-01
      1.38918906e-01 3.91294025e-02 6.42112717e-02 1.62460536e-01
      3.54126960e-01 1.39156088e-01 1.70780212e-01 3.54126960e-01
      2.87046075e-01 1.44458279e-01 2.81468391e-01 2.87046075e-01
      2.87046075e-01 2.36769184e-01 2.87046075e-01 2.87046075e-01
      2.23276824e-01 9.29496661e-02 8.47699344e-02 2.09451348e-01
      2.87046075e-01 2.87046075e-01 2.68826455e-01 2.87046075e-01</_>
    <_>
      2.60961086e-01 3.10657695e-02 4.28001061e-02 2.83920616e-01
      3.62340719e-01 6.10132031e-02 9.13519189e-02 3.64559978e-01
      3.64559978e-01 1.23841412e-01 7.17996806e-02 3.64559978e-01
      3.64559978e-01 1.06256530e-01 7.20305145e-02 3.64559978e-01
      2.84228355e-01 1.25982568e-01 1.23344496e-01 2.95511991e-01
      3.00830424e-01 2.71556109e-01 2.74375200e-01 3.00830424e-01
      3.00830424e-01 1.02929540e-01 8.71101767e-02 3.00830424e-01
      3.00830424e-01 2.30767354e-01 1.85313255e-01 3.00830424e-01
      2.74848133e-01 2.73111016e-01 2.74848133e-01 2.74848133e-01
      2.74848133e-01 2.22265020e-01 2.10774571e-01 2.74848133e-01
      2.74848133e-01 2.30400741e-01 1.56796739e-01 2.74848133e-01
      2.74848133e-01 2.00244710e-01 1.76621392e-01 2.74848133e-01</_>
    <_>
      1.57432571e-01 9.70484763e-02 6.24112375e-02 1.29455611e-01
      2.88601846e-01 1.64710850e-01 1.39269784e-01 2.67006725e-01
      3.04341972e-01 3.04341972e-01 3.04341972e-01 3.04341972e-01
      3.04341972e-01 3.04341972e-01 3.04341972e-01 3.04341972e-01
      2.70560861e-01 2.55082905e-01 2.35898793e-01 2.70560861e-01
      2.70560861e-01 2.70560861e-01 2.70560861e-01 2.70560861e-01
      2.70560861e-01 2.70560861e-01 2.70560861e-01 2.70560861e-01
      2.02769682e-01 1.96113840e-01 1.77035287e-01 1.83388621e-01
      2.47675866e-01 2.92030782e-01 2.92030782e-01 2.08140373e-01
      2.92030782e-01 2.92030782e-01 2.92030782e-01 2.50418365e-01
      1.13033973e-01 1.58571243e-01 1.48812979e-01 1.08820841e-01
      2.74849385e-01 2.92030782e-01 2.92030782e-01 2.92030782e-01</_>
    <_>
      2.16228962e-01 2.48277828e-01 2.53233761e-01 2.37577066e-01
      2.53233761e-01 2.53233761e-01 2.53233761e-01 2.53233761e-01
      2.53233761e-01 2.53233761e-01 2.53233761e-01 2.53233761e-01
      2.53233761e-01 2.53233761e-01 2.53233761e-01 2.51200318e-01
      2.72683531e-01 2.72683531e-01 2.72683531e-01 2.72683531e-01
      2.72683531e-01 2.72683531e-01 2.72683531e-01 2.72683531e-01
      2.72683531e-01 2.72683531e-01 2.67547041e-01 2.15957969e-01
      2.27720991e-01 1.74638405e-01 1.37037814e-01 1.85359120e-01
      2.73965716e-01 2.73965716e-01 2.73965716e-01 2.73965716e-01
      2.73965716e-01 2.73965716e-01 2.73965716e-01 2.73965716e-01
      2.73965716e-01 1.93143949e-01 1.39721975e-01 2.40230724e-01
      2.52664596e-01 1.94397658e-01 1.99806184e-01 2.56236672e-01</_>
    <_>
      1.80527121e-02 1.34557495e-02 1.29998205e-02 1.80186275e-02
      1.90538451e-01 1.73089445e-01 1.29501730e-01 1.57914758e-01
      1.80772215e-01 1.45869344e-01 9.77308601e-02 1.42999083e-01
      4.47938532e-01 4.47938532e-01 4.47938532e-01 4.47938532e-01
      1.48551360e-01 1.06389031e-01 8.69075358e-02 1.35896966e-01
      3.19976151e-01 6.61854222e-02 7.92023093e-02 3.19976151e-01
      3.19976151e-01 3.19976151e-01 3.19976151e-01 3.19976151e-01
