<?xml version="1.0"?>
<opencv_storage>
<opencv_ml_svm>
  <format>3</format>
  <svmType>C_SVC</svmType>
  <kernel>
    <type>LINEAR</type></kernel>
  <C>450.</C>
  <term_criteria><epsilon>1.0000000000000000e-02</epsilon>
    <iterations>1500</iterations></term_criteria>
  <var_count>48</var_count>
  <class_count>5</class_count>
  <class_labels type_id="opencv-matrix">
    <rows>5</rows>
    <cols>1</cols>
    <dt>i</dt>
    <data>
      0 1 2 9 10</data></class_labels>
  <sv_total>10</sv_total>
  <support_vectors>
    <_>
      1.34530053e-01 1.46361065e+00 8.29424381e-01 -2.02341378e-01
      -2.68143535e-01 -2.84078419e-01 -6.54681623e-01 -1.09212673e+00
      -3.10733914e-01 9.40580964e-01 1.22583652e+00 1.87960625e-01
      -8.04160655e-01 -8.44820261e-01 -6.88568532e-01 -4.98643547e-01
      4.66717869e-01 -2.39670187e-01 -3.37151468e-01 -4.25243467e-01
      2.59754360e-01 -2.39351049e-01 -3.24347943e-01 3.52272511e-01
      -8.88722166e-02 -1.14939904e+00 -8.36770475e-01 5.62646806e-01
      2.82133073e-01 -2.74289668e-01 -2.10657015e-01 4.32760179e-01
      -2.16870204e-01 -5.92134237e-01 1.50993494e-02 1.21005796e-01
      2.36960605e-01 1.62155375e-01 -2.12417513e-01 -1.04087584e-01
      2.76591808e-01 4.88136597e-02 -1.18021333e+00 -3.23009878e-01
      2.90271103e-01 1.09841876e-01 -1.54359899e-02 1.01935422e+00</_>
    <_>
      5.73681556e-02 1.52022004e+00 4.76718813e-01 -7.72148788e-01
      -3.02878916e-01 1.82641104e-01 -7.59530485e-01 -1.38448656e+00
      -4.81540799e-01 5.00066936e-01 1.52714503e+00 5.63220203e-01
      -1.09947324e+00 -9.53482747e-01 1.74246103e-01 -3.78718823e-01
      5.46856880e-01 7.59443641e-02 -2.76827127e-01 -6.19979680e-01
      2.18424976e-01 1.55512437e-01 -3.01132977e-01 -1.77199453e-01
      -2.65656501e-01 -1.09267175e+00 -1.84503183e-01 1.74620107e-01
      3.63138974e-01 -4.09353405e-01 -3.96323711e-01 4.22075987e-01
      -1.22579664e-01 -3.44372898e-01 -3.90159898e-02 -1.91582203e-01
      5.06892264e-01 -1.41947746e-01 -9.28160250e-02 5.54993272e-01
      -2.71929335e-03 -2.34518394e-01 -5.14347613e-01 -4.89844196e-02
      3.26502807e-02 1.39470711e-01 -7.87690207e-02 5.95482513e-02</_>
    <_>
      5.79146862e-01 7.50282824e-01 7.53168881e-01 -2.51198858e-01
      -3.32008213e-01 -9.76979554e-01 -1.39311337e+00 -1.60331118e+00
      -4.90988225e-01 8.54445875e-01 -1.51029753e-03 4.83248234e-01
      -2.06521606e+00 -1.98551655e+00 -9.77819860e-01 -5.46466768e-01
      1.61396158e+00 -1.84444726e-01 -1.09326315e+00 -5.77790380e-01
      2.36266628e-01 -3.09390366e-01 -6.07268691e-01 1.91204295e-01
      -3.23015571e-01 -2.44192100e+00 -1.06256068e+00 6.16491616e-01
      1.54534336e-02 -5.26681952e-02 7.78639764e-02 4.92962301e-01
      -3.40535939e-01 -1.53542191e-01 -2.95573205e-01 1.58310786e-01
      1.04239233e-01 -7.60203242e-01 6.15691245e-01 1.09470022e+00
      -1.42712891e-01 -2.31313407e-01 8.40167627e-02 -2.02426225e-01
      7.29015529e-01 3.12211365e-01 1.10716820e-01 6.77658617e-01</_>
    <_>
      1.10044360e+00 2.02662659e+00 -9.89866972e-01 -1.88962293e+00
      1.43340981e+00 1.43905962e+00 -1.65460336e+00 -2.82747936e+00
      -5.36495745e-01 1.10579634e+00 4.91109103e-01 6.31919503e-01
      -1.78658020e+00 -1.22716093e+00 6.59581780e-01 3.68635923e-01
      2.60350657e+00 6.38666630e-01 -3.83998811e-01 -7.86804736e-01
      7.42705524e-01 1.38783991e-01 -8.51259172e-01 -1.04633830e-01
      -2.02972293e-01 -1.16242099e+00 1.03062940e+00 1.30821431e+00
      2.08567038e-01 7.03317076e-02 -8.13789427e-01 1.08803523e+00
      1.76366102e-02 -5.49283445e-01 -5.39439142e-01 2.69127816e-01
      7.37499297e-01 -2.00764513e+00 2.02408791e+00 1.95917702e+00
      1.36005461e+00 3.45956862e-01 -1.10917389e+00 8.17939758e-01
      1.15724635e+00 1.24509978e+00 -2.29862452e+00 6.53607190e-01</_>
    <_>
      -5.68972826e-01 -4.02559713e-02 -2.21543670e+00 -2.81784701e+00
      8.40582490e-01 2.36609674e+00 -4.83736813e-01 4.76516336e-01
      -1.74112427e+00 -2.97579098e+00 6.92662179e-01 4.32149500e-01
      -1.12524116e+00 -2.14293504e+00 2.78365111e+00 8.57272923e-01
      -9.58580792e-01 1.79950345e+00 -2.25759244e+00 -1.11051559e+00
      1.97487938e+00 1.98206675e+00 -8.68751466e-01 -2.52196932e+00
      -2.36317039e+00 -4.41794246e-01 1.93279624e+00 -9.80929196e-01
      -9.41464722e-01 2.24059868e+00 7.40884483e-01 1.25358534e+00
      -9.63378966e-01 -5.61136544e-01 9.20320868e-01 -1.35550392e+00
      -2.22632498e-01 -1.59612072e+00 7.90797770e-01 7.72477090e-01
      -6.38394415e-01 9.36624110e-01 3.00321653e-02 1.16654134e+00
      -9.89171386e-01 -5.78192882e-02 3.89778465e-01 -8.78986120e-01</_>
    <_>
      2.86161333e-01 -1.89160168e+00 -1.83028805e+00 -5.30932963e-01
      6.06827021e-01 4.59602475e-01 2.65951417e-02 1.11031860e-01
      4.80679750e-01 -1.23973083e+00 -2.79936576e+00 1.85020268e-01
      -1.36909604e-01 -8.84171724e-02 7.85147846e-02 7.97469735e-01
      2.12370396e-01 1.70721486e-02 -3.08509946e-01 -4.18248981e-01
      -3.78991336e-01 -3.44786823e-01 -2.17920672e-02 -4.15663689e-01
      -1.96330875e-01 -3.50832939e-01 3.90532970e-01 2.60226965e-01
      -4.49372947e-01 -1.07664466e-01 2.92136699e-01 3.63074839e-01
      -6.68148875e-01 5.58705270e-01 2.00888231e-01 -5.44018626e-01
      -3.83638620e-01 -9.13897872e-01 5.84079981e-01 1.90142941e+00
      -1.41564393e+00 -9.55279823e-03 1.94059944e+00 7.34768510e-01
      6.65975571e-01 9.56420422e-01 -6.64642528e-02 -1.67912662e+00</_>
    <_>
      1.24353731e+00 -2.40344596e+00 -6.38713479e-01 -2.66442657e-01
      1.58423042e+00 -3.71108383e-01 5.44788361e-01 -2.90000081e-01
      1.53090131e+00 -1.01251924e+00 -3.20127702e+00 -1.61898479e-01
      -8.76278698e-01 -1.73095334e+00 4.04268205e-01 1.00989044e+00
      1.73328173e+00 5.96284032e-01 4.05893743e-01 3.23502049e-02
      8.07696059e-02 5.62981129e-01 -6.88627183e-01 -1.60263205e+00
      -9.58670020e-01 1.34431005e+00 2.76069975e+00 1.16768909e+00
      -1.30522943e+00 -1.24325001e+00 -3.29296559e-01 2.16516972e+00
      -3.49400580e-01 1.27815402e+00 -8.35055351e-01 6.91355228e-01
      -1.81127751e+00 -1.36438847e+00 7.59289324e-01 4.62007856e+00
      -9.65890348e-01 -3.05549145e-01 1.02152729e+00 1.74429178e+00
      3.77714229e+00 1.67213190e+00 -2.82637477e+00 -1.53794861e+00</_>
    <_>
      9.72505689e-01 -2.00727344e+00 -1.06546926e+00 1.48766863e+00
      3.84457916e-01 -4.09395725e-01 1.38229382e+00 4.64559495e-01
      1.45249033e+00 -1.54766768e-01 -3.90128112e+00 -1.15085733e+00
      1.18405902e+00 -1.30956218e-01 -1.54846883e+00 1.02538392e-01
      -1.46564320e-01 -4.83850896e-01 -7.08440170e-02 -2.56674349e-01
      -4.31344271e-01 -1.41074884e+00 6.02521420e-01 9.34016347e-01
      5.80073237e-01 -2.80239165e-01 -3.69714409e-01 1.71779230e-01
      -4.82618697e-02 5.68777680e-01 1.28970706e+00 -2.78253723e-02
      -6.76868796e-01 -1.72485068e-01 2.90328830e-01 4.22702968e-01
      -8.09300363e-01 -5.08286119e-01 1.19462621e+00 1.29856694e+00
      -2.35102281e-01 1.67627007e-01 1.91321746e-01 4.72415030e-01
      5.45060873e-01 7.71598577e-01 3.07145983e-01 4.42584485e-01</_>
    <_>
      -7.80723020e-02 -3.22004938e+00 -1.44359723e-01 2.26858115e+00
      -1.96623608e-01 -3.98230004e+00 5.19885659e-01 5.22525907e-01
      1.63163638e+00 8.68685544e-01 -4.58596087e+00 -6.68277979e-01
      -2.79064439e-02 2.13723040e+00 -4.62734985e+00 1.62654921e-01
      1.10296082e+00 1.24547648e+00 3.50561762e+00 9.43091869e-01
      -1.93681404e-01 -2.69596314e+00 5.90289235e-01 1.59777358e-01
      4.77101803e-01 5.07783127e+00 -3.34927738e-01 5.03997862e-01
      -3.45957339e-01 -1.24414094e-01 2.36413407e+00 -1.34211516e+00
      6.07806444e-01 4.56593961e-01 -1.45977986e+00 2.39538002e+00
      -1.48409784e+00 -1.44094670e+00 2.46191120e+00 2.77993608e+00
      -2.41946921e-01 -1.38481605e+00 6.66146219e-01 2.26751304e+00
      3.25441265e+00 1.52381241e+00 -3.60158658e+00 -8.38874280e-01</_>
    <_>
      -2.51337290e+00 -3.93865891e-02 1.39725506e+00 1.13813198e+00
      5.00658941e+00 1.80718303e+00 -1.12983809e+01 8.20618916e+00
      5.46475410e+00 -3.20640707e+00 8.78825378e+00 -1.11171341e+00
      1.71691346e+00 -2.36038041e+00 -8.82709563e-01 3.03035045e+00
      2.48226213e+00 3.62206769e+00 5.70247746e+00 -8.04932415e-02
      2.60062599e+00 9.98293304e+00 -1.80142236e+00 -8.09855461e+00
      -2.92984009e+00 8.16741848e+00 4.09483731e-01 6.01981497e+00
      -7.74017632e-01 1.17847025e+00 -1.98837352e+00 -6.98284805e-01
      7.10442352e+00 -7.51014757e+00 3.64969110e+00 -7.58435249e-01
      2.81421065e+00 5.89690447e-01 5.28719711e+00 -3.52104306e+00
      1.04860249e+01 -4.53450584e+00 -6.57151508e+00 -1.19907928e+00
      3.27140498e+00 4.03122425e+00 -1.11232166e+01 5.61845350e+00</_></support_vectors>
  <uncompressed_sv_total>130</uncompressed_sv_total>
  <uncompressed_support_vectors>
    <_>
      3.61960918e-01 3.61960918e-01 1.19973846e-01 1.03534877e-01
      3.61960918e-01 3.61960918e-01 9.78909209e-02 6.31239116e-02
      3.61960918e-01 3.61960918e-01 2.75741339e-01 1.91177800e-01
      1.87640682e-01 1.33892968e-01 2.26509757e-02 7.33308792e-02
      3.73966634e-01 3.73966634e-01 2.24035159e-01 1.25661388e-01
      1.92144752e-01 2.81335860e-01 1.87545702e-01 1.04039945e-01
      1.89097196e-01 1.44251660e-01 5.47176637e-02 1.83343947e-01
      2.99125671e-01 3.44747126e-01 2.92001724e-01 3.18975061e-01
      2.22778365e-01 1.67402878e-01 1.30226865e-01 1.79171696e-01
      2.92374164e-01 1.87848389e-01 2.82835484e-01 2.92374164e-01
      2.92374164e-01 2.25587696e-01 1.86942935e-01 2.66202897e-01
      2.92374164e-01 2.92374164e-01 2.92374164e-01 2.92374164e-01</_>
    <_>
      3.64640236e-01 3.64640236e-01 3.64640236e-01 9.20802727e-02
      4.20627072e-02 7.58126453e-02 4.22205478e-02 1.96449831e-02
      3.64640236e-01 3.64640236e-01 3.64640236e-01 3.64640236e-01
      6.02719411e-02 7.33659193e-02 9.84853059e-02 1.69530481e-01
      1.03630751e-01 2.53896210e-02 4.45512123e-02 1.94427311e-01
      3.13015193e-01 1.61453187e-02 3.98122966e-02 3.85123700e-01
      3.82475197e-01 2.36461312e-01 8.22625831e-02 1.77563295e-01
      3.85123700e-01 3.85123700e-01 1.06674895e-01 3.85123700e-01
      1.81184918e-01 4.75433376e-03 9.66663193e-03 2.00596571e-01
      1.89689159e-01 7.89325684e-03 9.14114434e-03 2.44675323e-01
      4.05298084e-01 1.50088072e-01 4.87181172e-02 4.05298084e-01
      4.05298084e-01 3.71102870e-01 8.42072368e-02 4.05298084e-01</_>
    <_>
      3.49697500e-01 3.49697500e-01 9.88682732e-02 7.40681812e-02
      3.49697500e-01 3.49697500e-01 1.11582614e-01 5.00272363e-02
      3.49697500e-01 3.49697500e-01 1.57502592e-01 3.49697500e-01
      1.83995798e-01 1.66447744e-01 7.38490596e-02 1.35842875e-01
      5.21306694e-01 5.21306694e-01 4.54191208e-01 1.72058076e-01
      1.41404271e-01 8.61694068e-02 1.07134573e-01 2.39434823e-01
      1.64608195e-01 1.51262745e-01 1.39351800e-01 2.04140946e-01
      7.67311454e-02 3.14835384e-02 1.36627117e-02 3.18964049e-02
      2.34321073e-01 4.07189280e-02 1.24674402e-01 3.62081021e-01
      3.62081021e-01 4.12452482e-02 1.06685504e-01 3.62081021e-01
      3.26047093e-01 1.29271701e-01 3.15446593e-02 9.61935744e-02
      3.62081021e-01 3.45602602e-01 5.45050390e-02 3.62081021e-01</_>
    <_>
      3.40494692e-01 3.40494692e-01 1.67259753e-01 1.15182936e-01
      3.40494692e-01 3.40494692e-01 1.76499650e-01 7.89797530e-02
      3.40494692e-01 3.40494692e-01 2.14417681e-01 3.40494692e-01
      1.43278599e-01 1.29516169e-01 9.20051187e-02 1.21101588e-01
      3.84072810e-01 3.84072810e-01 3.84072810e-01 1.72442853e-01
      1.56915233e-01 4.84084263e-02 5.08477762e-02 2.49680132e-01
      9.31967571e-02 9.85812768e-02 1.13051467e-01 1.26404151e-01
      3.84072810e-01 1.98832452e-01 2.24228546e-01 3.84072810e-01
      1.13325365e-01 1.56615917e-02 2.42085066e-02 1.87710240e-01
      1.69660643e-01 1.13023249e-02 3.10408045e-02 2.73623824e-01
      3.31417531e-01 3.31417531e-01 3.31417531e-01 3.31417531e-01
      3.31417531e-01 3.31417531e-01 2.72342682e-01 3.31417531e-01</_>
    <_>
      3.34436029e-01 3.34436029e-01 1.08971789e-01 1.04261056e-01
      3.34436029e-01 3.34436029e-01 7.80352205e-02 8.00065696e-02
      3.34436029e-01 3.34436029e-01 1.89764410e-01 3.34436029e-01
      2.60847718e-01 1.19325191e-01 6.32102564e-02 2.37074390e-01
      4.45299864e-01 4.45299864e-01 2.26040334e-01 1.92597777e-01
      2.27185488e-01 1.75985366e-01 4.98518534e-02 6.05861880e-02
      3.51431489e-01 1.36978954e-01 1.18133307e-01 4.45299864e-01
      1.00067750e-01 1.23012196e-02 3.87633294e-02 2.36342430e-01
      2.33591318e-01 1.63623244e-01 1.71158522e-01 2.02327386e-01
      3.06558579e-01 3.06558579e-01 3.06558579e-01 3.06558579e-01
      1.75427020e-01 1.04517780e-01 1.22227103e-01 1.92104623e-01
      3.06558579e-01 3.06558579e-01 3.06558579e-01 3.06558579e-01</_>
    <_>
      3.33702415e-01 3.33702415e-01 8.41557086e-02 1.69892177e-01
      3.33702415e-01 3.33702415e-01 6.21827655e-02 1.45178348e-01
      3.33702415e-01 3.33702415e-01 1.94168508e-01 3.33702415e-01
      2.58954436e-01 8.61027464e-02 2.93460879e-02 2.07946762e-01
      4.28728163e-01 4.28728163e-01 2.48088613e-01 2.16729999e-01
      1.57595873e-01 1.57870501e-01 6.70234039e-02 9.49522629e-02
      4.25404429e-01 8.01006332e-02 1.22141190e-01 4.28728163e-01
      1.31979212e-01 1.01182079e-02 7.46197924e-02 2.17056930e-01
      2.78203815e-01 5.73670156e-02 2.17041716e-01 3.60671043e-01
      3.60671043e-01 3.61940861e-02 3.60671043e-01 3.60671043e-01
      1.99939579e-01 3.69570740e-02 8.33764374e-02 2.62324601e-01
      3.60671043e-01 1.72086179e-01 2.88928449e-02 2.63281286e-01</_>
    <_>
      3.64450902e-01 3.64450902e-01 1.21618018e-01 1.03710145e-01
      3.64450902e-01 3.64450902e-01 1.91945300e-01 7.49469697e-02
      3.64450902e-01 3.64450902e-01 1.86536431e-01 1.50196120e-01
      2.13013381e-01 1.46707684e-01 2.20428817e-02 8.16506371e-02
      4.43218052e-01 4.43218052e-01 4.43218052e-01 1.47279039e-01
      1.37866691e-01 2.86164805e-02 6.02347665e-02 2.16919452e-01
      3.79734874e-01 1.35943070e-01 5.81004061e-02 3.23918253e-01
      1.23096079e-01 1.47957085e-02 3.60629670e-02 1.62470117e-01
      3.61550242e-01 1.77532677e-02 1.29535034e-01 3.61550242e-01
      3.61550242e-01 1.47031657e-02 1.33337706e-01 3.61550242e-01
      1.63054481e-01 6.87227473e-02 4.38417718e-02 1.38401881e-01
      3.61550242e-01 3.61550242e-01 3.25687900e-02 3.51481557e-01</_>
    <_>
      3.68202299e-01 3.68202299e-01 3.07499290e-01 2.89850775e-02
      2.84863859e-01 3.68202299e-01 1.28130570e-01 2.24796645e-02
      3.68202299e-01 3.68202299e-01 2.66391277e-01 1.19599253e-01
      1.37218609e-01 8.30723867e-02 4.31002900e-02 1.10158235e-01
      3.11743945e-01 3.11743945e-01 1.55880302e-01 2.54401058e-01
      3.11743945e-01 1.07446304e-02 9.82939266e-03 3.11743945e-01
      3.11743945e-01 7.04868659e-02 2.63083845e-01 3.11743945e-01
      3.11743945e-01 1.80549577e-01 1.52971745e-01 3.11743945e-01
      2.01314747e-01 8.88631493e-03 6.27435138e-03 1.80440143e-01
      1.68649554e-01 1.25337511e-01 5.19861430e-02 1.02386296e-01
      3.16498339e-01 1.22822426e-01 5.13798706e-02 2.62102336e-01
      4.50975001e-01 4.50975001e-01 4.50975001e-01 2.61196911e-01</_>
    <_>
      3.48086178e-01 3.48086178e-01 3.48086178e-01 3.48086178e-01
      6.05545975e-02 2.90174335e-02 2.08811555e-02 5.26498333e-02
      3.38755935e-01 3.48086178e-01 3.48086178e-01 3.48086178e-01
      8.01069513e-02 2.97542918e-03 3.80281918e-02 1.34274140e-01
      3.27487439e-01 1.14508621e-01 1.96114793e-01 3.59061420e-01
      3.59061420e-01 1.97979901e-02 3.25929999e-01 3.59061420e-01
      3.59061420e-01 2.40197778e-02 1.66551679e-01 3.59061420e-01
      1.71667710e-01 4.95434739e-02 5.00230007e-02 1.53624356e-01
      3.27327132e-01 1.08960643e-02 1.75602362e-01 3.97147983e-01
      3.97147983e-01 3.00286412e-02 3.97147983e-01 3.97147983e-01
      1.18030377e-01 4.01898921e-02 1.07994778e-02 7.11591840e-02
      3.45493197e-01 1.03244647e-01 4.59511839e-02 2.70672768e-01</_>
    <_>
      3.37934703e-01 2.20069185e-01 3.37934703e-01 3.37934703e-01
      2.23260209e-01 9.70294774e-02 5.37460111e-02 1.46675959e-01
      2.16467455e-01 3.37934703e-01 3.37934703e-01 3.37934703e-01
      1.28725901e-01 1.54179841e-01 2.33513519e-01 1.93914905e-01
      3.35520953e-01 2.42192268e-01 1.48415312e-01 3.35520953e-01
      3.14071178e-01 1.03786379e-01 9.34059620e-02 2.82371074e-01
      3.35520953e-01 1.62654117e-01 2.85518244e-02 2.54699975e-01
      3.35520953e-01 2.50077635e-01 2.32142564e-02 3.35520953e-01
      1.40016079e-01 4.58396673e-02 4.80072759e-02 1.36418432e-01
      1.67840615e-01 1.86272860e-02 8.75956640e-02 2.43663520e-01
      4.06248301e-01 1.75164521e-01 1.62204392e-02 4.06248301e-01
      4.06248301e-01 4.06248301e-01 4.03080247e-02 4.06248301e-01</_>
    <_>
      3.19399923e-01 3.19399923e-01 1.79649442e-01 3.19399923e-01
      3.19399923e-01 3.16815764e-01 9.03956369e-02 1.63349420e-01
      2.75764853e-01 1.41897127e-01 3.19399923e-01 3.19399923e-01
      6.00435957e-02 7.14159682e-02 2.38309681e-01 2.35652626e-01
      3.69754881e-01 3.69754881e-01 3.69754881e-01 3.69754881e-01
      2.87075043e-01 1.83537498e-01 1.08270347e-01 2.33169809e-01
      1.31810352e-01 4.82902341e-02 2.81247437e-01 3.69754881e-01
      1.31530166e-01 3.98915708e-02 2.80191116e-02 1.09732710e-01
      2.10009798e-01 5.79469688e-02 8.70214775e-02 2.52621204e-01
      3.44186634e-01 3.36544178e-02 3.44186634e-01 3.44186634e-01
      3.44186634e-01 1.05669595e-01 2.56185085e-02 2.61227220e-01
      3.44186634e-01 2.90323526e-01 3.79456356e-02 3.44186634e-01</_>
    <_>
      3.07826221e-01 3.05050135e-01 3.07826221e-01 3.07826221e-01
      1.84467703e-01 4.79135253e-02 3.93647328e-02 1.65073738e-01
      2.60712594e-01 2.24517450e-01 3.07826221e-01 3.07826221e-01
      2.37684935e-01 2.39472501e-02 3.07826221e-01 3.07826221e-01
      3.79240781e-01 9.69147012e-02 2.08776891e-02 3.01488042e-01
      2.21843973e-01 6.60389960e-02 8.47353041e-03 1.19934663e-01
      3.79240781e-01 5.77057339e-02 3.79240781e-01 3.79240781e-01
      1.21726528e-01 5.57377711e-02 2.95099854e-01 3.79240781e-01
      2.59815216e-01 9.42511410e-02 2.90741343e-02 1.60624340e-01
      2.22880065e-01 2.05519851e-02 1.28232941e-01 3.32420141e-01
      3.51548284e-01 1.80322811e-01 1.90878719e-01 3.34323317e-01
      3.69956821e-01 3.69956821e-01 3.62347625e-02 3.69956821e-01</_>
    <_>
      2.78768688e-01 2.75893718e-01 3.46029997e-01 3.46029997e-01
      9.84126702e-02 1.77627057e-02 1.18512534e-01 2.01625660e-01
      1.31328255e-01 1.62489489e-01 3.46029997e-01 3.46029997e-01
      1.23488963e-01 2.63552256e-02 3.46029997e-01 3.46029997e-01
      2.89131016e-01 3.65880765e-02 6.70952424e-02 3.14885408e-01
      1.88799053e-01 4.61394601e-02 1.04236035e-02 1.35404065e-01
      3.11910272e-01 7.14176372e-02 4.63849217e-01 4.63849217e-01
      1.18877120e-01 7.49618337e-02 2.84219801e-01 3.42530936e-01
      2.29845881e-01 7.84494579e-02 4.73540463e-02 1.80542380e-01
      2.27735460e-01 3.39805037e-02 1.78669497e-01 3.64297479e-01
      3.64297479e-01 2.32345521e-01 1.34331524e-01 2.82296121e-01
      3.64297479e-01 3.64297479e-01 4.81060445e-02 3.64297479e-01</_>
    <_>
      1.48008183e-01 3.28863353e-01 3.53371233e-01 3.53371233e-01
      5.71084730e-02 2.75484063e-02 1.84582815e-01 2.20778391e-01
      4.24654596e-02 1.52720347e-01 3.53371233e-01 3.53371233e-01
      4.59739491e-02 5.57661541e-02 3.53371233e-01 3.53371233e-01
      2.73948014e-01 5.20516112e-02 1.32706523e-01 3.69647354e-01
      1.83465928e-01 6.07887432e-02 1.68710314e-02 1.16441414e-01
      2.11061522e-01 1.44342497e-01 4.90426064e-01 4.90426064e-01
      1.48819134e-01 7.33364820e-02 2.22670078e-01 2.97274023e-01
      1.75635651e-01 8.01660866e-02 5.50978743e-02 1.29233509e-01
      2.49358609e-01 3.67046818e-02 2.34757170e-01 3.64999324e-01
      3.64999324e-01 2.18766913e-01 9.55889672e-02 3.38056862e-01
      3.64999324e-01 3.40280503e-01 2.71373447e-02 3.64999324e-01</_>
    <_>
      6.78439960e-02 3.34699988e-01 3.54395002e-01 3.54395002e-01
      9.02950540e-02 1.33401314e-02 5.36761358e-02 1.32555500e-01
      5.72229363e-02 3.54395002e-01 3.54395002e-01 3.54395002e-01
      6.72383383e-02 9.07299817e-02 3.38585734e-01 3.03977430e-01
      3.32914472e-01 3.50249000e-02 9.44751799e-02 3.32914472e-01
      3.32914472e-01 2.47006193e-02 1.67431995e-01 3.32914472e-01
      2.44203120e-01 1.27724215e-01 3.32914472e-01 3.32914472e-01
      3.32914472e-01 1.28412619e-01 5.58738001e-02 2.94097185e-01
      2.91004926e-01 1.01799183e-02 1.83483198e-01 3.56560230e-01
      3.56560230e-01 1.52014643e-01 3.56560230e-01 3.56560230e-01
      2.34945342e-01 6.17180839e-02 1.48802921e-02 1.63476989e-01
      3.56560230e-01 1.57728553e-01 4.43280786e-02 3.26192886e-01</_>
    <_>
      1.56218365e-01 2.77799457e-01 3.60786051e-01 3.60786051e-01
      8.36018994e-02 2.39625070e-02 1.49302974e-01 2.00007632e-01
      6.57408834e-02 1.58437222e-01 3.60786051e-01 3.60786051e-01
      8.11433345e-02 8.91793072e-02 3.60786051e-01 3.60786051e-01
      3.59553605e-01 7.63883740e-02 1.00028515e-01 3.70489031e-01
      2.00087398e-01 7.55312145e-02 1.52906422e-02 1.22899510e-01
      2.94055670e-01 1.92090198e-01 4.36031431e-01 4.36031431e-01
      1.89415544e-01 9.33086574e-02 1.80004433e-01 2.67551959e-01
      1.52276650e-01 6.44420534e-02 3.61264013e-02 1.20952964e-01
      2.25904852e-01 4.47698869e-02 1.94504112e-01 3.77109110e-01
      3.77109110e-01 2.30571941e-01 6.25625998e-02 3.05394560e-01
      3.77109110e-01 3.77109110e-01 2.62285918e-02 3.77109110e-01</_>
    <_>
      3.11570644e-01 3.11570644e-01 1.78450868e-01 3.11570644e-01
      3.11570644e-01 1.35280386e-01 1.48868123e-02 1.73398867e-01
      3.11570644e-01 2.30856001e-01 3.11570644e-01 3.11570644e-01
      1.88773438e-01 1.23827979e-02 2.25297526e-01 3.11570644e-01
      3.51802349e-01 3.51802349e-01 2.01024972e-02 3.51802349e-01
      2.46486098e-01 1.13465428e-01 9.48511995e-03 1.01899542e-01
      3.51802349e-01 3.21314447e-02 3.51802349e-01 3.51802349e-01
      1.49825782e-01 5.93561828e-02 2.12172091e-01 3.12038541e-01
      1.27091154e-01 5.12331799e-02 1.92081239e-02 7.34000504e-02
      1.52638987e-01 2.36203261e-02 4.34215479e-02 1.99136853e-01
      3.75993937e-01 2.40094706e-01 1.06670581e-01 2.09533393e-01
      4.64480460e-01 4.64480460e-01 6.24785125e-02 4.64480460e-01</_>
    <_>
      1.94541872e-01 3.26615691e-01 3.59011859e-01 3.59011859e-01
      4.01475094e-02 1.39730601e-02 1.17689885e-01 1.39573231e-01
      7.36272857e-02 1.62208155e-01 3.59011859e-01 3.59011859e-01
      8.86955261e-02 6.17554747e-02 3.59011859e-01 3.59011859e-01
      2.00909615e-01 8.94906465e-03 6.08583912e-02 2.52193779e-01
      1.35293573e-01 1.98129900e-02 1.06568122e-02 1.22019000e-01
      3.82962286e-01 2.09067062e-01 4.83712047e-01 4.83712047e-01
      2.11308435e-01 1.33571699e-01 2.37217978e-01 2.76822448e-01
      1.28003076e-01 3.61635722e-02 6.08598217e-02 1.54380351e-01
      3.39379102e-01 9.12464112e-02 3.39379102e-01 3.39379102e-01
      3.39379102e-01 1.82725474e-01 6.67065233e-02 3.28347415e-01
      3.39379102e-01 3.24120551e-01 3.57748270e-02 3.39379102e-01</_>
    <_>
      9.24765021e-02 2.78205454e-01 3.63778800e-01 3.63778800e-01
      1.04710437e-01 3.08182482e-02 1.09628081e-01 1.76489651e-01
      3.47623862e-02 2.18885198e-01 3.63778800e-01 3.63778800e-01
      4.80248369e-02 9.94926840e-02 3.63778800e-01 3.63778800e-01
      3.82583410e-01 1.79199412e-01 8.14505443e-02 3.82583410e-01
      3.03794801e-01 1.63778976e-01 4.71822321e-02 2.12810352e-01
      2.27635160e-01 1.97006598e-01 3.82583410e-01 3.82583410e-01
      2.42639661e-01 6.49025142e-02 6.92718700e-02 2.16350317e-01
      2.72312820e-01 1.02440715e-01 9.73140895e-02 2.94158161e-01
      3.35188508e-01 1.41965210e-01 3.35188508e-01 3.35188508e-01
      3.35188508e-01 7.58494362e-02 1.34439478e-02 3.35188508e-01
      3.35188508e-01 5.84126674e-02 6.63500605e-03 3.35188508e-01</_>
    <_>
      1.76753791e-03 1.23855183e-02 1.15609095e-02 1.56871520e-03
      3.23874921e-01 3.23874921e-01 3.23874921e-01 3.23874921e-01
      3.23874921e-01 6.37297183e-02 2.42982823e-02 2.18551457e-01
      3.23874921e-01 3.23874921e-01 3.23874921e-01 3.23874921e-01
      2.94434577e-01 2.94434577e-01 2.94434577e-01 2.94434577e-01
      1.78941786e-01 1.16039775e-01 1.52502909e-01 1.88425645e-01
      2.94434577e-01 2.75480926e-01 2.94434577e-01 2.94434577e-01
      2.94434577e-01 1.43110216e-01 1.27339080e-01 2.94434577e-01
      1.56050816e-01 1.04832873e-01 1.14950754e-01 2.65703499e-01
      2.04101220e-01 7.28239771e-03 2.71928515e-02 2.93162644e-01
      3.75699610e-01 3.00833762e-01 2.27431074e-01 3.75699610e-01
      3.75699610e-01 1.98225155e-01 5.07820360e-02 3.75699610e-01</_>
    <_>
      1.78691849e-01 1.82739887e-02 1.19067151e-02 1.76305056e-01
      3.08645546e-01 2.56738961e-01 2.48386979e-01 2.26675645e-01
      3.74792278e-01 7.51124695e-02 8.42717588e-02 3.74792278e-01
      3.74792278e-01 1.87836856e-01 2.20471144e-01 3.74792278e-01
      2.88230747e-01 2.88230747e-01 2.88230747e-01 2.50359178e-01
      2.12153986e-01 2.88230747e-01 2.73368806e-01 1.28071353e-01
      2.88230747e-01 2.84545392e-01 2.88230747e-01 2.88230747e-01
      1.87458888e-01 1.19209163e-01 1.71221673e-01 2.39007637e-01
      1.56508073e-01 2.84519672e-01 2.46200904e-01 2.33655766e-01
      2.71543145e-01 2.04757005e-01 3.11831921e-01 3.11831921e-01
      1.84454501e-01 3.63080539e-02 1.58769682e-01 3.11831921e-01
      3.11831921e-01 3.11831921e-01 3.11831921e-01 1.28772721e-01</_>
    <_>
      2.01554984e-01 8.07255656e-02 2.28282794e-01 3.25135201e-01
      2.26965249e-01 2.36785188e-01 3.25135201e-01 3.25135201e-01
      2.25277394e-01 2.78973170e-02 2.13758782e-01 3.25135201e-01
      2.19065443e-01 1.02121405e-01 3.25135201e-01 3.25135201e-01
      3.41554850e-01 3.56740385e-01 3.56740385e-01 3.56740385e-01
      5.44215962e-02 5.50944358e-02 4.25842926e-02 5.67366332e-02
      2.91165471e-01 2.23578051e-01 3.56740385e-01 3.56740385e-01
      5.36458120e-02 2.50837784e-02 1.34715870e-01 2.75695533e-01
      1.94951355e-01 8.36838707e-02 1.74044400e-01 3.52556258e-01
      3.52556258e-01 3.58452462e-02 3.07164818e-01 3.52556258e-01
      1.27054423e-01 4.49993871e-02 2.88400561e-01 3.52556258e-01
      2.97747642e-01 2.89030999e-01 1.61654994e-01 1.69383481e-01</_>
    <_>
      3.11894745e-01 6.85762018e-02 6.80950582e-02 2.45413706e-01
      3.26278180e-01 2.22646341e-01 3.26278180e-01 3.26278180e-01
      3.26278180e-01 4.25210670e-02 3.69337089e-02 3.26278180e-01
      3.26278180e-01 8.49581882e-02 1.57259852e-01 3.26278180e-01
      3.30703706e-01 3.16626757e-01 3.30703706e-01 3.30703706e-01
      5.60221076e-02 7.77961463e-02 9.74536762e-02 7.69218579e-02
      3.30703706e-01 1.71823457e-01 3.30703706e-01 3.30703706e-01
      1.03603378e-01 5.37962988e-02 2.51261979e-01 3.30703706e-01
      1.09491065e-01 1.04822189e-01 1.84332922e-01 2.80764610e-01
      2.00952828e-01 1.23128854e-01 4.18011010e-01 4.18011010e-01
      1.62623495e-01 3.40867303e-02 3.76115829e-01 4.18011010e-01
      1.71080083e-01 7.29556531e-02 8.21795911e-02 2.64353335e-01</_>
    <_>
      2.43881047e-01 2.94016935e-02 8.82036984e-03 1.37287065e-01
      3.47453147e-01 2.25269035e-01 3.47453147e-01 3.25729698e-01
      3.47453147e-01 1.00769922e-01 3.85739766e-02 3.47453147e-01
      3.47453147e-01 8.50139931e-02 1.31158933e-01 3.47453147e-01
      3.11136216e-01 3.11136216e-01 3.11136216e-01 3.11136216e-01
      1.30293608e-01 1.19887054e-01 2.30550304e-01 1.39878049e-01
      3.11136216e-01 1.35994241e-01 2.76303560e-01 3.11136216e-01
      2.73308814e-01 9.09496248e-02 1.93324968e-01 3.11136216e-01
      9.57957879e-02 9.45318341e-02 1.55311868e-01 1.59276336e-01
      1.41592830e-01 7.71939382e-02 3.95041943e-01 3.95041943e-01
      3.95041943e-01 6.87727183e-02 2.47835860e-01 3.95041943e-01
      2.09333152e-01 1.89753454e-02 1.08713567e-01 3.95041943e-01</_>
    <_>
      3.74133945e-01 5.37415892e-02 1.65293396e-01 3.74133945e-01
      3.74133945e-01 2.48389114e-02 2.39647195e-01 3.74133945e-01
      2.09264055e-01 5.60307316e-03 5.40072322e-02 2.81237334e-01
      2.72873849e-01 9.51278582e-03 9.02664214e-02 3.73586327e-01
      2.82469600e-01 9.89259109e-02 2.71838546e-01 2.82469600e-01
      2.82469600e-01 2.65634358e-01 2.24883988e-01 2.82469600e-01
      2.05213264e-01 1.47366598e-01 2.80690104e-01 2.82469600e-01
      1.06917687e-01 2.82469600e-01 2.82469600e-01 2.82469600e-01
      3.14197123e-01 3.14197123e-01 3.03527772e-01 2.37054855e-01
      9.08101201e-02 2.78738678e-01 3.14197123e-01 3.14197123e-01
      1.16261415e-01 3.14197123e-01 3.14197123e-01 3.14197123e-01
      1.42564952e-01 1.48492217e-01 9.36432108e-02 8.30380991e-02</_>
    <_>
      3.08304667e-01 8.26663971e-02 3.77503745e-02 2.91178197e-01
      3.19072396e-01 3.19072396e-01 1.07784145e-01 1.44605279e-01
      3.19072396e-01 9.92074311e-02 1.05593428e-01 3.19072396e-01
      3.19072396e-01 2.76433647e-01 2.60648400e-01 3.19072396e-01
      3.43089670e-01 3.43089670e-01 2.47507900e-01 1.63761824e-01
      3.06908697e-01 3.04155529e-01 9.68278646e-02 4.18882482e-02
      3.43089670e-01 3.43089670e-01 3.43089670e-01 3.43089670e-01
      1.80185959e-02 2.90702917e-02 4.99018729e-02 2.71497127e-02
      3.52827400e-01 3.97254467e-01 1.95032120e-01 9.34931338e-02
      1.74369887e-01 4.34155390e-02 1.23956926e-01 3.97254467e-01
      1.73729107e-01 6.60971105e-02 3.28501090e-02 7.79569447e-02
      3.97254467e-01 3.97254467e-01 2.22967118e-01 2.33334199e-01</_>
    <_>
      1.46777436e-01 9.32854563e-02 7.55463764e-02 8.66565928e-02
      3.26868862e-01 3.26868862e-01 3.26868862e-01 3.26868862e-01
      3.26868862e-01 1.12059407e-01 4.60804179e-02 3.26868862e-01
      3.26868862e-01 2.15675801e-01 1.93206459e-01 3.26868862e-01
      3.20187181e-01 3.20187181e-01 3.20187181e-01 3.20187181e-01
      1.86278805e-01 1.73704892e-01 8.31553340e-02 1.62433997e-01
      3.20187181e-01 2.83377260e-01 2.63600737e-01 3.20187181e-01
      1.45343080e-01 7.27875382e-02 1.13472916e-01 3.07282090e-01
      2.80021340e-01 3.00766766e-01 1.32413283e-01 2.27361530e-01
      1.25580862e-01 1.00884810e-01 3.38147163e-01 3.38147163e-01
      1.38712004e-01 4.04935144e-02 2.68698156e-01 3.38147163e-01
      3.38147163e-01 3.38147163e-01 2.18645677e-01 1.41319022e-01</_>
    <_>
      3.73223186e-01 2.75575183e-02 3.11857820e-01 3.73223186e-01
      3.73223186e-01 3.29860039e-02 3.73223186e-01 3.73223186e-01
      8.30319822e-02 2.77424324e-03 5.12657128e-02 1.41958654e-01
      1.66642651e-01 2.02993322e-02 1.61714256e-01 3.41577172e-01
      2.77684659e-01 1.34312451e-01 2.77684659e-01 2.77684659e-01
      2.60716945e-01 2.73702741e-01 2.77684659e-01 2.77684659e-01
      1.38997361e-01 1.98244929e-01 2.77684659e-01 2.77684659e-01
      8.11770037e-02 2.77684659e-01 2.77684659e-01 2.77684659e-01
      3.13282579e-01 3.13282579e-01 3.05438489e-01 2.03028485e-01
      6.49341568e-02 3.13282579e-01 3.13282579e-01 3.13282579e-01
      1.03764735e-01 3.13282579e-01 3.13282579e-01 3.13282579e-01
      1.51229143e-01 1.31096676e-01 1.00631692e-01 1.09643765e-01</_>
    <_>
      3.45720142e-01 7.22923577e-02 4.73980047e-02 3.45720142e-01
      3.45720142e-01 4.05402966e-02 1.03337027e-01 3.45720142e-01
      3.45720142e-01 1.97053030e-02 3.14739421e-02 3.45720142e-01
      3.45720142e-01 6.01083934e-02 1.24819078e-01 3.45720142e-01
      2.90851682e-01 1.77062958e-01 2.09721297e-01 2.90851682e-01
      2.81563371e-01 2.73491710e-01 1.78563863e-01 1.87753692e-01
      2.90851682e-01 2.14716017e-01 2.90851682e-01 2.90851682e-01
      9.32622850e-02 2.31480822e-01 2.90851682e-01 2.90851682e-01
      2.84208685e-01 3.18290919e-01 1.69472083e-01 1.07568368e-01
      1.35467172e-01 3.18290919e-01 3.18290919e-01 3.18290919e-01
      7.59113729e-02 1.75034240e-01 3.18290919e-01 3.12716246e-01
      2.81898320e-01 2.83848941e-01 1.67816356e-01 1.68719605e-01</_>
    <_>
      3.97217363e-01 1.65284753e-01 8.21210071e-02 3.97217363e-01
      3.97217363e-01 1.39181346e-01 1.74599886e-01 3.97217363e-01
      2.81675607e-01 2.89899614e-02 2.31552552e-02 2.56457299e-01
      2.38785580e-01 5.08672632e-02 8.40875655e-02 2.60424614e-01
      2.90794760e-01 1.92676276e-01 2.90794760e-01 2.90794760e-01
      1.20287441e-01 1.97407410e-01 2.90794760e-01 2.90794760e-01
      1.22557536e-01 2.03054398e-01 2.90794760e-01 2.90794760e-01
      6.82926029e-02 2.90794760e-01 2.90794760e-01 2.90794760e-01
      1.09622940e-01 2.00147867e-01 3.13501388e-01 2.46082336e-01
      7.38549083e-02 2.25936338e-01 3.13501388e-01 3.13501388e-01
      1.20599546e-01 3.13501388e-01 3.13501388e-01 3.13501388e-01
      3.13501388e-01 3.13501388e-01 1.11389287e-01 1.20482370e-01</_>
    <_>
      3.22180957e-01 4.88435030e-02 1.23455189e-01 3.22180957e-01
      3.22180957e-01 2.39055872e-01 3.20762485e-01 3.22180957e-01
      1.46812916e-01 2.47691832e-02 6.17244318e-02 1.92590103e-01
      2.60677963e-01 2.55524933e-01 3.22180957e-01 3.22180957e-01
      3.13451380e-01 3.13451380e-01 3.13451380e-01 3.13451380e-01
      1.19436659e-01 1.13395646e-01 7.88035542e-02 9.12096873e-02
      3.13451380e-01 3.13451380e-01 3.13451380e-01 3.13451380e-01
      9.39393565e-02 1.17612585e-01 2.86419839e-01 2.53982812e-01
      1.01707764e-01 4.14322354e-02 6.18714392e-02 1.20408624e-01
      1.61690176e-01 3.44585449e-01 3.64326060e-01 3.64326060e-01
      1.47026673e-01 1.28284916e-01 3.09692323e-01 3.10370386e-01
      3.64326060e-01 3.64326060e-01 1.00644298e-01 2.22965866e-01</_>
    <_>
      3.77210349e-01 2.89125238e-02 2.85897046e-01 3.77210349e-01
      3.77210349e-01 9.44203585e-02 3.77210349e-01 3.77210349e-01
      7.17223212e-02 1.89041952e-03 3.68753411e-02 1.18320897e-01
      1.63843915e-01 8.74270648e-02 2.08895504e-01 3.07688057e-01
      2.82947391e-01 1.52610317e-01 2.82947391e-01 2.82947391e-01
      2.82947391e-01 2.22177863e-01 2.59945095e-01 2.82947391e-01
      1.25217274e-01 2.16210380e-01 2.82947391e-01 2.82947391e-01
      6.01304397e-02 2.65279323e-01 2.82947391e-01 2.82947391e-01
      2.87526906e-01 2.87526906e-01 2.49325797e-01 2.87526906e-01
      1.63031921e-01 2.87526906e-01 2.87526906e-01 2.87526906e-01
      6.59475848e-02 2.47949287e-01 2.87526906e-01 2.87526906e-01
      2.49513969e-01 2.84117162e-01 1.48049831e-01 1.27608135e-01</_>
    <_>
      3.20531458e-01 1.05173476e-01 2.29951903e-01 3.20531458e-01
      3.20531458e-01 2.81777084e-01 3.20531458e-01 3.20531458e-01
      8.38815719e-02 6.06798269e-02 1.17947690e-01 1.63712949e-01
      1.40752107e-01 2.51065165e-01 3.20531458e-01 3.20531458e-01
      3.33364308e-01 3.33364308e-01 3.33364308e-01 3.33364308e-01
      5.91617525e-02 7.64110535e-02 4.76965792e-02 3.65621671e-02
      1.98977262e-01 3.33364308e-01 3.33364308e-01 3.33364308e-01
      6.86135516e-02 6.97383583e-02 2.82973707e-01 2.76693195e-01
      9.98960361e-02 1.49679193e-02 7.11881295e-02 1.77990928e-01
      2.35191107e-01 2.55099446e-01 3.76827061e-01 3.76827061e-01
      1.82965457e-01 1.34152144e-01 3.34922880e-01 3.73133063e-01
      3.76827061e-01 1.50004044e-01 4.01853807e-02 2.75510728e-01</_>
    <_>
      2.96433240e-01 2.57181525e-01 1.18058985e-02 1.85613170e-01
      2.96433240e-01 2.96433240e-01 5.18158302e-02 2.61648387e-01
      2.96433240e-01 2.96433240e-01 2.62685437e-02 2.96433240e-01
      2.96433240e-01 2.96433240e-01 1.92624897e-01 2.90488124e-01
      3.30626428e-01 3.30626428e-01 1.23888031e-01 3.16679388e-01
      2.27683738e-01 2.06800342e-01 5.63203320e-02 6.55447841e-02
      3.30626428e-01 3.30626428e-01 3.30626428e-01 3.30626428e-01
      1.87207296e-01 1.88941926e-01 1.69027075e-01 1.54237479e-01
      2.29142994e-01 1.89799875e-01 5.62469698e-02 9.05700400e-02
      2.55866706e-01 9.86486599e-02 1.79655030e-01 3.65786761e-01
      2.44575322e-01 2.79756576e-01 3.28518569e-01 2.77984262e-01
      3.65786761e-01 3.65786761e-01 2.38946721e-01 8.48355517e-02</_>
    <_>
      3.56932372e-01 2.05869693e-02 3.28915298e-01 3.56932372e-01
      3.56932372e-01 1.72808364e-01 3.56932372e-01 3.56932372e-01
      2.32559629e-02 9.63467406e-04 2.27452051e-02 4.49224785e-02
      9.69418958e-02 1.36373535e-01 3.32728326e-01 2.81385362e-01
      2.86330193e-01 2.13839248e-01 2.86330193e-01 2.86330193e-01
      2.31939822e-01 2.36777022e-01 2.72378713e-01 2.86330193e-01
      7.07818568e-02 2.67229706e-01 2.86330193e-01 2.86330193e-01
      3.33497189e-02 2.22540274e-01 2.86330193e-01 2.57699251e-01
      2.97564119e-01 2.97564119e-01 2.97564119e-01 2.73667961e-01
      1.17172018e-01 2.97564119e-01 2.97564119e-01 2.97564119e-01
      6.39249235e-02 2.00401217e-01 2.97564119e-01 2.59180754e-01
      2.19978973e-01 2.36641794e-01 2.02601060e-01 1.78138241e-01</_>
    <_>
      2.99063623e-01 2.44247705e-01 1.21463528e-02 1.63424313e-01
      2.99063623e-01 2.99063623e-01 6.61731660e-02 2.46346742e-01
      2.99063623e-01 2.99063623e-01 2.34623887e-02 2.98374176e-01
      2.99063623e-01 2.99063623e-01 2.00858146e-01 2.99063623e-01
      3.32736313e-01 3.32736313e-01 1.66102514e-01 3.00973177e-01
      2.12329954e-01 2.09653720e-01 7.97454938e-02 5.62749840e-02
      3.32736313e-01 3.32736313e-01 3.32736313e-01 3.32736313e-01
      1.68913454e-01 1.63683265e-01 1.75324947e-01 1.72023922e-01
      2.96274483e-01 1.92850649e-01 5.13351783e-02 1.22530997e-01
      2.24393725e-01 1.92534938e-01 3.10533434e-01 3.10533434e-01
      2.87626266e-01 2.72373766e-01 3.10533434e-01 3.10533434e-01
      3.10533434e-01 3.10533434e-01 8.58375728e-02 1.54871538e-01</_>
    <_>
      3.47460479e-01 1.72124654e-02 1.37884747e-02 3.47460479e-01
      3.47460479e-01 7.17681497e-02 7.45505020e-02 3.47460479e-01
      3.47460479e-01 6.96180686e-02 3.94581556e-02 3.47460479e-01
      3.47460479e-01 1.11608610e-01 2.53598914e-02 3.47460479e-01
      3.30302328e-01 1.74120277e-01 1.86883181e-01 3.30302328e-01
      2.91095972e-01 1.64421365e-01 1.63933545e-01 2.92193234e-01
      3.30302328e-01 1.98409066e-01 6.34417161e-02 3.30302328e-01
      3.30302328e-01 1.82560205e-01 8.05578902e-02 2.80583590e-01
      2.41259530e-01 1.81727245e-01 1.75980091e-01 2.68330336e-01
      1.66124165e-01 1.93699431e-02 1.17304232e-02 1.66399747e-01
      3.77688169e-01 2.83232212e-01 1.20717734e-01 3.77688169e-01
      3.77688169e-01 2.80220240e-01 4.81318086e-02 3.77688169e-01</_>
    <_>
      1.72967911e-01 2.95442306e-02 2.54520744e-01 3.20843577e-01
      2.38938391e-01 1.35525614e-01 3.20843577e-01 3.20843577e-01
      3.20843577e-01 6.70576021e-02 8.37926492e-02 3.13176394e-01
      3.20843577e-01 1.98226616e-01 2.43369877e-01 3.20843577e-01
      3.02924037e-01 3.21226567e-01 3.21226567e-01 3.21226567e-01
      1.02033593e-01 1.37007311e-01 2.24773616e-01 1.99015334e-01
      3.21226567e-01 3.21027011e-01 3.21226567e-01 3.21226567e-01
      1.41503066e-01 7.18753263e-02 1.03391834e-01 1.66309863e-01
      1.05409034e-01 2.34842580e-02 8.14640447e-02 2.44757369e-01
      3.32539320e-01 1.83560655e-01 3.24125886e-01 3.32539320e-01
      2.03986824e-01 1.82005707e-02 6.86092526e-02 2.63773859e-01
      3.32539320e-01 3.32539320e-01 3.32539320e-01 3.32539320e-01</_>
    <_>
      1.95244774e-01 2.45343037e-02 2.44162157e-01 3.36372226e-01
      2.48581767e-01 1.12001546e-01 3.36372226e-01 3.36372226e-01
      3.36372226e-01 1.91415735e-02 6.94589391e-02 3.36372226e-01
      3.36372226e-01 7.59097338e-02 1.44869655e-01 3.36372226e-01
      3.47287625e-01 3.12388629e-01 3.52329701e-01 3.52329701e-01
      9.02434513e-02 1.32395297e-01 1.76594660e-01 1.68864727e-01
      3.52329701e-01 2.06111848e-01 2.67488152e-01 3.52329701e-01
      1.08101860e-01 7.42520243e-02 9.85351875e-02 2.35426858e-01
      2.13275254e-01 9.59079713e-02 1.84009835e-01 3.54256481e-01
      3.54256481e-01 2.85920016e-02 2.23711327e-01 3.54256481e-01
      3.33962381e-01 8.14342648e-02 2.23535120e-01 3.54256481e-01
      2.40945458e-01 1.06816918e-01 1.15495197e-01 3.22687656e-01</_>
    <_>
      3.29620451e-01 3.92809361e-02 1.34787500e-01 3.37762743e-01
      3.37762743e-01 9.06046182e-02 1.98771298e-01 3.37762743e-01
      3.37762743e-01 7.84694776e-02 6.23266362e-02 3.37762743e-01
      3.37762743e-01 8.50073472e-02 6.84948117e-02 3.37762743e-01
      3.49125624e-01 2.19028249e-01 3.49125624e-01 3.49125624e-01
      9.06504542e-02 1.23872735e-01 1.82971686e-01 2.00692415e-01
      3.49125624e-01 1.55048996e-01 1.50714830e-01 3.49125624e-01
      1.88094854e-01 6.02102391e-02 1.84738144e-01 3.49125624e-01
      1.29096597e-01 2.13744313e-01 2.54178792e-01 2.66355991e-01
      1.54849261e-01 9.09048244e-02 3.87115061e-01 3.87115061e-01
      2.32166052e-01 5.92055023e-02 3.87115061e-01 3.87115061e-01
      1.40449032e-01 3.62400413e-02 8.66939276e-02 2.83887386e-01</_>
    <_>
      2.78051525e-01 5.33946604e-02 1.73446074e-01 3.39161038e-01
      3.39161038e-01 6.87269419e-02 2.49632865e-01 3.39161038e-01
      3.39161038e-01 5.43047674e-02 3.53002548e-02 3.39161038e-01
      3.39161038e-01 5.44926897e-02 8.33546296e-02 3.39161038e-01
      3.33067298e-01 1.49283126e-01 3.33067298e-01 3.33067298e-01
      1.29721075e-01 1.25763163e-01 2.77493894e-01 3.33067298e-01
      3.33067298e-01 1.00517221e-01 1.37163922e-01 3.33067298e-01
      2.06838995e-01 6.85755759e-02 1.08629659e-01 3.33067298e-01
      1.48517549e-01 1.92569971e-01 3.39070410e-01 3.39070410e-01
      1.56679109e-01 5.29455803e-02 3.39070410e-01 3.39070410e-01
      3.39070410e-01 6.24363981e-02 2.56462097e-01 3.39070410e-01
      1.65070981e-01 1.13856765e-02 9.10485461e-02 3.39070410e-01</_>
    <_>
      1.67822897e-01 3.45203169e-02 2.68422991e-01 3.44050854e-01
      2.75692403e-01 5.92640489e-02 2.59935588e-01 3.44050854e-01
      3.44050854e-01 9.65968296e-02 8.13413337e-02 3.00090253e-01
      3.44050854e-01 1.74555078e-01 1.40515149e-01 3.44050854e-01
      3.07351321e-01 1.90726876e-01 3.07351321e-01 3.07351321e-01
      1.97512552e-01 2.81607151e-01 2.77717978e-01 2.62491077e-01
      3.07351321e-01 2.50879794e-01 1.95226729e-01 3.07351321e-01
      1.96101308e-01 1.30506635e-01 1.14637762e-01 2.32812822e-01
      3.34519118e-01 3.34519118e-01 3.34519118e-01 3.34519118e-01
      9.86102000e-02 9.03003365e-02 3.34519118e-01 3.34519118e-01
      2.85505384e-01 7.77050629e-02 1.43015325e-01 3.34519118e-01
      1.97872713e-01 6.03411123e-02 5.34096770e-02 2.04465374e-01</_>
    <_>
      1.24203488e-01 3.46287526e-02 2.78978169e-01 3.33260983e-01
      2.51785308e-01 1.04375809e-01 3.33260983e-01 3.33260983e-01
      3.33260983e-01 1.13605313e-01 6.47519603e-02 2.00606480e-01
      3.33260983e-01 2.60682404e-01 1.90397233e-01 3.33260983e-01
      2.96926349e-01 2.51439542e-01 3.02299380e-01 3.02299380e-01
      1.44629493e-01 2.08057702e-01 2.51300097e-01 2.42177546e-01
      3.02299380e-01 3.02299380e-01 2.65643746e-01 3.02299380e-01
      2.43065044e-01 1.02173664e-01 9.79025140e-02 2.30192423e-01
      2.51699328e-01 3.15594852e-01 2.77007520e-01 2.95731127e-01
      1.54892489e-01 2.39714701e-02 1.38787791e-01 3.41566592e-01
      3.41566592e-01 5.69525473e-02 1.35218069e-01 3.41566592e-01
      3.41566592e-01 1.03256367e-01 1.00440085e-01 3.41566592e-01</_>
    <_>
      2.76878029e-01 8.04729685e-02 1.07211582e-01 3.10786605e-01
      3.10786605e-01 2.56181240e-01 2.66462326e-01 3.10786605e-01
      3.10786605e-01 3.10786605e-01 9.49895158e-02 9.32790786e-02
      3.10786605e-01 3.10786605e-01 8.27218592e-02 2.54846513e-01
      3.01033199e-01 3.01033199e-01 3.01033199e-01 3.01033199e-01
      1.68074489e-01 1.01137601e-01 9.86513719e-02 1.52967200e-01
      3.01033199e-01 3.01033199e-01 2.84391910e-01 3.01033199e-01
      1.60395101e-01 2.34583795e-01 2.98885852e-01 2.00171456e-01
      3.10585558e-01 1.46390602e-01 4.14676778e-02 2.68237889e-01
      2.50297129e-01 1.25282571e-01 1.89329267e-01 3.01474065e-01
      2.08075598e-01 3.10585558e-01 3.10585558e-01 3.10585558e-01
      3.10585558e-01 3.10585558e-01 1.29022852e-01 2.40823522e-01</_>
    <_>
      2.91711390e-01 1.62926212e-01 1.35340124e-01 2.91711390e-01
      2.91711390e-01 2.91711390e-01 2.91711390e-01 2.91711390e-01
      2.91711390e-01 2.91711390e-01 8.57109651e-02 1.13603890e-01
      2.91711390e-01 2.91711390e-01 1.92384034e-01 2.09771171e-01
      3.28557700e-01 3.28557700e-01 3.28557700e-01 3.28557700e-01
      1.12971216e-01 3.12371086e-02 1.80691965e-02 8.06572512e-02
      3.28557700e-01 3.28557700e-01 3.28557700e-01 3.28557700e-01
      8.50650221e-02 1.75650805e-01 2.27383018e-01 1.50841922e-01
      2.36631975e-01 7.33945444e-02 1.37350298e-02 1.31591707e-01
      1.17040180e-01 6.39987886e-02 1.81762695e-01 2.42371649e-01
      3.27509403e-01 2.79665589e-01 1.34287879e-01 2.05244869e-01
      4.28672552e-01 4.28672552e-01 1.01691328e-01 4.28672552e-01</_>
    <_>
      2.81331629e-01 2.90839709e-02 1.57101154e-01 3.30357343e-01
      3.30357343e-01 2.18487103e-02 3.30357343e-01 3.30357343e-01
      3.30357343e-01 3.08849197e-02 8.97371694e-02 3.30357343e-01
      3.30357343e-01 2.91326623e-02 9.27598998e-02 3.30357343e-01
      3.05539876e-01 7.04524592e-02 3.05539876e-01 3.05539876e-01
      2.67527461e-01 8.47091973e-02 2.63263792e-01 3.05539876e-01
      3.05539876e-01 1.20101638e-01 2.16631591e-01 3.05539876e-01
      2.17492938e-01 1.42163113e-01 2.48151973e-01 3.05539876e-01
      3.29173148e-01 2.41255060e-01 2.04531506e-01 3.29173148e-01
      3.29173148e-01 2.61442125e-01 3.25756520e-01 3.29173148e-01
      1.99325845e-01 1.50190443e-01 2.57769257e-01 3.01146150e-01
      1.73137113e-01 1.01126090e-01 8.32586959e-02 1.49089962e-01</_>
    <_>
      2.74234831e-01 1.06025152e-01 1.01697244e-01 2.78695077e-01
      3.06615978e-01 1.59133613e-01 2.38727033e-01 3.06615978e-01
      3.06615978e-01 2.69363046e-01 2.16450859e-02 3.06615978e-01
      3.06615978e-01 3.06615978e-01 9.51017812e-02 3.06615978e-01
      3.12507778e-01 2.54779428e-01 3.12507778e-01 3.12507778e-01
      2.05872834e-01 1.62597224e-01 1.29767194e-01 1.77324921e-01
      3.12507778e-01 3.12507778e-01 2.57721931e-01 3.12507778e-01
      2.26890847e-01 2.35397354e-01 1.72271088e-01 1.60946205e-01
      3.11202526e-01 3.11202526e-01 7.97446296e-02 2.04379126e-01
      2.35466242e-01 3.11202526e-01 3.11202526e-01 3.11202526e-01
      2.51379400e-01 2.22470194e-01 1.83736056e-01 2.11530566e-01
      3.11202526e-01 2.95375079e-01 4.30259444e-02 1.78738743e-01</_>
    <_>
      3.28409642e-01 7.34436065e-02 9.98069495e-02 3.28409642e-01
      3.28409642e-01 7.85200223e-02 2.88192332e-01 3.28409642e-01
      3.28409642e-01 9.05811861e-02 2.85028387e-02 3.28409642e-01
      3.28409642e-01 1.00180119e-01 1.01323433e-01 3.28409642e-01
      3.21361333e-01 1.58218235e-01 3.21361333e-01 3.21361333e-01
      1.96046114e-01 1.63217291e-01 2.02136561e-01 2.36840621e-01
      3.21361333e-01 1.76498622e-01 3.01613152e-01 3.21361333e-01
      1.31592855e-01 1.10613607e-01 2.60056973e-01 2.72139341e-01
      3.16034526e-01 3.04631114e-01 1.63070083e-01 1.93063214e-01
      1.20651864e-01 3.16034526e-01 3.16034526e-01 3.16034526e-01
      1.36434406e-01 1.23537689e-01 3.16034526e-01 3.16034526e-01
      3.16034526e-01 2.33064979e-01 1.03088014e-01 1.66291848e-01</_>
    <_>
      3.13213497e-01 1.07736729e-01 9.64967087e-02 3.13213497e-01
      3.13213497e-01 1.49247572e-01 1.01141736e-01 3.13213497e-01
      3.13213497e-01 2.99089521e-01 2.58999858e-02 2.60358214e-01
      3.13213497e-01 3.13213497e-01 2.67170388e-02 3.13213497e-01
      2.88094014e-01 1.94563374e-01 1.43022433e-01 2.88094014e-01
      2.88094014e-01 1.57178491e-01 1.30857587e-01 2.82833457e-01
      2.88094014e-01 2.88094014e-01 6.50955588e-02 2.88094014e-01
      2.88094014e-01 2.56449372e-01 2.88094014e-01 2.88094014e-01
      3.45725089e-01 2.84199029e-01 2.37514675e-01 3.45725089e-01
      1.77382663e-01 9.85291600e-02 4.87354323e-02 1.26537979e-01
      3.38760614e-01 3.45725089e-01 3.45725089e-01 3.45725089e-01
      2.02166840e-01 1.43928260e-01 9.19304416e-02 1.31824791e-01</_>
    <_>
      3.14429790e-01 1.61818698e-01 7.04828724e-02 3.14429790e-01
      3.14429790e-01 1.51524261e-01 2.42104400e-02 3.14429790e-01
      3.14429790e-01 2.79001504e-01 3.02285273e-02 2.94550061e-01
      3.14429790e-01 2.90185302e-01 1.93319637e-02 3.14429790e-01
      3.07832628e-01 1.99430406e-01 5.78436106e-02 3.07832628e-01
      3.07832628e-01 1.36057377e-01 6.59356788e-02 2.37373158e-01
      3.07832628e-01 3.07832628e-01 8.43800306e-02 3.07832628e-01
      2.73286223e-01 2.39337862e-01 2.90202469e-01 2.87627459e-01
      3.09348464e-01 2.44508669e-01 1.29646957e-01 3.09348464e-01
      2.48050526e-01 1.99046075e-01 1.53368652e-01 2.04405680e-01
      2.05450848e-01 3.09348464e-01 3.09348464e-01 3.09348464e-01
      3.09348464e-01 3.09348464e-01 1.39760554e-01 1.49149865e-01</_>
    <_>
      3.12485099e-01 1.70499355e-01 9.86825675e-02 3.12485099e-01
      3.12485099e-01 1.62452593e-01 5.09479344e-02 3.12485099e-01
      3.12485099e-01 2.95298338e-01 3.21774073e-02 2.42237344e-01
      3.12485099e-01 3.12485099e-01 3.14916670e-02 3.12485099e-01
      3.09827775e-01 2.13321522e-01 9.78431180e-02 3.09827775e-01
      2.87871122e-01 1.32622957e-01 7.82392770e-02 2.13279501e-01
      3.09827775e-01 3.09827775e-01 1.20910697e-01 3.09827775e-01
      2.82059401e-01 2.86610842e-01 2.68493503e-01 2.47747451e-01
      2.88972825e-01 1.76079810e-01 6.56338260e-02 2.26413146e-01
      1.58952072e-01 2.88972825e-01 2.88972825e-01 2.34023884e-01
      2.47201771e-01 2.88972825e-01 2.88972825e-01 2.88972825e-01
      2.88972825e-01 2.88972825e-01 2.80011237e-01 1.51484266e-01</_>
    <_>
      2.21190795e-01 7.38024861e-02 1.11145675e-01 2.63959289e-01
      3.29584301e-01 8.96472633e-02 2.54204363e-01 3.29584301e-01
      3.29584301e-01 2.61910558e-01 2.82908063e-02 3.29584301e-01
      3.29584301e-01 2.55384862e-01 3.57291475e-02 3.29584301e-01
      2.86727130e-01 9.61870924e-02 2.70623505e-01 2.86727130e-01
      2.86727130e-01 1.20049000e-01 2.39438772e-01 2.86727130e-01
      2.86727130e-01 2.29408622e-01 9.62242335e-02 2.86727130e-01
      2.86727130e-01 2.86727130e-01 2.02740714e-01 2.86727130e-01
      3.15288991e-01 2.13702157e-01 2.99913406e-01 3.15288991e-01
      3.15288991e-01 1.81641266e-01 4.42278795e-02 3.15288991e-01
      3.15288991e-01 3.15288991e-01 3.15288991e-01 3.15288991e-01
      1.30479500e-01 9.89715979e-02 2.88364291e-02 5.80884703e-02</_>
    <_>
      2.68006116e-01 1.04199968e-01 9.25886482e-02 2.50992507e-01
      3.12200397e-01 2.36599579e-01 2.01258868e-01 3.12200397e-01
      3.12200397e-01 3.12200397e-01 2.07770094e-02 2.31439993e-01
      3.12200397e-01 3.12200397e-01 9.93050486e-02 3.12200397e-01
      3.09359431e-01 3.09359431e-01 2.63505042e-01 3.09359431e-01
      1.91817373e-01 1.28772914e-01 8.62342790e-02 1.40677139e-01
      3.09359431e-01 3.09359431e-01 2.05195576e-01 3.09359431e-01
      3.09359431e-01 2.93638915e-01 1.47905022e-01 1.63533926e-01
      2.51165897e-01 1.20315060e-01 2.14175265e-02 1.50829241e-01
      2.80230463e-01 3.05378675e-01 3.05378675e-01 3.05378675e-01
      3.05378675e-01 3.05378675e-01 2.28859544e-01 1.75180301e-01
      3.05378675e-01 3.05378675e-01 1.93773970e-01 2.10345268e-01</_>
    <_>
      2.84972578e-01 2.84972578e-01 1.33518428e-01 2.84972578e-01
      2.84972578e-01 2.44170174e-01 2.00201362e-01 2.84972578e-01
      2.84972578e-01 2.84972578e-01 2.76101500e-01 1.33071080e-01
      1.46706685e-01 2.84972578e-01 2.84972578e-01 1.82423726e-01
      3.44027013e-01 3.44027013e-01 3.44027013e-01 3.44027013e-01
      3.07439774e-01 4.35075834e-02 7.16835214e-03 1.31036922e-01
      1.96641430e-01 3.44027013e-01 3.44027013e-01 3.44027013e-01
      6.34509102e-02 1.55278780e-02 3.95311117e-02 9.97423753e-02
      3.37706149e-01 4.58826683e-02 9.42854304e-03 1.44962043e-01
      4.10133094e-01 1.39732122e-01 4.71377820e-02 1.55967534e-01
      1.48890331e-01 1.89126223e-01 6.60756007e-02 7.46233091e-02
      4.10133094e-01 4.10133094e-01 4.10133094e-01 2.68082231e-01</_>
    <_>
      2.61052758e-01 2.61052758e-01 2.45144621e-01 2.61052758e-01
      2.61052758e-01 2.44356275e-01 2.02086493e-01 2.61052758e-01
      2.34499469e-01 2.61052758e-01 2.61052758e-01 2.02597678e-01
      2.43362084e-01 2.61052758e-01 2.61052758e-01 2.61052758e-01
      3.45284343e-01 3.45284343e-01 3.45284343e-01 3.45284343e-01
      7.03783035e-02 9.50078145e-02 3.27488743e-02 5.61298691e-02
      3.45284343e-01 3.45284343e-01 3.45284343e-01 3.45284343e-01
      9.75930020e-02 6.84262142e-02 4.96426113e-02 8.89177546e-02
      2.72130013e-01 2.35533059e-01 2.14974329e-01 2.36661196e-01
      2.72130013e-01 2.72130013e-01 2.72130013e-01 2.72130013e-01
      2.72130013e-01 2.21165597e-01 1.80172741e-01 1.69420987e-01
      2.72130013e-01 2.72130013e-01 2.72130013e-01 2.51017183e-01</_>
    <_>
      2.89132446e-01 1.29975274e-01 1.31681472e-01 2.89132446e-01
      2.89132446e-01 1.82019502e-01 1.68479070e-01 2.89132446e-01
      2.89132446e-01 1.57344297e-01 2.47664168e-01 2.89132446e-01
      2.89132446e-01 2.50774503e-01 2.89132446e-01 2.89132446e-01
      3.30860615e-01 3.30860615e-01 2.75594980e-01 3.30860615e-01
      2.23768011e-01 2.00359687e-01 4.37072664e-02 9.12603289e-02
      2.98391134e-01 3.30860615e-01 3.30860615e-01 3.30860615e-01
      6.79894388e-02 1.01917505e-01 1.54871315e-01 1.88260496e-01
      3.87199610e-01 1.59123093e-01 2.55940072e-02 1.86622903e-01
      1.45269975e-01 4.57526781e-02 3.28608118e-02 9.27395448e-02
      3.87199610e-01 2.87907034e-01 1.23675428e-01 1.58746660e-01
      3.87199610e-01 3.87199610e-01 1.71601549e-01 3.87199610e-01</_>
    <_>
      3.01542014e-01 3.01542014e-01 1.67306975e-01 1.40054390e-01
      3.01542014e-01 2.70505846e-01 1.53092474e-01 3.01542014e-01
      2.30494589e-01 3.01542014e-01 2.96390861e-01 6.89770877e-02
      2.39893794e-01 3.01542014e-01 2.73764372e-01 1.70219213e-01
      3.37615013e-01 3.37615013e-01 3.37615013e-01 3.37615013e-01
      9.42294747e-02 1.42940089e-01 9.54613313e-02 9.48340967e-02
      3.32345188e-01 3.37615013e-01 3.37615013e-01 3.23276103e-01
      5.49476407e-02 1.74805313e-01 1.11484282e-01 6.58803657e-02
      1.98503241e-01 8.90090317e-02 7.43895993e-02 2.57251650e-01
      3.33741635e-01 5.02268411e-02 7.75441229e-02 3.61622632e-01
      2.64367253e-01 1.19482636e-01 6.49676546e-02 1.23238921e-01
      3.61622632e-01 3.61622632e-01 3.61622632e-01 3.61622632e-01</_>
    <_>
      3.01117867e-01 3.01117867e-01 2.18394160e-01 1.51590809e-01
      3.01117867e-01 3.01117867e-01 2.07990587e-01 3.01117867e-01
      2.79145032e-01 3.01117867e-01 1.99541911e-01 8.88956934e-02
      1.47549018e-01 3.01117867e-01 2.85796225e-01 1.38779968e-01
      3.51304770e-01 3.51304770e-01 3.51304770e-01 3.51304770e-01
      1.13774367e-01 1.97060183e-01 1.29760057e-01 1.17265433e-01
      2.33727917e-01 3.51304770e-01 3.51304770e-01 2.65085101e-01
      5.56145720e-02 1.76234797e-01 1.05066590e-01 5.95324896e-02
      1.78851157e-01 1.08638629e-01 4.09261733e-02 1.18355371e-01
      3.43723536e-01 3.43723536e-01 3.04387718e-01 3.30147088e-01
      1.28136724e-01 3.26992124e-02 2.05351561e-02 9.30511430e-02
      3.43723536e-01 3.43723536e-01 3.43723536e-01 3.43723536e-01</_>
    <_>
      2.77846545e-01 2.77846545e-01 4.89117689e-02 2.04566836e-01
      2.77846545e-01 2.77846545e-01 1.65766910e-01 1.72054872e-01
      2.77846545e-01 2.77846545e-01 2.75080889e-01 2.40928441e-01
      2.77846545e-01 2.77846545e-01 2.77846545e-01 2.59610474e-01
      3.12563002e-01 3.12563002e-01 2.89177984e-01 2.51648903e-01
      1.98914289e-01 4.05261777e-02 4.55237133e-03 1.54523164e-01
      3.12563002e-01 3.12563002e-01 3.12563002e-01 3.12563002e-01
      3.12563002e-01 2.30088159e-02 5.21905124e-02 3.12563002e-01
      2.55803138e-01 6.08747005e-02 6.63388334e-03 1.95103332e-01
      2.70809323e-01 1.33769616e-01 3.03817019e-02 1.50633588e-01
      3.84004653e-01 1.74945831e-01 4.80503216e-02 3.84004653e-01
      3.84004653e-01 3.84004653e-01 6.20890036e-02 3.84004653e-01</_>
    <_>
      1.66940853e-01 2.95213073e-01 2.95213073e-01 2.17623517e-01
      2.05982506e-01 2.03402147e-01 2.95213073e-01 2.95213073e-01
      9.74173993e-02 2.95213073e-01 2.95213073e-01 1.67184293e-01
      1.27365679e-01 2.95213073e-01 2.95213073e-01 2.95213073e-01
      2.20095828e-01 2.42487252e-01 3.63113254e-01 3.63113254e-01
      7.59825669e-03 4.87795696e-02 7.73013979e-02 2.07735356e-02
      2.07219094e-01 3.63113254e-01 3.63113254e-01 3.63113254e-01
      1.05866916e-01 1.83356687e-01 3.02896708e-01 2.03754142e-01
      2.15038017e-06 0. 0. 2.15038017e-06 1.03504527e-02 3.04787303e-03
      8.12054612e-04 7.62908813e-03 4.33672518e-01 1.98900357e-01
      1.04905486e-01 3.64142329e-01 4.33672518e-01 4.33672518e-01
      2.45028943e-01 4.33672518e-01</_>
    <_>
      2.82124460e-01 2.82124460e-01 2.17328623e-01 2.23833427e-01
      2.82124460e-01 2.35641733e-01 1.96164861e-01 2.82124460e-01
      2.82124460e-01 2.82124460e-01 2.82124460e-01 8.53903070e-02
      2.09349364e-01 2.82124460e-01 2.82124460e-01 1.95891276e-01
      3.48066419e-01 3.48066419e-01 3.48066419e-01 3.48066419e-01
      6.69505224e-02 1.13146670e-01 7.86425024e-02 3.85002606e-02
      2.63310045e-01 3.48066419e-01 3.48066419e-01 3.48066419e-01
      5.41242249e-02 1.34436980e-01 1.62014842e-01 8.32810700e-02
      1.45664020e-02 1.40599879e-02 7.39587331e-03 8.01430922e-03
      2.27640659e-01 4.51052189e-01 2.45335013e-01 2.73470450e-02
      1.75907537e-01 9.52648073e-02 3.07443123e-02 1.04680605e-01
      4.51052189e-01 4.51052189e-01 4.51052189e-01 1.28429189e-01</_>
    <_>
      2.77465641e-01 2.37763599e-01 3.40214334e-02 2.32205704e-01
      2.77465641e-01 2.77465641e-01 6.19732067e-02 2.51271218e-01
      2.77465641e-01 2.77465641e-01 2.24695832e-01 2.77465641e-01
      2.77465641e-01 2.74350405e-01 2.77465641e-01 2.77465641e-01
      3.29237074e-01 3.29237074e-01 1.12483189e-01 3.29237074e-01
      3.29237074e-01 2.41666123e-01 1.23196170e-02 2.30280340e-01
      3.08097303e-01 3.29237074e-01 3.29237074e-01 3.29237074e-01
      7.71702677e-02 6.40711859e-02 6.09209500e-02 7.07067847e-02
      3.34088057e-01 2.85643995e-01 1.81154702e-02 3.31258357e-01
      3.34088057e-01 2.31963277e-01 7.85468444e-02 2.10018501e-01
      2.32032344e-01 7.60603398e-02 1.30380811e-02 1.56745821e-01
      3.34088057e-01 3.34088057e-01 3.34088057e-01 2.41841316e-01</_>
    <_>
      2.74923086e-01 2.36595899e-01 3.72573882e-02 2.33638361e-01
      2.74923086e-01 2.74923086e-01 7.77763128e-02 2.74923086e-01
      2.74923086e-01 2.74923086e-01 2.18725786e-01 2.74923086e-01
      2.74923086e-01 2.74923086e-01 2.74923086e-01 2.74923086e-01
      3.29986960e-01 3.29986960e-01 1.46319121e-01 3.29986960e-01
      3.29986960e-01 2.35639140e-01 1.34661775e-02 2.31466010e-01
      2.93428063e-01 3.29986960e-01 3.29986960e-01 3.29986960e-01
      7.21408948e-02 5.87129965e-02 6.11402318e-02 7.26679265e-02
      3.44440788e-01 2.86572814e-01 2.01620199e-02 3.25388342e-01
      3.44440788e-01 2.17420250e-01 7.95058087e-02 2.14495227e-01
      2.22594216e-01 8.23694989e-02 9.52136889e-03 1.36472002e-01
      3.44440788e-01 3.44440788e-01 3.12702000e-01 2.47307479e-01</_>
    <_>
      2.79583007e-01 2.79583007e-01 1.12643570e-01 2.79583007e-01
      2.79583007e-01 2.19044164e-01 1.32790700e-01 2.79583007e-01
      2.79583007e-01 2.79583007e-01 2.79583007e-01 2.24429801e-01
      1.93427905e-01 2.79583007e-01 2.79583007e-01 2.22382590e-01
      3.44030589e-01 3.44030589e-01 2.53288031e-01 3.44030589e-01
      3.44030589e-01 1.52934238e-01 8.28777999e-03 2.33781740e-01
      1.81422994e-01 3.44030589e-01 3.44030589e-01 3.21603686e-01
      6.37566298e-02 3.49060744e-02 1.79314669e-02 4.69687022e-02
      3.88986021e-01 1.45269543e-01 9.78241209e-03 2.57650077e-01
      3.42426747e-01 1.52144909e-01 2.22721230e-02 1.97600067e-01
      2.86980540e-01 2.60907114e-01 2.90521868e-02 5.42958751e-02
      3.88986021e-01 3.88986021e-01 1.63551226e-01 3.06077898e-01</_>
    <_>
      2.80801386e-01 2.80801386e-01 4.33259793e-02 1.96407512e-01
      2.80801386e-01 2.80801386e-01 7.12146610e-02 2.23160043e-01
      2.80801386e-01 2.80801386e-01 2.59755105e-01 2.49568686e-01
      2.80801386e-01 2.80801386e-01 2.80801386e-01 2.49933645e-01
      3.37913334e-01 3.37913334e-01 1.23684987e-01 3.37913334e-01
      3.37913334e-01 1.99823216e-01 1.08412784e-02 2.66221195e-01
      2.55315244e-01 3.37913334e-01 3.37913334e-01 3.37913334e-01
      5.15075177e-02 2.65888218e-02 2.01513190e-02 4.64258417e-02
      3.97915661e-01 1.86222792e-01 1.26666045e-02 2.76295781e-01
      3.68903875e-01 1.74703643e-01 1.62097588e-02 1.86622694e-01
      2.25878343e-01 2.49242604e-01 5.05364202e-02 4.64091897e-02
      3.97915661e-01 3.97915661e-01 1.32833079e-01 2.69514531e-01</_>
    <_>
      2.69254208e-01 2.69254208e-01 2.61067986e-01 2.08873793e-01
      2.69254208e-01 2.69254208e-01 2.69254208e-01 2.69254208e-01
      2.51166105e-01 8.69970843e-02 2.69254208e-01 2.69254208e-01
      2.69254208e-01 1.31891862e-01 2.69254208e-01 2.69254208e-01
      3.16328704e-01 3.16328704e-01 3.16328704e-01 3.16328704e-01
      2.76795655e-01 2.04108283e-01 1.45344630e-01 2.69253552e-01
      3.16328704e-01 2.06595600e-01 3.16328704e-01 3.16328704e-01
      1.03394441e-01 3.08911595e-02 7.67076388e-02 1.55831382e-01
      3.58509392e-01 1.17939793e-01 2.21882865e-01 3.58509392e-01
      3.58509392e-01 3.58509392e-01 3.58509392e-01 3.58509392e-01
      1.42547280e-01 4.21273848e-03 4.64784838e-02 2.02245697e-01
      1.79177046e-01 9.69825685e-02 1.24153301e-01 2.04394728e-01</_>
    <_>
      1.40146554e-01 1.50709242e-01 3.10855776e-01 3.10855776e-01
      1.64777994e-01 1.89486206e-01 1.70587361e-01 1.50523588e-01
      1.03441380e-01 2.36589357e-01 3.10855776e-01 3.10855776e-01
      3.10855776e-01 3.10855776e-01 3.10855776e-01 3.10855776e-01
      3.03759784e-01 3.03759784e-01 3.03759784e-01 7.20054582e-02
      2.08603829e-01 3.03759784e-01 3.03759784e-01 3.94872427e-02
      3.03759784e-01 3.03759784e-01 1.84079438e-01 2.39389062e-01
      2.71448880e-01 2.89179087e-01 1.69580966e-01 1.53479710e-01
      2.07194880e-01 2.97397107e-01 2.97397107e-01 1.50629461e-01
      2.97397107e-01 2.46765226e-01 2.97397107e-01 2.97397107e-01
      2.97397107e-01 2.17218563e-01 2.97397107e-01 2.97397107e-01
      2.45793983e-01 2.82747112e-02 3.46367173e-02 2.30993986e-01</_>
    <_>
      2.68284619e-01 2.68284619e-01 2.68284619e-01 2.68284619e-01
      2.68284619e-01 2.68284619e-01 2.68284619e-01 2.68284619e-01
      2.39766419e-01 5.18491678e-02 2.54788578e-01 2.68284619e-01
      2.68284619e-01 9.22270119e-02 2.68284619e-01 2.68284619e-01
      2.94635862e-01 2.94635862e-01 2.94635862e-01 2.94635862e-01
      2.94635862e-01 2.94635862e-01 1.93870902e-01 1.36281863e-01
      2.94635862e-01 2.13718012e-01 2.94635862e-01 2.94635862e-01
      1.68099865e-01 7.44164735e-02 1.23577937e-01 2.54680812e-01
      3.30608279e-01 2.08407283e-01 2.97413170e-01 3.30608279e-01
      3.30608279e-01 2.38380730e-01 3.30608279e-01 3.30608279e-01
      1.92970753e-01 7.52844475e-03 1.03493616e-01 3.26024085e-01
      1.48357779e-01 2.79377867e-02 1.24533921e-01 2.62445688e-01</_>
    <_>
      2.65721738e-01 2.65721738e-01 2.65721738e-01 2.65721738e-01
      2.65721738e-01 2.65721738e-01 2.65721738e-01 2.65721738e-01
      2.65721738e-01 7.19232485e-02 2.48279184e-01 2.65721738e-01
      2.65721738e-01 1.12359487e-01 2.65721738e-01 2.65721738e-01
      3.01573366e-01 3.01573366e-01 3.01573366e-01 2.87886888e-01
      2.60001093e-01 3.01573366e-01 2.12535560e-01 1.39580563e-01
      3.01573366e-01 2.58403182e-01 3.01573366e-01 3.01573366e-01
      1.43397853e-01 7.24946707e-02 1.15066536e-01 1.98485941e-01
      3.47880006e-01 2.06478253e-01 3.23178470e-01 3.47880006e-01
      3.47880006e-01 1.52904198e-01 3.47880006e-01 3.47880006e-01
      1.93597525e-01 6.65125437e-03 6.82476237e-02 2.84516126e-01
      1.53236181e-01 1.49259102e-02 1.00656584e-01 2.52976716e-01</_>
    <_>
      1.43457860e-01 2.74846405e-01 2.74846405e-01 1.86828360e-01
      1.97124884e-01 2.74846405e-01 2.74846405e-01 1.89881906e-01
      2.50492305e-01 2.74455994e-01 2.74846405e-01 2.74846405e-01
      2.74846405e-01 2.45471299e-01 2.53381521e-01 2.74846405e-01
      3.36570203e-01 3.49088699e-01 3.49088699e-01 2.84679621e-01
      7.62004629e-02 1.21238045e-01 1.36754900e-01 9.34498683e-02
      3.49088699e-01 3.49088699e-01 3.49088699e-01 3.49088699e-01
      5.38997911e-02 6.66896924e-02 9.48588103e-02 8.19867477e-02
      2.10828140e-01 5.70947155e-02 2.24736109e-01 3.75519842e-01
      3.75519842e-01 3.75519842e-01 3.75519842e-01 3.75519842e-01
      1.11455210e-01 1.70933176e-02 1.43948682e-02 1.09777041e-01
      1.58059061e-01 1.44580692e-01 2.30210647e-01 2.62872845e-01</_>
    <_>
      9.72060263e-02 1.63754836e-01 2.78469145e-01 2.59641051e-01
      1.80230036e-01 2.78469145e-01 2.78469145e-01 2.78469145e-01
      1.57567739e-01 2.46531770e-01 2.78469145e-01 2.78469145e-01
      2.78469145e-01 2.78469145e-01 2.78469145e-01 2.78469145e-01
      2.67815530e-01 3.12062562e-01 3.12062562e-01 3.12062562e-01
      5.71952723e-02 2.09514704e-02 3.25688049e-02 6.57436624e-02
      3.12062562e-01 3.12062562e-01 3.12062562e-01 3.12062562e-01
      2.93985069e-01 1.56679571e-01 1.77830100e-01 3.02957118e-01
      8.29068422e-02 1.36751654e-02 6.80363085e-03 7.24720508e-02
      9.70070064e-02 3.00964601e-02 1.92576442e-02 8.17884952e-02
      4.03465480e-01 2.86185265e-01 2.62596458e-01 4.03465480e-01
      4.03465480e-01 4.03465480e-01 3.81205939e-02 4.03465480e-01</_>
    <_>
      2.10059449e-01 2.76342422e-01 2.76342422e-01 9.99960303e-02
      2.76342422e-01 2.76342422e-01 2.76342422e-01 2.15935975e-01
      2.76342422e-01 2.35121220e-01 2.29930341e-01 2.76342422e-01
      2.76342422e-01 2.76342422e-01 1.57113448e-01 2.76342422e-01
      3.06110620e-01 3.06110620e-01 3.06110620e-01 3.06110620e-01
      1.92171529e-01 3.06110620e-01 3.06110620e-01 1.91438735e-01
      3.06110620e-01 3.06110620e-01 1.76953539e-01 3.06110620e-01
      1.23960890e-01 1.25772893e-01 9.50311199e-02 9.21982825e-02
      3.49870473e-01 3.15255344e-01 3.49870473e-01 3.49870473e-01
      3.49870473e-01 3.49870473e-01 3.49870473e-01 3.49870473e-01
      1.05056226e-01 2.31526643e-02 2.64590252e-02 1.15968682e-01
      7.91423619e-02 1.70067176e-02 2.31612958e-02 8.62684846e-02</_>
    <_>
      1.59314200e-01 2.73588657e-01 2.73588657e-01 2.39750057e-01
      2.73588657e-01 2.73588657e-01 2.37888575e-01 1.49556667e-01
      2.63801396e-01 2.73588657e-01 2.73588657e-01 2.73588657e-01
      2.73588657e-01 2.73588657e-01 1.31711945e-01 2.73588657e-01
      3.08231533e-01 3.08231533e-01 3.08231533e-01 2.57184923e-01
      2.18863428e-01 3.08231533e-01 3.08231533e-01 2.13873610e-01
      3.08231533e-01 3.08231533e-01 1.38321504e-01 3.08231533e-01
      1.41546831e-01 1.47937909e-01 9.53500792e-02 8.32699686e-02
      3.53482842e-01 1.36380836e-01 3.66265625e-01 3.84645879e-01
      3.84645879e-01 2.29343086e-01 3.84645879e-01 3.84645879e-01
      8.78282860e-02 3.35361175e-02 3.72777730e-02 9.19301584e-02
      1.72037214e-01 5.11779189e-02 3.67293321e-02 1.47663370e-01</_>
    <_>
      8.14647153e-02 2.68753916e-01 2.68753916e-01 2.45830745e-01
      2.63453752e-01 2.68753916e-01 2.68753916e-01 2.68753916e-01
      1.31493300e-01 2.68753916e-01 2.68753916e-01 2.68753916e-01
      2.68753916e-01 2.68753916e-01 2.21430153e-01 2.68753916e-01
      3.37465078e-01 3.37465078e-01 3.37465078e-01 3.37465078e-01
      1.27387851e-01 1.24365829e-01 7.00071380e-02 6.73551559e-02
      3.37465078e-01 3.37465078e-01 3.09875488e-01 3.37465078e-01
      1.40540838e-01 1.34058222e-01 1.09859087e-01 1.11812375e-01
      1.05645068e-01 5.10402136e-02 3.29936519e-02 8.30729008e-02
      2.45025933e-01 1.31858960e-01 3.52107435e-01 3.52107435e-01
      3.52107435e-01 2.53078878e-01 1.08650267e-01 2.75712132e-01
      3.52107435e-01 3.52107435e-01 3.94099504e-02 3.52107435e-01</_>
    <_>
      1.41918123e-01 2.71363318e-01 2.71363318e-01 2.52771765e-01
      2.71363318e-01 2.71363318e-01 2.71363318e-01 1.93852901e-01
      2.36661434e-01 2.71363318e-01 2.71363318e-01 2.71363318e-01
      2.71363318e-01 2.71363318e-01 1.57906592e-01 2.41560057e-01
      3.45140129e-01 3.45140129e-01 3.45140129e-01 3.45140129e-01
      7.80299529e-02 5.57491221e-02 5.90922572e-02 8.11532140e-02
      3.45140129e-01 3.45140129e-01 3.15977454e-01 3.45140129e-01
      8.28772262e-02 6.91272393e-02 1.22865945e-01 1.29770309e-01
      2.90638030e-01 6.80445209e-02 1.56565219e-01 3.84822607e-01
      3.98205638e-01 2.91127771e-01 3.98205638e-01 3.98205638e-01
      1.86478138e-01 8.54209363e-02 1.33946911e-01 2.21126005e-01
      1.91153258e-01 9.30727422e-02 4.86936942e-02 1.31830201e-01</_>
    <_>
      1.76174581e-01 2.66410202e-01 2.66410202e-01 1.93371847e-01
      2.66410202e-01 2.66410202e-01 2.66410202e-01 2.51271904e-01
      2.66410202e-01 2.66410202e-01 2.66410202e-01 2.66410202e-01
      2.66410202e-01 2.66410202e-01 1.18647069e-01 2.66410202e-01
      3.47939014e-01 3.47939014e-01 3.47939014e-01 3.47939014e-01
      1.60282210e-01 1.00029141e-01 6.71009347e-02 1.25600621e-01
      3.47939014e-01 3.47939014e-01 2.48509601e-01 3.47939014e-01
      8.88374299e-02 7.35670924e-02 8.79636258e-02 1.01585284e-01
      3.37802589e-01 5.87252043e-02 1.65188313e-01 4.14792359e-01
      4.14792359e-01 1.73171073e-01 4.14792359e-01 4.14792359e-01
      1.49488598e-01 5.41313179e-02 7.58532807e-02 1.77912876e-01
      1.96782306e-01 6.07124604e-02 4.64692600e-02 1.59870505e-01</_>
    <_>
      1.17136061e-01 2.88627833e-01 2.88627833e-01 2.88627833e-01
      1.57192186e-01 2.65732706e-01 2.88627833e-01 2.79353380e-01
      2.16258317e-01 1.40465140e-01 2.88627833e-01 2.88627833e-01
      2.67253488e-01 1.08768910e-01 2.77737439e-01 2.88627833e-01
      2.88022310e-01 3.48892093e-01 3.48892093e-01 3.48892093e-01
      6.90174773e-02 4.77741146e-03 2.85309441e-02 1.13320470e-01
      3.48892093e-01 3.14573884e-01 3.48892093e-01 3.48892093e-01
      1.06870577e-01 5.76209836e-02 1.36974394e-01 1.79725185e-01
      3.42800796e-01 8.36170278e-03 1.33980244e-01 3.42800796e-01
      3.42800796e-01 1.83467492e-02 2.97445118e-01 3.42800796e-01
      3.42800796e-01 1.93501730e-02 2.40888521e-02 3.42800796e-01
      2.76950061e-01 1.28254248e-02 4.43942882e-02 3.23849231e-01</_>
    <_>
      1.20428860e-01 2.73977280e-01 2.73977280e-01 1.86894998e-01
      2.73977280e-01 2.73977280e-01 2.73977280e-01 2.73977280e-01
      2.66726524e-01 2.47231022e-01 2.73977280e-01 2.73977280e-01
      2.73977280e-01 2.01111764e-01 1.56466410e-01 2.73977280e-01
      2.90220976e-01 2.90220976e-01 2.90220976e-01 2.90220976e-01
      2.78059423e-01 2.66536742e-01 2.90220976e-01 2.90220976e-01
      2.90220976e-01 2.90220976e-01 1.97804645e-01 2.90220976e-01
      1.31420135e-01 1.14125490e-01 9.87256914e-02 1.07320733e-01
      3.45219046e-01 2.48482645e-01 3.45219046e-01 3.45219046e-01
      3.45219046e-01 3.45219046e-01 3.45219046e-01 3.45219046e-01
      9.04019177e-02 1.31877102e-02 1.64756905e-02 9.89407152e-02
      1.33883253e-01 1.06092416e-01 1.48768023e-01 1.75653875e-01</_>
    <_>
      2.39886001e-01 2.80590087e-01 2.80590087e-01 1.75481111e-01
      2.80590087e-01 2.80590087e-01 2.80590087e-01 2.80590087e-01
      2.80590087e-01 1.19904190e-01 2.00390369e-01 2.80590087e-01
      2.80590087e-01 1.53699875e-01 2.08307788e-01 2.80590087e-01
      2.85572737e-01 2.85572737e-01 2.85572737e-01 2.85572737e-01
      2.85572737e-01 2.76366234e-01 2.85572737e-01 2.85572737e-01
      2.85572737e-01 2.29294106e-01 2.62750864e-01 2.85572737e-01
      1.58072039e-01 1.06812313e-01 9.78552252e-02 1.38624758e-01
      3.51483911e-01 2.47282356e-01 3.51483911e-01 3.51483911e-01
      3.51483911e-01 3.31426769e-01 3.51483911e-01 3.51483911e-01
      1.41674519e-01 2.02566348e-02 4.00433540e-02 1.65539637e-01
      1.06282361e-01 2.09090803e-02 5.42450286e-02 1.41724944e-01</_>
    <_>
      3.27881902e-01 3.27881902e-01 3.27881902e-01 3.27881902e-01
      3.27881902e-01 2.72024721e-01 1.83836967e-01 3.27881902e-01
      3.03261101e-01 1.93126917e-01 9.96699333e-02 2.03978419e-01
      1.83596104e-01 1.06993012e-01 5.24918847e-02 1.23183452e-01
      3.07396799e-01 3.07396799e-01 3.07396799e-01 3.07396799e-01
      1.74335346e-01 1.64793715e-01 2.05363587e-01 2.04015091e-01
      3.07396799e-01 3.07396799e-01 2.96468973e-01 3.07396799e-01
      1.62978008e-01 1.59397930e-01 1.63376451e-01 1.66064784e-01
      3.52929413e-01 3.52929413e-01 3.52929413e-01 3.52929413e-01 0.
      3.84849962e-04 3.84849962e-04 0. 3.52929413e-01 3.52929413e-01
      3.52929413e-01 3.52929413e-01 0. 1.09888759e-04 1.09888759e-04 0.</_>
    <_>
      2.11177438e-01 2.22618014e-01 3.02732617e-01 3.02732617e-01
      7.61827230e-02 1.03600733e-01 1.47524267e-01 1.31947771e-01
      3.02732617e-01 3.02732617e-01 3.02732617e-01 3.02732617e-01
      2.02526286e-01 3.02732617e-01 3.02732617e-01 2.70030767e-01
      6.29061460e-02 2.23744586e-01 3.03639501e-01 1.48148671e-01
      9.69784986e-03 2.23848801e-02 1.57430582e-02 6.84635527e-03
      4.43237990e-01 4.43237990e-01 4.43237990e-01 4.43237990e-01
      1.04945540e-01 1.02987818e-01 1.01216987e-01 9.38853025e-02
      3.79167795e-01 3.79167795e-01 3.79167795e-01 3.63732994e-01
      2.96606034e-01 3.79167795e-01 3.58554006e-01 1.50470704e-01
      9.30504277e-02 1.25872239e-01 1.32150158e-01 8.77158865e-02 0. 0.
      0. 0.</_>
    <_>
      3.09852034e-01 1.80374995e-01 2.04265356e-01 3.09852034e-01
      2.57797480e-01 1.06411792e-01 1.30805045e-01 2.91788489e-01
      3.09852034e-01 2.20072165e-01 2.16950789e-01 3.09852034e-01
      3.09852034e-01 1.76632717e-01 1.99656337e-01 3.09852034e-01
      3.75904411e-01 2.23911136e-01 2.80306876e-01 3.75904411e-01
      3.22879032e-07 9.35448315e-06 9.35448315e-06 3.22879032e-07
      3.75904411e-01 3.75904411e-01 3.75904411e-01 3.75904411e-01
      7.95232058e-02 2.79803667e-02 4.80156057e-02 1.01485148e-01 0. 0.
      0. 0. 0. 0. 0. 0. 4.98753130e-01 4.98753130e-01 4.98753130e-01
      4.98753130e-01 0. 0. 0. 0.</_>
    <_>
      2.58981526e-01 2.59108305e-01 2.59108305e-01 2.53053129e-01
      1.98866189e-01 2.32849374e-01 2.36253724e-01 2.12954536e-01
      2.59108305e-01 2.59108305e-01 2.59108305e-01 2.59108305e-01
      2.59108305e-01 2.59108305e-01 2.59108305e-01 2.59108305e-01
      3.50711435e-01 3.50711435e-01 3.50711435e-01 3.50711435e-01
      2.96321269e-02 2.94181909e-02 3.33458968e-02 3.64366993e-02
      3.50711435e-01 3.50711435e-01 3.50711435e-01 3.50711435e-01
      3.74749079e-02 5.02781793e-02 5.15840687e-02 4.16123830e-02 0.
      7.84412914e-05 7.84412914e-05 0. 3.52928966e-01 3.52928966e-01
      3.52928966e-01 3.52928966e-01 0. 1.24905072e-03 1.24905072e-03 0.
      3.52928966e-01 3.52928966e-01 3.52928966e-01 3.52928966e-01</_>
    <_>
      2.84356087e-01 2.84356087e-01 2.84356087e-01 2.84356087e-01
      1.00870527e-01 2.04029962e-01 2.80603230e-01 1.71291709e-01
      2.84356087e-01 2.84356087e-01 2.84356087e-01 2.84356087e-01
      1.43181399e-01 1.99241549e-01 2.84356087e-01 2.22154811e-01
      1.09149396e-01 3.71270984e-01 3.71270984e-01 2.60583162e-01
      1.56732202e-01 1.58404410e-01 2.05350757e-01 2.08453596e-01
      2.45050862e-01 3.71270984e-01 3.71270984e-01 3.71270984e-01
      5.34089059e-02 5.49720638e-02 1.11630782e-01 1.16612002e-01
      1.77578166e-01 1.77374512e-01 2.32681021e-01 2.32253268e-01
      3.49661440e-01 3.49661440e-01 3.49661440e-01 3.49661440e-01
      6.89583272e-02 7.01021850e-02 1.39860690e-01 1.42618969e-01
      3.23964775e-01 3.22894275e-01 1.99017286e-01 1.94894135e-01</_>
    <_>
      2.78706372e-01 2.78706372e-01 2.78706372e-01 2.78706372e-01
      1.47302598e-01 2.78706372e-01 2.78706372e-01 1.59831181e-01
      2.59151548e-01 2.78706372e-01 2.78706372e-01 2.78706372e-01
      1.31406471e-01 2.52759039e-01 2.78706372e-01 1.57746971e-01
      2.66533256e-01 4.42388058e-01 4.42388058e-01 2.42214441e-01
      2.43170895e-02 2.56959237e-02 1.59068704e-02 1.41434902e-02
      1.85598597e-01 4.42388058e-01 4.42388058e-01 1.81525528e-01
      6.78479448e-02 7.02646300e-02 4.85704020e-02 4.51871194e-02
      2.50085413e-01 2.52227426e-01 1.53890237e-01 1.48737565e-01
      2.95388341e-01 2.95388341e-01 2.95388341e-01 2.95388341e-01
      2.57244855e-01 2.59921283e-01 1.66539043e-01 1.62430286e-01
      2.95388341e-01 2.95388341e-01 2.39827618e-01 2.37036124e-01</_>
    <_>
      0. 5.94167250e-05 5.94167250e-05 0. 3.52929503e-01 3.52929503e-01
      3.52929503e-01 3.52929503e-01 0. 4.44746474e-05 4.44746474e-05 0.
      3.52929503e-01 3.52929503e-01 3.52929503e-01 3.52929503e-01
      2.95144588e-01 2.72702396e-01 2.73399264e-01 2.95144588e-01
      2.60269910e-01 1.06823236e-01 1.05528146e-01 2.51934826e-01
      2.58097529e-01 1.72348410e-01 1.72526002e-01 2.54522771e-01
      2.95144588e-01 2.60309458e-01 2.95144588e-01 2.95144588e-01
      7.24589154e-02 3.23231071e-02 3.41007076e-02 7.07155392e-02
      3.43533248e-01 1.66324452e-01 2.07819000e-01 3.43533248e-01
      2.63805181e-01 1.54336214e-01 1.79960102e-01 2.81721890e-01
      3.43533248e-01 3.43533248e-01 3.43533248e-01 3.43533248e-01</_>
    <_>
      3.32345992e-01 1.22344464e-01 1.28653929e-01 3.32345992e-01
      3.32345992e-01 1.20857313e-01 1.60980731e-01 3.32345992e-01
      3.32345992e-01 1.37005210e-01 8.69221017e-02 3.32345992e-01
      3.32345992e-01 9.34964865e-02 7.70690292e-02 3.32345992e-01
      3.17671180e-01 8.47424567e-02 1.05597444e-01 3.17671180e-01
      3.17671180e-01 1.48338795e-01 1.38160303e-01 3.17671180e-01
      3.17671180e-01 1.10868171e-01 9.51441601e-02 3.17671180e-01
      3.17671180e-01 2.55637050e-01 2.08294898e-01 3.17671180e-01
      2.99398571e-01 1.03049181e-01 8.94326568e-02 2.99398571e-01
      2.99398571e-01 1.75611764e-01 1.47869378e-01 2.99398571e-01
      2.99398571e-01 2.18368500e-01 1.68227181e-01 2.99398571e-01
      2.99398571e-01 2.85248101e-01 2.26314932e-01 2.99398571e-01</_>
    <_>
      3.41233701e-01 1.18992023e-01 6.64496794e-02 3.41233701e-01
      3.41233701e-01 8.70861486e-02 5.90353869e-02 3.41233701e-01
      3.41233701e-01 1.41134188e-01 3.01303193e-02 3.41233701e-01
      3.41233701e-01 1.13742508e-01 4.07335907e-02 3.41233701e-01
      3.42412561e-01 8.12513903e-02 4.76951487e-02 3.42412561e-01
      3.42412561e-01 1.04818121e-01 2.95591597e-02 3.42412561e-01
      3.42412561e-01 1.12758443e-01 4.66692485e-02 3.42412561e-01
      3.42412561e-01 1.44245550e-01 4.65996601e-02 3.42412561e-01
      2.89478779e-01 1.13308638e-01 5.96984476e-02 2.89478779e-01
      2.89478779e-01 2.29654938e-01 2.17500895e-01 2.89478779e-01
      2.89478779e-01 1.78122923e-01 1.04637563e-01 2.89478779e-01
      2.89478779e-01 2.89478779e-01 2.89478779e-01 2.89478779e-01</_>
    <_>
      2.68125147e-01 2.68125147e-01 2.68125147e-01 2.68125147e-01
      2.25751251e-01 2.68125147e-01 2.68125147e-01 1.70972258e-01
      2.68125147e-01 2.68125147e-01 2.68125147e-01 2.68125147e-01
      2.25088716e-01 2.60340095e-01 2.13670224e-01 1.84709534e-01
      2.99957961e-01 2.99957961e-01 2.99957961e-01 2.99957961e-01
      2.99957961e-01 2.99957961e-01 2.46971786e-01 2.37730101e-01
      2.99957961e-01 2.99957961e-01 2.99957961e-01 2.64029324e-01
      1.70757913e-03 1.08957861e-03 1.00076816e-03 1.60012557e-03
      4.69383568e-01 4.69383568e-01 4.69383568e-01 4.69383568e-01
      1.00310557e-02 1.05319275e-02 9.59496573e-03 9.37499572e-03
      9.96820815e-03 7.42104510e-03 5.86011074e-03 8.36313609e-03
      2.44090945e-01 7.65425488e-02 4.77077141e-02 2.13687584e-01</_>
    <_>
      2.26424962e-01 1.37795851e-01 1.63685262e-01 2.49235764e-01
      2.33819336e-01 3.50777924e-01 3.50777924e-01 3.50777924e-01
      1.36282071e-01 8.88778120e-02 8.86049941e-02 1.37239233e-01
      1.46354362e-01 3.50777924e-01 3.50777924e-01 3.04719210e-01
      1.32312760e-01 3.29417229e-01 3.29417229e-01 3.29417229e-01
      2.80054659e-02 1.02009378e-01 1.68356419e-01 7.72395730e-02
      1.36277050e-01 3.29417229e-01 3.29417229e-01 3.29417229e-01
      6.44655600e-02 3.27903926e-01 3.29417229e-01 2.09389105e-01
      2.95879552e-03 2.17485987e-02 2.61615831e-02 6.77690702e-03 0. 0.
      0. 0. 1.41307831e-01 5.69541574e-01 5.69541574e-01 5.69541574e-01
      0. 0. 0. 0.</_>
    <_>
      9.41467658e-03 7.95196928e-03 8.08422361e-03 9.67563875e-03
      3.52482170e-01 3.52482170e-01 3.52482170e-01 3.52482170e-01
      1.52281160e-02 3.01339533e-02 2.94110458e-02 1.45980883e-02
      3.52482170e-01 3.52482170e-01 3.52482170e-01 3.52482170e-01
      2.84148932e-01 2.86611885e-01 2.86611885e-01 2.86319375e-01
      2.40930051e-01 2.86611885e-01 2.86611885e-01 2.44925648e-01
      2.51461178e-01 2.86611885e-01 2.86611885e-01 2.41478279e-01
      1.29647374e-01 1.91840038e-01 1.84804752e-01 1.19139053e-01
      2.97062010e-01 2.97062010e-01 2.97062010e-01 2.97062010e-01
      2.97062010e-01 2.35850692e-01 2.40795732e-01 2.97062010e-01
      2.16471240e-01 2.53291190e-01 2.42901266e-01 2.00370237e-01
      1.76779985e-01 2.00260818e-01 2.03589484e-01 1.76007792e-01</_>
    <_>
      1.13632819e-02 1.27822189e-02 1.30300084e-02 1.15131633e-02
      3.52679014e-01 3.52679014e-01 3.52679014e-01 3.52679014e-01
      1.43440599e-02 1.48020154e-02 1.43442992e-02 1.38145918e-02
      3.52679014e-01 3.52679014e-01 3.52679014e-01 3.52679014e-01
      2.68814683e-01 2.78328985e-01 2.78328985e-01 2.78328985e-01
      2.78328985e-01 2.78328985e-01 2.78328985e-01 2.77569860e-01
      2.18367204e-01 2.78328985e-01 2.78328985e-01 2.28938863e-01
      1.43490478e-01 2.10335195e-01 2.11577490e-01 1.35953948e-01
      2.79431045e-01 2.79431045e-01 2.79431045e-01 2.79431045e-01
      2.79431045e-01 2.79431045e-01 2.79431045e-01 2.79431045e-01
      2.12328807e-01 2.30839670e-01 2.20552266e-01 2.01206699e-01
      2.21062273e-01 2.30030298e-01 2.05313861e-01 2.02780634e-01</_>
    <_>
      1.95109732e-02 2.19099782e-02 1.39772119e-02 1.62164997e-02
      3.14151496e-01 3.14151496e-01 3.14151496e-01 3.14151496e-01
      3.14151496e-01 6.91986829e-02 6.19809330e-02 3.14151496e-01
      3.14151496e-01 3.14151496e-01 3.14151496e-01 3.14151496e-01
      2.69049197e-01 2.69049197e-01 2.69049197e-01 2.69049197e-01
      2.51411617e-01 2.69049197e-01 2.69049197e-01 2.32942894e-01
      2.69049197e-01 2.69049197e-01 2.69049197e-01 2.69049197e-01
      2.21547499e-01 1.88790277e-01 1.74796671e-01 2.01711535e-01
      2.71582603e-01 2.80043930e-01 2.80043930e-01 2.29975238e-01
      1.54392943e-01 1.74938947e-01 1.49730295e-01 1.36668429e-01
      2.80043930e-01 2.80043930e-01 2.80043930e-01 2.80043930e-01
      2.80043930e-01 2.80043930e-01 2.63051808e-01 2.80043930e-01</_>
    <_>
      5.52229546e-02 1.83634758e-01 1.58416316e-01 5.75744212e-02
      3.13104987e-01 3.13104987e-01 3.13104987e-01 3.13104987e-01
      1.49409398e-01 1.83994338e-01 2.16153756e-01 2.10978836e-01
      3.13104987e-01 3.13104987e-01 3.13104987e-01 3.13104987e-01
      3.18596303e-01 1.47749424e-01 1.46122247e-01 3.18596303e-01
      3.18596303e-01 1.25769436e-01 1.06687605e-01 3.18596303e-01
      3.18596303e-01 1.27885386e-01 2.64806360e-01 3.18596303e-01
      3.18596303e-01 4.86177392e-02 1.59890980e-01 3.18596303e-01
      3.11518997e-01 2.27310434e-01 1.53977543e-01 3.11518997e-01
      3.11518997e-01 3.11518997e-01 3.11518997e-01 3.11518997e-01
      1.83332741e-01 7.33065382e-02 9.81080160e-02 2.26873502e-01
      3.11518997e-01 1.57373771e-01 1.42504230e-01 3.11518997e-01</_>
    <_>
      1.81282341e-01 4.20760840e-01 4.20760840e-01 1.68715850e-01
      1.73728764e-01 2.22526997e-01 1.87799618e-01 1.19402103e-01
      1.63643524e-01 4.20760840e-01 4.20760840e-01 1.79660395e-01
      7.06586055e-03 1.33999825e-01 1.41007319e-01 1.17576653e-02
      5.39435565e-01 5.39435565e-01 3.48704904e-01 5.39435565e-01 0.
      1.88205941e-05 1.88205941e-05 0. 5.08757541e-03 2.12830980e-03
      1.29430671e-03 3.70283448e-03 0. 0. 0. 0. 0. 0. 0. 0. 0. 0. 0. 0.
      0. 0. 0. 0. 4.98753130e-01 4.98753130e-01 4.98753130e-01
      4.98753130e-01</_>
    <_>
      2.58729160e-01 2.58729160e-01 2.58729160e-01 2.58729160e-01
      2.58729160e-01 2.58729160e-01 2.58729160e-01 2.58729160e-01
      1.96866706e-01 2.58729160e-01 2.58729160e-01 1.70898587e-01
      2.53532708e-01 2.58729160e-01 2.58729160e-01 2.48763531e-01
      3.40434045e-01 3.40434045e-01 3.40434045e-01 3.40434045e-01
      3.82381044e-02 7.21676275e-02 8.49331394e-02 5.14052361e-02
      3.40434045e-01 3.40434045e-01 3.40434045e-01 3.40434045e-01
      6.80668131e-02 1.32547051e-01 1.48527399e-01 9.29901302e-02
      3.04050177e-01 3.04050177e-01 3.04050177e-01 3.04050177e-01
      3.04050177e-01 3.04050177e-01 3.04050177e-01 3.04050177e-01
      2.34979585e-01 2.32607499e-01 2.60225058e-01 2.80453771e-01
      2.42965966e-02 9.84309800e-03 1.40417507e-02 2.84988135e-02</_>
    <_>
      3.67160678e-01 3.67160678e-01 3.67160678e-01 3.67160678e-01 0.
      2.51450092e-05 2.51450092e-05 0. 3.41310471e-01 2.69334823e-01
      3.56453836e-01 3.67160678e-01 2.15742569e-02 2.10583694e-02
      4.62762080e-02 5.61531968e-02 1.09092593e-02 7.05889659e-03
      7.90738966e-03 1.14764757e-02 1.64576918e-01 1.20907016e-01
      1.26325592e-01 1.70502454e-01 1.77614778e-01 1.18313819e-01
      1.39068544e-01 1.95357293e-01 4.48712587e-01 4.48712587e-01
      4.48712587e-01 4.48712587e-01 1.87363356e-01 1.50947139e-01
      1.53260499e-01 1.89867243e-01 3.14904422e-01 3.14904422e-01
      3.14904422e-01 3.14904422e-01 3.14904422e-01 3.14904422e-01
      3.14904422e-01 3.14904422e-01 1.55447662e-01 1.26235157e-01
      1.34694114e-01 1.66927904e-01</_>
    <_>
      2.66930819e-01 2.04185262e-01 1.79518476e-01 2.66930819e-01
      2.66930819e-01 2.15312541e-01 2.12657928e-01 2.66930819e-01
      2.66930819e-01 2.65293002e-01 2.40346715e-01 2.66930819e-01
      2.66930819e-01 2.66930819e-01 2.59578139e-01 2.57462323e-01
      2.85853058e-01 2.85853058e-01 2.85853058e-01 2.85853058e-01
      2.85853058e-01 7.36836269e-02 6.32301420e-02 2.85853058e-01
      2.85853058e-01 2.85853058e-01 2.85853058e-01 2.85853058e-01
      2.82717228e-01 9.78922695e-02 8.45224708e-02 2.71920234e-01
      3.02712500e-01 1.36324942e-01 1.10819668e-01 3.02712500e-01
      3.02712500e-01 1.53134048e-01 1.33281291e-01 3.02712500e-01
      3.02712500e-01 1.81728363e-01 1.47918031e-01 3.02712500e-01
      3.02712500e-01 2.76069522e-01 2.46368781e-01 3.02712500e-01</_>
    <_>
      2.38042489e-01 1.97819635e-01 2.76793987e-01 2.93398470e-01
      3.68123055e-01 3.68123055e-01 3.68123055e-01 3.68123055e-01
      1.23293186e-02 1.69562623e-02 2.94404421e-02 2.21496578e-02
      1.03150070e-01 2.45469958e-01 3.20746034e-01 1.42122805e-01
      3.96206141e-01 3.96206141e-01 3.96206141e-01 3.96206141e-01
      3.73769067e-02 1.20055825e-01 1.28209576e-01 3.67326029e-02
      1.37966082e-01 3.50032330e-01 3.96206141e-01 1.79132342e-01
      1.02022365e-02 4.13280465e-02 4.45175432e-02 1.04164230e-02
      4.98753130e-01 4.98753130e-01 4.98753130e-01 4.98753130e-01 0.
      7.30351821e-05 7.30351821e-05 0. 0. 0. 0. 0. 0. 0. 0. 0.</_>
    <_>
      1.77832153e-02 1.24018788e-02 5.49634313e-03 1.05427802e-02
      3.80750239e-01 2.93605387e-01 1.13386318e-01 2.05900431e-01
      1.78949416e-01 2.06264749e-01 1.77029267e-01 1.52866229e-01
      3.80750239e-01 3.80750239e-01 3.80750239e-01 3.80750239e-01
      2.74370760e-01 2.40000203e-01 1.19611479e-01 1.72092468e-01
      2.74370760e-01 2.74370760e-01 2.65091896e-01 2.74370760e-01
      2.74370760e-01 2.74370760e-01 2.10896879e-01 2.74370760e-01
      2.74370760e-01 2.74370760e-01 1.96317077e-01 2.54813522e-01
      3.36996377e-01 3.36996377e-01 3.36996377e-01 3.36996377e-01
      3.36996377e-01 3.36996377e-01 1.20222323e-01 2.24864036e-01
      3.36996377e-01 2.41838425e-01 1.55919567e-01 2.25154787e-01
      4.08155136e-02 3.16928923e-02 1.01352343e-02 1.96276084e-02</_>
    <_>
      2.60961086e-01 3.10657695e-02 4.28001098e-02 2.83920616e-01
      3.62340719e-01 6.10132031e-02 9.13519189e-02 3.64559978e-01
      3.64559978e-01 1.23841412e-01 7.17996806e-02 3.64559978e-01
      3.64559978e-01 1.06256530e-01 7.20305145e-02 3.64559978e-01
      2.84228355e-01 1.25982553e-01 1.23344496e-01 2.95511991e-01
      3.00830424e-01 2.71556109e-01 2.74375200e-01 3.00830424e-01
      3.00830424e-01 1.02929540e-01 8.71101767e-02 3.00830424e-01
      3.00830424e-01 2.30767354e-01 1.85313255e-01 3.00830424e-01
      2.74848133e-01 2.73111016e-01 2.74848133e-01 2.74848133e-01
      2.74848133e-01 2.22265020e-01 2.10774571e-01 2.74848133e-01
      2.74848133e-01 2.30400741e-01 1.56796739e-01 2.74848133e-01
      2.74848133e-01 2.00244710e-01 1.76621392e-01 2.74848133e-01</_>
    <_>
      1.57432571e-01 9.70484763e-02 6.24112375e-02 1.29455596e-01
      2.88601846e-01 1.64710850e-01 1.39269784e-01 2.67006725e-01
      3.04341972e-01 3.04341972e-01 3.04341972e-01 3.04341972e-01
      3.04341972e-01 3.04341972e-01 3.04341972e-01 3.04341972e-01
      2.70560861e-01 2.55082905e-01 2.35898793e-01 2.70560861e-01
      2.70560861e-01 2.70560861e-01 2.70560861e-01 2.70560861e-01
      2.70560861e-01 2.70560861e-01 2.70560861e-01 2.70560861e-01
      2.02769682e-01 1.96113840e-01 1.77035287e-01 1.83388621e-01
      2.47675866e-01 2.92030782e-01 2.92030782e-01 2.08140373e-01
      2.92030782e-01 2.92030782e-01 2.92030782e-01 2.50418365e-01
      1.13033973e-01 1.58571243e-01 1.48812979e-01 1.08820841e-01
      2.74849385e-01 2.92030782e-01 2.92030782e-01 2.92030782e-01</_>
    <_>
      1.95782646e-04 2.79844506e-04 2.66853778e-04 1.86825753e-04
      3.52929443e-01 3.52929443e-01 3.52929443e-01 3.52929443e-01 0.
      2.31382655e-05 2.31382655e-05 0. 3.52929443e-01 3.52929443e-01
      3.52929443e-01 3.52929443e-01 1.83834374e-01 2.03052327e-01
      2.24571019e-01 2.05450490e-01 2.10955977e-01 2.71801978e-01
      2.71801978e-01 2.71801978e-01 2.69046575e-01 2.71801978e-01
      2.71801978e-01 2.71801978e-01 2.18725979e-01 2.71801978e-01
      2.71801978e-01 2.71801978e-01 9.72873569e-02 1.64415583e-01
      3.18570822e-01 2.57725626e-01 9.88635197e-02 2.30097473e-01
      3.18570822e-01 3.18570822e-01 1.03589691e-01 1.69119149e-01
      3.18570822e-01 3.18570822e-01 1.19436547e-01 2.59170115e-01
      3.18570822e-01 3.18570822e-01</_>
    <_>
      2.16228962e-01 2.48277828e-01 2.53233761e-01 2.37577066e-01
      2.53233761e-01 2.53233761e-01 2.53233761e-01 2.53233761e-01
      2.53233761e-01 2.53233761e-01 2.53233761e-01 2.53233761e-01
      2.53233761e-01 2.53233761e-01 2.53233761e-01 2.51200318e-01
      2.72683531e-01 2.72683531e-01 2.72683531e-01 2.72683531e-01
      2.72683531e-01 2.72683531e-01 2.72683531e-01 2.72683531e-01
      2.72683531e-01 2.72683531e-01 2.67547041e-01 2.15957969e-01
      2.27720991e-01 1.74638405e-01 1.37037814e-01 1.85359105e-01
      2.73965716e-01 2.73965716e-01 2.73965716e-01 2.73965716e-01
      2.73965716e-01 2.73965716e-01 2.73965716e-01 2.73965716e-01
      2.73965716e-01 1.93143979e-01 1.39721975e-01 2.40230724e-01
      2.52664626e-01 1.94397688e-01 1.99806184e-01 2.56236672e-01</_>
    <_>
      1.80527121e-02 1.34557504e-02 1.29998205e-02 1.80186275e-02
      1.90538451e-01 1.73089445e-01 1.29501730e-01 1.57914758e-01
      1.80772215e-01 1.45869344e-01 9.77308601e-02 1.42999083e-01
      4.47938532e-01 4.47938532e-01 4.47938532e-01 4.47938532e-01
      1.48551360e-01 1.06389031e-01 8.69075358e-02 1.35896966e-01
      3.19976151e-01 6.61854222e-02 7.92023093e-02 3.19976151e-01
      3.19976151e-01 3.19976151e-01 3.19976151e-01 3.19976151e-01
      3.19976151e-01 2.03087106e-01 2.57720888e-01 3.19976151e-01
      3.50149244e-01 2.32981984e-02 4.17588428e-02 3.50149244e-01
      3.50149244e-01 1.65168438e-02 3.80177163e-02 3.50149244e-01
      3.50149244e-01 4.26551998e-02 8.03640485e-02 3.50149244e-01
      3.50149244e-01 1.29007911e-02 5.67158461e-02 3.50149244e-01</_>
    <_>
      1.73462391e-01 3.20562065e-01 3.20562065e-01 1.88463047e-01
      1.29187405e-01 3.20562065e-01 3.20562065e-01 1.34683043e-01
      1.50785252e-01 3.20562065e-01 3.20562065e-01 1.63838863e-01
      9.55091417e-02 3.20562065e-01 3.20562065e-01 1.24815367e-01
      1.31968334e-01 3.37678701e-01 3.37678701e-01 1.38836384e-01
      5.44310797e-06 0. 0. 5.44310797e-06 3.01532537e-01 3.37678701e-01
      3.37678701e-01 3.37678701e-01 3.37678701e-01 1.88859612e-01
      1.87501326e-01 3.37678701e-01 2.16117969e-05 0. 0. 2.16117969e-05
      4.24622658e-06 0. 0. 4.24622658e-06 5.34879386e-01 5.34879386e-01
      2.75333434e-01 5.34879386e-01 1.82120413e-01 1.28909737e-01
      5.53798378e-02 8.78033191e-02</_>
    <_>
      2.51863003e-01 2.51863003e-01 2.51863003e-01 2.51863003e-01
      2.35872775e-01 2.51863003e-01 2.51863003e-01 2.31856465e-01
      2.51863003e-01 2.51863003e-01 2.51863003e-01 2.51863003e-01
      2.51863003e-01 2.51863003e-01 2.51863003e-01 2.51863003e-01
      3.52928847e-01 3.52928847e-01 3.52928847e-01 3.52928847e-01
      2.94521218e-04 7.13318295e-04 1.39610562e-03 9.98946372e-04
      3.52928847e-01 3.52928847e-01 3.52928847e-01 3.52928847e-01 0.
      1.10974843e-05 1.10974843e-05 0. 4.87746559e-02 2.73874737e-02
      5.01354411e-02 7.28726238e-02 3.74839514e-01 3.19791704e-01
      1.94812372e-01 3.74795884e-01 6.16745055e-02 3.80352698e-02
      3.24274376e-02 5.59787117e-02 3.74839514e-01 3.74839514e-01
      3.64907384e-01 3.74839514e-01</_>
    <_>
      3.03430229e-01 3.03430229e-01 1.14237741e-01 2.49091804e-01
      3.03430229e-01 3.03430229e-01 2.09000900e-01 3.03430229e-01
      3.03430229e-01 3.03430229e-01 1.27116054e-01 2.02103660e-01
      3.03430229e-01 2.29287222e-01 9.52395573e-02 1.51601061e-01
      2.92358220e-01 2.92358220e-01 2.47928515e-01 2.88359523e-01
      1.47650287e-01 7.08167404e-02 4.79627065e-02 1.17558293e-01
      2.92358220e-01 2.92358220e-01 2.71206856e-01 2.28435785e-01
      2.92358220e-01 2.92358220e-01 2.92358220e-01 2.92358220e-01
      3.09871316e-01 9.94236916e-02 6.82653636e-02 2.65640199e-01
      2.46390384e-02 3.72801721e-02 3.72772366e-02 2.54410394e-02
      4.47809279e-01 4.47809279e-01 4.47809279e-01 4.47809279e-01
      4.94064614e-02 4.55612577e-02 4.22294848e-02 4.39352207e-02</_>
    <_>
      1.83247507e-01 2.76583999e-01 2.76583999e-01 2.31285125e-01
      2.17401490e-01 2.76583999e-01 2.76583999e-01 2.51541138e-01
      1.45559996e-01 2.66692162e-01 2.76583999e-01 2.08830416e-01
      2.32118845e-01 2.76583999e-01 2.76583999e-01 2.72643685e-01
      3.41234237e-01 3.41234237e-01 3.41234237e-01 3.41234237e-01
      8.31550285e-02 1.16386831e-01 1.01560585e-01 7.57023245e-02
      3.41234237e-01 3.41234237e-01 3.41234237e-01 3.41234237e-01
      7.82955661e-02 9.85767469e-02 9.10447761e-02 6.64935037e-02
      2.84167677e-01 2.84167677e-01 2.84167677e-01 2.84167677e-01
      2.84167677e-01 2.84167677e-01 2.84167677e-01 2.84167677e-01
      2.71297455e-01 2.84167677e-01 2.24020630e-01 2.17959419e-01
      1.58533752e-01 1.95869371e-01 1.40070140e-01 1.26442418e-01</_>
    <_>
      8.10723528e-02 2.76176542e-01 2.76176542e-01 1.06344946e-01
      2.76176542e-01 2.76176542e-01 2.76176542e-01 2.76176542e-01
      1.97795764e-01 2.76176542e-01 2.76176542e-01 2.15872794e-01
      2.76176542e-01 2.46275812e-01 2.65042216e-01 2.76176542e-01
      3.42421502e-01 2.52686232e-01 2.47171462e-01 3.42421502e-01
      1.67231500e-01 9.16078761e-02 9.10012051e-02 1.71091646e-01
      3.42421502e-01 1.68149710e-01 1.92013085e-01 3.42421502e-01
      3.42421502e-01 1.16195761e-01 1.24751963e-01 3.42421502e-01
      1.19175471e-01 3.14678922e-02 3.31539661e-02 1.22552268e-01
      7.44529814e-02 3.50608557e-01 3.50608557e-01 7.44953752e-02
      3.50608557e-01 1.09677531e-01 1.06943950e-01 3.50608557e-01
      3.11500430e-01 3.50608557e-01 3.50608557e-01 3.09897155e-01</_>
    <_>
      2.80775517e-01 2.80775517e-01 2.80775517e-01 2.80775517e-01
      2.52542913e-01 1.84125513e-01 1.92283183e-01 2.54297972e-01
      2.80775517e-01 2.80775517e-01 2.80775517e-01 2.80775517e-01
      2.37810984e-01 1.59513921e-01 1.59037024e-01 2.44751409e-01
      3.07802767e-01 3.07802767e-01 3.07802767e-01 3.07802767e-01
      3.07802767e-01 3.07802767e-01 3.07802767e-01 3.07802767e-01
      1.83945403e-01 1.93715408e-01 2.05828160e-01 1.92376912e-01
      1.54621646e-01 1.49685249e-01 1.40094891e-01 1.49359435e-01
      3.32622021e-01 3.32622021e-01 3.32622021e-01 3.32622021e-01
      3.32622021e-01 3.32622021e-01 3.32622021e-01 2.82703161e-01
      1.98998287e-01 2.00932413e-01 1.65596351e-01 1.71776056e-01
      3.81881110e-02 3.70184667e-02 3.53995450e-02 3.61721441e-02</_>
    <_>
      2.70113766e-01 2.70113766e-01 2.70113766e-01 2.53705353e-01
      1.59470096e-01 2.70113766e-01 2.70113766e-01 1.70790479e-01
      2.70113766e-01 2.70113766e-01 2.70113766e-01 2.70113766e-01
      1.95790991e-01 2.70113766e-01 2.70113766e-01 1.93453610e-01
      3.69158119e-01 3.69158119e-01 3.69158119e-01 3.69158119e-01
      4.35779542e-02 4.58030477e-02 4.74408865e-02 3.98039669e-02
      3.00558031e-01 3.69158119e-01 3.69158119e-01 2.82677740e-01
      1.18547101e-02 1.21092396e-02 1.20542999e-02 1.18010733e-02
      8.82254466e-02 6.32708967e-02 8.10252726e-02 9.89965573e-02
      2.65430003e-01 2.12884456e-01 2.96834230e-01 3.15748006e-01
      1.75536618e-01 1.67976931e-01 1.90331027e-01 1.89614281e-01
      3.65174711e-01 3.65174711e-01 3.65174711e-01 3.65174711e-01</_>
    <_>
      3.26334655e-01 3.26334655e-01 3.26334655e-01 3.26334655e-01
      1.53446391e-01 1.75409228e-01 1.50182188e-01 1.49570614e-01
      3.26334655e-01 3.26334655e-01 3.26334655e-01 3.26334655e-01
      1.33749902e-01 9.87859815e-02 7.78418779e-02 1.08800530e-01
      2.85758317e-01 2.85758317e-01 2.85758317e-01 2.85758317e-01
      5.93094230e-02 7.45009929e-02 7.01539963e-02 5.71062937e-02
      2.85758317e-01 2.85758317e-01 2.85758317e-01 2.85758317e-01
      2.85758317e-01 2.85758317e-01 2.85758317e-01 2.85758317e-01
      3.68597335e-03 5.62388683e-03 4.07458981e-03 2.27565598e-03
      1.32899255e-01 1.19415917e-01 1.17994279e-01 1.46221906e-01
      3.51319104e-01 2.79392183e-01 2.31280148e-01 3.18093210e-01
      3.78407091e-01 3.78407091e-01 3.78407091e-01 3.78407091e-01</_>
    <_>
      2.98485816e-01 2.98485816e-01 2.98485816e-01 2.98485816e-01
      2.98485816e-01 1.01297036e-01 1.04978636e-01 2.98485816e-01
      1.96970388e-01 2.98485816e-01 2.98485816e-01 1.87545210e-01
      2.98485816e-01 7.31474832e-02 7.40058124e-02 2.98485816e-01
      3.34950924e-01 5.23992814e-02 4.65114452e-02 3.34950924e-01
      3.34950924e-01 1.08533300e-01 9.66159925e-02 3.34950924e-01
      3.34950924e-01 7.86652640e-02 8.48661661e-02 3.34950924e-01
      3.34950924e-01 1.74258024e-01 1.71279818e-01 3.34950924e-01
      2.66559362e-01 1.43311709e-01 1.33111253e-01 2.59203196e-01
      2.81378210e-01 2.81378210e-01 2.81378210e-01 2.81378210e-01
      2.59420633e-01 1.83055148e-01 1.65109456e-01 2.43376613e-01
      2.81378210e-01 2.81378210e-01 2.81378210e-01 2.81378210e-01</_>
    <_>
      2.98768967e-01 2.98768967e-01 2.98768967e-01 2.98768967e-01
      1.51303604e-01 1.11798741e-01 1.21960878e-01 1.65496632e-01
      2.98768967e-01 2.98768967e-01 2.98768967e-01 2.98768967e-01
      2.98768967e-01 9.52318013e-02 1.32895872e-01 2.98768967e-01
      2.10392311e-01 2.85767466e-01 2.01462492e-01 1.97583377e-01
      1.72045246e-01 3.07411581e-01 2.04744354e-01 1.54162809e-01
