<?xml version="1.0"?>
<opencv_storage>
<my_svm type_id="opencv-ml-svm">
  <svm_type>C_SVC</svm_type>
  <kernel><type>LINEAR</type></kernel>
  <C>480.</C>
  <term_criteria><epsilon>2.2204460492503131e-016</epsilon>
    <iterations>15000</iterations></term_criteria>
  <var_all>48</var_all>
  <var_count>48</var_count>
  <class_count>3</class_count>
  <class_labels type_id="opencv-matrix">
    <rows>1</rows>
    <cols>3</cols>
    <dt>i</dt>
    <data>
      2 3 7</data></class_labels>
  <sv_total>3</sv_total>
  <support_vectors>
    <_>
      -1.76329732e+000 -2.09195185e+000 -2.24662828e+000 2.80969054e-001
      -8.90847743e-001 2.27701378e+000 -2.10828328e+000 2.80969054e-001
      1.50929347e-001 -9.62308943e-001 -3.82172093e-002 -1.71787828e-001
      2.80969054e-001 1.22096471e-001 9.40676749e-001 2.80969054e-001
      -2.26296401e+000 4.53078938e+000 3.89280844e+000 -2.15596437e+000
      -9.54320669e-001 1.37931192e+000 6.11852789e+000 3.13379010e-003
      -2.15596437e+000 -2.21135706e-001 1.36566007e+000 -2.15596437e+000
      -1.30670714e+000 5.01146615e-001 2.39597440e+000 2.31269646e+000
      -1.78883755e+000 -6.94987476e-001 3.41747069e+000 3.76764393e+000
      5.13282597e-001 9.56602514e-001 -2.08841729e+000 -3.98816884e-001
      1.98992753e+000 -8.43329787e-001 3.16455269e+000 5.20921528e-001
      2.42987370e+000 2.72455025e+000 -3.08360624e+000 1.27973640e+000</_>
    <_>
      -1.84652078e+000 1.41236603e-001 2.82115698e+000 5.28803885e-001
      -2.74719275e-003 -2.01492405e+000 2.33402178e-001 2.70380497e-001
      1.94781482e+000 4.92059231e-001 -2.69894981e+000 1.14335828e-001
      2.70380497e-001 1.99728355e-001 -2.08225584e+000 2.70380497e-001
      6.09094322e-001 -1.32198286e+000 -1.43417958e-002 9.81591880e-001
      -1.54874933e+000 1.24233150e+000 3.51053506e-001 -1.34653056e+000
      9.81591880e-001 1.81627738e+000 -1.16513811e-001 9.81591880e-001
      -6.42276525e-001 -7.13543952e-001 2.04627797e-001 -2.85220695e+000
      -2.14089966e+000 3.34311152e+000 2.28648257e+000 -2.17357016e+000
      -8.72376680e-001 -1.69097722e+000 -1.94334102e+000
      -1.49084592e+000 1.62485528e+000 -1.42319894e+000 1.31879580e+000
      8.68126988e-001 -1.11372262e-001 -7.26183593e-001 2.22134471e+000
      4.03045714e-001</_>
    <_>
      5.15310287e-001 2.37138733e-001 1.87244281e-001 5.50903797e-001
      8.09258819e-001 -2.08743000e+000 -1.05902839e+000 2.33002394e-001
      2.33002394e-001 -2.72126734e-001 -8.11727762e-001 2.33002394e-001
      2.33002394e-001 -3.97850960e-001 -1.45251036e+000 2.33002394e-001
      1.24656212e+000 -2.33645821e+000 -8.32723379e-001 1.24656212e+000
      1.82462484e-001 5.74489236e-001 -8.97329688e-001 -4.33191508e-001
      1.24656212e+000 1.78312838e-001 -1.13731349e+000 1.24656212e+000
      -3.35278064e-002 -1.10923982e+000 -6.70948088e-001
      -1.49116457e+000 8.39440167e-001 2.22334814e+000 5.59425235e-001
      -1.21738565e+000 -6.11507893e-001 -2.07738209e+000
      -3.16795081e-001 -7.33577728e-001 -6.20239437e-001
      -4.84605789e-001 2.57518739e-002 3.91845614e-001 -1.15890455e+000
      -1.03013182e+000 4.51680720e-001 -3.14385951e-001</_></support_vectors>
  <decision_functions>
    <_>
      <sv_count>1</sv_count>
      <rho>2.6744081745826902e+000</rho>
      <alpha>
        1.</alpha>
      <index>
        0</index></_>
    <_>
      <sv_count>1</sv_count>
      <rho>-8.9092056213959292e-001</rho>
      <alpha>
        1.</alpha>
      <index>
        1</index></_>
    <_>
      <sv_count>1</sv_count>
      <rho>-8.6700292448540595e-001</rho>
      <alpha>
        1.</alpha>
      <index>
        2</index></_></decision_functions></my_svm>
</opencv_storage>
