<?xml version="1.0"?>
<opencv_storage>
<my_svm type_id="opencv-ml-svm">
  <svm_type>C_SVC</svm_type>
  <kernel><type>LINEAR</type></kernel>
  <C>240.</C>
  <term_criteria><epsilon>2.2204460492503131e-016</epsilon>
    <iterations>15000</iterations></term_criteria>
  <var_all>48</var_all>
  <var_count>48</var_count>
  <class_count>4</class_count>
  <class_labels type_id="opencv-matrix">
    <rows>1</rows>
    <cols>4</cols>
    <dt>i</dt>
    <data>
      2 6 8 9</data></class_labels>
  <sv_total>6</sv_total>
  <support_vectors>
    <_>
      8.91503990e-002 -1.39462376e+000 2.99141645e-001 1.17601216e+000
      -1.53952390e-001 -1.38615966e+000 1.52300462e-001 3.42103004e-001
      9.10117626e-001 -1.41940224e+000 -1.16844213e+000 9.79817271e-001
      3.42103004e-001 -7.11125195e-001 -7.96615005e-001 3.82039279e-001
      -1.62987337e-001 1.28638551e-001 3.41183364e-001 -1.20462634e-001
      -4.72686410e-001 9.63554442e-001 9.42153335e-001 -3.98157015e-002
      -1.20462634e-001 2.79873252e-001 6.53588891e-001 6.51902258e-002
      -4.23617393e-001 1.96586505e-001 6.28186047e-001 -4.55268681e-001
      -8.05717409e-001 7.80581415e-001 6.30665541e-001 -2.43032008e-001
      -7.37221539e-001 -4.68560398e-001 8.46838653e-002 4.80545266e-003
      1.09017164e-001 -2.76812643e-001 7.25612462e-001 2.35500216e-001
      4.86286163e-001 -7.91272670e-002 5.17633438e-001 -6.72830194e-002</_>
    <_>
      1.00766468e+000 -4.24976766e-001 -1.44393384e+000 2.37747476e-001
      9.97761041e-002 -1.22067344e+000 -2.88146049e-001 2.37747476e-001
      2.84968162e+000 -7.37406611e-001 -1.59191680e+000 1.08712900e+000
      3.92232865e-001 4.15207207e-001 -1.93212724e+000 2.37747476e-001
      2.02256039e-001 -1.23488501e-001 1.05376579e-001 7.54382163e-002
      -1.27513099e+000 4.11904097e-001 3.05647087e+000 3.00842971e-001
      8.06975514e-002 1.26313734e+000 -7.64844477e-001 7.54382163e-002
      -1.15706980e+000 6.33544803e-001 5.72612405e-001 -1.09741628e+000
      -7.64953256e-001 -7.26745009e-001 8.26714993e-001 -2.13840902e-001
      5.64524606e-002 -9.84023273e-001 -3.19845408e-001 -1.59439370e-002
      2.00206041e-001 -8.31164956e-001 7.71383762e-001 -1.15174510e-001
      1.71956271e-002 -6.99619278e-002 7.38682866e-001 5.64861715e-001</_>
    <_>
      -3.18865359e-001 -1.18655777e+000 1.04603797e-001 4.04249877e-001
      -4.35683727e-002 -5.58942437e-001 3.55113685e-001 2.78786242e-001
      2.16457516e-001 -9.65853333e-001 -1.02511799e+000 6.30480468e-001
      6.05909526e-001 -3.90387148e-001 -6.06177211e-001 4.57482070e-001
      -1.86453655e-001 -3.78340244e-001 -1.31222174e-001
      -1.14420429e-001 -1.39757901e-001 -1.74684867e-001 8.98516119e-001
      7.75350213e-001 2.36014515e-001 -2.56768227e-001 -5.31805694e-001
      -4.20761071e-002 7.97826648e-001 -3.90708148e-002 -8.66087899e-002
      4.89091605e-001 -1.13800788e+000 -6.37925923e-001 1.81249842e-001
      1.39098838e-001 1.70342401e-001 -1.59216329e-001 5.03041327e-001
      5.43040156e-001 -2.04776213e-001 -6.53192341e-001 -6.45338967e-002
      7.56849408e-001 1.20276026e-001 -4.05581713e-001 3.80539149e-002
      1.47002488e-001</_>
    <_>
      1.85882837e-001 1.68971491e+000 -2.10361958e+000 -1.44444227e+000
      6.07272387e-001 1.51052785e+000 -3.42763603e-001 -2.76420057e-001
      6.36628509e-001 1.52438939e+000 5.48645973e-001 -1.12104356e+000
      -2.51462966e-001 8.35313320e-001 3.84240359e-001 -3.12904418e-001
      3.02247792e-001 -7.60432240e-003 -2.27478743e-001 1.79441422e-001
      1.83411434e-001 -9.67763960e-001 -2.11031571e-001 1.00920036e-001
      1.81125283e-001 3.05618551e-002 -1.19195676e+000 9.83552355e-003
      6.25237310e-003 2.60947078e-001 -5.84432006e-001 -2.03440532e-001
      7.02777028e-001 -5.43687761e-001 -7.98051059e-003 3.54086787e-001
      3.55709255e-001 -9.18399155e-001 -1.79920316e+000 -9.38863635e-001
      2.26352036e-001 1.09622586e+000 1.29555494e-001 -3.12066227e-001
      4.53052491e-001 -4.49832669e-003 -4.50655580e-001 1.68975085e-001</_>
    <_>
      -7.68986642e-001 -6.93667054e-001 2.99863905e-001 1.27392665e-001
      8.96311998e-002 3.63167882e-001 1.07083309e+000 1.08777389e-001
      -9.20276701e-001 -7.50180483e-001 -7.35402882e-001
      -6.78916946e-002 5.70501029e-001 1.06532171e-001 1.16634637e-001
      6.23455346e-001 -1.65987879e-001 -7.29709864e-001 -2.80347228e-001
      -1.96228251e-001 7.77679801e-001 -9.54353213e-001 5.87958433e-002
      1.30821145e+000 2.08393767e-001 -7.19477236e-001 -6.43714845e-001
      -1.08214542e-001 1.26303077e+000 2.92633057e-001 -1.25765383e-001
      1.11525035e+000 -2.89412975e-001 -9.24093187e-001 5.84811382e-002
      5.69534719e-001 8.21631610e-001 -1.61027640e-001 3.66305262e-002
      9.88298297e-001 -4.54868138e-001 -2.54187584e-001 -3.98024380e-001
      4.20266360e-001 -3.25868800e-002 -2.29929194e-001 -1.15433300e+000
      -1.73334673e-001</_>
    <_>
      -1.12026155e+000 -1.35796261e+000 7.04412699e-001 6.09855950e-001
      -2.66702592e-001 -1.66774482e-001 7.37450063e-001 2.95105338e-001
      -5.08440971e-001 -1.38347280e+000 -3.22789669e-001 6.49324834e-001
      3.28296065e-001 -6.26377404e-001 -5.04750386e-002 5.62407017e-001
      -2.29796723e-001 -3.77072215e-001 -2.44409919e-001
      -2.94625908e-001 5.92159450e-001 2.57228345e-001 6.31900281e-002
      1.10596013e+000 -1.18617937e-001 -3.64735603e-001 -2.94625908e-001
      -2.19998851e-001 9.11742091e-001 -2.96039432e-002 -4.50388715e-002
      5.81557810e-001 -6.68559968e-001 -5.33582091e-001 -1.34397313e-001
      5.17374516e-001 7.75526166e-002 9.86334458e-002 3.92057151e-001
      1.05231917e+000 -2.52691686e-001 -5.75644672e-001 -6.88064873e-001
      4.08110730e-002 -2.29102954e-001 -5.52798092e-001 -1.37051478e-001
      -4.14231926e-001</_></support_vectors>
  <decision_functions>
    <_>
      <sv_count>1</sv_count>
      <rho>2.7830279817662984e-001</rho>
      <alpha>
        1.</alpha>
      <index>
        0</index></_>
    <_>
      <sv_count>1</sv_count>
      <rho>4.3091228810231152e-001</rho>
      <alpha>
        1.</alpha>
      <index>
        1</index></_>
    <_>
      <sv_count>1</sv_count>
      <rho>-1.3835281246149958e-001</rho>
      <alpha>
        1.</alpha>
      <index>
        2</index></_>
    <_>
      <sv_count>1</sv_count>
      <rho>-6.3495544307253504e-001</rho>
      <alpha>
        1.</alpha>
      <index>
        3</index></_>
    <_>
      <sv_count>1</sv_count>
      <rho>-1.0990532273506821e-001</rho>
      <alpha>
        1.</alpha>
      <index>
        4</index></_>
    <_>
      <sv_count>1</sv_count>
      <rho>-4.9625736169746559e-001</rho>
      <alpha>
        1.</alpha>
      <index>
        5</index></_></decision_functions></my_svm>
</opencv_storage>
