<?xml version="1.0"?>
<opencv_storage>
<opencv_ml_svm>
  <format>3</format>
  <svmType>C_SVC</svmType>
  <kernel>
    <type>LINEAR</type></kernel>
  <C>450.</C>
  <term_criteria><epsilon>1.0000000000000000e-02</epsilon>
    <iterations>1500</iterations></term_criteria>
  <var_count>48</var_count>
  <class_count>3</class_count>
  <class_labels type_id="opencv-matrix">
    <rows>3</rows>
    <cols>1</cols>
    <dt>i</dt>
    <data>
      2 3 7</data></class_labels>
  <sv_total>3</sv_total>
  <support_vectors>
    <_>
      -5.32222891e+00 -7.30374718e+00 -4.80709553e+00 -6.33943379e-01
      1.70570052e+00 5.64961290e+00 -3.40044832e+00 1.34898579e+00
      1.38507150e-02 -2.54741502e+00 -4.45717049e+00 -1.64084637e+00
      1.34898579e+00 -2.10280490e+00 -1.01668850e-01 3.74080610e+00
      -8.84706259e-01 9.84420872e+00 7.10506010e+00 -3.77631426e+00
      1.97241795e+00 2.22162938e+00 2.38550258e+00 1.55021822e+00
      -3.77631426e+00 -2.17836499e+00 6.52057791e+00 -3.68581951e-01
      -1.98779428e+00 3.57464027e+00 7.94642687e+00 2.77315116e+00
      -6.27979279e+00 5.97417736e+00 3.13467336e+00 6.60681105e+00
      -6.37839031e+00 1.07998478e+00 6.92295671e-01 3.67944986e-01
      4.67535891e-02 3.54274511e+00 1.35889447e+00 1.66323876e+00
      3.27989697e+00 4.72285837e-01 1.95057595e+00 -1.85236692e+00</_>
    <_>
      -4.84409428e+00 -1.24282384e+00 4.74389106e-01 9.77476910e-02
      7.72746131e-02 -3.47498846e+00 1.70232344e+00 5.40367723e-01
      1.86704588e+00 3.11474013e+00 -3.43992639e+00 -2.02516246e+00
      5.40367723e-01 1.23971486e+00 -3.62970996e+00 -3.98565710e-01
      4.75616246e-01 3.62511307e-01 2.72349381e+00 9.40098286e-01
      -1.87758791e+00 2.99789429e+00 1.67627120e+00 -7.92252839e-01
      1.07026303e+00 7.86576092e-01 -1.19536984e+00 9.40098286e-01
      -1.71322191e+00 -3.33767295e+00 -9.32860792e-01 -2.20827436e+00
      -1.06492496e+00 8.31580925e+00 -7.26020694e-01 -1.09069848e+00
      -2.46280146e+00 -2.06317282e+00 1.22498143e+00 -1.09611475e+00
      1.46340191e+00 -2.83786450e-02 3.48776269e+00 3.20407033e+00
      1.45238972e+00 -1.90941319e-02 2.14181590e+00 -1.14451075e+00</_>
    <_>
      2.30012751e+00 1.10061407e+00 -1.13512480e+00 -3.95031452e-01
      1.54718673e+00 -6.53271246e+00 -8.09978783e-01 -8.86968374e-01
      1.48054302e-01 4.80289221e+00 6.98329568e-01 -2.14120531e+00
      -8.86968374e-01 1.03120518e+00 -3.59469175e+00 -1.86391509e+00
      -2.22274259e-01 -4.48148584e+00 1.40625358e+00 1.57333148e+00
      2.64724821e-01 1.88127530e+00 -2.69074023e-01 8.76044691e-01
      1.53541255e+00 -3.95153570e+00 -2.41983247e+00 9.39328492e-01
      -8.68963957e-01 -3.94282532e+00 -3.43940902e+00 -1.24213481e+00
      3.67533350e+00 6.46019745e+00 -1.86368108e+00 3.00920546e-01
      -1.55692005e+00 2.92644113e-01 -2.71633148e+00 -7.79038608e-01
      -2.95776594e-02 -1.17920184e+00 1.55421865e+00 2.63236856e+00
      1.28828776e+00 -2.11954519e-01 -3.63745832e+00 -1.08300579e+00</_></support_vectors>
  <uncompressed_sv_total>51</uncompressed_sv_total>
  <uncompressed_support_vectors>
    <_>
      3.47460479e-01 1.72124654e-02 1.37884747e-02 3.47460479e-01
      3.47460479e-01 7.17681497e-02 7.45505020e-02 3.47460479e-01
      3.47460479e-01 6.96180686e-02 3.94581594e-02 3.47460479e-01
      3.47460479e-01 1.11608610e-01 2.53598914e-02 3.47460479e-01
      3.30302328e-01 1.74120277e-01 1.86883152e-01 3.30302328e-01
      2.91095972e-01 1.64421365e-01 1.63933545e-01 2.92193234e-01
      3.30302328e-01 1.98409081e-01 6.34417161e-02 3.30302328e-01
      3.30302328e-01 1.82560205e-01 8.05578902e-02 2.80583590e-01
      2.41259500e-01 1.81727245e-01 1.75980076e-01 2.68330336e-01
      1.66124150e-01 1.93699449e-02 1.17304232e-02 1.66399747e-01
      3.77688140e-01 2.83232182e-01 1.20717734e-01 3.77688140e-01
      3.77688140e-01 2.80220240e-01 4.81318086e-02 3.77688140e-01</_>
    <_>
      1.72967911e-01 2.95442306e-02 2.54520744e-01 3.20843577e-01
      2.38938391e-01 1.35525614e-01 3.20843577e-01 3.20843577e-01
      3.20843577e-01 6.70576021e-02 8.37926492e-02 3.13176394e-01
      3.20843577e-01 1.98226616e-01 2.43369877e-01 3.20843577e-01
      3.02924037e-01 3.21226567e-01 3.21226567e-01 3.21226567e-01
      1.02033593e-01 1.37007311e-01 2.24773616e-01 1.99015334e-01
      3.21226567e-01 3.21027011e-01 3.21226567e-01 3.21226567e-01
      1.41503066e-01 7.18753263e-02 1.03391834e-01 1.66309863e-01
      1.05409034e-01 2.34842580e-02 8.14640447e-02 2.44757369e-01
      3.32539320e-01 1.83560655e-01 3.24125886e-01 3.32539320e-01
      2.03986824e-01 1.82005707e-02 6.86092526e-02 2.63773859e-01
      3.32539320e-01 3.32539320e-01 3.32539320e-01 3.32539320e-01</_>
    <_>
      1.90745741e-01 2.70194449e-02 2.02098936e-01 3.36556256e-01
      2.85644889e-01 1.41129181e-01 3.09493423e-01 3.36556256e-01
      3.26618433e-01 5.67979068e-02 8.61658826e-02 3.36556256e-01
      3.36556256e-01 1.14773862e-01 1.56617343e-01 3.36556256e-01
      3.35491389e-01 2.46499196e-01 3.35491389e-01 3.35491389e-01
      1.25060871e-01 9.50861648e-02 1.84856594e-01 3.31170291e-01
      3.35491389e-01 2.18978763e-01 2.45640263e-01 3.35491389e-01
      1.57755986e-01 1.05369948e-01 1.11964256e-01 2.18563110e-01
      3.11486453e-01 1.21908627e-01 3.61368328e-01 3.61368328e-01
      3.61368328e-01 3.58522646e-02 2.35938415e-01 3.61368328e-01
      2.72837013e-01 1.92869026e-02 1.49537906e-01 3.61368328e-01
      2.15088740e-01 4.45573442e-02 6.41903728e-02 1.58347830e-01</_>
    <_>
      3.25795084e-01 2.30339039e-02 1.50614187e-01 3.39587688e-01
      3.39587688e-01 9.23758000e-02 1.98396355e-01 3.39587688e-01
      2.38826692e-01 9.76729989e-02 5.70853464e-02 2.43409812e-01
      3.39587688e-01 3.14370751e-01 1.21826768e-01 3.39587688e-01
      3.07836533e-01 2.23012716e-01 3.07836533e-01 3.07836533e-01
      1.47224918e-01 1.63030803e-01 1.98166505e-01 2.46679306e-01
      3.07836533e-01 3.07836533e-01 1.92467973e-01 3.07836533e-01
      3.07836533e-01 1.67980373e-01 9.70014706e-02 2.46577457e-01
      1.39175147e-01 1.12169273e-01 9.86419171e-02 1.56215489e-01
      9.81275216e-02 4.78332629e-03 1.90464016e-02 1.64158180e-01
      4.53032225e-01 1.08944573e-01 1.08319134e-01 4.53032225e-01
      4.53032225e-01 8.19412768e-02 2.02874541e-01 4.53032225e-01</_>
    <_>
      2.91711390e-01 1.62926212e-01 1.35340124e-01 2.91711390e-01
      2.91711390e-01 2.91711390e-01 2.91711390e-01 2.91711390e-01
      2.91711390e-01 2.91711390e-01 8.57109651e-02 1.13603890e-01
      2.91711390e-01 2.91711390e-01 1.92384034e-01 2.09771171e-01
      3.28557700e-01 3.28557700e-01 3.28557700e-01 3.28557700e-01
      1.12971202e-01 3.12371068e-02 1.80691965e-02 8.06572437e-02
      3.28557700e-01 3.28557700e-01 3.28557700e-01 3.28557700e-01
      8.50650147e-02 1.75650805e-01 2.27383003e-01 1.50841907e-01
      2.36631975e-01 7.33945444e-02 1.37350298e-02 1.31591707e-01
      1.17040180e-01 6.39987886e-02 1.81762695e-01 2.42371649e-01
      3.27509403e-01 2.79665560e-01 1.34287879e-01 2.05244869e-01
      4.28672552e-01 4.28672552e-01 1.01691328e-01 4.28672552e-01</_>
    <_>
      2.81331629e-01 2.90839709e-02 1.57101154e-01 3.30357343e-01
      3.30357343e-01 2.18487103e-02 3.30357343e-01 3.30357343e-01
      3.30357343e-01 3.08849197e-02 8.97371694e-02 3.30357343e-01
      3.30357343e-01 2.91326586e-02 9.27598998e-02 3.30357343e-01
      3.05539876e-01 7.04524592e-02 3.05539876e-01 3.05539876e-01
      2.67527461e-01 8.47091973e-02 2.63263792e-01 3.05539876e-01
      3.05539876e-01 1.20101638e-01 2.16631591e-01 3.05539876e-01
      2.17492938e-01 1.42163113e-01 2.48151973e-01 3.05539876e-01
      3.29173148e-01 2.41255060e-01 2.04531506e-01 3.29173148e-01
      3.29173148e-01 2.61442125e-01 3.25756520e-01 3.29173148e-01
      1.99325845e-01 1.50190443e-01 2.57769257e-01 3.01146150e-01
      1.73137113e-01 1.01126090e-01 8.32586959e-02 1.49089962e-01</_>
    <_>
      2.82857895e-01 5.66910878e-02 1.62737951e-01 2.99017817e-01
      2.99017817e-01 1.33476004e-01 2.99017817e-01 2.99017817e-01
      2.99017817e-01 2.20473498e-01 2.74689887e-02 2.99017817e-01
      2.99017817e-01 2.99017817e-01 1.24185890e-01 2.99017817e-01
      3.04610401e-01 2.08606303e-01 3.04610401e-01 3.04610401e-01
      3.04610401e-01 1.09060675e-01 1.07320100e-01 2.86196828e-01
      3.04610401e-01 3.04610401e-01 3.04610401e-01 3.04610401e-01
      1.38234228e-01 1.62466332e-01 1.92317218e-01 1.52739033e-01
      3.22529078e-01 2.72801369e-01 6.11828640e-02 3.22529078e-01
      3.22529078e-01 3.22529078e-01 3.22529078e-01 3.22529078e-01
      8.88853073e-02 4.84252237e-02 8.77725258e-02 1.26743987e-01
      3.22529078e-01 3.22529078e-01 1.52730092e-01 1.70508772e-01</_>
    <_>
      2.78838158e-01 1.05368696e-01 1.00144900e-01 2.63008237e-01
      3.08250308e-01 1.60418883e-01 2.46447995e-01 3.08250308e-01
      3.08250308e-01 2.62118906e-01 1.95921957e-02 3.08250308e-01
      3.08250308e-01 3.08250308e-01 9.04185772e-02 3.08250308e-01
      3.14885378e-01 2.28566498e-01 3.14885378e-01 3.14885378e-01
      2.21701309e-01 1.31928995e-01 1.15704268e-01 1.83216408e-01
      3.14885378e-01 3.14885378e-01 2.26978064e-01 3.14885378e-01
      2.83208251e-01 2.35964388e-01 1.41249090e-01 1.69780284e-01
      3.01000148e-01 3.01000148e-01 6.93509132e-02 3.01000148e-01
      3.01000148e-01 1.42299324e-01 3.01000148e-01 3.01000148e-01
      3.01000148e-01 2.62521029e-01 1.83077484e-01 2.05679357e-01
      3.01000148e-01 2.41901815e-01 1.48460260e-02 2.08924651e-01</_>
    <_>
      3.22404176e-01 7.58214220e-02 8.28187913e-02 3.22404176e-01
      3.22404176e-01 1.06954604e-01 2.68045664e-01 3.22404176e-01
      3.22404176e-01 7.56319165e-02 1.37484064e-02 3.22404176e-01
      3.22404176e-01 2.01885641e-01 1.50533646e-01 3.22404176e-01
      3.23557854e-01 2.17139110e-01 3.23557854e-01 3.23557854e-01
      2.47336537e-01 1.47810459e-01 1.39722630e-01 2.25652814e-01
      3.23557854e-01 3.23557854e-01 3.23557854e-01 3.23557854e-01
      1.20885760e-01 1.09329596e-01 1.27921179e-01 1.42810181e-01
      3.65832835e-01 3.65832835e-01 9.08551663e-02 3.65832835e-01
      3.65832835e-01 2.16384828e-01 3.65832835e-01 3.65832835e-01
      1.18700467e-01 6.90421090e-02 1.30369544e-01 2.13005841e-01
      1.84442312e-01 6.80380464e-02 2.76336633e-02 1.32777944e-01</_>
    <_>
      3.14429790e-01 1.61818698e-01 7.04828724e-02 3.14429790e-01
      3.14429790e-01 1.51524261e-01 2.42104400e-02 3.14429790e-01
      3.14429790e-01 2.79001504e-01 3.02285273e-02 2.94550061e-01
      3.14429790e-01 2.90185302e-01 1.93319637e-02 3.14429790e-01
      3.07832628e-01 1.99430406e-01 5.78436106e-02 3.07832628e-01
      3.07832628e-01 1.36057377e-01 6.59356788e-02 2.37373158e-01
      3.07832628e-01 3.07832628e-01 8.43800306e-02 3.07832628e-01
      2.73286223e-01 2.39337862e-01 2.90202469e-01 2.87627459e-01
      3.09348464e-01 2.44508669e-01 1.29646957e-01 3.09348464e-01
      2.48050526e-01 1.99046075e-01 1.53368652e-01 2.04405680e-01
      2.05450863e-01 3.09348464e-01 3.09348464e-01 3.09348464e-01
      3.09348464e-01 3.09348464e-01 1.39760554e-01 1.49149865e-01</_>
    <_>
      3.12485099e-01 1.70499355e-01 9.86825675e-02 3.12485099e-01
      3.12485099e-01 1.62452593e-01 5.09479344e-02 3.12485099e-01
      3.12485099e-01 2.95298338e-01 3.21774073e-02 2.42237344e-01
      3.12485099e-01 3.12485099e-01 3.14916670e-02 3.12485099e-01
      3.09827775e-01 2.13321537e-01 9.78431180e-02 3.09827775e-01
      2.87871122e-01 1.32622957e-01 7.82392770e-02 2.13279501e-01
      3.09827775e-01 3.09827775e-01 1.20910697e-01 3.09827775e-01
      2.82059401e-01 2.86610842e-01 2.68493503e-01 2.47747451e-01
      2.88972825e-01 1.76079810e-01 6.56338260e-02 2.26413146e-01
      1.58952072e-01 2.88972825e-01 2.88972825e-01 2.34023884e-01
      2.47201771e-01 2.88972825e-01 2.88972825e-01 2.88972825e-01
      2.88972825e-01 2.88972825e-01 2.80011237e-01 1.51484266e-01</_>
    <_>
      2.21190795e-01 7.38024786e-02 1.11145675e-01 2.63959289e-01
      3.29584301e-01 8.96472633e-02 2.54204363e-01 3.29584301e-01
      3.29584301e-01 2.61910558e-01 2.82908063e-02 3.29584301e-01
      3.29584301e-01 2.55384862e-01 3.57291475e-02 3.29584301e-01
      2.86727130e-01 9.61870924e-02 2.70623505e-01 2.86727130e-01
      2.86727130e-01 1.20049000e-01 2.39438772e-01 2.86727130e-01
      2.86727130e-01 2.29408622e-01 9.62242335e-02 2.86727130e-01
      2.86727130e-01 2.86727130e-01 2.02740714e-01 2.86727130e-01
      3.15288991e-01 2.13702157e-01 2.99913406e-01 3.15288991e-01
      3.15288991e-01 1.81641266e-01 4.42278795e-02 3.15288991e-01
      3.15288991e-01 3.15288991e-01 3.15288991e-01 3.15288991e-01
      1.30479500e-01 9.89716128e-02 2.88364291e-02 5.80884703e-02</_>
    <_>
      2.86443561e-01 6.09798767e-02 8.47117752e-02 2.91095227e-01
      3.38737160e-01 5.98152876e-02 2.97054231e-01 3.38737160e-01
      3.38737160e-01 1.23411074e-01 1.97843555e-02 3.38737160e-01
      3.38737160e-01 1.35973036e-01 6.74374700e-02 3.38737160e-01
      2.92724431e-01 9.92595106e-02 2.92724431e-01 2.92724431e-01
      2.63901353e-01 1.13569386e-01 2.78760344e-01 2.92724431e-01
      2.92724431e-01 2.18613401e-01 1.79455936e-01 2.92724431e-01
      2.88041115e-01 2.05653295e-01 1.93267539e-01 2.65024751e-01
      3.33188504e-01 2.70900846e-01 3.12899351e-01 3.33188504e-01
      3.33188504e-01 3.04614455e-01 2.37092093e-01 3.33188504e-01
      2.39623114e-01 1.90451697e-01 2.00472057e-01 2.56975055e-01
      1.35207623e-01 6.34530783e-02 2.59049702e-02 9.70661566e-02</_>
    <_>
      2.68006146e-01 1.04199968e-01 9.25886333e-02 2.50992507e-01
      3.12200397e-01 2.36599579e-01 2.01258868e-01 3.12200397e-01
      3.12200397e-01 3.12200397e-01 2.07770094e-02 2.31439993e-01
      3.12200397e-01 3.12200397e-01 9.93050486e-02 3.12200397e-01
      3.09359431e-01 3.09359431e-01 2.63505042e-01 3.09359431e-01
      1.91817373e-01 1.28772914e-01 8.62342790e-02 1.40677139e-01
      3.09359431e-01 3.09359431e-01 2.05195576e-01 3.09359431e-01
      3.09359431e-01 2.93638915e-01 1.47905022e-01 1.63533926e-01
      2.51165897e-01 1.20315060e-01 2.14175247e-02 1.50829241e-01
      2.80230463e-01 3.05378675e-01 3.05378675e-01 3.05378675e-01
      3.05378675e-01 3.05378675e-01 2.28859544e-01 1.75180301e-01
      3.05378675e-01 3.05378675e-01 1.93773970e-01 2.10345283e-01</_>
    <_>
      2.70319849e-01 9.51026902e-02 1.05894886e-01 2.97498137e-01
      3.08762610e-01 2.33649254e-01 2.17601702e-01 3.08762610e-01
      3.08762610e-01 3.08762610e-01 1.80456322e-02 1.95978239e-01
      3.08762610e-01 3.08762610e-01 8.40386003e-02 3.08762610e-01
      3.05579573e-01 3.05579573e-01 2.67849684e-01 3.05579573e-01
      1.97907329e-01 1.28245100e-01 8.34094882e-02 1.42792404e-01
      3.05579573e-01 3.05579573e-01 1.96137726e-01 3.05579573e-01
      3.05579573e-01 3.05579573e-01 1.62802652e-01 1.73886314e-01
      2.79956400e-01 1.22279011e-01 1.60649344e-02 1.44391537e-01
      2.67128021e-01 2.99149483e-01 2.99149483e-01 2.99149483e-01
      2.99149483e-01 2.99149483e-01 2.36567691e-01 1.88351616e-01
      2.99149483e-01 2.99149483e-01 2.17259422e-01 2.14810565e-01</_>
    <_>
      3.44880283e-01 3.14211249e-02 6.03014044e-02 3.44880283e-01
      3.44880283e-01 4.24591973e-02 9.25420001e-02 3.44880283e-01
      3.44880283e-01 7.00138733e-02 3.84415388e-02 3.44880283e-01
      3.44880283e-01 1.50135800e-01 3.32302526e-02 3.44880283e-01
      3.35399032e-01 9.83645543e-02 1.29240379e-01 3.35399032e-01
      3.17980707e-01 1.25271946e-01 1.05415039e-01 3.35399032e-01
      3.35399032e-01 2.20184639e-01 5.94558530e-02 3.35399032e-01
      3.35399032e-01 1.82327837e-01 7.80640543e-02 2.75761366e-01
      3.13118815e-01 1.78807184e-01 1.44401655e-01 3.16822410e-01
      1.03362709e-01 1.01285717e-02 6.66950420e-02 2.54544020e-01
      3.76852512e-01 2.61092722e-01 1.47335336e-01 3.76852512e-01
      3.76852512e-01 7.23575503e-02 4.21893820e-02 3.76852512e-01</_>
    <_>
      3.43007624e-01 4.46390845e-02 6.56817257e-02 3.43007624e-01
      3.43007624e-01 7.23283812e-02 1.00536682e-01 3.43007624e-01
      3.43007624e-01 1.05954416e-01 3.68462317e-02 3.43007624e-01
      3.43007624e-01 1.41666055e-01 3.22497673e-02 3.43007624e-01
      3.59641552e-01 1.87325373e-01 1.38402805e-01 3.59641552e-01
      2.35438153e-01 1.58064127e-01 8.49775299e-02 2.17385456e-01
      3.59641552e-01 2.49298915e-01 6.60685226e-02 3.59641552e-01
      3.59641552e-01 1.77872762e-01 6.01401143e-02 2.42459670e-01
      1.30725726e-01 1.50943682e-01 8.89953375e-02 1.20746695e-01
      1.14746496e-01 5.68240546e-02 3.23057026e-02 1.21273331e-01
      3.91662747e-01 3.05967927e-01 9.85121727e-02 3.91662747e-01
      3.91662747e-01 3.91662747e-01 1.76771104e-01 3.91662747e-01</_>
    <_>
      3.31372291e-01 3.32849324e-02 1.18061662e-01 3.32897872e-01
      3.32897872e-01 6.88710883e-02 2.53527850e-01 3.32897872e-01
      3.32897872e-01 4.73884381e-02 4.82020825e-02 3.32897872e-01
      3.32897872e-01 1.12892725e-01 9.86884087e-02 3.32897872e-01
      3.44444573e-01 2.37641200e-01 3.44444573e-01 3.44444573e-01
      2.30288461e-01 1.97940528e-01 1.93856820e-01 2.79906183e-01
      3.44444573e-01 2.41141200e-01 2.12600529e-01 3.44444573e-01
      1.11971542e-01 7.45913237e-02 6.38628453e-02 1.14916086e-01
      4.18747813e-01 2.47397125e-01 1.91119239e-01 4.18747813e-01
      4.18747813e-01 4.45966572e-02 3.23145986e-01 4.18747813e-01
      1.32253170e-01 2.00664587e-02 4.45614122e-02 1.87929541e-01
      1.33212253e-01 4.98351008e-02 5.38326129e-02 1.09317079e-01</_>
    <_>
      3.38788956e-01 3.79146263e-02 6.28902987e-02 3.38788956e-01
      3.38788956e-01 8.30270052e-02 1.19840346e-01 3.38788956e-01
      3.38788956e-01 9.59127471e-02 3.41959260e-02 3.38788956e-01
      3.38788956e-01 1.99297830e-01 4.06843759e-02 3.38788956e-01
      3.53973091e-01 1.99460790e-01 1.89496934e-01 3.53973091e-01
      1.73312858e-01 1.02114774e-01 7.00577945e-02 1.68756008e-01
      3.53973091e-01 3.44329000e-01 9.46361646e-02 3.53973091e-01
      3.53973091e-01 1.47268593e-01 5.74986823e-02 2.60616422e-01
      1.83969229e-01 1.07391411e-02 1.23325614e-02 1.87588006e-01
      1.61721930e-01 9.87743121e-03 5.70728667e-02 3.39135349e-01
      4.36724424e-01 7.98055381e-02 6.04109876e-02 4.36724424e-01
      4.36724424e-01 8.29902962e-02 4.46735024e-02 4.36724424e-01</_>
    <_>
      3.16042811e-01 2.74146143e-02 1.99064165e-01 3.16042811e-01
      2.89863080e-01 1.77701414e-02 3.05351436e-01 3.16042811e-01
      3.16042811e-01 3.07393912e-02 1.74932152e-01 3.16042811e-01
      3.16042811e-01 2.00948454e-02 2.18533248e-01 3.16042811e-01
      2.72723973e-01 3.21158879e-02 3.19839180e-01 3.19839180e-01
      1.39887795e-01 4.86758836e-02 3.19839180e-01 3.19839180e-01
      3.19839180e-01 5.21452837e-02 3.00646484e-01 3.19839180e-01
      2.04380617e-01 6.33227229e-02 2.10922137e-01 3.19839180e-01
      3.28743339e-01 7.03252926e-02 3.28743339e-01 3.28743339e-01
      3.28743339e-01 3.28216553e-02 1.64577067e-01 3.28743339e-01
      2.21240804e-01 6.71938509e-02 2.34088123e-01 3.28743339e-01
      3.00388724e-01 3.06424834e-02 8.75745639e-02 3.28743339e-01</_>
    <_>
      3.10745686e-01 1.44547537e-01 1.93112977e-02 3.10745686e-01
      3.10745686e-01 2.30573267e-01 3.51110362e-02 3.10745686e-01
      3.10745686e-01 3.03662151e-01 4.09453101e-02 2.69930184e-01
      3.10745686e-01 3.10745686e-01 2.69490704e-02 2.78953791e-01
      3.25119585e-01 3.25119585e-01 7.29176104e-02 3.25119585e-01
      2.47751608e-01 1.63296208e-01 4.70897816e-02 1.24828294e-01
      3.25119585e-01 3.25119585e-01 6.13201223e-02 3.05721760e-01
      3.25119585e-01 3.10355008e-01 1.01346403e-01 2.18070671e-01
      2.57929653e-01 1.62426874e-01 3.65993418e-02 1.11844823e-01
      3.24417800e-01 3.24417800e-01 6.68903664e-02 1.79047525e-01
      3.24417800e-01 3.24417800e-01 1.49785966e-01 3.24417800e-01
      3.24417800e-01 3.24417800e-01 3.10178418e-02 3.05517405e-01</_>
    <_>
      3.26594621e-01 4.18963917e-02 1.18717946e-01 3.26594621e-01
      3.26594621e-01 3.16384360e-02 2.79572040e-01 3.26594621e-01
      3.26594621e-01 6.09776042e-02 5.96208312e-02 3.26594621e-01
      3.26594621e-01 1.73769638e-01 1.04617082e-01 3.26594621e-01
      3.10821474e-01 6.57597482e-02 3.10821474e-01 3.10821474e-01
      2.29654312e-01 5.18590659e-02 2.40165174e-01 3.10821474e-01
      3.10821474e-01 2.53273904e-01 1.85060278e-01 3.10821474e-01
      2.98623115e-01 1.14871792e-01 1.31519139e-01 2.85896152e-01
      3.23881596e-01 4.19201218e-02 1.84495449e-01 3.23881596e-01
      3.23881596e-01 1.21489644e-01 8.69504437e-02 3.23881596e-01
      3.23881596e-01 8.06914717e-02 8.86493474e-02 3.19918871e-01
      3.23881596e-01 3.23881596e-01 1.18138604e-01 2.71437705e-01</_>
    <_>
      3.13762814e-01 1.47234440e-01 4.97868024e-02 3.13762814e-01
      3.13762814e-01 1.57906950e-01 7.46788457e-02 3.13762814e-01
      3.13762814e-01 2.34105632e-01 3.12740169e-02 3.13762814e-01
      3.13762814e-01 3.13762814e-01 1.97259467e-02 3.13762814e-01
      3.06676477e-01 1.97648898e-01 1.16451375e-01 3.06676477e-01
      3.06676477e-01 1.63514301e-01 1.10199131e-01 2.66790748e-01
      3.06676477e-01 3.06676477e-01 3.84827219e-02 3.06676477e-01
      3.06676477e-01 2.99668968e-01 1.27241269e-01 2.61582792e-01
      3.27394217e-01 1.87248170e-01 1.29325986e-01 2.54170060e-01
      1.95669070e-01 8.31160247e-02 1.08190812e-02 1.09874733e-01
      3.27394217e-01 3.27394217e-01 2.68640339e-01 3.27394217e-01
      3.27394217e-01 3.27394217e-01 2.18763929e-02 3.27394217e-01</_>
    <_>
      3.14657867e-01 1.37895003e-01 5.33287413e-02 3.14657867e-01
      3.14657867e-01 1.60060972e-01 8.86283442e-02 3.14657867e-01
      3.14657867e-01 2.19893903e-01 3.20328213e-02 3.14657867e-01
      3.14657867e-01 3.14657867e-01 3.25091928e-02 3.14657867e-01
      3.07502955e-01 2.07323059e-01 1.30945206e-01 3.07502955e-01
      3.07502955e-01 1.52172565e-01 1.00291520e-01 2.64299870e-01
      3.07502955e-01 3.07502955e-01 5.77662475e-02 3.07502955e-01
      3.07502955e-01 2.80197084e-01 1.26949593e-01 2.71769464e-01
      3.12123030e-01 1.60656944e-01 1.02239057e-01 2.46481955e-01
      2.13693053e-01 8.72495398e-02 1.22981183e-02 1.17048576e-01
      3.33396852e-01 3.33396852e-01 2.60174721e-01 3.33396852e-01
      3.33396852e-01 3.33396852e-01 2.21512597e-02 3.33396852e-01</_>
    <_>
      3.21839929e-01 2.91816201e-02 1.52394891e-01 3.24962467e-01
      2.84172237e-01 1.78079195e-02 3.16856414e-01 3.24962467e-01
      3.24962467e-01 5.30204847e-02 1.43996075e-01 3.24962467e-01
      3.24962467e-01 3.12336478e-02 1.71761408e-01 3.24962467e-01
      2.50148296e-01 3.34880240e-02 3.24038118e-01 3.24038118e-01
      1.51733071e-01 4.98504527e-02 3.24038118e-01 3.24038118e-01
      3.24038118e-01 6.87729716e-02 2.60143608e-01 3.24038118e-01
      2.30368808e-01 7.24794641e-02 2.04514667e-01 3.24038118e-01
      3.19808781e-01 7.71244690e-02 3.19808781e-01 3.19808781e-01
      3.19808781e-01 3.70937400e-02 2.03000471e-01 3.19808781e-01
      2.50252903e-01 7.19373003e-02 2.09087893e-01 3.19808781e-01
      3.19808781e-01 4.61990833e-02 1.28048539e-01 3.19808781e-01</_>
    <_>
      3.14081013e-01 1.41893730e-01 2.13513095e-02 3.14081013e-01
      3.14081013e-01 2.24296942e-01 3.24444659e-02 3.14081013e-01
      3.14081013e-01 3.05055737e-01 4.29345034e-02 2.62187839e-01
      3.14081013e-01 3.14081013e-01 4.25094105e-02 2.62545556e-01
      3.17495674e-01 3.06228906e-01 7.02555999e-02 3.17495674e-01
      3.08005840e-01 2.00433865e-01 7.48393312e-02 1.67416215e-01
      3.17495674e-01 3.17495674e-01 8.20343122e-02 2.44070828e-01
      3.17495674e-01 3.17495674e-01 1.36244327e-01 1.99402660e-01
      2.93747365e-01 1.95312843e-01 6.63952604e-02 1.50085524e-01
      3.19243848e-01 3.19243848e-01 7.27675036e-02 1.53855592e-01
      3.19243848e-01 3.19243848e-01 2.08225504e-01 3.19243848e-01
      3.19243848e-01 3.19243848e-01 3.30251195e-02 2.42094919e-01</_>
    <_>
      3.10405701e-01 1.47147641e-01 4.74559739e-02 3.10405701e-01
      3.10405701e-01 1.80693850e-01 8.91856551e-02 3.10405701e-01
      3.10405701e-01 2.52817541e-01 3.16747762e-02 3.10405701e-01
      3.10405701e-01 3.10405701e-01 1.74425617e-02 3.10405701e-01
      3.24204594e-01 2.57107168e-01 1.49144039e-01 3.24204594e-01
      2.65104681e-01 1.39393568e-01 8.51181373e-02 1.90689623e-01
      3.24204594e-01 3.24204594e-01 7.07816407e-02 3.24204594e-01
      3.24204594e-01 2.50265747e-01 1.16221748e-01 2.51578540e-01
      1.90481335e-01 9.02246982e-02 3.37857902e-02 1.23043321e-01
      2.58079678e-01 1.71074286e-01 2.68284213e-02 1.08666763e-01
      3.64675432e-01 3.64675432e-01 1.66522175e-01 3.64675432e-01
      3.64675432e-01 3.64675432e-01 3.99181619e-02 3.64675432e-01</_>
    <_>
      3.22128713e-01 1.04331166e-01 8.31894055e-02 3.22128713e-01
      3.22128713e-01 1.19240157e-01 1.53073519e-01 3.22128713e-01
      3.22128713e-01 2.10799694e-01 3.02858390e-02 3.22128713e-01
      3.22128713e-01 2.49444440e-01 6.01222403e-02 3.22128713e-01
      3.71946454e-01 2.57913858e-01 3.19577843e-01 3.71946454e-01
      1.57569200e-01 9.09092501e-02 7.73383602e-02 1.34760261e-01
      3.71946454e-01 3.71946454e-01 1.82964548e-01 3.71946454e-01
      1.39860481e-01 8.80007818e-02 6.95053264e-02 1.14313021e-01
      3.57919425e-01 2.74927557e-01 2.88463384e-02 3.30112815e-01
      1.27877355e-01 4.68931943e-02 4.01721112e-02 1.10375352e-01
      3.57919425e-01 8.14302042e-02 3.62682939e-02 3.57919425e-01
      3.57919425e-01 3.57919425e-01 4.58243117e-02 3.57919425e-01</_>
    <_>
      3.26028466e-01 9.79402065e-02 6.53446540e-02 3.26028466e-01
      3.26028466e-01 1.01035878e-01 1.02952167e-01 3.26028466e-01
      3.26028466e-01 1.72564581e-01 3.22709866e-02 3.26028466e-01
      3.26028466e-01 2.83733338e-01 1.97945591e-02 3.26028466e-01
      3.09865862e-01 1.42263785e-01 1.47517502e-01 3.09865862e-01
      3.09865862e-01 1.23968743e-01 1.16906419e-01 3.09865862e-01
      3.09865862e-01 3.09865862e-01 6.21770434e-02 3.09865862e-01
      3.09865862e-01 2.27064759e-01 1.29951060e-01 2.92269409e-01
      3.12836379e-01 1.82571888e-01 1.45978779e-01 3.12836379e-01
      2.21392244e-01 7.53819346e-02 3.27817984e-02 2.04375461e-01
      3.12836379e-01 3.12836379e-01 2.45875686e-01 3.12836379e-01
      3.12836379e-01 3.12836379e-01 3.61005105e-02 3.12836379e-01</_>
    <_>
      3.14333051e-01 7.28858784e-02 1.81760550e-01 3.14333051e-01
      3.14333051e-01 7.19002262e-02 2.59070873e-01 3.14333051e-01
      3.14333051e-01 4.54809032e-02 2.02480584e-01 3.14333051e-01
      3.14333051e-01 9.35998708e-02 2.09648356e-01 3.14333051e-01
      3.42928231e-01 2.21714124e-01 3.42928231e-01 3.42928231e-01
      2.65561461e-01 1.10737897e-01 1.41976953e-01 2.81762034e-01
      3.42928231e-01 2.27078170e-01 3.41278285e-01 3.42928231e-01
      5.13445549e-02 2.88595986e-02 3.60670090e-02 6.54150695e-02
      4.15718466e-01 2.44323000e-01 2.17420191e-01 4.15718466e-01
      4.15718466e-01 3.93404029e-02 4.15718466e-01 4.15718466e-01
      5.02946675e-02 1.13001335e-02 2.66904179e-02 8.54381323e-02
      8.61965567e-02 2.10163724e-02 1.19695216e-02 6.73865527e-02</_>
    <_>
      3.25281054e-01 1.09503351e-01 6.47034049e-02 3.25281054e-01
      3.25281054e-01 9.57781225e-02 1.31472915e-01 3.25281054e-01
      3.25281054e-01 2.04686508e-01 4.31624688e-02 3.25281054e-01
      3.25281054e-01 2.51558989e-01 2.47034002e-02 3.25281054e-01
      3.17039818e-01 1.13711923e-01 1.90531373e-01 3.17039818e-01
      3.06268543e-01 1.08250603e-01 1.14555880e-01 3.15161377e-01
      3.17039818e-01 2.91384250e-01 4.41345759e-02 3.17039818e-01
      3.17039818e-01 2.29371965e-01 1.05635293e-01 2.76472300e-01
      2.92052925e-01 2.05272973e-01 1.00090958e-01 2.53261924e-01
      1.33768126e-01 2.85929710e-01 2.92052925e-01 1.85783312e-01
      2.92052925e-01 2.92052925e-01 2.30146006e-01 2.92052925e-01
      2.92052925e-01 2.92052925e-01 1.09964132e-01 2.90682107e-01</_>
    <_>
      3.35544169e-01 5.25893569e-02 7.36046731e-02 3.35544169e-01
      3.35544169e-01 3.99334244e-02 2.03706041e-01 3.35544169e-01
      3.35544169e-01 1.13826759e-01 3.32568139e-02 3.35544169e-01
      3.35544169e-01 1.66529775e-01 5.34743927e-02 3.35544169e-01
      3.16337556e-01 7.43578300e-02 2.95551240e-01 3.16337556e-01
      2.89178371e-01 8.80028978e-02 1.89369634e-01 3.16337556e-01
      3.16337556e-01 2.29335636e-01 1.13667525e-01 3.16337556e-01
      3.16337556e-01 1.48534566e-01 1.04405753e-01 2.78989464e-01
      3.26370865e-01 2.30065003e-01 2.21940830e-01 3.26370865e-01
      3.26370865e-01 1.43624619e-01 1.77934706e-01 3.26370865e-01
      3.26370865e-01 1.80777535e-01 1.31711200e-01 2.77852476e-01
      3.26370865e-01 2.21681833e-01 1.61649808e-02 1.62851170e-01</_>
    <_>
      3.27326268e-01 1.83238983e-02 1.09115496e-01 3.27326268e-01
      3.27326268e-01 2.25302055e-02 3.03346246e-01 3.27326268e-01
      3.27326268e-01 6.81468099e-02 5.68522513e-02 3.27326268e-01
      3.27326268e-01 1.09099932e-01 1.22645564e-01 3.27326268e-01
      3.28530550e-01 6.75103813e-02 3.28530550e-01 3.28530550e-01
      2.62511194e-01 7.07232952e-02 2.29673862e-01 3.28530550e-01
      3.28530550e-01 1.79898605e-01 2.20033616e-01 3.28530550e-01
      2.30572939e-01 1.00255057e-01 1.14620365e-01 2.46517345e-01
      3.45581472e-01 1.93282560e-01 1.67216897e-01 3.45581472e-01
      3.45581472e-01 2.51019806e-01 3.45581472e-01 3.45581472e-01
      1.67179927e-01 6.39144480e-02 4.78685014e-02 1.44125253e-01
      2.62757957e-01 2.19981492e-01 2.22810552e-01 2.21151695e-01</_>
    <_>
      1.99053362e-01 3.08571178e-02 1.97507486e-01 3.16329449e-01
      2.34097615e-01 1.66185901e-01 3.16329449e-01 3.16329449e-01
      2.03465462e-01 8.70343670e-02 2.00975269e-01 3.16329449e-01
      3.16329449e-01 2.12182909e-01 3.16329449e-01 3.16329449e-01
      3.16050619e-01 3.12012494e-01 3.16050619e-01 3.16050619e-01
      1.96785942e-01 8.79395902e-02 1.95726559e-01 3.16050619e-01
      3.16050619e-01 2.53954947e-01 3.16050619e-01 3.16050619e-01
      1.39468372e-01 3.58581729e-02 5.06974459e-02 1.66453481e-01
      3.80338401e-01 5.26406616e-02 1.84994385e-01 3.80338401e-01
      3.80338401e-01 3.66150327e-02 1.80901855e-01 3.80338401e-01
      2.17630848e-01 1.85928214e-02 4.34709378e-02 3.44009101e-01
      3.15823853e-01 2.25145184e-02 2.15272494e-02 2.79025018e-01</_>
    <_>
      3.34638119e-01 4.03624624e-02 2.48651747e-02 2.55411834e-01
      3.34638119e-01 2.41712987e-01 2.26838812e-01 3.34638119e-01
      3.34638119e-01 6.76869601e-02 1.76917762e-02 3.34638119e-01
      3.34638119e-01 1.58764109e-01 7.28936568e-02 3.34638119e-01
      3.10982645e-01 2.80265421e-01 2.64743268e-01 3.10982645e-01
      2.17858866e-01 8.93766284e-02 5.18956520e-02 1.94428280e-01
      3.10982645e-01 2.59189367e-01 9.40442085e-02 3.10982645e-01
      3.10982645e-01 3.10982645e-01 6.40080571e-02 3.03194821e-01
      2.33705014e-01 9.50254649e-02 2.39420813e-02 1.79643884e-01
      3.59541535e-01 3.17003787e-01 5.05347364e-02 1.64831504e-01
      3.59541535e-01 3.59541535e-01 9.50504318e-02 3.09293330e-01
      3.59541535e-01 3.59541535e-01 8.06008130e-02 1.10254943e-01</_>
    <_>
      3.43935639e-01 2.52016466e-02 1.72561780e-02 3.16268533e-01
      3.43935639e-01 1.75274596e-01 1.58927932e-01 3.43935639e-01
      3.43935639e-01 3.88924889e-02 1.25642214e-02 3.43935639e-01
      3.43935639e-01 8.07619393e-02 5.82284220e-02 3.43935639e-01
      3.09118718e-01 2.61687785e-01 2.32144877e-01 3.09118718e-01
      2.59448171e-01 1.05058931e-01 8.79341960e-02 2.61280566e-01
      3.09118718e-01 1.72073066e-01 9.48873088e-02 3.09118718e-01
      3.09118718e-01 3.09118718e-01 1.12673678e-01 3.09118718e-01
      1.88099444e-01 6.12088479e-02 5.67982942e-02 2.45727628e-01
      2.18642741e-01 2.97316134e-01 1.68627948e-01 1.85490340e-01
      3.49393189e-01 3.49393189e-01 1.74970478e-01 3.49393189e-01
      3.49393189e-01 3.49393189e-01 1.37536779e-01 1.86602235e-01</_>
    <_>
      2.39591703e-01 3.91051248e-02 2.41174832e-01 3.05347383e-01
      2.18151838e-01 1.45707220e-01 3.05347383e-01 3.05347383e-01
      3.05347383e-01 2.04229802e-01 2.18205437e-01 3.05347383e-01
      3.05347383e-01 1.23077683e-01 2.32161179e-01 3.05347383e-01
      3.06528896e-01 3.06528896e-01 3.06528896e-01 3.06528896e-01
      1.94083378e-01 1.08837225e-01 2.49834299e-01 3.06528896e-01
      3.06528896e-01 1.71115696e-01 3.06528896e-01 3.06528896e-01
      1.14942737e-01 3.82546671e-02 1.04647897e-01 2.80034274e-01
      3.07576954e-01 2.90233921e-02 1.94928303e-01 3.89820397e-01
      3.89820397e-01 2.71708295e-02 2.93647975e-01 3.89820397e-01
      1.57978594e-01 7.84736034e-03 6.25879243e-02 3.73707443e-01
      1.60718322e-01 7.39908312e-03 6.40660897e-02 3.48184735e-01</_>
    <_>
      3.31647038e-01 1.64734758e-02 7.35879466e-02 3.31647038e-01
      3.31647038e-01 1.15754016e-01 1.89026579e-01 3.31647038e-01
      3.31647038e-01 2.45558359e-02 8.95989612e-02 3.31647038e-01
      3.31647038e-01 1.83572263e-01 1.40077934e-01 3.31647038e-01
      3.01222324e-01 2.73148447e-01 3.01222324e-01 3.01222324e-01
      1.47521302e-01 1.58805951e-01 1.75288677e-01 2.76548445e-01
      3.01222324e-01 2.81556875e-01 1.85557634e-01 3.01222324e-01
      3.01222324e-01 1.31254613e-01 8.59872550e-02 2.92328596e-01
      2.14795664e-01 1.25356661e-02 6.50971979e-02 3.38341504e-01
      2.64881998e-01 5.92337735e-02 2.88020372e-01 3.38341504e-01
      3.38341504e-01 8.45014006e-02 2.46989671e-02 3.10610712e-01
      3.38341504e-01 3.38341504e-01 5.70050739e-02 3.31068993e-01</_>
    <_>
      3.24195653e-01 1.36795342e-01 1.26775429e-01 3.24195653e-01
      3.24195653e-01 2.01958835e-01 2.21437365e-01 3.24195653e-01
      3.24195653e-01 1.09675743e-01 4.82740067e-02 3.24195653e-01
      3.24195653e-01 1.13347113e-01 6.42226338e-02 3.24195653e-01
      3.26606959e-01 1.66867524e-01 1.76416293e-01 3.26606959e-01
      1.66322768e-01 7.49663636e-02 5.94225489e-02 1.54585004e-01
      3.26606959e-01 2.24381909e-01 1.61223873e-01 3.26606959e-01
      3.26606959e-01 3.26606959e-01 3.26606959e-01 2.32407406e-01
      2.13219821e-01 1.50636896e-01 5.59988171e-02 1.17191583e-01
      3.33134472e-01 2.97082216e-01 2.39260364e-02 2.48329833e-01
      3.33134472e-01 3.33134472e-01 3.33134472e-01 1.62848830e-01
      3.33134472e-01 3.33134472e-01 7.53250122e-02 2.51166344e-01</_>
    <_>
      3.20973217e-01 6.94332942e-02 1.10744804e-01 3.20973217e-01
      3.20973217e-01 1.95487320e-01 2.55659997e-01 3.20973217e-01
      3.20973217e-01 3.10306586e-02 6.94563985e-02 3.20973217e-01
      3.20973217e-01 1.76514730e-01 1.22454681e-01 3.20973217e-01
      3.45480531e-01 1.65527239e-01 1.94420338e-01 3.45480531e-01
      1.72167569e-01 4.05245759e-02 1.69862211e-02 1.44989803e-01
      3.45480531e-01 3.14880818e-01 1.12332329e-01 3.45480531e-01
      3.45480531e-01 2.60102034e-01 3.05524431e-02 3.18772644e-01
      1.34847388e-01 6.84479922e-02 8.86491127e-03 6.87963143e-02
      3.70230556e-01 3.08748394e-01 1.84296053e-02 9.64048281e-02
      3.70230556e-01 3.70230556e-01 3.17198187e-02 3.56608242e-01
      3.70230556e-01 3.70230556e-01 2.54098400e-02 2.22456709e-01</_>
    <_>
      2.52557665e-01 8.69465768e-02 2.01242402e-01 3.05479914e-01
      3.05479914e-01 1.70705482e-01 2.92296439e-01 3.05479914e-01
      3.05479914e-01 6.60247579e-02 2.02819198e-01 3.05479914e-01
      3.05479914e-01 1.95756152e-01 1.82989612e-01 3.05479914e-01
      3.62238795e-01 1.62352026e-01 2.73965627e-01 3.62238795e-01
      9.49782804e-02 2.31263936e-02 1.96013227e-02 8.96076113e-02
      3.62238795e-01 3.12690407e-01 2.04720691e-01 3.62238795e-01
      3.62238795e-01 1.32783681e-01 4.65497188e-02 2.47845158e-01
      1.13921680e-01 2.17031538e-02 2.94322846e-03 8.68562087e-02
      2.87396073e-01 1.38772845e-01 1.91330519e-02 1.56093553e-01
      3.85726720e-01 3.26715410e-01 2.04900820e-02 3.81045908e-01
      3.85726720e-01 3.85726720e-01 3.25547941e-02 3.85726720e-01</_>
    <_>
      3.17679286e-01 5.46546727e-02 8.77095386e-02 3.17679286e-01
      3.17679286e-01 2.15637147e-01 2.83132672e-01 3.17679286e-01
      3.17679286e-01 3.30165587e-02 7.20873922e-02 3.17679286e-01
      3.17679286e-01 1.69739962e-01 1.30471170e-01 3.17679286e-01
      3.32237035e-01 2.26556316e-01 2.91899115e-01 3.32237035e-01
      1.08696803e-01 2.68538613e-02 1.59544423e-02 9.42984968e-02
      3.32237035e-01 3.15256625e-01 1.49774164e-01 3.32237035e-01
      3.32237035e-01 2.28389621e-01 4.68519963e-02 3.32237035e-01
      1.06695801e-01 3.63444723e-02 1.42177790e-02 7.33091906e-02
      2.42335543e-01 1.59231573e-01 1.32772606e-02 8.69676396e-02
      3.85297984e-01 3.85297984e-01 5.98900914e-02 3.85297984e-01
      3.85297984e-01 3.85297984e-01 2.75704972e-02 3.73401910e-01</_>
    <_>
      3.11516017e-01 1.64968312e-01 1.67842180e-01 3.11516017e-01
      3.11516017e-01 1.64792106e-01 1.55612379e-01 3.11516017e-01
      3.11516017e-01 1.04668081e-01 1.16672002e-01 3.11516017e-01
      3.11516017e-01 2.71324188e-01 1.24931023e-01 3.11516017e-01
      3.72443318e-01 1.67295143e-01 8.24120939e-02 3.64124417e-01
      8.87535661e-02 3.89094949e-02 7.64284469e-03 5.06977364e-02
      3.72443318e-01 3.72443318e-01 1.09801538e-01 3.72443318e-01
      3.72443318e-01 2.51822829e-01 2.42206473e-02 2.17405960e-01
      8.58224034e-02 4.05730829e-02 4.09099786e-03 3.97072844e-02
      3.81185263e-01 3.15945506e-01 1.43660828e-02 8.19572881e-02
      3.81185263e-01 3.81185263e-01 2.05635931e-02 2.93800592e-01
      3.81185263e-01 3.81185263e-01 2.72532459e-02 2.54649311e-01</_>
    <_>
      3.35692853e-01 1.93816330e-02 5.38719110e-02 3.35692853e-01
      3.35692853e-01 6.40490502e-02 1.43346757e-01 3.35692853e-01
      3.35692853e-01 8.33550747e-03 3.93297821e-02 3.35692853e-01
      3.35692853e-01 1.66684851e-01 1.94421694e-01 3.35692853e-01
      2.94029444e-01 1.36282071e-01 2.61600614e-01 2.94029444e-01
      2.94029444e-01 1.25970155e-01 2.77302146e-01 2.94029444e-01
      2.94029444e-01 2.94029444e-01 2.94029444e-01 2.94029444e-01
      1.96091920e-01 1.54823482e-01 1.60975859e-01 1.93202242e-01
      3.21147025e-01 1.10107444e-01 3.21147025e-01 3.21147025e-01
      1.92081377e-01 1.51476458e-01 3.21147025e-01 3.21147025e-01
      2.02959850e-01 6.02111369e-02 2.25187615e-02 1.66317090e-01
      3.21147025e-01 2.86258042e-01 2.34427392e-01 3.10045511e-01</_>
    <_>
      2.79966533e-01 4.52494472e-02 2.79966533e-01 2.79966533e-01
      2.79966533e-01 1.55584082e-01 2.79966533e-01 2.79966533e-01
      2.39714354e-01 1.35154203e-01 1.81727812e-01 2.79966533e-01
      2.79966533e-01 2.79966533e-01 2.79966533e-01 2.79966533e-01
      3.16574216e-01 2.06286743e-01 3.16574216e-01 3.16574216e-01
      2.96998113e-01 5.67982383e-02 3.16574216e-01 3.16574216e-01
      2.95494705e-01 2.82578439e-01 2.81006753e-01 3.16574216e-01
      6.83004782e-02 1.20411292e-02 3.59579809e-02 9.64257345e-02
      2.95093268e-01 4.14016694e-02 3.61739963e-01 3.61739963e-01
      1.93859771e-01 1.19371720e-01 3.61739963e-01 3.61739963e-01
      5.35215400e-02 1.66660491e-02 4.12372351e-02 7.96232894e-02
      1.75721288e-01 1.69011950e-01 3.61739963e-01 3.61739963e-01</_>
    <_>
      3.35706323e-01 2.56932136e-02 1.67631969e-01 3.35706323e-01
      3.35706323e-01 8.98597315e-02 2.77662992e-01 3.35706323e-01
      1.77754015e-01 2.64727231e-02 5.48482686e-02 2.18922257e-01
      3.35706323e-01 2.60149390e-01 2.35819802e-01 3.35706323e-01
      2.94865698e-01 1.44788578e-01 2.94865698e-01 2.94865698e-01
      2.94865698e-01 9.45314541e-02 2.84956127e-01 2.94865698e-01
      2.94865698e-01 2.94865698e-01 2.94865698e-01 2.94865698e-01
      1.93943992e-01 1.31749123e-01 1.15390897e-01 1.87495485e-01
      3.35412651e-01 6.73479661e-02 3.35412651e-01 3.35412651e-01
      2.22513944e-01 4.53105792e-02 3.35412651e-01 3.35412651e-01
      2.17439458e-01 3.94244902e-02 2.86195669e-02 1.92153454e-01
      3.35412651e-01 1.80562779e-01 1.84002504e-01 3.35412651e-01</_>
    <_>
      3.35832834e-01 3.02872136e-02 2.19141226e-02 3.35832834e-01
      3.35832834e-01 8.31887051e-02 1.33638337e-01 3.35832834e-01
      3.35832834e-01 2.29614619e-02 1.76991578e-02 3.35832834e-01
      3.35832834e-01 2.08126709e-01 1.55050293e-01 3.35832834e-01
      2.95664668e-01 1.62432283e-01 2.54429013e-01 2.95664668e-01
      2.95664668e-01 1.22508585e-01 2.11971670e-01 2.95664668e-01
      2.95664668e-01 2.95664668e-01 2.77871728e-01 2.95664668e-01
      2.53151834e-01 1.62930906e-01 1.35959461e-01 2.18480587e-01
      3.15557688e-01 8.61244351e-02 2.74102151e-01 3.15557688e-01
      2.28622288e-01 4.71739508e-02 3.15557688e-01 3.15557688e-01
      3.15557688e-01 8.13603699e-02 1.36007546e-02 2.32996419e-01
      3.15557688e-01 2.92908907e-01 1.26015663e-01 3.15557688e-01</_>
    <_>
      3.17359179e-01 5.73618263e-02 2.93177199e-02 3.17359179e-01
      3.17359179e-01 1.12445258e-01 1.93227753e-01 3.17359179e-01
      3.17359179e-01 5.14557697e-02 2.58937348e-02 3.17359179e-01
      3.17359179e-01 2.82032400e-01 2.32600540e-01 3.17359179e-01
      3.22085291e-01 1.32052049e-01 3.12631547e-01 3.22085291e-01
      3.22085291e-01 3.58569920e-02 1.95567161e-01 3.22085291e-01
      3.22085291e-01 3.17265987e-01 2.81751752e-01 3.22085291e-01
      1.39228806e-01 2.71636751e-02 3.33371274e-02 1.35514081e-01
      3.35922688e-01 3.58476005e-02 3.35922688e-01 3.35922688e-01
      3.35922688e-01 3.31054591e-02 3.35922688e-01 3.35922688e-01
      1.69224635e-01 2.91158762e-02 2.67822333e-02 1.59664199e-01
      3.35922688e-01 1.26244202e-01 1.40988812e-01 3.35922688e-01</_>
    <_>
      2.98496932e-01 2.08254069e-01 6.68260455e-02 2.98496932e-01
      2.98496932e-01 2.55359083e-01 1.80766344e-01 2.98496932e-01
      2.98496932e-01 1.22184262e-01 3.50358374e-02 2.04864398e-01
      2.98496932e-01 2.98496932e-01 2.83492327e-01 2.98496932e-01
      3.48516285e-01 3.48516285e-01 2.53401697e-01 3.48516285e-01
      1.35756791e-01 3.68411131e-02 3.30069140e-02 1.42221361e-01
      3.48516285e-01 3.48516285e-01 3.48516285e-01 3.48516285e-01
      1.53730243e-01 5.22232056e-02 2.10948158e-02 1.18960053e-01
      1.52021900e-01 5.99398836e-03 1.05246499e-01 2.82051414e-01
      3.30876708e-01 2.99817100e-02 3.30876708e-01 3.30876708e-01
      3.30876708e-01 1.31704852e-01 1.11922016e-02 3.10768157e-01
      3.30876708e-01 3.30876708e-01 4.01819311e-02 3.30876708e-01</_>
    <_>
      3.35267633e-01 3.72977406e-02 7.37950504e-02 3.35267633e-01
      3.35267633e-01 6.70023337e-02 1.44486725e-01 3.35267633e-01
      3.35267633e-01 3.30494009e-02 5.95836863e-02 3.35267633e-01
      3.35267633e-01 1.66651353e-01 1.81100398e-01 3.35267633e-01
      2.99844354e-01 1.06043272e-01 2.62978405e-01 2.99844354e-01
      2.99844354e-01 7.43987858e-02 2.99844354e-01 2.99844354e-01
      2.99844354e-01 2.63293177e-01 2.50559509e-01 2.99844354e-01
      2.38832697e-01 1.21553190e-01 1.36985213e-01 2.42970765e-01
      3.52076828e-01 5.61221503e-02 3.52076828e-01 3.52076828e-01
      1.47740558e-01 4.45796773e-02 3.52076828e-01 3.52076828e-01
      1.68171272e-01 2.64700148e-02 9.39127654e-02 2.32058704e-01
      1.54963642e-01 8.07689950e-02 3.21836770e-01 3.52076828e-01</_>
    <_>
      3.43676865e-01 1.97768137e-02 2.03065258e-02 3.43676865e-01
      3.43676865e-01 5.10924831e-02 7.93285370e-02 3.43676865e-01
      3.43676865e-01 2.57985648e-02 2.40255687e-02 3.43676865e-01
      3.43676865e-01 1.64585128e-01 1.16696030e-01 3.43676865e-01
      3.01650286e-01 1.15844853e-01 2.12434128e-01 3.01650286e-01
      3.01650286e-01 9.82899889e-02 3.01650286e-01 3.01650286e-01
      3.01650286e-01 2.72293419e-01 2.06819385e-01 3.01650286e-01
      2.75626600e-01 1.46471947e-01 1.31951168e-01 2.45098382e-01
      3.40514183e-01 7.11229146e-02 3.40514183e-01 3.40514183e-01
      2.48811275e-01 4.55577560e-02 3.40514183e-01 3.40514183e-01
      2.10741639e-01 3.84707116e-02 6.56668916e-02 2.15178490e-01
      2.80672848e-01 1.04340427e-01 2.13745281e-01 3.40514183e-01</_></uncompressed_support_vectors>
  <decision_functions>
    <_>
      <sv_count>1</sv_count>
      <rho>5.3841470220101284e+00</rho>
      <alpha>
        1.</alpha>
      <index>
        0</index></_>
    <_>
      <sv_count>1</sv_count>
      <rho>6.2997875401130873e-02</rho>
      <alpha>
        1.</alpha>
      <index>
        1</index></_>
    <_>
      <sv_count>1</sv_count>
      <rho>-2.6076390864925445e+00</rho>
      <alpha>
        1.</alpha>
      <index>
        2</index></_></decision_functions></opencv_ml_svm>
</opencv_storage>
