<?xml version="1.0"?>
<opencv_storage>
<opencv_ml_svm>
  <format>3</format>
  <svmType>C_SVC</svmType>
  <kernel>
    <type>LINEAR</type></kernel>
  <C>450.</C>
  <term_criteria><epsilon>1.0000000000000000e-02</epsilon>
    <iterations>1500</iterations></term_criteria>
  <var_count>48</var_count>
  <class_count>2</class_count>
  <class_labels type_id="opencv-matrix">
    <rows>2</rows>
    <cols>1</cols>
    <dt>i</dt>
    <data>
      4 5</data></class_labels>
  <sv_total>1</sv_total>
  <support_vectors>
    <_>
      1.67637658e+00 -1.03543253e+01 -9.95886230e+00 4.48532772e+00
      2.98114872e+00 -2.83826280e+00 -1.94557405e+00 4.48532772e+00
      -1.04326391e+00 -3.27109361e+00 -1.49688399e+00 3.11017418e+00
      -1.68568194e-02 -1.74299753e+00 2.41475677e+00 -3.76442933e+00
      1.96801865e+00 -6.38851881e+00 -6.27781677e+00 2.61739826e+00
      9.05216122e+00 -4.17524338e+00 1.15942824e+00 -8.17774296e+00
      9.81603682e-01 -5.12506390e+00 3.73663640e+00 7.32054174e-01
      -5.71446323e+00 -1.05574818e+01 6.77095652e+00 5.37473917e+00
      4.06726789e+00 6.15518665e+00 -1.03351479e+01 -1.87826300e+00
      6.45742464e+00 1.50620861e+01 -2.40426660e+00 -1.45582438e+01
      3.50409079e+00 -4.34320593e+00 1.64950638e+01 1.44160116e+00
      -9.69536686e+00 -9.30166340e+00 -9.27524853e+00 1.80024204e+01</_></support_vectors>
  <uncompressed_sv_total>24</uncompressed_sv_total>
  <uncompressed_support_vectors>
    <_>
      3.44742626e-01 5.53873256e-02 9.26215723e-02 3.44742626e-01
      3.44742626e-01 4.59800549e-02 1.18454129e-01 3.44742626e-01
      3.44742626e-01 4.42794040e-02 3.39618064e-02 3.44742626e-01
      3.44742626e-01 9.91613716e-02 7.09684193e-02 3.44742626e-01
      3.85767043e-01 1.44103587e-01 2.68245637e-01 3.85767043e-01
      1.98910236e-01 8.41968805e-02 1.10055529e-01 3.06313217e-01
      3.85767043e-01 2.23698393e-01 1.86125129e-01 3.85767043e-01
      1.92316890e-01 7.44733065e-02 6.77084401e-02 1.54159904e-01
      2.97462910e-01 6.74439818e-02 8.35943520e-02 3.11455935e-01
      3.11455935e-01 9.20701772e-02 2.81126112e-01 3.11455935e-01
      3.11455935e-01 3.40844095e-02 6.45476133e-02 3.11455935e-01
      3.11455935e-01 2.53256083e-01 2.46693403e-01 3.11455935e-01</_>
    <_>
      2.85099268e-01 3.51716243e-02 2.68353164e-01 3.55447352e-01
      2.61898905e-01 4.33053821e-02 3.03741872e-01 3.55447352e-01
      2.19536141e-01 1.62003059e-02 1.68421656e-01 3.55447352e-01
      2.44768649e-01 3.28153521e-02 1.89754754e-01 3.55447352e-01
      3.74829769e-01 1.19125232e-01 3.74829769e-01 3.74829769e-01
      1.45980999e-01 4.51927185e-02 1.36361510e-01 3.44989181e-01
      3.34616482e-01 8.44043717e-02 3.10875893e-01 3.74829769e-01
      5.68763427e-02 2.01433245e-02 6.77785277e-02 1.87455043e-01
      3.87825221e-01 2.63609942e-02 2.01775581e-01 3.87825221e-01
      3.87825221e-01 4.03726473e-02 3.87825221e-01 3.87825221e-01
      9.33411792e-02 7.58817513e-03 6.37157410e-02 2.50055104e-01
      1.65611744e-01 5.36471643e-02 1.23471685e-01 2.83085704e-01</_>
    <_>
      3.46063018e-01 3.91656309e-02 1.00001745e-01 3.46063018e-01
      3.46063018e-01 2.85291113e-02 1.04723312e-01 3.46063018e-01
      3.46063018e-01 5.40371910e-02 3.50249708e-02 3.46063018e-01
      3.46063018e-01 1.00362711e-01 3.05114686e-02 3.46063018e-01
      3.44168276e-01 4.57170978e-02 1.63254470e-01 3.44168276e-01
      2.75720030e-01 5.30528165e-02 1.95274651e-01 3.44168276e-01
      3.44168276e-01 1.44155622e-01 6.27508312e-02 3.44168276e-01
      3.44168276e-01 9.23352167e-02 8.09684247e-02 3.16765010e-01
      3.36708963e-01 1.08179778e-01 3.36708963e-01 3.36708963e-01
      2.23361626e-01 2.36795247e-02 2.26268351e-01 3.36708963e-01
      3.36708963e-01 1.03957005e-01 2.04219848e-01 3.36708963e-01
      2.56546170e-01 1.75300986e-01 1.19846620e-01 1.99058786e-01</_>
    <_>
      3.43186349e-01 5.02674542e-02 6.62278607e-02 3.43186349e-01
      3.43186349e-01 6.54351860e-02 8.29291716e-02 3.43186349e-01
      3.43186349e-01 7.20425695e-02 3.10956128e-02 3.43186349e-01
      3.43186349e-01 1.69625252e-01 3.68026346e-02 3.43186349e-01
      3.51134926e-01 1.35606825e-01 1.47547960e-01 3.51134926e-01
      2.47034922e-01 9.66825560e-02 9.45605710e-02 3.21118176e-01
      3.51134926e-01 2.88827091e-01 8.10546950e-02 3.51134926e-01
      3.51134926e-01 1.58464640e-01 5.65925874e-02 1.97778463e-01
      3.00048172e-01 6.16840087e-02 7.28047863e-02 3.59685838e-01
      2.91143656e-01 1.56836342e-02 3.98103781e-02 3.59685838e-01
      3.59685838e-01 1.28239036e-01 3.92292775e-02 3.59685838e-01
      3.59685838e-01 1.19428299e-01 4.67526540e-02 3.59685838e-01</_>
    <_>
      3.45698088e-01 8.02391917e-02 4.33242470e-02 3.45698088e-01
      3.45698088e-01 1.13739721e-01 3.70448716e-02 3.45698088e-01
      3.45698088e-01 1.11497231e-01 4.80771735e-02 3.45698088e-01
      3.45698088e-01 1.33423328e-01 2.45982800e-02 3.22833806e-01
      3.63886267e-01 1.95376307e-01 6.76391572e-02 3.63886267e-01
      2.31756717e-01 6.49586171e-02 3.22818197e-02 1.64115578e-01
      3.63886267e-01 2.31331334e-01 4.93362173e-02 3.63886267e-01
      3.63886267e-01 2.03715861e-01 4.67413887e-02 3.25594217e-01
      2.03580141e-01 3.91791649e-02 2.69879811e-02 2.20317811e-01
      1.64092273e-01 1.77211672e-01 5.18764108e-02 1.38138771e-01
      3.90294999e-01 3.90294999e-01 1.11690789e-01 3.90294999e-01
      3.90294999e-01 3.90294999e-01 1.27828464e-01 1.82436466e-01</_>
    <_>
      3.20471972e-01 3.77768688e-02 2.01082811e-01 3.20471972e-01
      3.20471972e-01 2.45915316e-02 3.20471972e-01 3.20471972e-01
      3.20471972e-01 3.09831705e-02 8.66169557e-02 3.20471972e-01
      3.20471972e-01 4.47097793e-02 1.39820442e-01 3.20471972e-01
      2.91145086e-01 3.96259092e-02 3.17687273e-01 3.17687273e-01
      1.39438018e-01 4.75723669e-02 3.17687273e-01 3.17687273e-01
      3.17687273e-01 8.28857273e-02 2.08483085e-01 3.17687273e-01
      3.16441894e-01 7.95002207e-02 1.59738645e-01 3.17687273e-01
      2.96522737e-01 8.62275213e-02 2.96522737e-01 2.96522737e-01
      2.96522737e-01 9.60473865e-02 2.96522737e-01 2.96522737e-01
      2.96522737e-01 9.66983736e-02 1.42289415e-01 2.96522737e-01
      2.96522737e-01 1.41967401e-01 2.26644590e-01 2.96522737e-01</_>
    <_>
      3.26682866e-01 4.01271321e-02 1.47931769e-01 3.26682866e-01
      3.26682866e-01 3.64931971e-02 2.70912528e-01 3.26682866e-01
      3.26682866e-01 9.63976458e-02 8.12903494e-02 3.26682866e-01
      3.26682866e-01 1.39166996e-01 9.73388627e-02 3.26682866e-01
      3.16602439e-01 5.12424074e-02 3.16602439e-01 3.16602439e-01
      2.31214613e-01 4.70273867e-02 2.26345375e-01 3.16602439e-01
      3.16602439e-01 1.88183114e-01 1.33301988e-01 3.16602439e-01
      3.16602439e-01 1.51318699e-01 9.65934172e-02 3.16602439e-01
      3.01369101e-01 7.70930126e-02 2.09323645e-01 3.01369101e-01
      3.01369101e-01 1.23789608e-01 3.01369101e-01 3.01369101e-01
      3.01369101e-01 1.81296155e-01 8.63365680e-02 3.01369101e-01
      3.01369101e-01 2.40390986e-01 1.28003314e-01 3.01369101e-01</_>
    <_>
      3.11486691e-01 1.65969551e-01 3.52944918e-02 3.11486691e-01
      3.11486691e-01 1.82724208e-01 2.10475139e-02 3.11486691e-01
      3.11486691e-01 2.60421693e-01 3.50204557e-02 2.98091978e-01
      3.11486691e-01 3.11486691e-01 2.13446803e-02 3.11025321e-01
      3.26490879e-01 2.29684606e-01 3.64558361e-02 3.26490879e-01
      3.26490879e-01 1.88522160e-01 3.98848467e-02 1.68610558e-01
      3.26490879e-01 3.26490879e-01 4.27773520e-02 3.07951242e-01
      3.26490879e-01 3.26490879e-01 8.28854144e-02 1.65483400e-01
      3.22870612e-01 2.35192463e-01 4.01133560e-02 1.16458587e-01
      3.49709600e-01 2.60106713e-01 1.24181718e-01 2.09184274e-01
      3.49709600e-01 3.49709600e-01 1.22681551e-01 1.98221117e-01
      3.49709600e-01 3.49709600e-01 2.03673821e-02 1.69403225e-01</_>
    <_>
      3.09032530e-01 1.67666808e-01 1.85946524e-02 3.09032530e-01
      3.09032530e-01 2.27276370e-01 1.14980154e-02 3.09032530e-01
      3.09032530e-01 3.03175271e-01 2.40921844e-02 2.69462138e-01
      3.09032530e-01 3.09032530e-01 2.21638586e-02 2.87337631e-01
      3.22899729e-01 2.74947733e-01 3.04176137e-02 3.22899729e-01
      3.22899729e-01 2.21000448e-01 4.82833013e-02 1.72629759e-01
      3.22899729e-01 3.22899729e-01 4.17724438e-02 2.72266358e-01
      3.22899729e-01 3.22899729e-01 1.10900007e-01 1.45795017e-01
      3.29088420e-01 2.51238763e-01 6.33233264e-02 1.21027768e-01
      2.40140617e-01 2.30920672e-01 1.03500687e-01 1.11556284e-01
      3.71776342e-01 3.71776342e-01 2.55016774e-01 1.82028934e-01
      3.71776342e-01 3.71776342e-01 8.21693018e-02 1.19450919e-01</_>
    <_>
      3.26161712e-01 3.51485237e-02 1.74108982e-01 3.26161712e-01
      3.26161712e-01 4.19810601e-02 2.63376206e-01 3.26161712e-01
      3.26161712e-01 5.80562502e-02 1.21628568e-01 3.26161712e-01
      3.26161712e-01 6.73031658e-02 1.42536730e-01 3.26161712e-01
      3.79913658e-01 1.29518792e-01 3.79913658e-01 3.79913658e-01
      2.27859393e-01 1.05148584e-01 1.02610245e-01 2.30080739e-01
      3.79913658e-01 1.62431404e-01 2.93078601e-01 3.79913658e-01
      7.17503279e-02 3.44883651e-02 5.80207631e-02 9.66039449e-02
      4.03355271e-01 3.20072472e-01 2.04813942e-01 4.03355271e-01
      4.03355271e-01 6.03289641e-02 4.03355271e-01 4.03355271e-01
      5.18936887e-02 1.06093800e-02 2.56858468e-02 7.04421997e-02
      1.19424559e-01 3.31622176e-02 2.16031782e-02 1.01006806e-01</_>
    <_>
      3.31816047e-01 4.57675382e-02 1.02102168e-01 3.31816047e-01
      3.31816047e-01 5.60236163e-02 2.10641608e-01 3.31816047e-01
      3.31816047e-01 1.26395896e-01 6.48262724e-02 3.31816047e-01
      3.31816047e-01 1.75466761e-01 6.98173791e-02 3.31816047e-01
      3.28553885e-01 8.19632784e-02 2.77845055e-01 3.28553885e-01
      2.46276662e-01 6.55954108e-02 1.16969801e-01 3.10939491e-01
      3.28553885e-01 2.54602879e-01 9.28636715e-02 3.28553885e-01
      3.28553885e-01 1.92223087e-01 6.41125441e-02 2.88507223e-01
      3.05360228e-01 1.43330753e-01 7.03559294e-02 3.05360228e-01
      2.75084883e-01 1.52109101e-01 3.05360228e-01 3.05360228e-01
      3.05360228e-01 2.46496573e-01 6.18777275e-02 3.05360228e-01
      3.05360228e-01 2.43263796e-01 5.40420003e-02 3.05360228e-01</_>
    <_>
      3.31914335e-01 5.85827753e-02 4.55030091e-02 3.31914335e-01
      3.31914335e-01 8.96745697e-02 1.20367929e-01 3.31914335e-01
      3.31914335e-01 1.66870534e-01 4.74766530e-02 3.31914335e-01
      3.31914335e-01 2.37085015e-01 3.17021310e-02 3.31914335e-01
      3.24924529e-01 1.32453084e-01 1.75201729e-01 3.24924529e-01
      2.57115573e-01 9.72095132e-02 9.00685117e-02 2.47053042e-01
      3.24924529e-01 3.24924529e-01 5.64397760e-02 3.24924529e-01
      3.24924529e-01 3.06540787e-01 7.42967054e-02 2.60153383e-01
      2.87569731e-01 1.04491010e-01 4.88923267e-02 2.23474264e-01
      2.64884502e-01 1.35322794e-01 1.45954147e-01 2.77864039e-01
      3.29372317e-01 3.29372317e-01 1.11210696e-01 3.29372317e-01
      3.29372317e-01 3.29372317e-01 2.21670698e-02 3.29372317e-01</_>
    <_>
      3.42877656e-01 5.15126549e-02 1.45143464e-01 3.42877656e-01
      3.42877656e-01 3.74761783e-02 1.52721196e-01 3.42877656e-01
      3.42877656e-01 1.69345718e-02 3.39955539e-02 3.42877656e-01
      3.42877656e-01 5.76778725e-02 5.32528497e-02 3.42877656e-01
      3.42727453e-01 6.61550090e-02 2.32097819e-01 3.42727453e-01
      1.43139333e-01 5.39037660e-02 2.27142841e-01 3.42727453e-01
      3.42727453e-01 1.53692946e-01 9.84877869e-02 3.42727453e-01
      3.42727453e-01 1.18399143e-01 7.23727196e-02 3.25563133e-01
      2.10876808e-01 6.35412410e-02 3.44490796e-01 3.44490796e-01
      1.62106022e-01 4.11075801e-02 3.44490796e-01 3.44490796e-01
      3.44490796e-01 9.89515632e-02 6.37940317e-02 3.44490796e-01
      2.43310586e-01 2.69737337e-02 1.24809198e-01 3.44490796e-01</_>
    <_>
      3.38230342e-01 6.06235340e-02 2.21010044e-01 3.39212030e-01
      2.96318144e-01 3.74661088e-02 1.71095923e-01 3.39212030e-01
      3.39212030e-01 2.19499115e-02 7.89605901e-02 3.39212030e-01
      3.39212030e-01 8.35804194e-02 8.43642280e-02 3.39212030e-01
      3.66982520e-01 7.12022334e-02 3.05825919e-01 3.66982520e-01
      1.74065560e-01 4.65626046e-02 2.07617164e-01 3.66982520e-01
      3.66982520e-01 1.90019563e-01 1.42912954e-01 3.66982520e-01
      2.02329382e-01 6.64397925e-02 5.58730774e-02 2.09229559e-01
      3.52978259e-01 6.14532754e-02 2.77024209e-01 3.96727145e-01
      2.87149519e-01 4.87977825e-02 3.96727145e-01 3.96727145e-01
      1.92669839e-01 2.04109922e-02 3.59502658e-02 2.44317874e-01
      1.66142091e-01 2.59353854e-02 1.02084562e-01 3.10952932e-01</_>
    <_>
      3.27341229e-01 9.16259885e-02 7.36312643e-02 3.27341229e-01
      3.27341229e-01 1.42878681e-01 6.52803555e-02 3.27341229e-01
      3.27341229e-01 1.52740955e-01 4.92507480e-02 3.27341229e-01
      3.27341229e-01 2.72496849e-01 3.17557566e-02 3.27341229e-01
      3.41885269e-01 2.33591318e-01 8.59710425e-02 3.41885269e-01
      1.64498761e-01 7.63442591e-02 3.47720236e-02 1.16009578e-01
      3.41885269e-01 3.41885269e-01 6.18144199e-02 3.41885269e-01
      3.41885269e-01 3.41885269e-01 6.10324666e-02 2.47644484e-01
      1.44747928e-01 5.07500134e-02 1.96959451e-02 1.05990320e-01
      2.88011312e-01 2.94436276e-01 9.15822238e-02 1.14855543e-01
      3.73048216e-01 3.73048216e-01 1.05438791e-01 3.73048216e-01
      3.73048216e-01 3.73048216e-01 1.92151681e-01 1.61359355e-01</_>
    <_>
      3.41755629e-01 5.23662083e-02 8.69441703e-02 3.41755629e-01
      3.41755629e-01 5.01449257e-02 1.35229245e-01 3.41755629e-01
      3.41755629e-01 1.04811728e-01 6.05982244e-02 3.41755629e-01
      3.41755629e-01 1.21487461e-01 4.11137864e-02 3.41755629e-01
      3.44223469e-01 8.27506855e-02 1.88178465e-01 3.44223469e-01
      2.64637619e-01 5.79530448e-02 8.80506486e-02 2.97711313e-01
      3.44223469e-01 2.07650632e-01 7.00739697e-02 3.44223469e-01
      3.44223469e-01 1.66511163e-01 6.09626137e-02 3.35566312e-01
      3.16241890e-01 6.82545528e-02 9.50081050e-02 3.16241890e-01
      3.16241890e-01 3.85595597e-02 1.56693876e-01 3.16241890e-01
      3.16241890e-01 3.16241890e-01 1.13473512e-01 3.16241890e-01
      3.16241890e-01 3.16241890e-01 5.38601242e-02 2.03119248e-01</_>
    <_>
      3.39399993e-01 4.76643704e-02 1.21559709e-01 3.39399993e-01
      3.39399993e-01 3.53508852e-02 1.84157342e-01 3.39399993e-01
      3.39399993e-01 7.70191699e-02 6.93294927e-02 3.39399993e-01
      3.39399993e-01 8.79443958e-02 6.62207231e-02 3.39399993e-01
      3.48920882e-01 8.10747966e-02 2.78288484e-01 3.48920882e-01
      2.14059234e-01 4.96917367e-02 1.03791289e-01 2.84572750e-01
      3.48920882e-01 1.72040433e-01 1.14459589e-01 3.48920882e-01
      3.48920882e-01 1.16229534e-01 7.23439604e-02 3.19813430e-01
      3.10747236e-01 3.97801623e-02 1.20667316e-01 3.10747236e-01
      3.10747236e-01 3.39573734e-02 2.87620068e-01 3.10747236e-01
      3.10747236e-01 1.79523349e-01 1.03088088e-01 3.10747236e-01
      3.10747236e-01 3.10747236e-01 1.17050096e-01 2.60396034e-01</_>
    <_>
      3.41881484e-01 4.53857407e-02 1.09501682e-01 3.41881484e-01
      3.41881484e-01 3.21332030e-02 1.66381210e-01 3.41881484e-01
      3.41881484e-01 7.62177259e-02 7.11857527e-02 3.41881484e-01
      3.41881484e-01 6.93817064e-02 5.53583652e-02 3.41881484e-01
      3.44565392e-01 6.85106441e-02 2.42509931e-01 3.44565392e-01
      2.47423723e-01 5.79963028e-02 1.14168048e-01 3.20813835e-01
      3.44565392e-01 1.41003042e-01 8.69891271e-02 3.44565392e-01
      3.44565392e-01 1.13468342e-01 5.91260046e-02 3.39216918e-01
      3.20253670e-01 7.55941868e-02 1.33889467e-01 3.20253670e-01
      3.20253670e-01 2.17279308e-02 2.15051085e-01 3.20253670e-01
      3.20253670e-01 2.12951988e-01 9.92866680e-02 3.20253670e-01
      3.20253670e-01 3.20253670e-01 6.16858900e-02 2.16631949e-01</_>
    <_>
      3.06514949e-01 1.87345266e-01 3.13794762e-02 3.06514949e-01
      3.06514949e-01 2.14638829e-01 3.05943619e-02 3.06514949e-01
      3.06514949e-01 2.57873237e-01 3.90280001e-02 3.06514949e-01
      3.06514949e-01 3.06514949e-01 1.62486415e-02 3.06514949e-01
      3.29925388e-01 2.95862585e-01 5.37311882e-02 3.29925388e-01
      2.33742863e-01 1.16496034e-01 3.26505415e-02 1.41142890e-01
      3.29925388e-01 3.29925388e-01 4.21240665e-02 3.29925388e-01
      3.29925388e-01 3.29925388e-01 7.96442702e-02 2.16828346e-01
      2.12667733e-01 1.10211380e-01 3.48699354e-02 1.27194926e-01
      1.99355021e-01 2.38391459e-01 1.13050461e-01 7.57538006e-02
      3.77386957e-01 3.77386957e-01 1.59415096e-01 3.77386957e-01
      3.77386957e-01 3.77386957e-01 1.70059741e-01 1.99827775e-01</_>
    <_>
      3.42136204e-01 3.90281267e-02 1.07001856e-01 3.42136204e-01
      3.42136204e-01 2.13684570e-02 1.67848945e-01 3.42136204e-01
      3.42136204e-01 6.57165721e-02 6.45313412e-02 3.42136204e-01
      3.42136204e-01 7.81086981e-02 6.27517775e-02 3.42136204e-01
      3.38114768e-01 5.41590452e-02 2.46553764e-01 3.38114768e-01
      2.65398055e-01 6.17076121e-02 1.49799511e-01 3.38114768e-01
      3.38114768e-01 1.48829713e-01 9.06993821e-02 3.38114768e-01
      3.38114768e-01 1.10204332e-01 5.89795746e-02 3.22933406e-01
      3.38673919e-01 9.23176855e-02 2.02388525e-01 3.38673919e-01
      3.38673919e-01 1.26179578e-02 1.56318486e-01 3.38673919e-01
      3.38673919e-01 1.75130934e-01 7.82374442e-02 3.38673919e-01
      3.38673919e-01 2.20641375e-01 1.56920776e-02 1.84165135e-01</_>
    <_>
      3.15784186e-01 9.15760994e-02 4.53975014e-02 3.15784186e-01
      3.15784186e-01 1.58394367e-01 1.10133521e-01 3.15784186e-01
      3.15784186e-01 2.20292524e-01 4.73482907e-02 3.15784186e-01
      3.15784186e-01 3.15784186e-01 3.05286981e-02 3.15784186e-01
      3.30650419e-01 2.21790493e-01 1.82116076e-01 3.30650419e-01
      2.21352160e-01 1.13797799e-01 7.65906721e-02 1.77901432e-01
      3.30650419e-01 3.30650419e-01 6.76394179e-02 3.30650419e-01
      3.30650419e-01 3.30650419e-01 1.08344615e-01 1.82360902e-01
      2.66362429e-01 1.08533569e-01 4.11392227e-02 2.03119904e-01
      2.69532979e-01 2.25697115e-01 7.92433470e-02 1.55727446e-01
      3.60121697e-01 3.60121697e-01 2.35363036e-01 3.28526378e-01
      3.60121697e-01 3.60121697e-01 1.43280566e-01 1.18323550e-01</_>
    <_>
      3.29168826e-01 6.99753463e-02 7.19412863e-02 3.29168826e-01
      3.29168826e-01 1.05112374e-01 8.63432139e-02 3.29168826e-01
      3.29168826e-01 1.63851276e-01 4.11128700e-02 3.29168826e-01
      3.29168826e-01 2.67504752e-01 3.49571481e-02 3.29168826e-01
      3.31156224e-01 1.75277844e-01 1.21165588e-01 3.31156224e-01
      2.86517113e-01 1.08633362e-01 5.93395121e-02 2.33890519e-01
      3.31156224e-01 3.31156224e-01 6.14515729e-02 3.31156224e-01
      3.31156224e-01 3.14859182e-01 5.09948023e-02 1.88861921e-01
      2.80661970e-01 1.03091188e-01 6.08174950e-02 2.44607359e-01
      2.99782902e-01 1.49330869e-01 2.04683587e-01 3.13130945e-01
      3.13130945e-01 3.13130945e-01 5.58512174e-02 3.13130945e-01
      3.13130945e-01 3.13130945e-01 1.99898034e-02 3.13130945e-01</_>
    <_>
      3.26386154e-01 7.48133659e-02 8.31498280e-02 3.26386154e-01
      3.26386154e-01 1.18585676e-01 9.54989195e-02 3.26386154e-01
      3.26386154e-01 1.64908379e-01 4.43776250e-02 3.26386154e-01
      3.26386154e-01 2.79394358e-01 3.99552584e-02 3.26386154e-01
      3.36392909e-01 1.93504646e-01 1.36585325e-01 3.36392909e-01
      2.71407276e-01 9.64630619e-02 4.88797501e-02 2.07981259e-01
      3.36392909e-01 3.36392909e-01 7.63308406e-02 3.36392909e-01
      3.36392909e-01 3.03919077e-01 5.47691286e-02 1.78249657e-01
      2.48318896e-01 8.16413760e-02 4.15413976e-02 2.03752741e-01
      2.85827339e-01 1.86064824e-01 2.35060424e-01 3.18449020e-01
      3.18449020e-01 3.18449020e-01 5.58872856e-02 3.18449020e-01
      3.18449020e-01 3.18449020e-01 2.62082294e-02 3.18449020e-01</_>
    <_>
      3.25484931e-01 3.37536372e-02 1.69890121e-01 3.25484931e-01
      3.25484931e-01 2.76161674e-02 2.90411681e-01 3.25484931e-01
      3.25484931e-01 5.50965257e-02 9.04972479e-02 3.25484931e-01
      3.25484931e-01 8.45325515e-02 1.25497833e-01 3.25484931e-01
      3.24216902e-01 5.80824874e-02 3.24216902e-01 3.24216902e-01
      2.45503783e-01 8.00566450e-02 2.95843214e-01 3.24216902e-01
      3.24216902e-01 1.44592255e-01 1.85604110e-01 3.24216902e-01
      2.66365111e-01 8.26853439e-02 9.43343118e-02 2.57761419e-01
      3.24750751e-01 1.46392375e-01 3.24750751e-01 3.24750751e-01
      1.45455077e-01 1.57254040e-01 3.24750751e-01 3.24750751e-01
      2.73284823e-01 6.13878369e-02 6.24150708e-02 2.49784306e-01
      3.10215622e-01 1.92381829e-01 1.93407536e-01 2.94501632e-01</_></uncompressed_support_vectors>
  <decision_functions>
    <_>
      <sv_count>1</sv_count>
      <rho>-2.3387288863142048e+00</rho>
      <alpha>
        1.</alpha>
      <index>
        0</index></_></decision_functions></opencv_ml_svm>
</opencv_storage>
