<?xml version="1.0"?>
<opencv_storage>
<opencv_ml_svm>
  <format>3</format>
  <svmType>C_SVC</svmType>
  <kernel>
    <type>LINEAR</type></kernel>
  <C>450.</C>
  <term_criteria><epsilon>1.0000000000000000e-02</epsilon>
    <iterations>1500</iterations></term_criteria>
  <var_count>48</var_count>
  <class_count>4</class_count>
  <class_labels type_id="opencv-matrix">
    <rows>4</rows>
    <cols>1</cols>
    <dt>i</dt>
    <data>
      2 6 8 9</data></class_labels>
  <sv_total>6</sv_total>
  <support_vectors>
    <_>
      5.76335430e-01 -1.56721997e+00 -3.26184392e-01 1.37283003e+00
      -1.75216690e-01 -1.16705048e+00 2.30985895e-01 3.27663869e-01
      1.54322124e+00 -5.54743767e-01 -1.55595589e+00 6.27013147e-01
      6.34159029e-01 -4.58018422e-01 -1.57584608e+00 8.31880048e-02
      -9.83707458e-02 1.08727872e+00 2.95060009e-01 -1.57161191e-01
      -1.05287814e+00 1.20589411e+00 1.84558146e-02 -1.31992012e-01
      2.64414877e-01 3.82459521e-01 5.77952027e-01 1.87064856e-01
      -1.36544824e+00 5.99142611e-01 1.90331197e+00 -4.52256471e-01
      4.54811715e-02 1.39704919e+00 -1.56124130e-01 -1.66575179e-01
      -1.61723626e+00 -8.94707888e-02 3.52165312e-01 2.01307565e-01
      7.27948621e-02 -1.76571429e-01 1.69088066e+00 -2.74332374e-01
      2.23039120e-01 -9.48106200e-02 5.42515695e-01 -8.41541067e-02</_>
    <_>
      2.97000933e+00 -6.03936672e-01 -9.48914170e-01 3.47328424e+00
      -1.06527373e-01 -2.34153509e+00 1.04659009e+00 -5.87614059e-01
      4.33299637e+00 2.44304657e-01 -2.36812949e+00 2.98114467e+00
      -4.87085544e-02 -1.47629634e-01 -2.31379056e+00 9.74079907e-01
      5.10113180e-01 -4.22362894e-01 1.20095110e+00 1.62662968e-01
      -1.86414456e+00 -1.78152966e+00 2.71777725e+00 6.00120705e-03
      1.88139290e-01 1.25551605e+00 -3.57584178e-01 1.62662968e-01
      -2.50295687e+00 2.42030954e+00 7.40705073e-01 -1.31738484e+00
      -7.93591514e-02 9.19060051e-01 -1.55080724e+00 1.86447769e-01
      -1.40827227e+00 -4.87004668e-01 -5.27066052e-01 1.45678616e+00
      3.16287369e-01 1.26695585e+00 6.32471621e-01 -3.29051077e-01
      -5.64992905e-01 -1.11293066e+00 8.94555330e-01 1.55741918e+00</_>
    <_>
      9.72505689e-01 -2.00727344e+00 -1.06546926e+00 1.48766863e+00
      3.84457916e-01 -4.09395725e-01 1.38229382e+00 4.64559495e-01
      1.45249033e+00 -1.54766768e-01 -3.90128112e+00 -1.15085733e+00
      1.18405902e+00 -1.30956218e-01 -1.54846883e+00 1.02538392e-01
      -1.46564320e-01 -4.83850896e-01 -7.08440170e-02 -2.56674349e-01
      -4.31344271e-01 -1.41074884e+00 6.02521420e-01 9.34016347e-01
      5.80073237e-01 -2.80239165e-01 -3.69714409e-01 1.71779230e-01
      -4.82618697e-02 5.68777680e-01 1.28970706e+00 -2.78253723e-02
      -6.76868796e-01 -1.72485068e-01 2.90328830e-01 4.22702968e-01
      -8.09300363e-01 -5.08286119e-01 1.19462621e+00 1.29856694e+00
      -2.35102281e-01 1.67627007e-01 1.91321746e-01 4.72415030e-01
      5.45060873e-01 7.71598577e-01 3.07145983e-01 4.42584485e-01</_>
    <_>
      1.18691385e+00 2.27969646e+00 -1.43881738e+00 -5.22819161e-01
      2.26245904e+00 2.21616554e+00 -1.18413739e-01 -6.07547045e-01
      -9.32913780e-01 2.58194894e-01 2.35397577e+00 -3.06486547e-01
      -1.14872599e+00 1.25769985e+00 2.74294281e+00 4.37680036e-01
      1.54969692e+00 -1.10795760e+00 -3.77148837e-02 4.86795723e-01
      4.35772985e-01 -2.69948649e+00 -3.07551678e-02 5.60629606e-01
      4.10560399e-01 4.31304276e-02 -1.01224673e+00 4.03305203e-01
      -3.49468976e-01 -5.59908412e-02 -4.77309942e+00 -1.02448654e+00
      9.67528403e-01 -1.22102237e+00 2.68378079e-01 -4.58405018e-01
      1.92296779e+00 -6.95069313e-01 -1.71268904e+00 8.35498154e-01
      1.04866076e+00 1.84679425e+00 -3.25010371e+00 -3.87095690e-01
      -3.94003600e-01 -4.73843038e-01 -1.28945783e-01 -2.79717386e-01</_>
    <_>
      2.00286007e+00 -2.43424988e+00 8.47727001e-01 5.23201585e-01
      1.26063180e+00 -4.43987399e-01 1.46752548e+00 1.77905118e+00
      -1.78138208e+00 -4.78193551e-01 -2.27549553e+00 -2.24456716e+00
      -2.55493134e-01 1.44803357e+00 8.06811929e-01 9.50237155e-01
      4.36705619e-01 -1.27575207e+00 -1.70948100e+00 6.91210926e-01
      2.60635018e-01 -1.64377666e+00 1.05150592e+00 2.45791578e+00
      2.17094526e-01 -8.33745241e-01 -1.66908514e+00 2.36315608e-01
      2.08994484e+00 4.56709415e-01 -2.98868847e+00 7.98297465e-01
      -2.22277212e+00 -1.54071939e+00 7.23935902e-01 1.56188619e+00
      1.24651611e+00 -2.57893395e+00 1.58871543e+00 8.01115930e-01
      -1.38970196e-01 -1.77026883e-01 -1.77620935e+00 -8.98825098e-03
      4.54812080e-01 1.33971095e+00 -6.88442171e-01 3.50085832e-02</_>
    <_>
      -2.47005439e+00 -3.91947389e+00 1.92233294e-01 2.29055953e+00
      -8.14510822e-01 -1.46330082e+00 1.05778801e+00 1.18475211e+00
      1.97206354e+00 -1.03729975e+00 -4.24528503e+00 -4.31105709e+00
      1.31924212e+00 -1.31882966e-01 -1.91338375e-01 -2.94292271e-01
      -3.28423679e-01 -9.71351922e-01 -8.40522587e-01 -2.63607562e-01
      -1.75705820e-01 -8.08496416e-01 -1.80277693e+00 2.24265194e+00
      2.95481414e-01 -1.65382552e+00 -1.00889228e-01 -3.17413062e-01
      2.68491721e+00 -8.31791580e-01 2.55711889e+00 1.05797970e+00
      -1.05208874e+00 1.03752911e+00 -8.46354425e-01 1.02161944e+00
      1.42734814e+00 -1.21583559e-01 1.55038977e+00 1.31866562e+00
      -7.59906828e-01 3.09302777e-01 2.15608382e+00 -1.19098353e+00
      5.95797598e-01 -7.63802752e-02 2.26051426e+00 -4.42071021e-01</_></support_vectors>
  <uncompressed_sv_total>74</uncompressed_sv_total>
  <uncompressed_support_vectors>
    <_>
      1.72967911e-01 2.95442306e-02 2.54520744e-01 3.20843577e-01
      2.38938391e-01 1.35525614e-01 3.20843577e-01 3.20843577e-01
      3.20843577e-01 6.70576021e-02 8.37926492e-02 3.13176394e-01
      3.20843577e-01 1.98226616e-01 2.43369877e-01 3.20843577e-01
      3.02924037e-01 3.21226567e-01 3.21226567e-01 3.21226567e-01
      1.02033593e-01 1.37007311e-01 2.24773616e-01 1.99015334e-01
      3.21226567e-01 3.21027011e-01 3.21226567e-01 3.21226567e-01
      1.41503066e-01 7.18753263e-02 1.03391834e-01 1.66309863e-01
      1.05409034e-01 2.34842580e-02 8.14640447e-02 2.44757369e-01
      3.32539320e-01 1.83560655e-01 3.24125886e-01 3.32539320e-01
      2.03986824e-01 1.82005707e-02 6.86092526e-02 2.63773859e-01
      3.32539320e-01 3.32539320e-01 3.32539320e-01 3.32539320e-01</_>
    <_>
      1.90745741e-01 2.70194449e-02 2.02098936e-01 3.36556256e-01
      2.85644889e-01 1.41129181e-01 3.09493423e-01 3.36556256e-01
      3.26618433e-01 5.67979068e-02 8.61658826e-02 3.36556256e-01
      3.36556256e-01 1.14773862e-01 1.56617343e-01 3.36556256e-01
      3.35491389e-01 2.46499166e-01 3.35491389e-01 3.35491389e-01
      1.25060871e-01 9.50861648e-02 1.84856594e-01 3.31170321e-01
      3.35491389e-01 2.18978763e-01 2.45640263e-01 3.35491389e-01
      1.57755986e-01 1.05369948e-01 1.11964256e-01 2.18563110e-01
      3.11486453e-01 1.21908627e-01 3.61368328e-01 3.61368328e-01
      3.61368328e-01 3.58522646e-02 2.35938415e-01 3.61368328e-01
      2.72837013e-01 1.92869026e-02 1.49537906e-01 3.61368328e-01
      2.15088740e-01 4.45573442e-02 6.41903728e-02 1.58347860e-01</_>
    <_>
      1.67822897e-01 3.45203169e-02 2.68422991e-01 3.44050854e-01
      2.75692403e-01 5.92640489e-02 2.59935588e-01 3.44050854e-01
      3.44050854e-01 9.65968296e-02 8.13413337e-02 3.00090253e-01
      3.44050854e-01 1.74555078e-01 1.40515149e-01 3.44050854e-01
      3.07351321e-01 1.90726876e-01 3.07351321e-01 3.07351321e-01
      1.97512552e-01 2.81607151e-01 2.77717978e-01 2.62491077e-01
      3.07351321e-01 2.50879794e-01 1.95226729e-01 3.07351321e-01
      1.96101308e-01 1.30506635e-01 1.14637762e-01 2.32812822e-01
      3.34519118e-01 3.34519118e-01 3.34519118e-01 3.34519118e-01
      9.86102000e-02 9.03003365e-02 3.34519118e-01 3.34519118e-01
      2.85505384e-01 7.77050629e-02 1.43015325e-01 3.34519118e-01
      1.97872713e-01 6.03411123e-02 5.34096770e-02 2.04465374e-01</_>
    <_>
      1.70756429e-01 2.97122952e-02 2.24954829e-01 3.35208535e-01
      2.96556056e-01 1.19014859e-01 3.18535417e-01 3.35208535e-01
      3.14278036e-01 1.07837349e-01 5.80869690e-02 1.87954709e-01
      3.35208535e-01 2.98503399e-01 1.57374561e-01 3.35208535e-01
      3.01208615e-01 2.45021269e-01 3.01208615e-01 3.01208615e-01
      1.27772912e-01 1.64828271e-01 2.24973053e-01 2.64384896e-01
      3.01208615e-01 3.01208615e-01 2.18385175e-01 3.01208615e-01
      3.01208615e-01 1.33839577e-01 9.30664092e-02 2.52181083e-01
      1.33923352e-01 1.54266194e-01 1.63579717e-01 2.53043234e-01
      1.54511601e-01 1.47827221e-02 9.33457613e-02 3.99690777e-01
      3.99690777e-01 8.00287053e-02 1.07699715e-01 3.99690777e-01
      3.99690777e-01 9.29240733e-02 7.26371780e-02 3.99690777e-01</_>
    <_>
      1.24203488e-01 3.46287526e-02 2.78978169e-01 3.33260983e-01
      2.51785308e-01 1.04375809e-01 3.33260983e-01 3.33260983e-01
      3.33260983e-01 1.13605313e-01 6.47519603e-02 2.00606480e-01
      3.33260983e-01 2.60682404e-01 1.90397233e-01 3.33260983e-01
      2.96926349e-01 2.51439542e-01 3.02299380e-01 3.02299380e-01
      1.44629493e-01 2.08057702e-01 2.51300097e-01 2.42177546e-01
      3.02299380e-01 3.02299380e-01 2.65643746e-01 3.02299380e-01
      2.43065044e-01 1.02173664e-01 9.79025140e-02 2.30192423e-01
      2.51699328e-01 3.15594852e-01 2.77007520e-01 2.95731127e-01
      1.54892489e-01 2.39714701e-02 1.38787791e-01 3.41566592e-01
      3.41566592e-01 5.69525473e-02 1.35218069e-01 3.41566592e-01
      3.41566592e-01 1.03256367e-01 1.00440085e-01 3.41566592e-01</_>
    <_>
      1.81905806e-01 6.48238212e-02 1.42663136e-01 2.55864829e-01
      3.14655632e-01 1.63987696e-01 3.14655632e-01 3.14655632e-01
      3.14655632e-01 3.14655632e-01 1.95165053e-02 2.24466383e-01
      3.14655632e-01 3.14655632e-01 6.34128153e-02 3.14655632e-01
      2.78351009e-01 1.94106489e-01 2.78351009e-01 2.78351009e-01
      2.78351009e-01 1.40694439e-01 1.67382032e-01 2.78351009e-01
      2.78351009e-01 2.78351009e-01 1.57392606e-01 2.78351009e-01
      2.78351009e-01 2.78351009e-01 2.44281858e-01 2.29108319e-01
      2.76212603e-01 2.06217453e-01 8.99441689e-02 2.76212603e-01
      2.76212603e-01 2.76212603e-01 2.76212603e-01 2.76212603e-01
      2.61158645e-01 2.76212603e-01 2.76212603e-01 2.76212603e-01
      2.76212603e-01 2.76212603e-01 1.46894529e-01 1.32721469e-01</_>
    <_>
      2.91711390e-01 1.62926212e-01 1.35340124e-01 2.91711390e-01
      2.91711390e-01 2.91711390e-01 2.91711390e-01 2.91711390e-01
      2.91711390e-01 2.91711390e-01 8.57109651e-02 1.13603890e-01
      2.91711390e-01 2.91711390e-01 1.92384034e-01 2.09771171e-01
      3.28557700e-01 3.28557700e-01 3.28557700e-01 3.28557700e-01
      1.12971216e-01 3.12371086e-02 1.80691965e-02 8.06572512e-02
      3.28557700e-01 3.28557700e-01 3.28557700e-01 3.28557700e-01
      8.50650221e-02 1.75650805e-01 2.27383018e-01 1.50841922e-01
      2.36631975e-01 7.33945444e-02 1.37350298e-02 1.31591707e-01
      1.17040180e-01 6.39987886e-02 1.81762695e-01 2.42371649e-01
      3.27509403e-01 2.79665589e-01 1.34287879e-01 2.05244869e-01
      4.28672552e-01 4.28672552e-01 1.01691328e-01 4.28672552e-01</_>
    <_>
      2.91132718e-01 6.67354912e-02 1.57786220e-01 2.98468679e-01
      2.98468679e-01 1.45951554e-01 2.93199152e-01 2.98468679e-01
      2.98468679e-01 2.18936622e-01 3.26208696e-02 2.98468679e-01
      2.98468679e-01 2.98468679e-01 1.18219599e-01 2.98468679e-01
      3.07040393e-01 2.29582250e-01 3.07040393e-01 3.07040393e-01
      3.07040393e-01 1.14037804e-01 9.72427651e-02 2.76264668e-01
      3.07040393e-01 3.07040393e-01 2.92196244e-01 3.07040393e-01
      1.42987460e-01 1.56996399e-01 1.72264934e-01 1.59302428e-01
      3.24027061e-01 2.68413693e-01 7.02025965e-02 3.24027061e-01
      3.06723833e-01 3.24027061e-01 3.24027061e-01 3.24027061e-01
      9.98739824e-02 5.10988422e-02 7.50611797e-02 1.28683731e-01
      3.24027061e-01 3.24027061e-01 1.80750489e-01 1.52654544e-01</_>
    <_>
      2.74234831e-01 1.06025152e-01 1.01697244e-01 2.78695077e-01
      3.06615978e-01 1.59133613e-01 2.38727033e-01 3.06615978e-01
      3.06615978e-01 2.69363046e-01 2.16450859e-02 3.06615978e-01
      3.06615978e-01 3.06615978e-01 9.51017812e-02 3.06615978e-01
      3.12507778e-01 2.54779428e-01 3.12507778e-01 3.12507778e-01
      2.05872834e-01 1.62597224e-01 1.29767194e-01 1.77324921e-01
      3.12507778e-01 3.12507778e-01 2.57721931e-01 3.12507778e-01
      2.26890847e-01 2.35397354e-01 1.72271088e-01 1.60946205e-01
      3.11202526e-01 3.11202526e-01 7.97446296e-02 2.04379126e-01
      2.35466242e-01 3.11202526e-01 3.11202526e-01 3.11202526e-01
      2.51379400e-01 2.22470194e-01 1.83736056e-01 2.11530566e-01
      3.11202526e-01 2.95375079e-01 4.30259444e-02 1.78738743e-01</_>
    <_>
      3.13213497e-01 1.07736729e-01 9.64967087e-02 3.13213497e-01
      3.13213497e-01 1.49247572e-01 1.01141736e-01 3.13213497e-01
      3.13213497e-01 2.99089521e-01 2.58999858e-02 2.60358214e-01
      3.13213497e-01 3.13213497e-01 2.67170388e-02 3.13213497e-01
      2.88094014e-01 1.94563374e-01 1.43022433e-01 2.88094014e-01
      2.88094014e-01 1.57178491e-01 1.30857587e-01 2.82833457e-01
      2.88094014e-01 2.88094014e-01 6.50955588e-02 2.88094014e-01
      2.88094014e-01 2.56449372e-01 2.88094014e-01 2.88094014e-01
      3.45725089e-01 2.84199029e-01 2.37514675e-01 3.45725089e-01
      1.77382663e-01 9.85291600e-02 4.87354323e-02 1.26537979e-01
      3.38760614e-01 3.45725089e-01 3.45725089e-01 3.45725089e-01
      2.02166840e-01 1.43928260e-01 9.19304416e-02 1.31824791e-01</_>
    <_>
      3.14429790e-01 1.61818698e-01 7.04828724e-02 3.14429790e-01
      3.14429790e-01 1.51524261e-01 2.42104400e-02 3.14429790e-01
      3.14429790e-01 2.79001504e-01 3.02285273e-02 2.94550061e-01
      3.14429790e-01 2.90185302e-01 1.93319637e-02 3.14429790e-01
      3.07832628e-01 1.99430406e-01 5.78436106e-02 3.07832628e-01
      3.07832628e-01 1.36057377e-01 6.59356788e-02 2.37373158e-01
      3.07832628e-01 3.07832628e-01 8.43800306e-02 3.07832628e-01
      2.73286223e-01 2.39337862e-01 2.90202469e-01 2.87627459e-01
      3.09348464e-01 2.44508669e-01 1.29646957e-01 3.09348464e-01
      2.48050526e-01 1.99046075e-01 1.53368652e-01 2.04405680e-01
      2.05450848e-01 3.09348464e-01 3.09348464e-01 3.09348464e-01
      3.09348464e-01 3.09348464e-01 1.39760554e-01 1.49149865e-01</_>
    <_>
      2.01981798e-01 6.41281158e-02 1.32344618e-01 2.92436779e-01
      3.13575417e-01 2.07374975e-01 2.95731068e-01 3.13575417e-01
      3.13575417e-01 3.13575417e-01 1.76312272e-02 1.61129624e-01
      3.13575417e-01 3.13575417e-01 6.23022877e-02 3.13575417e-01
      2.86009103e-01 2.58562833e-01 2.86009103e-01 2.86009103e-01
      2.46751532e-01 1.44000009e-01 1.28303632e-01 2.29582608e-01
      2.86009103e-01 2.86009103e-01 1.66909382e-01 2.86009103e-01
      2.18110308e-01 2.51174569e-01 2.86009103e-01 2.61470973e-01
      2.87231386e-01 1.61607251e-01 3.83298546e-02 2.76008457e-01
      2.68914819e-01 2.87231386e-01 2.87231386e-01 2.87231386e-01
      1.52265191e-01 2.25344613e-01 2.87231386e-01 2.87231386e-01
      2.87231386e-01 2.87231386e-01 2.22635910e-01 1.93652600e-01</_>
    <_>
      1.48613110e-01 4.77675870e-02 1.62725955e-01 2.79467553e-01
      3.15611929e-01 1.27885297e-01 3.15611929e-01 3.15611929e-01
      3.15611929e-01 3.14598620e-01 1.83766373e-02 2.21700743e-01
      3.15611929e-01 3.15611929e-01 7.61881471e-02 3.15611929e-01
      2.82487124e-01 1.63976774e-01 2.82487124e-01 2.82487124e-01
      2.82487124e-01 1.18701115e-01 2.03633294e-01 2.82487124e-01
      2.82487124e-01 2.82487124e-01 1.66599840e-01 2.82487124e-01
      2.37359762e-01 2.46326342e-01 2.67336458e-01 2.45152742e-01
      3.11092347e-01 1.93602905e-01 1.13636546e-01 3.11092347e-01
      3.11092347e-01 2.98657566e-01 3.03655177e-01 3.11092347e-01
      1.20590113e-01 2.00249299e-01 3.11092347e-01 2.88956910e-01
      2.47867391e-01 2.40430608e-01 1.07220612e-01 1.11003861e-01</_>
    <_>
      1.39993638e-01 5.20062968e-02 1.54674530e-01 2.56044328e-01
      3.19928467e-01 1.31109774e-01 3.19928467e-01 3.19928467e-01
      3.19928467e-01 3.17988425e-01 1.61715690e-02 2.12925151e-01
      3.19928467e-01 3.19928467e-01 6.80658445e-02 3.19928467e-01
      2.79562473e-01 1.62385941e-01 2.79562473e-01 2.79562473e-01
      2.79562473e-01 1.30520672e-01 2.10391670e-01 2.79562473e-01
      2.79562473e-01 2.79562473e-01 1.53914422e-01 2.79562473e-01
      2.70758688e-01 2.69416481e-01 2.46564195e-01 2.32198939e-01
      2.99560249e-01 2.45939419e-01 1.47015765e-01 2.99560249e-01
      2.99560249e-01 2.63103038e-01 2.99560249e-01 2.99560249e-01
      1.83339864e-01 2.58572668e-01 2.99560249e-01 2.68463731e-01
      2.51573086e-01 2.20883816e-01 1.01792656e-01 1.10810786e-01</_>
    <_>
      2.68006116e-01 1.04199968e-01 9.25886482e-02 2.50992507e-01
      3.12200397e-01 2.36599579e-01 2.01258868e-01 3.12200397e-01
      3.12200397e-01 3.12200397e-01 2.07770094e-02 2.31439993e-01
      3.12200397e-01 3.12200397e-01 9.93050486e-02 3.12200397e-01
      3.09359431e-01 3.09359431e-01 2.63505042e-01 3.09359431e-01
      1.91817373e-01 1.28772914e-01 8.62342790e-02 1.40677139e-01
      3.09359431e-01 3.09359431e-01 2.05195576e-01 3.09359431e-01
      3.09359431e-01 2.93638915e-01 1.47905022e-01 1.63533926e-01
      2.51165897e-01 1.20315060e-01 2.14175265e-02 1.50829241e-01
      2.80230463e-01 3.05378675e-01 3.05378675e-01 3.05378675e-01
      3.05378675e-01 3.05378675e-01 2.28859544e-01 1.75180301e-01
      3.05378675e-01 3.05378675e-01 1.93773970e-01 2.10345268e-01</_>
    <_>
      1.96652025e-01 6.65326640e-02 1.31083325e-01 2.65299559e-01
      3.19432765e-01 2.05177143e-01 2.78619587e-01 3.19432765e-01
      3.19432765e-01 3.19432765e-01 1.79865919e-02 1.69941574e-01
      3.19432765e-01 3.19432765e-01 5.43288477e-02 3.19432765e-01
      2.78434128e-01 2.40400821e-01 2.78434128e-01 2.78434128e-01
      2.47257099e-01 1.50746882e-01 1.43534184e-01 2.42638156e-01
      2.78434128e-01 2.78434128e-01 1.49543643e-01 2.78434128e-01
      2.78434128e-01 2.78434128e-01 2.78434128e-01 2.36634150e-01
      2.74712622e-01 1.53349698e-01 5.19113988e-02 2.74712622e-01
      2.47295231e-01 2.74712622e-01 2.74712622e-01 2.74712622e-01
      2.74712622e-01 2.74712622e-01 2.74712622e-01 2.74712622e-01
      2.74712622e-01 2.74712622e-01 2.16387495e-01 1.81460753e-01</_>
    <_>
      1.42255455e-01 1.16947696e-01 1.25602886e-01 2.10233256e-01
      3.20268124e-01 3.20268124e-01 3.20268124e-01 3.20268124e-01
      1.77498281e-01 1.79919124e-01 1.12775281e-01 7.57909417e-02
      3.20268124e-01 3.20268124e-01 3.20268124e-01 3.20268124e-01
      3.14943433e-01 3.14943433e-01 3.14943433e-01 3.14943433e-01
      1.02082178e-01 1.31642064e-02 1.75650977e-02 1.33584157e-01
      3.14943433e-01 3.14943433e-01 3.14943433e-01 3.14943433e-01
      3.14943433e-01 1.13964662e-01 4.70524728e-02 2.45356098e-01
      1.56069472e-01 8.06901418e-03 2.02667955e-02 2.15320781e-01
      3.51619631e-01 2.08254203e-01 1.05317511e-01 3.51619631e-01
      3.51619631e-01 1.60940513e-01 2.11560521e-02 3.21253598e-01
      3.51619631e-01 3.51619631e-01 1.21184446e-01 3.29253584e-01</_>
    <_>
      1.84143439e-01 1.57776520e-01 1.98981747e-01 2.67508924e-01
      3.17341983e-01 3.17341983e-01 3.17341983e-01 3.17341983e-01
      4.13103886e-02 8.05100203e-02 9.62632000e-02 6.13982342e-02
      3.17341983e-01 3.17341983e-01 3.17341983e-01 3.17341983e-01
      3.13497394e-01 2.23012730e-01 2.85594225e-01 3.13497394e-01
      1.52244613e-01 4.88352999e-02 2.36478634e-02 1.25014365e-01
      3.13497394e-01 3.13497394e-01 2.14949638e-01 3.13497394e-01
      3.13497394e-01 2.96407163e-01 7.48038366e-02 3.07372332e-01
      1.54504076e-01 7.42908791e-02 2.01852527e-02 8.43859240e-02
      3.67293686e-01 3.67293686e-01 6.83256537e-02 1.39931440e-01
      3.67293686e-01 3.67293686e-01 8.03982466e-02 2.74093330e-01
      3.67293686e-01 3.67293686e-01 1.08625270e-01 1.79843411e-01</_>
    <_>
      1.54149324e-01 1.75528646e-01 1.51494294e-01 1.39632195e-01
      2.79942065e-01 2.79942065e-01 2.79942065e-01 2.79942065e-01
      2.79942065e-01 2.79942065e-01 2.79942065e-01 2.10171238e-01
      2.79942065e-01 2.79942065e-01 2.79942065e-01 2.68951744e-01
      3.35156351e-01 3.35156351e-01 3.35156351e-01 3.35156351e-01
      2.25134343e-01 8.22992772e-02 2.59916127e-01 3.35156351e-01
      3.35156351e-01 1.76283464e-01 1.09474324e-01 2.84065336e-01
      1.61212295e-01 1.68205630e-02 2.17312668e-02 2.17161864e-01
      3.21858615e-01 2.93464307e-02 2.34960541e-01 3.84479582e-01
      3.05343866e-01 3.20736319e-02 3.20276827e-01 3.84479582e-01
      1.94668427e-01 4.87988582e-03 2.81601697e-02 3.15271705e-01
      1.85102820e-01 1.50867067e-02 1.53571546e-01 3.84479582e-01</_>
    <_>
      2.88572282e-01 2.24525943e-01 2.37157702e-01 2.88572282e-01
      2.88572282e-01 1.74284890e-01 1.86550960e-01 2.88572282e-01
      2.88572282e-01 2.57621825e-01 1.75904095e-01 2.88572282e-01
      2.88572282e-01 2.18701750e-01 1.18113592e-01 2.88572282e-01
      3.39722425e-01 7.44312033e-02 1.00218594e-01 3.48684788e-01
      2.27659553e-01 8.74966383e-03 2.71293763e-02 3.37887496e-01
      3.48684788e-01 2.68232077e-01 1.00461662e-01 3.48684788e-01
      3.48684788e-01 9.18254405e-02 1.82607993e-02 3.48684788e-01
      2.91464716e-01 9.68506094e-03 4.15506214e-02 3.42662692e-01
      3.42662692e-01 8.49852562e-02 1.05981655e-01 3.42662692e-01
      3.42662692e-01 6.32993132e-02 9.62001923e-03 3.42662692e-01
      3.42662692e-01 2.54515946e-01 2.34083626e-02 3.42662692e-01</_>
    <_>
      2.45006263e-01 2.03925386e-01 2.70942152e-01 2.93110907e-01
      2.93110907e-01 2.93110907e-01 2.93110907e-01 2.93110907e-01
      7.45925754e-02 9.43076238e-02 1.40374169e-01 1.21073820e-01
      2.93110907e-01 2.93110907e-01 2.93110907e-01 2.93110907e-01
      3.11872542e-01 2.09190801e-01 2.68657088e-01 3.11872542e-01
      1.45508572e-01 3.64036299e-02 3.17657217e-02 1.46194503e-01
      3.11872542e-01 3.11872542e-01 3.11872542e-01 3.11872542e-01
      3.11872542e-01 3.11872542e-01 1.08941056e-01 2.14667872e-01
      2.10202217e-01 3.55342962e-02 1.25953704e-02 1.88588083e-01
      3.36501747e-01 8.68273079e-02 3.70482579e-02 3.36501747e-01
      3.36501747e-01 3.36501747e-01 3.00616324e-02 3.35557461e-01
      3.36501747e-01 3.36501747e-01 2.04471070e-02 3.36501747e-01</_>
    <_>
      2.95106262e-01 1.75647631e-01 2.34345570e-01 2.95106262e-01
      2.95106262e-01 2.95106262e-01 2.95106262e-01 2.95106262e-01
      6.23456910e-02 1.21179670e-01 1.30822420e-01 6.86890036e-02
      2.95106262e-01 2.95106262e-01 2.95106262e-01 2.95106262e-01
      2.91153312e-01 2.88747370e-01 3.13805342e-01 3.13805342e-01
      5.69608882e-02 1.71348751e-02 3.66834737e-03 4.18638140e-02
      3.13805342e-01 3.13805342e-01 3.13805342e-01 3.13805342e-01
      3.13805342e-01 2.31521517e-01 2.42548082e-02 2.82679915e-01
      7.47375488e-02 2.89851110e-02 4.32488928e-03 4.76819165e-02
      2.81755775e-01 1.32818073e-01 1.43574215e-02 1.32053375e-01
      3.81796062e-01 3.77753407e-01 2.01944299e-02 3.81796062e-01
      3.81796062e-01 3.81796062e-01 2.91516762e-02 3.81796062e-01</_>
    <_>
      2.54585505e-01 2.53124028e-01 2.54585505e-01 2.54585505e-01
      2.54585505e-01 2.54585505e-01 2.54585505e-01 2.54585505e-01
      2.10287377e-01 2.50752747e-01 2.54585505e-01 2.20274329e-01
      2.54585505e-01 2.54585505e-01 2.54585505e-01 2.54585505e-01
      3.38058472e-01 3.38058472e-01 2.91804135e-01 3.38058472e-01
      1.16080604e-01 2.01882515e-02 4.45718430e-02 1.55643910e-01
      3.38058472e-01 3.38058472e-01 3.38058472e-01 3.38058472e-01
      2.05398381e-01 2.31035482e-02 2.00134260e-03 1.69315428e-01
      1.82073608e-01 9.01311357e-03 1.20667599e-01 3.25625956e-01
      3.25625956e-01 3.09657268e-02 3.25625956e-01 3.25625956e-01
      3.25625956e-01 8.36636201e-02 5.84416743e-03 3.04177016e-01
      3.25625956e-01 3.25625956e-01 1.33906202e-02 3.25625956e-01</_>
    <_>
      3.01357239e-01 3.01357239e-01 3.01357239e-01 3.01357239e-01
      3.01357239e-01 9.21154618e-02 2.00342000e-01 3.01357239e-01
      3.01357239e-01 3.01357239e-01 3.01357239e-01 3.01357239e-01
      1.10112563e-01 7.71214068e-02 8.30277801e-02 1.23444527e-01
      3.94292295e-01 6.74721748e-02 3.94292295e-01 3.94292295e-01
      3.94292295e-01 2.17066724e-02 3.94292295e-01 3.94292295e-01
      1.31240264e-01 1.43852951e-02 4.63705584e-02 1.79504573e-01
      5.64186685e-02 1.45039111e-02 1.08939838e-02 5.40703461e-02
      2.87980169e-01 1.46361161e-02 3.53675276e-01 3.53675276e-01
      3.49413335e-01 5.75348325e-02 3.53675276e-01 3.53675276e-01
      7.76290447e-02 1.71636902e-02 3.24381106e-02 9.30660740e-02
      2.79863596e-01 6.93632066e-02 2.51633435e-01 3.53675276e-01</_>
    <_>
      2.93647468e-01 2.93647468e-01 2.93647468e-01 2.93647468e-01
      2.93647468e-01 1.59636304e-01 1.37601301e-01 2.93647468e-01
      2.73781300e-01 2.93647468e-01 2.93647468e-01 2.93647468e-01
      1.16091676e-01 1.71015307e-01 1.96185723e-01 1.42897487e-01
      3.26048315e-01 1.43553391e-01 2.25468233e-01 3.26048315e-01
      3.26048315e-01 2.06818338e-02 2.92954415e-01 3.26048315e-01
      3.21182519e-01 3.93287167e-02 2.33633313e-02 3.00182551e-01
      3.26048315e-01 7.50026777e-02 1.47614842e-02 3.26048315e-01
      1.87395632e-01 2.79780701e-02 2.52631158e-01 3.56930435e-01
      3.56930435e-01 2.48652548e-01 3.56930435e-01 3.56930435e-01
      1.94158047e-01 6.10474832e-02 5.80374943e-03 1.18934706e-01
      3.56930435e-01 2.26995394e-01 7.27415010e-02 2.92344362e-01</_>
    <_>
      2.86028206e-01 2.86028206e-01 2.31540933e-01 2.86028206e-01
      2.86028206e-01 2.86028206e-01 2.86028206e-01 2.86028206e-01
      7.97270834e-02 1.20029710e-01 1.65643916e-01 1.27475560e-01
      2.46896103e-01 2.86028206e-01 2.86028206e-01 2.86028206e-01
      3.24365854e-01 3.24365854e-01 2.85533458e-01 3.24365854e-01
      3.06290761e-02 5.57264732e-03 7.94366002e-03 3.37209404e-02
      3.24365854e-01 3.24365854e-01 3.24365854e-01 3.24365854e-01
      3.24365854e-01 1.54499173e-01 1.88178010e-02 2.17095375e-01
      6.79560527e-02 3.85036692e-03 1.89149473e-02 8.44886526e-02
      2.11310938e-01 5.80178350e-02 3.27622704e-02 1.82126448e-01
      4.07682151e-01 2.62387574e-01 1.85606107e-02 4.07682151e-01
      4.07682151e-01 4.07682151e-01 3.63495722e-02 4.07682151e-01</_>
    <_>
      2.72507638e-01 2.72507638e-01 2.72507638e-01 2.72507638e-01
      1.90763623e-01 1.98130146e-01 2.04204917e-01 2.07714394e-01
      2.72507638e-01 2.72507638e-01 2.72507638e-01 2.72507638e-01
      2.72507638e-01 2.06142932e-01 2.27347031e-01 2.72507638e-01
      1.89104915e-01 2.92797014e-02 6.08596615e-02 2.49430791e-01
      1.79480955e-01 1.06890965e-02 1.55667933e-02 1.78548709e-01
      4.58595484e-01 3.83247584e-01 2.84919173e-01 4.58595484e-01
      3.25818211e-01 9.48950723e-02 3.80907580e-02 2.51279324e-01
      2.49981627e-01 1.07746935e-02 4.02047113e-02 2.81651944e-01
      3.12734395e-01 1.05884233e-02 1.46630138e-01 3.44470620e-01
      3.44470620e-01 1.69420719e-01 8.18865187e-03 3.33332539e-01
      3.44470620e-01 3.44470620e-01 2.02658456e-02 3.44470620e-01</_>
    <_>
      2.20068753e-01 2.23780334e-01 2.40593523e-01 2.55666703e-01
      2.77980626e-01 2.77980626e-01 2.77980626e-01 2.77980626e-01
      2.28659466e-01 2.14893341e-01 1.71575546e-01 1.84850797e-01
      2.77980626e-01 2.77980626e-01 2.69218683e-01 2.77980626e-01
      3.24857712e-01 2.09606811e-01 2.22244546e-01 3.43485951e-01
      9.34850127e-02 1.95994265e-02 1.68284047e-02 8.91397372e-02
      3.43485951e-01 3.43485951e-01 2.30819270e-01 3.43485951e-01
      3.43485951e-01 2.00941473e-01 5.89190535e-02 3.05476218e-01
      1.19347937e-01 6.22551143e-03 1.41389742e-02 1.22730806e-01
      2.22501218e-01 4.22686636e-02 6.40639216e-02 2.63538539e-01
      3.89396966e-01 2.87669361e-01 1.42638693e-02 3.89396966e-01
      3.89396966e-01 3.89396966e-01 2.46407650e-02 3.89396966e-01</_>
    <_>
      1.45081237e-01 1.53170571e-01 1.72207683e-01 1.63185805e-01
      2.90888160e-01 2.49747410e-01 2.90888160e-01 2.90888160e-01
      2.89776713e-01 2.50486344e-01 1.91981748e-01 2.40919665e-01
      2.90888160e-01 2.90888160e-01 2.90888160e-01 2.90888160e-01
      3.20392191e-01 1.67963624e-01 3.20392191e-01 3.20392191e-01
      3.06336045e-01 3.35191675e-02 3.01252216e-01 3.20392191e-01
      3.20392191e-01 2.35993192e-01 2.13311255e-01 3.20392191e-01
      1.74566641e-01 2.84615103e-02 4.19920757e-02 1.80887833e-01
      3.26121002e-01 1.82232801e-02 2.93205023e-01 3.26121002e-01
      3.26121002e-01 2.03280672e-02 2.92132229e-01 3.26121002e-01
      2.81665802e-01 3.74852978e-02 5.31704612e-02 2.81652421e-01
      3.26121002e-01 1.04254365e-01 1.13099374e-01 3.26121002e-01</_>
    <_>
      1.06379978e-01 1.31458163e-01 1.20999686e-01 1.01395525e-01
      3.04179072e-01 3.04179072e-01 3.04179072e-01 3.04179072e-01
      2.81043321e-01 2.30063245e-01 1.57217130e-01 2.15892538e-01
      3.04179072e-01 3.04179072e-01 3.04179072e-01 3.04179072e-01
      3.13050270e-01 2.12268218e-01 3.13050270e-01 3.13050270e-01
      2.69902378e-01 3.80297489e-02 3.10215503e-01 3.13050270e-01
      3.13050270e-01 2.81172961e-01 2.35023171e-01 3.13050270e-01
      1.70123786e-01 2.20275838e-02 4.06347439e-02 1.67067215e-01
      3.24216872e-01 1.50581729e-02 3.22093368e-01 3.24216872e-01
      3.24216872e-01 1.22521939e-02 3.06188703e-01 3.24216872e-01
      2.68073708e-01 3.31042036e-02 5.15488908e-02 2.66115040e-01
      3.24216872e-01 9.96347517e-02 1.08754389e-01 3.24216872e-01</_>
    <_>
      1.76732793e-01 1.58268347e-01 2.57812411e-01 2.78330624e-01
      2.78330624e-01 2.18620613e-01 2.78330624e-01 2.78330624e-01
      2.60604799e-01 2.24128217e-01 1.90069884e-01 2.29466215e-01
      2.78330624e-01 2.78330624e-01 2.78330624e-01 2.78330624e-01
      3.30419064e-01 1.72201827e-01 3.30419064e-01 3.30419064e-01
      3.30419064e-01 2.22844183e-02 2.06922665e-01 3.30419064e-01
      3.30419064e-01 2.29577631e-01 2.19072774e-01 3.30419064e-01
      1.74382702e-01 1.91759020e-02 1.50699271e-02 1.66707471e-01
      3.31960291e-01 1.83382891e-02 2.48163149e-01 3.31960291e-01
      3.31960291e-01 2.16914471e-02 3.14741403e-01 3.31960291e-01
      2.71698624e-01 4.41362634e-02 3.04125976e-02 2.57234752e-01
      3.31960291e-01 1.44452587e-01 1.01558670e-01 3.31960291e-01</_>
    <_>
      1.40074030e-01 2.03806888e-02 3.35137993e-01 3.36447716e-01
      2.58979112e-01 1.47598967e-01 3.36447716e-01 3.36447716e-01
      3.81427333e-02 5.41102588e-02 6.63193464e-02 1.19216494e-01
      3.36447716e-01 3.36447716e-01 2.70653158e-01 3.36447716e-01
      2.98287004e-01 2.23677129e-01 3.15234989e-01 3.15234989e-01
      1.46997720e-01 9.39791724e-02 9.63469595e-02 1.60194188e-01
      3.15234989e-01 3.15234989e-01 2.87806988e-01 3.15234989e-01
      3.15234989e-01 2.02677265e-01 7.86667019e-02 2.57138610e-01
      1.42081127e-01 5.88304512e-02 4.55206260e-02 1.30843073e-01
      3.28844875e-01 3.28844875e-01 2.65123874e-01 3.28844875e-01
      3.28844875e-01 1.34489208e-01 1.38410926e-02 3.28844875e-01
      3.28844875e-01 3.28844875e-01 7.79715478e-02 3.19769114e-01</_>
    <_>
      4.17736210e-02 8.58968347e-02 3.02298188e-01 3.02298188e-01
      1.57551691e-01 2.25459859e-01 3.02298188e-01 3.02298188e-01
      3.02298188e-01 9.28138122e-02 3.02298188e-01 3.02298188e-01
      2.31996968e-01 1.65246964e-01 3.02298188e-01 3.02298188e-01
      3.04200232e-01 3.04200232e-01 3.04200232e-01 3.04200232e-01
      3.04200232e-01 2.65529037e-01 3.00615169e-02 2.92227924e-01
      2.99457043e-01 2.98384756e-01 3.04200232e-01 3.04200232e-01
      9.29285511e-02 4.93954159e-02 9.22509376e-03 5.02056815e-02
      3.66882890e-01 2.09315583e-01 1.26820043e-01 3.66882890e-01
      2.46905655e-01 2.02735946e-01 3.66882890e-01 3.66882890e-01
      6.08303212e-02 1.78649630e-02 1.12322308e-02 3.16036232e-02
      2.04195186e-01 1.22648537e-01 3.66882890e-01 3.15397799e-01</_>
    <_>
      2.05395773e-01 3.27696949e-02 3.53791475e-01 3.54976296e-01
      3.00035894e-01 9.37859267e-02 3.54976296e-01 3.54976296e-01
      4.30500247e-02 1.45451929e-02 7.18846321e-02 1.77321211e-01
      3.16351533e-01 2.02377737e-01 2.13221848e-01 3.54976296e-01
      2.83380061e-01 1.90296233e-01 2.99058229e-01 2.99058229e-01
      2.23546326e-01 2.10968688e-01 1.53346807e-01 2.64554590e-01
      2.99058229e-01 2.41016284e-01 2.20346317e-01 2.99058229e-01
      2.99058229e-01 1.65016696e-01 1.48400858e-01 2.99058229e-01
      2.28434026e-01 1.93844482e-01 9.60375071e-02 1.94336593e-01
      1.63390800e-01 2.93071657e-01 1.55327857e-01 2.18368679e-01
      3.62456828e-01 2.20272571e-01 1.31054938e-01 3.62456828e-01
      3.62456828e-01 3.62456828e-01 1.25708833e-01 2.61216283e-01</_>
    <_>
      1.50846690e-01 5.12327366e-02 3.28557253e-01 3.28557253e-01
      2.14437082e-01 1.73889726e-01 3.28557253e-01 3.28557253e-01
      1.19625784e-01 7.60173649e-02 1.47669420e-01 2.57721812e-01
      3.28557253e-01 1.76498666e-01 3.28557253e-01 3.28557253e-01
      2.88594276e-01 2.69563884e-01 3.46532285e-01 3.46532285e-01
      4.33995239e-02 4.55025099e-02 5.80346175e-02 7.66133517e-02
      3.46532285e-01 2.73731709e-01 3.46532285e-01 3.46532285e-01
      3.17436963e-01 7.13792816e-02 6.61852062e-02 2.04452872e-01
      6.78515881e-02 3.34482156e-02 1.39819935e-01 2.89680362e-01
      2.14745700e-01 3.40454280e-02 3.36584985e-01 3.81588638e-01
      3.81588638e-01 9.35595185e-02 1.85743496e-02 3.25526237e-01
      3.81588638e-01 1.67224109e-01 3.11031118e-02 3.81588638e-01</_>
    <_>
      1.04324959e-01 1.37022391e-01 3.31032723e-01 3.31032723e-01
      2.00369567e-01 2.25750282e-01 3.31032723e-01 3.31032723e-01
      9.78412703e-02 6.33986071e-02 2.52888471e-01 2.74040759e-01
      2.40881830e-01 8.80861282e-02 3.31032723e-01 3.31032723e-01
      3.49990100e-01 3.22628140e-01 3.49990100e-01 3.49990100e-01
      1.49731740e-01 1.11099400e-01 7.66608566e-02 1.35652930e-01
      3.49990100e-01 1.39820084e-01 3.49990100e-01 3.49990100e-01
      1.08505018e-01 5.34018241e-02 1.45637646e-01 2.07435623e-01
      1.28332451e-01 6.45276681e-02 2.35577345e-01 3.89911979e-01
      1.84141308e-01 9.26850513e-02 3.89978051e-01 3.89978051e-01
      7.18825310e-02 4.38530259e-02 1.58436280e-02 3.93627398e-02
      3.89978051e-01 3.89978051e-01 2.31358215e-01 2.33871177e-01</_>
    <_>
      2.10872665e-02 9.18129012e-02 3.12115550e-01 3.12115550e-01
      6.77082315e-02 1.32555515e-01 3.12115550e-01 3.12115550e-01
      3.12115550e-01 9.85459313e-02 2.53935009e-01 3.12115550e-01
      2.65236914e-01 2.04884604e-01 3.12115550e-01 3.12115550e-01
      2.93147683e-01 2.40343973e-01 2.96606213e-01 2.96606213e-01
      2.96606213e-01 1.62977815e-01 3.73091996e-02 2.96606213e-01
      2.96606213e-01 2.73773193e-01 2.96606213e-01 2.96606213e-01
      2.79948384e-01 8.54962692e-02 3.82471867e-02 2.17852309e-01
      3.36254448e-01 1.51685163e-01 1.82829741e-02 3.36254448e-01
      3.36254448e-01 8.75408277e-02 2.84704775e-01 3.36254448e-01
      3.23478013e-01 5.79225421e-02 1.45470956e-02 2.51687169e-01
      3.01341861e-01 1.87300801e-01 1.90799594e-01 3.13791573e-01</_>
    <_>
      2.66316570e-02 1.53031081e-01 3.04329187e-01 2.20552579e-01
      3.87683026e-02 2.82529116e-01 3.04329187e-01 3.04329187e-01
      3.04329187e-01 9.65480357e-02 1.41830474e-01 3.04329187e-01
      3.04329187e-01 2.69248456e-01 3.04329187e-01 3.04329187e-01
      1.56259432e-01 2.96899855e-01 2.96899855e-01 2.96899855e-01
      2.96899855e-01 1.46887988e-01 1.20195232e-01 2.96899855e-01
      2.73015559e-01 2.96899855e-01 2.96899855e-01 2.96899855e-01
      2.65318662e-01 8.97138044e-02 8.28335360e-02 2.67498791e-01
      3.33708376e-01 1.00025140e-01 3.01160663e-02 3.33708376e-01
      3.33708376e-01 7.13801458e-02 1.67372078e-01 3.33708376e-01
      3.33708376e-01 5.37836961e-02 2.46300120e-02 3.33708376e-01
      3.33708376e-01 1.92695946e-01 1.45339936e-01 3.33708376e-01</_>
    <_>
      2.50893887e-02 1.50379404e-01 3.01844984e-01 3.00087571e-01
      5.05494699e-02 2.33658984e-01 3.01844984e-01 3.01844984e-01
      3.01844984e-01 1.00961886e-01 1.71581060e-01 3.01844984e-01
      2.97568113e-01 2.46136233e-01 3.01844984e-01 3.01844984e-01
      2.08304986e-01 2.88788676e-01 2.89932400e-01 2.89932400e-01
      2.89932400e-01 1.37119025e-01 8.89860541e-02 2.89932400e-01
      2.89932400e-01 2.89932400e-01 2.89932400e-01 2.89932400e-01
      2.89256275e-01 8.96601379e-02 7.24168122e-02 2.72312462e-01
      3.34401041e-01 9.08357576e-02 3.84210572e-02 3.34401041e-01
      3.34401041e-01 6.79160282e-02 1.56808898e-01 3.34401041e-01
      3.34401041e-01 5.19654937e-02 3.20667438e-02 3.34401041e-01
      3.34401041e-01 1.90696239e-01 1.51801065e-01 3.34401041e-01</_>
    <_>
      7.30463862e-02 2.69992761e-02 3.14479560e-01 3.14479560e-01
      2.15446293e-01 1.46500126e-01 3.14479560e-01 3.14479560e-01
      2.77333379e-01 1.99306175e-01 1.71040386e-01 2.18981311e-01
      3.14479560e-01 1.91800967e-01 3.14479560e-01 3.14479560e-01
      3.50884527e-01 3.50884527e-01 3.50884527e-01 3.50884527e-01
      2.04706579e-01 1.51848778e-01 5.28428033e-02 9.63227004e-02
      3.50884527e-01 1.91854402e-01 3.50884527e-01 3.50884527e-01
      6.92443922e-02 1.42362807e-02 5.37548363e-02 1.13692537e-01
      3.59563023e-01 2.16487929e-01 1.18364133e-01 2.50858665e-01
      2.11689278e-01 1.38245627e-01 3.62754434e-01 3.62754434e-01
      1.51748881e-01 2.52316855e-02 8.02944154e-02 2.20557898e-01
      3.62754434e-01 3.62754434e-01 1.92199647e-01 1.93126336e-01</_>
    <_>
      1.54364914e-01 3.64226960e-02 3.13367724e-01 3.13367724e-01
      2.99655020e-01 1.11531742e-01 3.13367724e-01 3.13367724e-01
      2.02696383e-01 1.26865029e-01 1.81656539e-01 2.70621926e-01
      3.13367724e-01 1.36638507e-01 3.13367724e-01 3.13367724e-01
      3.42061609e-01 3.01902950e-01 3.42061609e-01 3.42061609e-01
      2.43967146e-01 2.04997733e-01 7.91942775e-02 1.08071662e-01
      3.42061609e-01 1.36521533e-01 3.42061609e-01 3.42061609e-01
      1.30271584e-01 3.51353548e-02 9.84698609e-02 1.93300590e-01
      3.32915872e-01 3.32915872e-01 1.52366132e-01 2.93502748e-01
      3.32915872e-01 1.29701599e-01 3.32915872e-01 3.32915872e-01
      2.60203421e-01 1.61123760e-02 8.33413750e-02 3.32915872e-01
      2.59710521e-01 1.45305157e-01 8.34877416e-02 1.87215090e-01</_>
    <_>
      2.58039199e-02 7.38729984e-02 3.27317089e-01 3.27317089e-01
      1.22919686e-01 1.49435595e-01 3.27317089e-01 3.27317089e-01
      1.63665071e-01 8.67816880e-02 2.52504438e-01 3.01662683e-01
      2.66536891e-01 2.24118859e-01 3.27317089e-01 3.27317089e-01
      3.00869972e-01 2.87780941e-01 3.00869972e-01 3.00869972e-01
      3.00869972e-01 2.18402162e-01 6.12041093e-02 3.00869972e-01
      3.00869972e-01 2.96469808e-01 3.00869972e-01 3.00869972e-01
      1.68640837e-01 6.59157112e-02 3.54797058e-02 1.28882140e-01
      3.65184575e-01 2.56295204e-01 9.88240093e-02 3.65184575e-01
      3.65184575e-01 1.19580396e-01 3.65184575e-01 3.65184575e-01
      1.76857978e-01 5.22330552e-02 2.76984796e-02 1.35869369e-01
      1.68685704e-01 1.21751457e-01 2.45820507e-01 2.87852705e-01</_>
    <_>
      1.63570181e-01 1.83479674e-02 3.36184531e-01 3.36184531e-01
      2.81599462e-01 1.11093082e-01 3.36184531e-01 3.36184531e-01
      3.34208012e-02 2.42378823e-02 5.66442385e-02 7.94220716e-02
      3.33358586e-01 2.78280973e-01 3.36184531e-01 3.36184531e-01
      2.64901280e-01 2.30235875e-01 3.00981253e-01 3.00981253e-01
      1.72085613e-01 1.95112929e-01 2.12052360e-01 1.85870185e-01
      3.00981253e-01 3.00981253e-01 3.00981253e-01 3.00981253e-01
      2.24962652e-01 1.85230970e-01 2.14478657e-01 2.28378370e-01
      2.53701627e-01 1.74010694e-01 7.72181004e-02 1.61049500e-01
      1.62957668e-01 2.51144022e-01 3.12925756e-01 3.12925756e-01
      3.12925756e-01 4.80869487e-02 6.01296797e-02 3.12925756e-01
      3.12925756e-01 3.12925756e-01 3.02079439e-01 3.09815705e-01</_>
    <_>
      3.54862139e-02 5.79292178e-02 3.29782009e-01 3.29782009e-01
      1.23358272e-01 1.57024473e-01 3.29782009e-01 3.29782009e-01
      1.38975456e-01 9.69469622e-02 2.14118928e-01 2.37358928e-01
      2.98675984e-01 2.82085896e-01 3.29782009e-01 3.29782009e-01
      3.01170021e-01 2.95864731e-01 3.01170021e-01 3.01170021e-01
      3.01170021e-01 1.88128039e-01 3.33182588e-02 3.01170021e-01
      3.01170021e-01 3.01170021e-01 3.01170021e-01 3.01170021e-01
      1.74024850e-01 5.20571619e-02 2.87970118e-02 1.50990397e-01
      3.42567563e-01 1.67063147e-01 1.76970232e-02 3.42567563e-01
      3.42567563e-01 1.25522643e-01 3.42567563e-01 3.42567563e-01
      2.02091485e-01 2.72888541e-02 1.11916251e-02 1.86035872e-01
      3.26985091e-01 2.89720058e-01 2.05089033e-01 2.37900436e-01</_>
    <_>
      6.05973303e-02 5.86548597e-02 6.06442615e-02 6.63034841e-02
      3.40164721e-01 2.65971661e-01 2.70763248e-01 3.40164721e-01
      3.40164721e-01 3.40164721e-01 1.78603791e-02 1.94833979e-01
      3.40164721e-01 3.40164721e-01 5.35779893e-02 3.19279283e-01
      2.85680264e-01 2.85680264e-01 2.52038151e-01 2.85680264e-01
      2.85680264e-01 2.13599086e-01 1.55990586e-01 2.85680264e-01
      2.85680264e-01 2.85680264e-01 1.52314544e-01 2.85680264e-01
      2.34291986e-01 2.01494232e-01 2.05763683e-01 2.22997025e-01
      3.23205471e-01 1.48342595e-01 2.79972374e-01 3.23205471e-01
      3.23205471e-01 2.27839444e-02 3.23205471e-01 3.23205471e-01
      1.70603007e-01 1.35370985e-01 2.31227309e-01 2.59553522e-01
      3.23205471e-01 2.57999063e-01 7.94901028e-02 1.67164043e-01</_>
    <_>
      3.07787448e-01 3.05580586e-01 1.05269626e-01 2.07930386e-01
      3.07787448e-01 3.07787448e-01 1.78803951e-01 2.49988541e-01
      3.07787448e-01 3.07787448e-01 1.59793466e-01 1.87120289e-02
      3.07787448e-01 3.07787448e-01 2.10023537e-01 1.47096708e-01
      2.97326982e-01 2.97326982e-01 2.54099488e-01 2.97326982e-01
      1.15485065e-01 1.88102014e-02 8.71521011e-02 1.90722227e-01
      2.97326982e-01 2.97326982e-01 2.97326982e-01 2.97326982e-01
      2.97326982e-01 5.36101051e-02 2.76219606e-01 2.97326982e-01
      1.30178079e-01 2.58205235e-02 6.05531037e-02 1.67475119e-01
      3.38352829e-01 3.38352829e-01 1.31021783e-01 1.23750329e-01
      3.38352829e-01 9.24744830e-02 2.28243485e-01 3.38352829e-01
      3.38352829e-01 3.38352829e-01 2.29751930e-01 3.38352829e-01</_>
    <_>
      2.86244750e-01 1.83900431e-01 1.07002623e-01 2.30224088e-01
      3.28616947e-01 3.28616947e-01 1.43171445e-01 3.28616947e-01
      3.28616947e-01 3.28616947e-01 5.20807058e-02 4.03629094e-02
      3.28616947e-01 3.28616947e-01 1.23961799e-01 1.42753258e-01
      3.04470986e-01 3.04470986e-01 2.11151659e-01 3.04470986e-01
      1.04134880e-01 4.16395254e-02 6.53357357e-02 1.27223521e-01
      3.04470986e-01 3.04470986e-01 2.92134941e-01 3.04470986e-01
      3.04470986e-01 6.84008002e-02 2.96138257e-01 3.04470986e-01
      1.06234588e-01 1.42853577e-02 5.34238070e-02 1.45180494e-01
      3.47029656e-01 2.67441869e-01 1.02674261e-01 2.07581863e-01
      3.47029656e-01 1.51060104e-01 2.95383424e-01 3.47029656e-01
      3.47029656e-01 3.47029656e-01 1.98054314e-01 2.90705979e-01</_>
    <_>
      1.86639979e-01 1.16555534e-01 1.28459767e-01 2.00413480e-01
      3.39546949e-01 3.39546949e-01 1.89908162e-01 3.39546949e-01
      3.39546949e-01 3.39546949e-01 1.74434632e-02 7.45525435e-02
      3.39546949e-01 3.39546949e-01 1.01727173e-01 1.79442585e-01
      3.11578959e-01 3.11578959e-01 2.15441257e-01 3.11578959e-01
      1.80897892e-01 9.80970040e-02 7.61927664e-02 1.75562844e-01
      3.11578959e-01 3.11578959e-01 2.37896100e-01 3.11578959e-01
      2.38966331e-01 8.55731368e-02 2.66278923e-01 3.11578959e-01
      1.96890622e-01 1.59954969e-02 9.08498466e-02 2.79456168e-01
      3.30162793e-01 1.69079050e-01 1.24818102e-01 3.30162793e-01
      3.30162793e-01 1.41834691e-01 2.97631085e-01 3.30162793e-01
      3.30162793e-01 3.30162793e-01 1.09875530e-01 2.28787616e-01</_>
    <_>
      3.06887180e-01 2.75893301e-01 1.19916663e-01 2.45638534e-01
      3.06887180e-01 3.06887180e-01 1.85071811e-01 3.06887180e-01
      3.06887180e-01 3.06887180e-01 9.73484665e-02 2.20079720e-02
      3.06887180e-01 3.06887180e-01 1.68700412e-01 1.41378015e-01
      2.95771897e-01 2.95771897e-01 2.40245789e-01 2.95771897e-01
      1.85509011e-01 1.96556337e-02 7.00846687e-02 2.38349989e-01
      2.95771897e-01 2.95771897e-01 2.95771897e-01 2.95771897e-01
      2.95771897e-01 1.97902098e-02 2.34698087e-01 2.95771897e-01
      2.04495430e-01 2.57736705e-02 5.85257336e-02 2.41129428e-01
      3.34598631e-01 3.34598631e-01 7.57229105e-02 1.73417389e-01
      3.34598631e-01 6.28005043e-02 2.19219476e-01 3.34598631e-01
      3.34598631e-01 3.34598631e-01 1.45269379e-01 3.34598631e-01</_>
    <_>
      6.67483956e-02 5.96878342e-02 6.19783252e-02 5.43474592e-02
      3.26669753e-01 3.06362957e-01 3.26669753e-01 3.26669753e-01
      3.26669753e-01 3.26669753e-01 1.65288560e-02 1.35402769e-01
      3.26669753e-01 3.26669753e-01 1.25509501e-01 3.26669753e-01
      2.93391973e-01 2.93391973e-01 2.93391973e-01 2.93391973e-01
      2.93391973e-01 1.11550041e-01 2.22029939e-01 2.93391973e-01
      2.93391973e-01 2.93391973e-01 2.14225769e-01 2.93391973e-01
      1.65677801e-01 9.27250832e-02 1.46685705e-01 2.39084557e-01
      3.42914969e-01 1.33835040e-02 2.18125582e-01 3.42914969e-01
      3.42914969e-01 7.49106035e-02 2.12691993e-01 3.42914969e-01
      1.77470744e-01 6.33266270e-02 1.29351065e-01 2.59713680e-01
      3.42914969e-01 3.42914969e-01 5.65528832e-02 2.63695300e-01</_>
    <_>
      3.07496399e-01 2.99972266e-01 9.17928219e-02 2.43103072e-01
      3.07496399e-01 3.07496399e-01 1.63680315e-01 2.55888730e-01
      3.07496399e-01 3.07496399e-01 1.05804488e-01 2.47835685e-02
      3.07496399e-01 3.07496399e-01 1.82935193e-01 1.99990720e-01
      2.99646616e-01 2.99646616e-01 2.33690828e-01 2.99646616e-01
      8.59041661e-02 2.51305532e-02 5.36832362e-02 1.11454099e-01
      2.99646616e-01 2.99646616e-01 2.99646616e-01 2.99646616e-01
      2.99646616e-01 1.45596638e-01 2.99646616e-01 2.99646616e-01
      9.80295986e-02 4.84790578e-02 4.00290973e-02 8.57302397e-02
      3.48870873e-01 3.48870873e-01 5.92228062e-02 7.29321167e-02
      3.48870873e-01 3.22920442e-01 3.00442874e-01 3.48870873e-01
      3.48870873e-01 3.48870873e-01 1.06832489e-01 1.74796358e-01</_>
    <_>
      3.07860881e-01 2.08696112e-01 9.75588113e-02 3.07860881e-01
      3.07860881e-01 3.07860881e-01 1.81461200e-01 2.81718433e-01
      3.07860881e-01 3.07860881e-01 1.31599247e-01 1.88585240e-02
      3.07860881e-01 3.07860881e-01 1.89184189e-01 1.40951380e-01
      2.99674779e-01 2.99674779e-01 2.38084450e-01 2.99674779e-01
      1.24798179e-01 2.91747320e-02 5.52552417e-02 1.48594037e-01
      2.99674779e-01 2.99674779e-01 2.99674779e-01 2.99674779e-01
      2.99674779e-01 1.34718761e-01 2.69013643e-01 2.99674779e-01
      1.39405057e-01 5.20558953e-02 4.86635268e-02 1.31495461e-01
      3.38215798e-01 3.38215798e-01 7.56819546e-02 7.95623511e-02
      3.38215798e-01 3.01938862e-01 3.01947773e-01 3.38215798e-01
      3.38215798e-01 3.38215798e-01 1.54382989e-01 2.24158332e-01</_>
    <_>
      2.84972578e-01 2.84972578e-01 1.33518428e-01 2.84972578e-01
      2.84972578e-01 2.44170174e-01 2.00201362e-01 2.84972578e-01
      2.84972578e-01 2.84972578e-01 2.76101500e-01 1.33071080e-01
      1.46706685e-01 2.84972578e-01 2.84972578e-01 1.82423726e-01
      3.44027013e-01 3.44027013e-01 3.44027013e-01 3.44027013e-01
      3.07439774e-01 4.35075834e-02 7.16835214e-03 1.31036922e-01
      1.96641430e-01 3.44027013e-01 3.44027013e-01 3.44027013e-01
      6.34509102e-02 1.55278780e-02 3.95311117e-02 9.97423753e-02
      3.37706149e-01 4.58826683e-02 9.42854304e-03 1.44962043e-01
      4.10133094e-01 1.39732122e-01 4.71377820e-02 1.55967534e-01
      1.48890331e-01 1.89126223e-01 6.60756007e-02 7.46233091e-02
      4.10133094e-01 4.10133094e-01 4.10133094e-01 2.68082231e-01</_>
    <_>
      2.87981331e-01 2.87981331e-01 1.21823974e-01 2.67390341e-01
      2.87981331e-01 2.87981331e-01 1.32396951e-01 2.87981331e-01
      2.87981331e-01 2.87981331e-01 2.28911415e-01 1.08195826e-01
      1.92870826e-01 2.87981331e-01 2.87981331e-01 2.13423148e-01
      3.59767824e-01 3.59767824e-01 3.16238523e-01 3.59767824e-01
      1.45615056e-01 8.79765451e-02 3.52845490e-02 8.78425911e-02
      2.64581561e-01 3.59767824e-01 3.59767824e-01 3.51396292e-01
      1.19707264e-01 3.41060683e-02 1.23164812e-02 4.69241627e-02
      3.05348545e-01 3.31730656e-02 1.59591753e-02 2.13637277e-01
      2.39883766e-01 5.69607206e-02 1.32187260e-02 1.11524969e-01
      4.37643141e-01 1.38314709e-01 1.43516166e-02 2.37502545e-01
      4.37643141e-01 4.37643141e-01 8.92634466e-02 3.51690859e-01</_>
    <_>
      2.89132446e-01 1.29975274e-01 1.31681472e-01 2.89132446e-01
      2.89132446e-01 1.82019502e-01 1.68479070e-01 2.89132446e-01
      2.89132446e-01 1.57344297e-01 2.47664168e-01 2.89132446e-01
      2.89132446e-01 2.50774503e-01 2.89132446e-01 2.89132446e-01
      3.30860615e-01 3.30860615e-01 2.75594980e-01 3.30860615e-01
      2.23768011e-01 2.00359687e-01 4.37072664e-02 9.12603289e-02
      2.98391134e-01 3.30860615e-01 3.30860615e-01 3.30860615e-01
      6.79894388e-02 1.01917505e-01 1.54871315e-01 1.88260496e-01
      3.87199610e-01 1.59123093e-01 2.55940072e-02 1.86622903e-01
      1.45269975e-01 4.57526781e-02 3.28608118e-02 9.27395448e-02
      3.87199610e-01 2.87907034e-01 1.23675428e-01 1.58746660e-01
      3.87199610e-01 3.87199610e-01 1.71601549e-01 3.87199610e-01</_>
    <_>
      3.01542014e-01 3.01542014e-01 1.67306975e-01 1.40054390e-01
      3.01542014e-01 2.70505846e-01 1.53092474e-01 3.01542014e-01
      2.30494589e-01 3.01542014e-01 2.96390861e-01 6.89770877e-02
      2.39893794e-01 3.01542014e-01 2.73764372e-01 1.70219213e-01
      3.37615013e-01 3.37615013e-01 3.37615013e-01 3.37615013e-01
      9.42294747e-02 1.42940089e-01 9.54613313e-02 9.48340967e-02
      3.32345188e-01 3.37615013e-01 3.37615013e-01 3.23276103e-01
      5.49476407e-02 1.74805313e-01 1.11484282e-01 6.58803657e-02
      1.98503241e-01 8.90090317e-02 7.43895993e-02 2.57251650e-01
      3.33741635e-01 5.02268411e-02 7.75441229e-02 3.61622632e-01
      2.64367253e-01 1.19482636e-01 6.49676546e-02 1.23238921e-01
      3.61622632e-01 3.61622632e-01 3.61622632e-01 3.61622632e-01</_>
    <_>
      2.86237836e-01 2.86237836e-01 2.37399489e-01 1.63317725e-01
      2.81256318e-01 2.77620912e-01 2.50180960e-01 2.86237836e-01
      2.80243456e-01 2.86237836e-01 2.24479303e-01 9.71615389e-02
      1.89793482e-01 2.86237836e-01 2.79680043e-01 1.81848049e-01
      3.20832223e-01 3.46150130e-01 3.46150130e-01 3.46150130e-01
      1.46799505e-01 1.77103668e-01 1.08260676e-01 1.33145019e-01
      2.88224369e-01 3.46150130e-01 3.46150130e-01 3.17005843e-01
      5.15741184e-02 1.29142806e-01 7.54917935e-02 5.95156103e-02
      3.01534563e-01 1.61959320e-01 4.22303826e-02 1.53956592e-01
      3.30398470e-01 3.30398470e-01 3.30398470e-01 2.46884868e-01
      1.17367096e-01 2.56872866e-02 2.33811084e-02 1.18250482e-01
      3.30398470e-01 3.30398470e-01 3.30398470e-01 3.30398470e-01</_>
    <_>
      3.01117867e-01 3.01117867e-01 2.18394160e-01 1.51590809e-01
      3.01117867e-01 3.01117867e-01 2.07990587e-01 3.01117867e-01
      2.79145032e-01 3.01117867e-01 1.99541911e-01 8.88956934e-02
      1.47549018e-01 3.01117867e-01 2.85796225e-01 1.38779968e-01
      3.51304770e-01 3.51304770e-01 3.51304770e-01 3.51304770e-01
      1.13774367e-01 1.97060183e-01 1.29760057e-01 1.17265433e-01
      2.33727917e-01 3.51304770e-01 3.51304770e-01 2.65085101e-01
      5.56145720e-02 1.76234797e-01 1.05066590e-01 5.95324896e-02
      1.78851157e-01 1.08638629e-01 4.09261733e-02 1.18355371e-01
      3.43723536e-01 3.43723536e-01 3.04387718e-01 3.30147088e-01
      1.28136724e-01 3.26992124e-02 2.05351561e-02 9.30511430e-02
      3.43723536e-01 3.43723536e-01 3.43723536e-01 3.43723536e-01</_>
    <_>
      2.77846545e-01 2.77846545e-01 4.89117689e-02 2.04566836e-01
      2.77846545e-01 2.77846545e-01 1.65766910e-01 1.72054872e-01
      2.77846545e-01 2.77846545e-01 2.75080889e-01 2.40928441e-01
      2.77846545e-01 2.77846545e-01 2.77846545e-01 2.59610474e-01
      3.12563002e-01 3.12563002e-01 2.89177984e-01 2.51648903e-01
      1.98914289e-01 4.05261777e-02 4.55237133e-03 1.54523164e-01
      3.12563002e-01 3.12563002e-01 3.12563002e-01 3.12563002e-01
      3.12563002e-01 2.30088159e-02 5.21905124e-02 3.12563002e-01
      2.55803138e-01 6.08747005e-02 6.63388334e-03 1.95103332e-01
      2.70809323e-01 1.33769616e-01 3.03817019e-02 1.50633588e-01
      3.84004653e-01 1.74945831e-01 4.80503216e-02 3.84004653e-01
      3.84004653e-01 3.84004653e-01 6.20890036e-02 3.84004653e-01</_>
    <_>
      2.78633684e-01 2.78633684e-01 6.64714798e-02 2.48310193e-01
      2.78633684e-01 2.78633684e-01 1.65065885e-01 2.59642392e-01
      2.78633684e-01 2.78633684e-01 2.40583137e-01 1.43904805e-01
      2.78633684e-01 2.78633684e-01 2.78633684e-01 2.43225962e-01
      3.17539781e-01 3.17539781e-01 3.17539781e-01 2.97901928e-01
      9.25604552e-02 3.88763025e-02 1.50773088e-02 6.64504394e-02
      3.17539781e-01 3.17539781e-01 3.17539781e-01 3.17539781e-01
      2.85269082e-01 1.82858519e-02 7.06745759e-02 3.17539781e-01
      1.14464059e-01 1.20504620e-02 8.51855555e-04 9.49537382e-02
      2.94692755e-01 3.37873012e-01 1.37179881e-01 9.58286226e-02
      3.82573992e-01 1.82500213e-01 4.47502285e-02 3.82573992e-01
      3.82573992e-01 3.82573992e-01 2.13171169e-01 2.80549526e-01</_>
    <_>
      2.82124460e-01 2.82124460e-01 2.17328623e-01 2.23833427e-01
      2.82124460e-01 2.35641733e-01 1.96164861e-01 2.82124460e-01
      2.82124460e-01 2.82124460e-01 2.82124460e-01 8.53903070e-02
      2.09349364e-01 2.82124460e-01 2.82124460e-01 1.95891276e-01
      3.48066419e-01 3.48066419e-01 3.48066419e-01 3.48066419e-01
      6.69505224e-02 1.13146670e-01 7.86425024e-02 3.85002606e-02
      2.63310045e-01 3.48066419e-01 3.48066419e-01 3.48066419e-01
      5.41242249e-02 1.34436980e-01 1.62014842e-01 8.32810700e-02
      1.45664020e-02 1.40599879e-02 7.39587331e-03 8.01430922e-03
      2.27640659e-01 4.51052189e-01 2.45335013e-01 2.73470450e-02
      1.75907537e-01 9.52648073e-02 3.07443123e-02 1.04680605e-01
      4.51052189e-01 4.51052189e-01 4.51052189e-01 1.28429189e-01</_>
    <_>
      2.79512405e-01 2.40726560e-01 3.57362479e-02 2.05490828e-01
      2.79512405e-01 2.79512405e-01 8.92150328e-02 2.63809741e-01
      2.79512405e-01 2.79512405e-01 2.22217187e-01 2.61005998e-01
      2.79512405e-01 2.78418630e-01 2.76201546e-01 2.79512405e-01
      3.21593642e-01 3.21593642e-01 1.86176896e-01 3.21593642e-01
      3.21593642e-01 1.92651659e-01 2.11987160e-02 2.29651958e-01
      3.21593642e-01 3.21593642e-01 3.21593642e-01 3.21593642e-01
      7.28639513e-02 1.06395938e-01 1.40975952e-01 8.90921131e-02
      3.34491730e-01 2.56363899e-01 1.08791357e-02 3.34491730e-01
      3.34491730e-01 2.38966033e-01 9.04332474e-02 2.25693822e-01
      2.61023641e-01 9.17031914e-02 1.62744727e-02 1.51427418e-01
      3.34491730e-01 3.34491730e-01 3.04307997e-01 2.50662148e-01</_>
    <_>
      2.69254208e-01 2.69254208e-01 2.61067986e-01 2.08873793e-01
      2.69254208e-01 2.69254208e-01 2.69254208e-01 2.69254208e-01
      2.51166105e-01 8.69970843e-02 2.69254208e-01 2.69254208e-01
      2.69254208e-01 1.31891862e-01 2.69254208e-01 2.69254208e-01
      3.16328704e-01 3.16328704e-01 3.16328704e-01 3.16328704e-01
      2.76795655e-01 2.04108283e-01 1.45344630e-01 2.69253552e-01
      3.16328704e-01 2.06595600e-01 3.16328704e-01 3.16328704e-01
      1.03394441e-01 3.08911595e-02 7.67076388e-02 1.55831382e-01
      3.58509392e-01 1.17939793e-01 2.21882865e-01 3.58509392e-01
      3.58509392e-01 3.58509392e-01 3.58509392e-01 3.58509392e-01
      1.42547280e-01 4.21273848e-03 4.64784838e-02 2.02245697e-01
      1.79177046e-01 9.69825685e-02 1.24153301e-01 2.04394728e-01</_>
    <_>
      1.09956078e-01 2.85388082e-01 2.85388082e-01 2.04269037e-01
      1.79376394e-01 2.85388082e-01 2.85388082e-01 2.03983322e-01
      1.41028672e-01 2.85388082e-01 2.85388082e-01 2.28174642e-01
      2.85388082e-01 2.85388082e-01 2.85388082e-01 2.54120290e-01
      3.39145541e-01 3.39145541e-01 3.39145541e-01 3.39145541e-01
      7.22458363e-02 4.26986888e-02 2.59761624e-02 5.17786816e-02
      3.39145541e-01 3.39145541e-01 3.39145541e-01 3.39145541e-01
      1.66649461e-01 6.05360419e-02 6.91393092e-02 1.72738537e-01
      1.14364065e-01 8.79672170e-02 1.22397482e-01 1.45834237e-01
      1.88271597e-01 1.74678341e-01 3.33794862e-01 3.31561446e-01
      3.48734796e-01 2.12482616e-01 6.64342269e-02 3.48734796e-01
      3.48734796e-01 3.39352965e-01 3.08569539e-02 3.48734796e-01</_>
    <_>
      2.68284619e-01 2.68284619e-01 2.68284619e-01 2.68284619e-01
      2.68284619e-01 2.68284619e-01 2.68284619e-01 2.68284619e-01
      2.39766419e-01 5.18491678e-02 2.54788578e-01 2.68284619e-01
      2.68284619e-01 9.22270119e-02 2.68284619e-01 2.68284619e-01
      2.94635862e-01 2.94635862e-01 2.94635862e-01 2.94635862e-01
      2.94635862e-01 2.94635862e-01 1.93870902e-01 1.36281863e-01
      2.94635862e-01 2.13718012e-01 2.94635862e-01 2.94635862e-01
      1.68099865e-01 7.44164735e-02 1.23577937e-01 2.54680812e-01
      3.30608279e-01 2.08407283e-01 2.97413170e-01 3.30608279e-01
      3.30608279e-01 2.38380730e-01 3.30608279e-01 3.30608279e-01
      1.92970753e-01 7.52844475e-03 1.03493616e-01 3.26024085e-01
      1.48357779e-01 2.79377867e-02 1.24533921e-01 2.62445688e-01</_>
    <_>
      9.72060263e-02 1.63754836e-01 2.78469145e-01 2.59641051e-01
      1.80230036e-01 2.78469145e-01 2.78469145e-01 2.78469145e-01
      1.57567739e-01 2.46531770e-01 2.78469145e-01 2.78469145e-01
      2.78469145e-01 2.78469145e-01 2.78469145e-01 2.78469145e-01
      2.67815530e-01 3.12062562e-01 3.12062562e-01 3.12062562e-01
      5.71952723e-02 2.09514704e-02 3.25688049e-02 6.57436624e-02
      3.12062562e-01 3.12062562e-01 3.12062562e-01 3.12062562e-01
      2.93985069e-01 1.56679571e-01 1.77830100e-01 3.02957118e-01
      8.29068422e-02 1.36751654e-02 6.80363085e-03 7.24720508e-02
      9.70070064e-02 3.00964601e-02 1.92576442e-02 8.17884952e-02
      4.03465480e-01 2.86185265e-01 2.62596458e-01 4.03465480e-01
      4.03465480e-01 4.03465480e-01 3.81205939e-02 4.03465480e-01</_>
    <_>
      9.70140472e-02 1.72630504e-01 2.79358357e-01 2.68318057e-01
      1.83073893e-01 2.79358357e-01 2.79358357e-01 2.79358357e-01
      1.43964961e-01 2.26600751e-01 2.79358357e-01 2.79358357e-01
      2.79358357e-01 2.79358357e-01 2.79358357e-01 2.79358357e-01
      2.66977757e-01 3.09950650e-01 3.09950650e-01 3.09950650e-01
      6.09967485e-02 2.13291906e-02 2.69593988e-02 6.47485480e-02
      3.09950650e-01 3.09950650e-01 3.09950650e-01 3.09950650e-01
      3.09950650e-01 1.66806310e-01 1.71193659e-01 3.01403642e-01
      7.61781409e-02 1.76313631e-02 5.44846011e-03 6.02069721e-02
      1.31998926e-01 4.81945761e-02 2.04798728e-02 9.13863704e-02
      4.05032605e-01 2.94184327e-01 2.22043589e-01 4.05032605e-01
      4.05032605e-01 4.05032605e-01 3.95379476e-02 4.05032605e-01</_>
    <_>
      1.59314200e-01 2.73588657e-01 2.73588657e-01 2.39750057e-01
      2.73588657e-01 2.73588657e-01 2.37888575e-01 1.49556667e-01
      2.63801396e-01 2.73588657e-01 2.73588657e-01 2.73588657e-01
      2.73588657e-01 2.73588657e-01 1.31711945e-01 2.73588657e-01
      3.08231533e-01 3.08231533e-01 3.08231533e-01 2.57184923e-01
      2.18863428e-01 3.08231533e-01 3.08231533e-01 2.13873610e-01
      3.08231533e-01 3.08231533e-01 1.38321504e-01 3.08231533e-01
      1.41546831e-01 1.47937909e-01 9.53500792e-02 8.32699686e-02
      3.53482842e-01 1.36380836e-01 3.66265625e-01 3.84645879e-01
      3.84645879e-01 2.29343086e-01 3.84645879e-01 3.84645879e-01
      8.78282860e-02 3.35361175e-02 3.72777730e-02 9.19301584e-02
      1.72037214e-01 5.11779189e-02 3.67293321e-02 1.47663370e-01</_>
    <_>
      8.14647153e-02 2.68753916e-01 2.68753916e-01 2.45830745e-01
      2.63453752e-01 2.68753916e-01 2.68753916e-01 2.68753916e-01
      1.31493300e-01 2.68753916e-01 2.68753916e-01 2.68753916e-01
      2.68753916e-01 2.68753916e-01 2.21430153e-01 2.68753916e-01
      3.37465078e-01 3.37465078e-01 3.37465078e-01 3.37465078e-01
      1.27387851e-01 1.24365829e-01 7.00071380e-02 6.73551559e-02
      3.37465078e-01 3.37465078e-01 3.09875488e-01 3.37465078e-01
      1.40540838e-01 1.34058222e-01 1.09859087e-01 1.11812375e-01
      1.05645068e-01 5.10402136e-02 3.29936519e-02 8.30729008e-02
      2.45025933e-01 1.31858960e-01 3.52107435e-01 3.52107435e-01
      3.52107435e-01 2.53078878e-01 1.08650267e-01 2.75712132e-01
      3.52107435e-01 3.52107435e-01 3.94099504e-02 3.52107435e-01</_>
    <_>
      1.41918123e-01 2.71363318e-01 2.71363318e-01 2.52771765e-01
      2.71363318e-01 2.71363318e-01 2.71363318e-01 1.93852901e-01
      2.36661434e-01 2.71363318e-01 2.71363318e-01 2.71363318e-01
      2.71363318e-01 2.71363318e-01 1.57906592e-01 2.41560057e-01
      3.45140129e-01 3.45140129e-01 3.45140129e-01 3.45140129e-01
      7.80299529e-02 5.57491221e-02 5.90922572e-02 8.11532140e-02
      3.45140129e-01 3.45140129e-01 3.15977454e-01 3.45140129e-01
      8.28772262e-02 6.91272393e-02 1.22865945e-01 1.29770309e-01
      2.90638030e-01 6.80445209e-02 1.56565219e-01 3.84822607e-01
      3.98205638e-01 2.91127771e-01 3.98205638e-01 3.98205638e-01
      1.86478138e-01 8.54209363e-02 1.33946911e-01 2.21126005e-01
      1.91153258e-01 9.30727422e-02 4.86936942e-02 1.31830201e-01</_>
    <_>
      1.76174581e-01 2.66410202e-01 2.66410202e-01 1.93371847e-01
      2.66410202e-01 2.66410202e-01 2.66410202e-01 2.51271904e-01
      2.66410202e-01 2.66410202e-01 2.66410202e-01 2.66410202e-01
      2.66410202e-01 2.66410202e-01 1.18647069e-01 2.66410202e-01
      3.47939014e-01 3.47939014e-01 3.47939014e-01 3.47939014e-01
      1.60282210e-01 1.00029141e-01 6.71009347e-02 1.25600621e-01
      3.47939014e-01 3.47939014e-01 2.48509601e-01 3.47939014e-01
      8.88374299e-02 7.35670924e-02 8.79636258e-02 1.01585284e-01
      3.37802589e-01 5.87252043e-02 1.65188313e-01 4.14792359e-01
      4.14792359e-01 1.73171073e-01 4.14792359e-01 4.14792359e-01
      1.49488598e-01 5.41313179e-02 7.58532807e-02 1.77912876e-01
      1.96782306e-01 6.07124604e-02 4.64692600e-02 1.59870505e-01</_>
    <_>
      1.33290023e-01 2.79434413e-01 2.79434413e-01 2.79434413e-01
      1.81188628e-01 2.79434413e-01 2.79434413e-01 2.79434413e-01
      2.48811513e-01 1.09413818e-01 2.79434413e-01 2.79434413e-01
      2.77176589e-01 1.22762963e-01 2.79434413e-01 2.79434413e-01
      3.00055861e-01 3.52395147e-01 3.52395147e-01 3.52395147e-01
      7.45964274e-02 7.45665794e-03 3.92069072e-02 1.30241320e-01
      3.52395147e-01 3.10105860e-01 3.52395147e-01 3.52395147e-01
      9.85456854e-02 2.96815801e-02 8.36219192e-02 1.53234735e-01
      3.25182438e-01 1.43764131e-02 1.91489264e-01 3.78945947e-01
      3.78945947e-01 9.31031704e-02 3.78945947e-01 3.78945947e-01
      2.67707527e-01 6.76362216e-03 2.51356550e-02 3.23937505e-01
      1.75876677e-01 9.93916020e-03 6.00517653e-02 2.42093921e-01</_>
    <_>
      1.55022249e-01 2.89049059e-01 2.89049059e-01 2.07185194e-01
      2.89049059e-01 2.89049059e-01 2.89049059e-01 2.16185883e-01
      2.01961115e-01 2.89049059e-01 2.89049059e-01 1.61299750e-01
      2.89049059e-01 2.89049059e-01 1.95451126e-01 1.62685379e-01
      3.52699816e-01 3.52699816e-01 3.52699816e-01 3.52699816e-01
      1.61419526e-01 1.43516779e-01 1.35270178e-01 1.61367416e-01
      3.52699816e-01 3.52699816e-01 2.09343225e-01 2.66612589e-01
      1.22082524e-01 8.82022604e-02 8.78150165e-02 1.17474057e-01
      2.87499040e-01 6.00320511e-02 1.32813871e-01 3.02921176e-01
      3.02921176e-01 2.78460413e-01 3.02921176e-01 3.02921176e-01
      3.02921176e-01 1.38812214e-01 5.88581450e-02 2.33723283e-01
      3.02921176e-01 3.02921176e-01 6.39074519e-02 3.02921176e-01</_>
    <_>
      2.39886001e-01 2.80590087e-01 2.80590087e-01 1.75481111e-01
      2.80590087e-01 2.80590087e-01 2.80590087e-01 2.80590087e-01
      2.80590087e-01 1.19904190e-01 2.00390369e-01 2.80590087e-01
      2.80590087e-01 1.53699875e-01 2.08307788e-01 2.80590087e-01
      2.85572737e-01 2.85572737e-01 2.85572737e-01 2.85572737e-01
      2.85572737e-01 2.76366234e-01 2.85572737e-01 2.85572737e-01
      2.85572737e-01 2.29294106e-01 2.62750864e-01 2.85572737e-01
      1.58072039e-01 1.06812313e-01 9.78552252e-02 1.38624758e-01
      3.51483911e-01 2.47282356e-01 3.51483911e-01 3.51483911e-01
      3.51483911e-01 3.31426769e-01 3.51483911e-01 3.51483911e-01
      1.41674519e-01 2.02566348e-02 4.00433540e-02 1.65539637e-01
      1.06282361e-01 2.09090803e-02 5.42450286e-02 1.41724944e-01</_></uncompressed_support_vectors>
  <decision_functions>
    <_>
      <sv_count>1</sv_count>
      <rho>3.5427657901184545e-01</rho>
      <alpha>
        1.</alpha>
      <index>
        0</index></_>
    <_>
      <sv_count>1</sv_count>
      <rho>2.7242060866683255e+00</rho>
      <alpha>
        1.</alpha>
      <index>
        1</index></_>
    <_>
      <sv_count>1</sv_count>
      <rho>9.8706072438058179e-01</rho>
      <alpha>
        1.</alpha>
      <index>
        2</index></_>
    <_>
      <sv_count>1</sv_count>
      <rho>2.0006097375681176e+00</rho>
      <alpha>
        1.</alpha>
      <index>
        3</index></_>
    <_>
      <sv_count>1</sv_count>
      <rho>1.0110881612831242e+00</rho>
      <alpha>
        1.</alpha>
      <index>
        4</index></_>
    <_>
      <sv_count>1</sv_count>
      <rho>-8.3630359601656035e-01</rho>
      <alpha>
        1.</alpha>
      <index>
        5</index></_></decision_functions></opencv_ml_svm>
</opencv_storage>
