<?xml version="1.0"?>
<opencv_storage>
<my_svm type_id="opencv-ml-svm">
  <svm_type>C_SVC</svm_type>
  <kernel><type>LINEAR</type></kernel>
  <C>240.</C>
  <term_criteria><epsilon>2.2204460492503131e-016</epsilon>
    <iterations>15000</iterations></term_criteria>
  <var_all>48</var_all>
  <var_count>48</var_count>
  <class_count>4</class_count>
  <class_labels type_id="opencv-matrix">
    <rows>1</rows>
    <cols>4</cols>
    <dt>i</dt>
    <data>
      0 1 2 9</data></class_labels>
  <sv_total>6</sv_total>
  <support_vectors>
    <_>
      3.67061853e-001 1.18955600e+000 2.88577676e-001 -5.20069122e-001
      5.91976382e-002 2.10111484e-001 -6.47119939e-001 -7.64949024e-001
      1.08532667e-001 1.08117294e+000 4.77438301e-001 3.55195031e-002
      -4.05452877e-001 -2.87342608e-001 -6.90650582e-001
      -5.33612549e-001 4.20454562e-001 3.97684485e-001 -1.48231015e-001
      -3.15249264e-001 4.34641950e-002 -2.28263125e-001 -2.31857806e-001
      2.12199345e-001 -1.17126286e-001 -5.43669045e-001 -8.69288802e-001
      1.24403514e-001 1.71852782e-001 1.31214829e-002 -2.10571870e-001
      2.81770229e-001 -1.34351790e-001 -5.36721408e-001 -8.90029967e-002
      2.55414277e-001 4.64704216e-001 7.03901649e-001 -6.76369295e-002
      -3.13305646e-001 -7.85804912e-002 3.29583138e-001 -1.35312945e-001
      -2.01566711e-001 -2.09061950e-002 1.86508566e-001 3.48070204e-001
      2.22817749e-001</_>
    <_>
      2.84500748e-001 1.22115374e+000 1.57442257e-001 -8.14913869e-001
      -6.93510100e-002 6.91813111e-001 -4.47074771e-001 -1.03094518e+000
      2.64265239e-002 1.02290142e+000 7.31720090e-001 4.09717001e-002
      -6.27186716e-001 -1.94614708e-001 -2.21416116e-001
      -5.22490561e-001 1.29554644e-001 3.69609743e-001 -2.40920410e-001
      -5.68689227e-001 1.71634421e-001 -1.35052189e-001 -3.64586830e-001
      -9.88109857e-002 -1.20264590e-001 -4.43396121e-001
      -3.02458107e-001 -5.99430464e-002 1.15150735e-002 3.55174243e-002
      -6.50518835e-002 2.49665394e-001 8.49796832e-002 -1.24708198e-001
      -2.47514527e-002 -9.05243307e-002 1.55684397e-001 2.26265505e-001
      -9.74509213e-003 1.14093147e-001 -1.70779005e-001 6.74798191e-002
      -4.97807227e-002 -3.55728835e-001 -1.80518553e-002 6.65050820e-002
      1.52968094e-001 -7.61372745e-002</_>
    <_>
      3.22550833e-001 4.14547265e-001 -1.57165051e-001 -7.20361471e-001
      1.01814337e-001 2.87500679e-001 -4.42210317e-001 -1.12442052e+000
      4.43974435e-001 3.81957769e-001 -3.31487358e-001 9.33261514e-001
      -1.55544549e-001 -8.12758327e-001 -1.08929431e+000
      -5.05735539e-002 4.16559994e-001 3.63020420e-001 -3.07581455e-001
      -8.26964259e-001 2.87984669e-001 3.88193205e-002 5.59889674e-002
      2.43613675e-001 -4.04325798e-002 -1.00781500e+000 -1.19110239e+000
      1.43374234e-001 2.91146159e-001 -1.36640683e-001 -1.32383734e-001
      6.81116581e-001 -2.71373272e-001 -2.34106734e-001 2.04931974e-001
      2.52250820e-001 -2.35920912e-003 -1.83529094e-001 2.02733576e-001
      3.03835154e-001 -1.56835467e-001 -2.99205899e-001 -3.42653170e-002
      3.50792706e-001 9.35214106e-003 -3.68976556e-002 -3.69402587e-001
      1.50841862e-001</_>
    <_>
      -4.47016031e-001 4.25084770e-001 -2.66285396e+000 -2.66921401e+000
      3.29707652e-001 3.02608371e+000 1.13445354e+000 -5.93534470e-001
      -5.95839202e-001 7.98120275e-002 8.78678501e-001 3.20908815e-001
      -6.48565471e-001 -3.57293546e-001 1.68375528e+000 2.51741916e-001
      -2.73465544e-001 1.19113469e+000 -3.70968729e-001 -5.50710261e-001
      4.32388544e-001 -1.80813923e-001 -9.81857419e-001 -2.25223637e+000
      -8.90988529e-001 -7.25142002e-001 1.83858049e+000 -3.34396720e-001
      1.90102845e-001 1.49110332e-002 8.65531027e-001 6.35384858e-001
      1.97880223e-001 1.74165606e-001 8.73466879e-002 -6.53786123e-001
      -4.52319205e-001 -6.21851146e-001 4.43249851e-001 2.17322662e-001
      -5.15272794e-003 8.22734982e-002 4.97022837e-001 7.15495706e-001
      5.86313486e-001 2.67614335e-001 -5.99705994e-001 -1.24403799e+000</_>
    <_>
      -6.86246693e-001 -1.27509737e+000 -8.57795000e-001
      -2.38345191e-001 1.06664367e-001 7.14544058e-001 4.07693297e-001
      -3.32182437e-001 2.45159358e-001 -1.39210463e+000 -1.22852635e+000
      6.21945918e-001 2.48843670e-001 -2.92715460e-001 1.83741510e-001
      5.43038666e-001 -5.93426973e-002 -1.13402037e-002 -1.64803058e-001
      -7.81381547e-001 4.47099060e-001 2.59235144e-001 4.33580607e-001
      7.63685023e-003 -9.84001998e-003 -4.71485853e-001 -1.13402037e-002
      3.49581502e-002 1.00074977e-001 -3.98083478e-001 -1.07888021e-001
      3.10969323e-001 -6.00878358e-001 4.14215475e-001 5.93693495e-001
      9.28489342e-002 2.26608470e-001 -1.17563868e+000 1.37507081e-001
      1.60823691e+000 -1.13062561e+000 -1.24084496e+000 1.88729450e-001
      7.16005862e-001 2.30126247e-001 -1.64572939e-001 -6.18165195e-001
      -7.94513106e-001</_>
    <_>
      -3.18865359e-001 -1.18655777e+000 1.04603797e-001 4.04249877e-001
      -4.35683727e-002 -5.58942437e-001 3.55113685e-001 2.78786242e-001
      2.16457516e-001 -9.65853333e-001 -1.02511799e+000 6.30480468e-001
      6.05909526e-001 -3.90387148e-001 -6.06177211e-001 4.57482070e-001
      -1.86453655e-001 -3.78340244e-001 -1.31222174e-001
      -1.14420429e-001 -1.39757901e-001 -1.74684867e-001 8.98516119e-001
      7.75350213e-001 2.36014515e-001 -2.56768227e-001 -5.31805694e-001
      -4.20761071e-002 7.97826648e-001 -3.90708148e-002 -8.66087899e-002
      4.89091605e-001 -1.13800788e+000 -6.37925923e-001 1.81249842e-001
      1.39098838e-001 1.70342401e-001 -1.59216329e-001 5.03041327e-001
      5.43040156e-001 -2.04776213e-001 -6.53192341e-001 -6.45338967e-002
      7.56849408e-001 1.20276026e-001 -4.05581713e-001 3.80539149e-002
      1.47002488e-001</_></support_vectors>
  <decision_functions>
    <_>
      <sv_count>1</sv_count>
      <rho>1.7017237827357504e-001</rho>
      <alpha>
        1.</alpha>
      <index>
        0</index></_>
    <_>
      <sv_count>1</sv_count>
      <rho>-2.8559921479722256e-001</rho>
      <alpha>
        1.</alpha>
      <index>
        1</index></_>
    <_>
      <sv_count>1</sv_count>
      <rho>-3.5892808212285360e-001</rho>
      <alpha>
        1.</alpha>
      <index>
        2</index></_>
    <_>
      <sv_count>1</sv_count>
      <rho>-4.7753061158599447e-001</rho>
      <alpha>
        1.</alpha>
      <index>
        3</index></_>
    <_>
      <sv_count>1</sv_count>
      <rho>-8.2291717942440734e-001</rho>
      <alpha>
        1.</alpha>
      <index>
        4</index></_>
    <_>
      <sv_count>1</sv_count>
      <rho>-1.3835281246149958e-001</rho>
      <alpha>
        1.</alpha>
      <index>
        5</index></_></decision_functions></my_svm>
</opencv_storage>
