<?xml version="1.0"?>
<opencv_storage>
<opencv_ml_svm>
  <format>3</format>
  <svmType>C_SVC</svmType>
  <kernel>
    <type>LINEAR</type></kernel>
  <C>450.</C>
  <term_criteria><epsilon>1.0000000000000000e-02</epsilon>
    <iterations>1500</iterations></term_criteria>
  <var_count>48</var_count>
  <class_count>4</class_count>
  <class_labels type_id="opencv-matrix">
    <rows>4</rows>
    <cols>1</cols>
    <dt>i</dt>
    <data>
      0 1 2 9</data></class_labels>
  <sv_total>6</sv_total>
  <support_vectors>
    <_>
      1.34530127e-01 1.46361148e+00 8.29424083e-01 -2.02341273e-01
      -2.68143713e-01 -2.84078270e-01 -6.54682040e-01 -1.09212661e+00
      -3.10734093e-01 9.40581322e-01 1.22583628e+00 1.87960535e-01
      -8.04160953e-01 -8.44820142e-01 -6.88568652e-01 -4.98643726e-01
      4.66717213e-01 -2.39670381e-01 -3.37151796e-01 -4.25243318e-01
      2.59754628e-01 -2.39351004e-01 -3.24348241e-01 3.52272570e-01
      -8.88728648e-02 -1.14939928e+00 -8.36769998e-01 5.62647223e-01
      2.82132894e-01 -2.74289519e-01 -2.10656792e-01 4.32760000e-01
      -2.16870233e-01 -5.92134058e-01 1.50992209e-02 1.21005431e-01
      2.36960948e-01 1.62154779e-01 -2.12418377e-01 -1.04087584e-01
      2.76591510e-01 4.88139950e-02 -1.18021297e+00 -3.23010117e-01
      2.90271431e-01 1.09842286e-01 -1.54351909e-02 1.01935339e+00</_>
    <_>
      5.73678277e-02 1.52021992e+00 4.76718813e-01 -7.72148609e-01
      -3.02878916e-01 1.82640746e-01 -7.59530425e-01 -1.38448656e+00
      -4.81541008e-01 5.00066578e-01 1.52714503e+00 5.63220143e-01
      -1.09947348e+00 -9.53482628e-01 1.74245879e-01 -3.78718615e-01
      5.46856821e-01 7.59444684e-02 -2.76827246e-01 -6.19979560e-01
      2.18425393e-01 1.55512720e-01 -3.01132679e-01 -1.77199140e-01
      -2.65656561e-01 -1.09267139e+00 -1.84503525e-01 1.74620256e-01
      3.63139033e-01 -4.09353346e-01 -3.96324188e-01 4.22075659e-01
      -1.22579649e-01 -3.44372541e-01 -3.90158109e-02 -1.91582158e-01
      5.06892681e-01 -1.41947076e-01 -9.28163081e-02 5.54993153e-01
      -2.71958159e-03 -2.34518304e-01 -5.14348030e-01 -4.89849299e-02
      3.26500982e-02 1.39471069e-01 -7.87687898e-02 5.95482029e-02</_>
    <_>
      5.79147458e-01 7.50282526e-01 7.53168523e-01 -2.51198828e-01
      -3.32007736e-01 -9.76979375e-01 -1.39311302e+00 -1.60330987e+00
      -4.90988106e-01 8.54444742e-01 -1.51090173e-03 4.83248740e-01
      -2.06521535e+00 -1.98551619e+00 -9.77819085e-01 -5.46466887e-01
      1.61396146e+00 -1.84444800e-01 -1.09326351e+00 -5.77790201e-01
      2.36267835e-01 -3.09388399e-01 -6.07267857e-01 1.91204309e-01
      -3.23016852e-01 -2.44192004e+00 -1.06255960e+00 6.16490066e-01
      1.54524976e-02 -5.26676476e-02 7.78644383e-02 4.92961377e-01
      -3.40536207e-01 -1.53540492e-01 -2.95572966e-01 1.58310160e-01
      1.04238987e-01 -7.60202527e-01 6.15690053e-01 1.09469986e+00
      -1.42712638e-01 -2.31311992e-01 8.40175748e-02 -2.02427089e-01
      7.29014933e-01 3.12212110e-01 1.10717267e-01 6.77658319e-01</_>
    <_>
      -5.68966568e-01 -4.02462482e-02 -2.21543193e+00 -2.81783986e+00
      8.40578496e-01 2.36609507e+00 -4.83739108e-01 4.76508081e-01
      -1.74112058e+00 -2.97577977e+00 6.92659259e-01 4.32156444e-01
      -1.12524104e+00 -2.14292645e+00 2.78364515e+00 8.57271791e-01
      -9.58576441e-01 1.79949820e+00 -2.25758839e+00 -1.11051595e+00
      1.97486937e+00 1.98206401e+00 -8.68744195e-01 -2.52196288e+00
      -2.36316538e+00 -4.41792578e-01 1.93280303e+00 -9.80924189e-01
      -9.41466570e-01 2.24058199e+00 7.40878940e-01 1.25357401e+00
      -9.63375330e-01 -5.61133623e-01 9.20326412e-01 -1.35548973e+00
      -2.22625807e-01 -1.59611416e+00 7.90801585e-01 7.72481322e-01
      -6.38398409e-01 9.36620653e-01 3.00354119e-02 1.16654146e+00
      -9.89174783e-01 -5.78256957e-02 3.89774144e-01 -8.79000664e-01</_>
    <_>
      2.86160409e-01 -1.89160097e+00 -1.83028591e+00 -5.30932009e-01
      6.06826186e-01 4.59602207e-01 2.65959706e-02 1.11031525e-01
      4.80679154e-01 -1.23973072e+00 -2.79936337e+00 1.85020566e-01
      -1.36909470e-01 -8.84177834e-02 7.85145164e-02 7.97469199e-01
      2.12370008e-01 1.70719139e-02 -3.08509469e-01 -4.18249071e-01
      -3.78991067e-01 -3.44786644e-01 -2.17918381e-02 -4.15663034e-01
      -1.96330801e-01 -3.50833088e-01 3.90532672e-01 2.60226756e-01
      -4.49372619e-01 -1.07664615e-01 2.92136401e-01 3.63074809e-01
      -6.68148637e-01 5.58704913e-01 2.00888604e-01 -5.44017673e-01
      -3.83638203e-01 -9.13898110e-01 5.84079385e-01 1.90142858e+00
      -1.41564393e+00 -9.55416728e-03 1.94059765e+00 7.34768391e-01
      6.65975034e-01 9.56419528e-01 -6.64646626e-02 -1.67912579e+00</_>
    <_>
      9.72507775e-01 -2.00727272e+00 -1.06547010e+00 1.48767006e+00
      3.84458572e-01 -4.09394473e-01 1.38229561e+00 4.64559466e-01
      1.45249140e+00 -1.54764950e-01 -3.90128446e+00 -1.15086257e+00
      1.18405914e+00 -1.30955160e-01 -1.54847074e+00 1.02536000e-01
      -1.46563947e-01 -4.83851492e-01 -7.08441809e-02 -2.56674379e-01
      -4.31345224e-01 -1.41075194e+00 6.02520645e-01 9.34017301e-01
      5.80073714e-01 -2.80238837e-01 -3.69714469e-01 1.71779290e-01
      -4.82652374e-02 5.68777204e-01 1.28971028e+00 -2.78260447e-02
      -6.76868737e-01 -1.72484279e-01 2.90330946e-01 4.22704637e-01
      -8.09302926e-01 -5.08290887e-01 1.19462419e+00 1.29856789e+00
      -2.35102296e-01 1.67626664e-01 1.91321298e-01 4.72416133e-01
      5.45062482e-01 7.71598518e-01 3.07143986e-01 4.42587316e-01</_></support_vectors>
  <uncompressed_sv_total>58</uncompressed_sv_total>
  <uncompressed_support_vectors>
    <_>
      3.61960918e-01 3.61960918e-01 1.19973846e-01 1.03534877e-01
      3.61960918e-01 3.61960918e-01 9.78909209e-02 6.31239116e-02
      3.61960918e-01 3.61960918e-01 2.75741339e-01 1.91177800e-01
      1.87640682e-01 1.33892968e-01 2.26509776e-02 7.33308792e-02
      3.73966634e-01 3.73966634e-01 2.24035159e-01 1.25661388e-01
      1.92144766e-01 2.81335860e-01 1.87545702e-01 1.04039945e-01
      1.89097196e-01 1.44251660e-01 5.47176637e-02 1.83343962e-01
      2.99125642e-01 3.44747126e-01 2.92001724e-01 3.18975061e-01
      2.22778365e-01 1.67402878e-01 1.30226865e-01 1.79171696e-01
      2.92374164e-01 1.87848389e-01 2.82835484e-01 2.92374164e-01
      2.92374164e-01 2.25587711e-01 1.86942935e-01 2.66202897e-01
      2.92374164e-01 2.92374164e-01 2.92374164e-01 2.92374164e-01</_>
    <_>
      3.49697500e-01 3.49697500e-01 9.88682732e-02 7.40681812e-02
      3.49697500e-01 3.49697500e-01 1.11582614e-01 5.00272363e-02
      3.49697500e-01 3.49697500e-01 1.57502592e-01 3.49697500e-01
      1.83995798e-01 1.66447744e-01 7.38490596e-02 1.35842875e-01
      5.21306694e-01 5.21306694e-01 4.54191208e-01 1.72058076e-01
      1.41404271e-01 8.61694068e-02 1.07134566e-01 2.39434823e-01
      1.64608195e-01 1.51262745e-01 1.39351800e-01 2.04140946e-01
      7.67311454e-02 3.14835384e-02 1.36627108e-02 3.18964049e-02
      2.34321073e-01 4.07189280e-02 1.24674402e-01 3.62081021e-01
      3.62081021e-01 4.12452519e-02 1.06685504e-01 3.62081021e-01
      3.26047093e-01 1.29271701e-01 3.15446593e-02 9.61935744e-02
      3.62081021e-01 3.45602602e-01 5.45050390e-02 3.62081021e-01</_>
    <_>
      3.40494692e-01 3.40494692e-01 1.67259753e-01 1.15182936e-01
      3.40494692e-01 3.40494692e-01 1.76499650e-01 7.89797530e-02
      3.40494692e-01 3.40494692e-01 2.14417681e-01 3.40494692e-01
      1.43278599e-01 1.29516169e-01 9.20051187e-02 1.21101588e-01
      3.84072810e-01 3.84072810e-01 3.84072810e-01 1.72442853e-01
      1.56915233e-01 4.84084263e-02 5.08477762e-02 2.49680132e-01
      9.31967571e-02 9.85812768e-02 1.13051467e-01 1.26404151e-01
      3.84072810e-01 1.98832452e-01 2.24228546e-01 3.84072810e-01
      1.13325365e-01 1.56615898e-02 2.42085066e-02 1.87710240e-01
      1.69660643e-01 1.13023249e-02 3.10408045e-02 2.73623765e-01
      3.31417531e-01 3.31417531e-01 3.31417531e-01 3.31417531e-01
      3.31417531e-01 3.31417531e-01 2.72342682e-01 3.31417531e-01</_>
    <_>
      3.34436029e-01 3.34436029e-01 1.08971789e-01 1.04261056e-01
      3.34436029e-01 3.34436029e-01 7.80352205e-02 8.00065696e-02
      3.34436029e-01 3.34436029e-01 1.89764410e-01 3.34436029e-01
      2.60847718e-01 1.19325183e-01 6.32102564e-02 2.37074390e-01
      4.45299864e-01 4.45299864e-01 2.26040334e-01 1.92597777e-01
      2.27185488e-01 1.75985366e-01 4.98518534e-02 6.05861880e-02
      3.51431489e-01 1.36978954e-01 1.18133307e-01 4.45299864e-01
      1.00067750e-01 1.23012196e-02 3.87633294e-02 2.36342430e-01
      2.33591318e-01 1.63623244e-01 1.71158522e-01 2.02327386e-01
      3.06558579e-01 3.06558579e-01 3.06558579e-01 3.06558579e-01
      1.75427020e-01 1.04517780e-01 1.22227103e-01 1.92104623e-01
      3.06558579e-01 3.06558579e-01 3.06558579e-01 3.06558579e-01</_>
    <_>
      3.33702415e-01 3.33702415e-01 8.41557086e-02 1.69892207e-01
      3.33702415e-01 3.33702415e-01 6.21827655e-02 1.45178348e-01
      3.33702415e-01 3.33702415e-01 1.94168508e-01 3.33702415e-01
      2.58954436e-01 8.61027464e-02 2.93460879e-02 2.07946762e-01
      4.28728163e-01 4.28728163e-01 2.48088583e-01 2.16729999e-01
      1.57595873e-01 1.57870501e-01 6.70234039e-02 9.49522629e-02
      4.25404429e-01 8.01006332e-02 1.22141190e-01 4.28728163e-01
      1.31979212e-01 1.01182079e-02 7.46197924e-02 2.17056930e-01
      2.78203815e-01 5.73670268e-02 2.17041716e-01 3.60671043e-01
      3.60671043e-01 3.61940861e-02 3.60671043e-01 3.60671043e-01
      1.99939579e-01 3.69570740e-02 8.33764374e-02 2.62324601e-01
      3.60671043e-01 1.72086179e-01 2.88928449e-02 2.63281286e-01</_>
    <_>
      3.64450902e-01 3.64450902e-01 1.21618003e-01 1.03710152e-01
      3.64450902e-01 3.64450902e-01 1.91945300e-01 7.49469697e-02
      3.64450902e-01 3.64450902e-01 1.86536416e-01 1.50196120e-01
      2.13013381e-01 1.46707684e-01 2.20428817e-02 8.16506371e-02
      4.43218052e-01 4.43218052e-01 4.43218052e-01 1.47279039e-01
      1.37866691e-01 2.86164805e-02 6.02347665e-02 2.16919452e-01
      3.79734874e-01 1.35943070e-01 5.81004061e-02 3.23918253e-01
      1.23096079e-01 1.47957085e-02 3.60629670e-02 1.62470117e-01
      3.61550242e-01 1.77532677e-02 1.29535034e-01 3.61550242e-01
      3.61550242e-01 1.47031657e-02 1.33337706e-01 3.61550242e-01
      1.63054481e-01 6.87227473e-02 4.38417718e-02 1.38401881e-01
      3.61550242e-01 3.61550242e-01 3.25687900e-02 3.51481557e-01</_>
    <_>
      3.19399923e-01 3.19399923e-01 1.79649442e-01 3.19399923e-01
      3.19399923e-01 3.16815764e-01 9.03956369e-02 1.63349420e-01
      2.75764853e-01 1.41897127e-01 3.19399923e-01 3.19399923e-01
      6.00435957e-02 7.14159682e-02 2.38309696e-01 2.35652626e-01
      3.69754881e-01 3.69754881e-01 3.69754881e-01 3.69754881e-01
      2.87074983e-01 1.83537498e-01 1.08270332e-01 2.33169794e-01
      1.31810352e-01 4.82902303e-02 2.81247407e-01 3.69754881e-01
      1.31530151e-01 3.98915671e-02 2.80191079e-02 1.09732702e-01
      2.10009798e-01 5.79469688e-02 8.70214775e-02 2.52621204e-01
      3.44186634e-01 3.36544178e-02 3.44186634e-01 3.44186634e-01
      3.44186634e-01 1.05669595e-01 2.56185085e-02 2.61227220e-01
      3.44186634e-01 2.90323526e-01 3.79456356e-02 3.44186634e-01</_>
    <_>
      3.07826221e-01 3.05050135e-01 3.07826221e-01 3.07826221e-01
      1.84467688e-01 4.79135253e-02 3.93647328e-02 1.65073738e-01
      2.60712594e-01 2.24517450e-01 3.07826221e-01 3.07826221e-01
      2.37684935e-01 2.39472501e-02 3.07826221e-01 3.07826221e-01
      3.79240781e-01 9.69147012e-02 2.08776891e-02 3.01488042e-01
      2.21843973e-01 6.60389960e-02 8.47353041e-03 1.19934663e-01
      3.79240781e-01 5.77057339e-02 3.79240781e-01 3.79240781e-01
      1.21726528e-01 5.57377711e-02 2.95099854e-01 3.79240781e-01
      2.59815216e-01 9.42511410e-02 2.90741343e-02 1.60624340e-01
      2.22880065e-01 2.05519833e-02 1.28232941e-01 3.32420141e-01
      3.51548284e-01 1.80322811e-01 1.90878719e-01 3.34323287e-01
      3.69956821e-01 3.69956821e-01 3.62347625e-02 3.69956821e-01</_>
    <_>
      1.48008183e-01 3.28863353e-01 3.53371233e-01 3.53371233e-01
      5.71084730e-02 2.75484063e-02 1.84582815e-01 2.20778391e-01
      4.24654596e-02 1.52720347e-01 3.53371233e-01 3.53371233e-01
      4.59739491e-02 5.57661541e-02 3.53371233e-01 3.53371233e-01
      2.73948014e-01 5.20516112e-02 1.32706523e-01 3.69647354e-01
      1.83465928e-01 6.07887432e-02 1.68710314e-02 1.16441414e-01
      2.11061522e-01 1.44342497e-01 4.90426064e-01 4.90426064e-01
      1.48819134e-01 7.33364820e-02 2.22670078e-01 2.97274053e-01
      1.75635651e-01 8.01660866e-02 5.50978743e-02 1.29233509e-01
      2.49358609e-01 3.67046818e-02 2.34757170e-01 3.64999324e-01
      3.64999324e-01 2.18766913e-01 9.55889672e-02 3.38056862e-01
      3.64999324e-01 3.40280533e-01 2.71373447e-02 3.64999324e-01</_>
    <_>
      1.56218365e-01 2.77799457e-01 3.60786051e-01 3.60786051e-01
      8.36018994e-02 2.39625070e-02 1.49302974e-01 2.00007632e-01
      6.57408834e-02 1.58437237e-01 3.60786051e-01 3.60786051e-01
      8.11433345e-02 8.91793072e-02 3.60786051e-01 3.60786051e-01
      3.59553605e-01 7.63883740e-02 1.00028515e-01 3.70489031e-01
      2.00087398e-01 7.55312145e-02 1.52906422e-02 1.22899510e-01
      2.94055670e-01 1.92090198e-01 4.36031431e-01 4.36031431e-01
      1.89415544e-01 9.33086574e-02 1.80004433e-01 2.67551959e-01
      1.52276650e-01 6.44420534e-02 3.61264013e-02 1.20952964e-01
      2.25904852e-01 4.47698869e-02 1.94504112e-01 3.77109110e-01
      3.77109110e-01 2.30571941e-01 6.25625998e-02 3.05394560e-01
      3.77109110e-01 3.77109110e-01 2.62285918e-02 3.77109110e-01</_>
    <_>
      3.11570644e-01 3.11570644e-01 1.78450868e-01 3.11570644e-01
      3.11570644e-01 1.35280386e-01 1.48868132e-02 1.73398867e-01
      3.11570644e-01 2.30856001e-01 3.11570644e-01 3.11570644e-01
      1.88773438e-01 1.23827979e-02 2.25297526e-01 3.11570644e-01
      3.51802349e-01 3.51802349e-01 2.01024972e-02 3.51802349e-01
      2.46486098e-01 1.13465428e-01 9.48511995e-03 1.01899542e-01
      3.51802349e-01 3.21314447e-02 3.51802349e-01 3.51802349e-01
      1.49825782e-01 5.93561828e-02 2.12172091e-01 3.12038541e-01
      1.27091154e-01 5.12331799e-02 1.92081220e-02 7.34000504e-02
      1.52638987e-01 2.36203261e-02 4.34215479e-02 1.99136853e-01
      3.75993937e-01 2.40094706e-01 1.06670566e-01 2.09533393e-01
      4.64480460e-01 4.64480460e-01 6.24785125e-02 4.64480460e-01</_>
    <_>
      9.24765095e-02 2.78205484e-01 3.63778800e-01 3.63778800e-01
      1.04710445e-01 3.08182519e-02 1.09628096e-01 1.76489666e-01
      3.47623937e-02 2.18885228e-01 3.63778800e-01 3.63778800e-01
      4.80248444e-02 9.94926840e-02 3.63778800e-01 3.63778800e-01
      3.82583410e-01 1.79199412e-01 8.14505443e-02 3.82583410e-01
      3.03794801e-01 1.63778976e-01 4.71822321e-02 2.12810352e-01
      2.27635160e-01 1.97006598e-01 3.82583410e-01 3.82583410e-01
      2.42639661e-01 6.49025142e-02 6.92718700e-02 2.16350317e-01
      2.72312820e-01 1.02440715e-01 9.73140895e-02 2.94158131e-01
      3.35188508e-01 1.41965210e-01 3.35188508e-01 3.35188508e-01
      3.35188508e-01 7.58494213e-02 1.34439478e-02 3.35188508e-01
      3.35188508e-01 5.84126674e-02 6.63500605e-03 3.35188508e-01</_>
    <_>
      1.76753791e-03 1.23855183e-02 1.15609095e-02 1.56871520e-03
      3.23874921e-01 3.23874921e-01 3.23874921e-01 3.23874921e-01
      3.23874921e-01 6.37297183e-02 2.42982823e-02 2.18551457e-01
      3.23874921e-01 3.23874921e-01 3.23874921e-01 3.23874921e-01
      2.94434577e-01 2.94434577e-01 2.94434577e-01 2.94434577e-01
      1.78941786e-01 1.16039775e-01 1.52502909e-01 1.88425645e-01
      2.94434577e-01 2.75480956e-01 2.94434577e-01 2.94434577e-01
      2.94434577e-01 1.43110216e-01 1.27339080e-01 2.94434577e-01
      1.56050816e-01 1.04832865e-01 1.14950739e-01 2.65703470e-01
      2.04101205e-01 7.28239678e-03 2.71928497e-02 2.93162614e-01
      3.75699610e-01 3.00833762e-01 2.27431059e-01 3.75699610e-01
      3.75699610e-01 1.98225141e-01 5.07820323e-02 3.75699610e-01</_>
    <_>
      2.01554984e-01 8.07255656e-02 2.28282794e-01 3.25135201e-01
      2.26965249e-01 2.36785188e-01 3.25135201e-01 3.25135201e-01
      2.25277394e-01 2.78973170e-02 2.13758782e-01 3.25135201e-01
      2.19065443e-01 1.02121405e-01 3.25135201e-01 3.25135201e-01
      3.41554850e-01 3.56740385e-01 3.56740385e-01 3.56740385e-01
      5.44215962e-02 5.50944358e-02 4.25842926e-02 5.67366332e-02
      2.91165471e-01 2.23578051e-01 3.56740385e-01 3.56740385e-01
      5.36458120e-02 2.50837784e-02 1.34715870e-01 2.75695533e-01
      1.94951355e-01 8.36838707e-02 1.74044400e-01 3.52556258e-01
      3.52556258e-01 3.58452462e-02 3.07164818e-01 3.52556258e-01
      1.27054423e-01 4.49993871e-02 2.88400561e-01 3.52556258e-01
      2.97747642e-01 2.89030969e-01 1.61654994e-01 1.69383481e-01</_>
    <_>
      3.11894745e-01 6.85762018e-02 6.80950582e-02 2.45413706e-01
      3.26278180e-01 2.22646341e-01 3.26278180e-01 3.26278180e-01
      3.26278180e-01 4.25210670e-02 3.69337089e-02 3.26278180e-01
      3.26278180e-01 8.49581882e-02 1.57259852e-01 3.26278180e-01
      3.30703706e-01 3.16626757e-01 3.30703706e-01 3.30703706e-01
      5.60221076e-02 7.77961463e-02 9.74536762e-02 7.69218579e-02
      3.30703706e-01 1.71823457e-01 3.30703706e-01 3.30703706e-01
      1.03603378e-01 5.37962988e-02 2.51261979e-01 3.30703706e-01
      1.09491065e-01 1.04822189e-01 1.84332922e-01 2.80764610e-01
      2.00952828e-01 1.23128854e-01 4.18011010e-01 4.18011010e-01
      1.62623495e-01 3.40867303e-02 3.76115829e-01 4.18011010e-01
      1.71080083e-01 7.29556531e-02 8.21795911e-02 2.64353335e-01</_>
    <_>
      2.43881047e-01 2.94016935e-02 8.82037077e-03 1.37287065e-01
      3.47453147e-01 2.25269035e-01 3.47453147e-01 3.25729698e-01
      3.47453147e-01 1.00769922e-01 3.85739766e-02 3.47453147e-01
      3.47453147e-01 8.50139931e-02 1.31158933e-01 3.47453147e-01
      3.11136216e-01 3.11136216e-01 3.11136216e-01 3.11136216e-01
      1.30293608e-01 1.19887054e-01 2.30550304e-01 1.39878049e-01
      3.11136216e-01 1.35994241e-01 2.76303560e-01 3.11136216e-01
      2.73308814e-01 9.09496248e-02 1.93324968e-01 3.11136216e-01
      9.57958028e-02 9.45318490e-02 1.55311897e-01 1.59276351e-01
      1.41592860e-01 7.71939382e-02 3.95042002e-01 3.95042002e-01
      3.95042002e-01 6.87727332e-02 2.47835889e-01 3.95042002e-01
      2.09333181e-01 1.89753473e-02 1.08713582e-01 3.95042002e-01</_>
    <_>
      3.74133945e-01 5.37415892e-02 1.65293396e-01 3.74133945e-01
      3.74133945e-01 2.48389114e-02 2.39647195e-01 3.74133945e-01
      2.09264055e-01 5.60307316e-03 5.40072322e-02 2.81237334e-01
      2.72873849e-01 9.51278582e-03 9.02664140e-02 3.73586327e-01
      2.82469600e-01 9.89259109e-02 2.71838486e-01 2.82469600e-01
      2.82469600e-01 2.65634358e-01 2.24883988e-01 2.82469600e-01
      2.05213264e-01 1.47366598e-01 2.80690104e-01 2.82469600e-01
      1.06917687e-01 2.82469600e-01 2.82469600e-01 2.82469600e-01
      3.14197123e-01 3.14197123e-01 3.03527772e-01 2.37054855e-01
      9.08101201e-02 2.78738678e-01 3.14197123e-01 3.14197123e-01
      1.16261415e-01 3.14197123e-01 3.14197123e-01 3.14197123e-01
      1.42564952e-01 1.48492217e-01 9.36432108e-02 8.30380991e-02</_>
    <_>
      3.08304667e-01 8.26663971e-02 3.77503783e-02 2.91178197e-01
      3.19072396e-01 3.19072396e-01 1.07784145e-01 1.44605279e-01
      3.19072396e-01 9.92074311e-02 1.05593428e-01 3.19072396e-01
      3.19072396e-01 2.76433647e-01 2.60648400e-01 3.19072396e-01
      3.43089670e-01 3.43089670e-01 2.47507900e-01 1.63761824e-01
      3.06908697e-01 3.04155529e-01 9.68278646e-02 4.18882482e-02
      3.43089670e-01 3.43089670e-01 3.43089670e-01 3.43089670e-01
      1.80185959e-02 2.90702917e-02 4.99018729e-02 2.71497127e-02
      3.52827400e-01 3.97254467e-01 1.95032120e-01 9.34931412e-02
      1.74369887e-01 4.34155390e-02 1.23956926e-01 3.97254467e-01
      1.73729092e-01 6.60971180e-02 3.28501090e-02 7.79569447e-02
      3.97254467e-01 3.97254467e-01 2.22967118e-01 2.33334199e-01</_>
    <_>
      1.46777436e-01 9.32854563e-02 7.55463764e-02 8.66565928e-02
      3.26868862e-01 3.26868862e-01 3.26868862e-01 3.26868862e-01
      3.26868862e-01 1.12059407e-01 4.60804179e-02 3.26868862e-01
      3.26868862e-01 2.15675801e-01 1.93206459e-01 3.26868862e-01
      3.20187181e-01 3.20187181e-01 3.20187181e-01 3.20187181e-01
      1.86278805e-01 1.73704892e-01 8.31553340e-02 1.62433997e-01
      3.20187181e-01 2.83377260e-01 2.63600737e-01 3.20187181e-01
      1.45343080e-01 7.27875382e-02 1.13472916e-01 3.07282090e-01
      2.80021340e-01 3.00766766e-01 1.32413283e-01 2.27361530e-01
      1.25580862e-01 1.00884810e-01 3.38147163e-01 3.38147163e-01
      1.38712004e-01 4.04935107e-02 2.68698156e-01 3.38147163e-01
      3.38147163e-01 3.38147163e-01 2.18645677e-01 1.41319022e-01</_>
    <_>
      3.73223186e-01 2.75575183e-02 3.11857820e-01 3.73223186e-01
      3.73223186e-01 3.29860039e-02 3.73223186e-01 3.73223186e-01
      8.30319822e-02 2.77424324e-03 5.12657128e-02 1.41958654e-01
      1.66642651e-01 2.02993322e-02 1.61714256e-01 3.41577172e-01
      2.77684659e-01 1.34312451e-01 2.77684659e-01 2.77684659e-01
      2.60716945e-01 2.73702741e-01 2.77684659e-01 2.77684659e-01
      1.38997361e-01 1.98244929e-01 2.77684659e-01 2.77684659e-01
      8.11770037e-02 2.77684659e-01 2.77684659e-01 2.77684659e-01
      3.13282579e-01 3.13282579e-01 3.05438489e-01 2.03028485e-01
      6.49341568e-02 3.13282579e-01 3.13282579e-01 3.13282579e-01
      1.03764735e-01 3.13282579e-01 3.13282579e-01 3.13282579e-01
      1.51229143e-01 1.31096676e-01 1.00631692e-01 1.09643765e-01</_>
    <_>
      3.45720142e-01 7.22923577e-02 4.73980010e-02 3.45720142e-01
      3.45720142e-01 4.05402966e-02 1.03337027e-01 3.45720142e-01
      3.45720142e-01 1.97053030e-02 3.14739421e-02 3.45720142e-01
      3.45720142e-01 6.01083934e-02 1.24819078e-01 3.45720142e-01
      2.90851682e-01 1.77062958e-01 2.09721297e-01 2.90851682e-01
      2.81563371e-01 2.73491710e-01 1.78563863e-01 1.87753692e-01
      2.90851682e-01 2.14716017e-01 2.90851682e-01 2.90851682e-01
      9.32622850e-02 2.31480822e-01 2.90851682e-01 2.90851682e-01
      2.84208685e-01 3.18290919e-01 1.69472083e-01 1.07568368e-01
      1.35467172e-01 3.18290919e-01 3.18290919e-01 3.18290919e-01
      7.59113729e-02 1.75034240e-01 3.18290919e-01 3.12716246e-01
      2.81898320e-01 2.83848941e-01 1.67816356e-01 1.68719605e-01</_>
    <_>
      3.97217363e-01 1.65284753e-01 8.21210071e-02 3.97217363e-01
      3.97217363e-01 1.39181346e-01 1.74599886e-01 3.97217363e-01
      2.81675607e-01 2.89899614e-02 2.31552552e-02 2.56457299e-01
      2.38785580e-01 5.08672632e-02 8.40875655e-02 2.60424614e-01
      2.90794760e-01 1.92676276e-01 2.90794760e-01 2.90794760e-01
      1.20287441e-01 1.97407410e-01 2.90794760e-01 2.90794760e-01
      1.22557536e-01 2.03054398e-01 2.90794760e-01 2.90794760e-01
      6.82926029e-02 2.90794760e-01 2.90794760e-01 2.90794760e-01
      1.09622940e-01 2.00147867e-01 3.13501388e-01 2.46082380e-01
      7.38549083e-02 2.25936338e-01 3.13501388e-01 3.13501388e-01
      1.20599546e-01 3.13501388e-01 3.13501388e-01 3.13501388e-01
      3.13501388e-01 3.13501388e-01 1.11389287e-01 1.20482370e-01</_>
    <_>
      3.22180957e-01 4.88435030e-02 1.23455189e-01 3.22180957e-01
      3.22180957e-01 2.39055872e-01 3.20762485e-01 3.22180957e-01
      1.46812916e-01 2.47691832e-02 6.17244318e-02 1.92590103e-01
      2.60677963e-01 2.55524933e-01 3.22180957e-01 3.22180957e-01
      3.13451380e-01 3.13451380e-01 3.13451380e-01 3.13451380e-01
      1.19436659e-01 1.13395646e-01 7.88035542e-02 9.12096873e-02
      3.13451380e-01 3.13451380e-01 3.13451380e-01 3.13451380e-01
      9.39393565e-02 1.17612585e-01 2.86419809e-01 2.53982812e-01
      1.01707764e-01 4.14322354e-02 6.18714392e-02 1.20408624e-01
      1.61690176e-01 3.44585449e-01 3.64326060e-01 3.64326060e-01
      1.47026673e-01 1.28284916e-01 3.09692323e-01 3.10370386e-01
      3.64326060e-01 3.64326060e-01 1.00644298e-01 2.22965866e-01</_>
    <_>
      3.77210349e-01 2.89125275e-02 2.85897076e-01 3.77210349e-01
      3.77210349e-01 9.44203660e-02 3.77210349e-01 3.77210349e-01
      7.17223287e-02 1.89041975e-03 3.68753485e-02 1.18320912e-01
      1.63843930e-01 8.74270722e-02 2.08895549e-01 3.07688117e-01
      2.82947391e-01 1.52610302e-01 2.82947391e-01 2.82947391e-01
      2.82947391e-01 2.22177863e-01 2.59945095e-01 2.82947391e-01
      1.25217274e-01 2.16210395e-01 2.82947391e-01 2.82947391e-01
      6.01304322e-02 2.65279323e-01 2.82947391e-01 2.82947391e-01
      2.87526935e-01 2.87526935e-01 2.49325767e-01 2.87526935e-01
      1.63031906e-01 2.87526935e-01 2.87526935e-01 2.87526935e-01
      6.59475774e-02 2.47949272e-01 2.87526935e-01 2.87526935e-01
      2.49513939e-01 2.84117132e-01 1.48049816e-01 1.27608120e-01</_>
    <_>
      3.20531458e-01 1.05173476e-01 2.29951903e-01 3.20531458e-01
      3.20531458e-01 2.81777084e-01 3.20531458e-01 3.20531458e-01
      8.38815793e-02 6.06798269e-02 1.17947690e-01 1.63712949e-01
      1.40752107e-01 2.51065165e-01 3.20531458e-01 3.20531458e-01
      3.33364308e-01 3.33364308e-01 3.33364308e-01 3.33364308e-01
      5.91617525e-02 7.64110535e-02 4.76965792e-02 3.65621671e-02
      1.98977262e-01 3.33364308e-01 3.33364308e-01 3.33364308e-01
      6.86135516e-02 6.97383583e-02 2.82973707e-01 2.76693195e-01
      9.98960361e-02 1.49679193e-02 7.11881295e-02 1.77990928e-01
      2.35191122e-01 2.55099446e-01 3.76827061e-01 3.76827061e-01
      1.82965457e-01 1.34152144e-01 3.34922880e-01 3.73133063e-01
      3.76827061e-01 1.50004044e-01 4.01853845e-02 2.75510728e-01</_>
    <_>
      2.96433240e-01 2.57181525e-01 1.18058985e-02 1.85613170e-01
      2.96433240e-01 2.96433240e-01 5.18158302e-02 2.61648387e-01
      2.96433240e-01 2.96433240e-01 2.62685437e-02 2.96433240e-01
      2.96433240e-01 2.96433240e-01 1.92624897e-01 2.90488124e-01
      3.30626428e-01 3.30626428e-01 1.23888031e-01 3.16679388e-01
      2.27683738e-01 2.06800342e-01 5.63203320e-02 6.55447841e-02
      3.30626428e-01 3.30626428e-01 3.30626428e-01 3.30626428e-01
      1.87207326e-01 1.88941926e-01 1.69027075e-01 1.54237479e-01
      2.29142994e-01 1.89799860e-01 5.62469698e-02 9.05700400e-02
      2.55866706e-01 9.86486599e-02 1.79655030e-01 3.65786761e-01
      2.44575322e-01 2.79756606e-01 3.28518569e-01 2.77984262e-01
      3.65786761e-01 3.65786761e-01 2.38946721e-01 8.48355517e-02</_>
    <_>
      2.99063623e-01 2.44247705e-01 1.21463528e-02 1.63424313e-01
      2.99063623e-01 2.99063623e-01 6.61731660e-02 2.46346742e-01
      2.99063623e-01 2.99063623e-01 2.34623887e-02 2.98374176e-01
      2.99063623e-01 2.99063623e-01 2.00858146e-01 2.99063623e-01
      3.32736313e-01 3.32736313e-01 1.66102514e-01 3.00973177e-01
      2.12329954e-01 2.09653720e-01 7.97454938e-02 5.62749803e-02
      3.32736313e-01 3.32736313e-01 3.32736313e-01 3.32736313e-01
      1.68913454e-01 1.63683265e-01 1.75324947e-01 1.72023922e-01
      2.96274483e-01 1.92850664e-01 5.13351820e-02 1.22530989e-01
      2.24393710e-01 1.92534924e-01 3.10533464e-01 3.10533464e-01
      2.87626266e-01 2.72373766e-01 3.10533464e-01 3.10533464e-01
      3.10533464e-01 3.10533464e-01 8.58375728e-02 1.54871538e-01</_>
    <_>
      1.72967911e-01 2.95442306e-02 2.54520744e-01 3.20843577e-01
      2.38938391e-01 1.35525614e-01 3.20843577e-01 3.20843577e-01
      3.20843577e-01 6.70576021e-02 8.37926492e-02 3.13176394e-01
      3.20843577e-01 1.98226616e-01 2.43369877e-01 3.20843577e-01
      3.02924037e-01 3.21226567e-01 3.21226567e-01 3.21226567e-01
      1.02033593e-01 1.37007311e-01 2.24773616e-01 1.99015334e-01
      3.21226567e-01 3.21027011e-01 3.21226567e-01 3.21226567e-01
      1.41503066e-01 7.18753263e-02 1.03391834e-01 1.66309863e-01
      1.05409034e-01 2.34842580e-02 8.14640447e-02 2.44757369e-01
      3.32539320e-01 1.83560655e-01 3.24125886e-01 3.32539320e-01
      2.03986824e-01 1.82005707e-02 6.86092526e-02 2.63773859e-01
      3.32539320e-01 3.32539320e-01 3.32539320e-01 3.32539320e-01</_>
    <_>
      1.95244774e-01 2.45343037e-02 2.44162157e-01 3.36372226e-01
      2.48581767e-01 1.12001546e-01 3.36372226e-01 3.36372226e-01
      3.36372226e-01 1.91415735e-02 6.94589391e-02 3.36372226e-01
      3.36372226e-01 7.59097338e-02 1.44869655e-01 3.36372226e-01
      3.47287625e-01 3.12388629e-01 3.52329701e-01 3.52329701e-01
      9.02434513e-02 1.32395297e-01 1.76594660e-01 1.68864727e-01
      3.52329701e-01 2.06111848e-01 2.67488152e-01 3.52329701e-01
      1.08101860e-01 7.42520243e-02 9.85351875e-02 2.35426858e-01
      2.13275254e-01 9.59079713e-02 1.84009835e-01 3.54256481e-01
      3.54256481e-01 2.85920016e-02 2.23711327e-01 3.54256481e-01
      3.33962381e-01 8.14342648e-02 2.23535120e-01 3.54256481e-01
      2.40945429e-01 1.06816903e-01 1.15495197e-01 3.22687656e-01</_>
    <_>
      3.29620451e-01 3.92809361e-02 1.34787485e-01 3.37762743e-01
      3.37762743e-01 9.06046182e-02 1.98771298e-01 3.37762743e-01
      3.37762743e-01 7.84694776e-02 6.23266362e-02 3.37762743e-01
      3.37762743e-01 8.50073472e-02 6.84948117e-02 3.37762743e-01
      3.49125624e-01 2.19028279e-01 3.49125624e-01 3.49125624e-01
      9.06504542e-02 1.23872735e-01 1.82971686e-01 2.00692415e-01
      3.49125624e-01 1.55048996e-01 1.50714830e-01 3.49125624e-01
      1.88094854e-01 6.02102391e-02 1.84738159e-01 3.49125624e-01
      1.29096612e-01 2.13744327e-01 2.54178792e-01 2.66355991e-01
      1.54849261e-01 9.09048319e-02 3.87115061e-01 3.87115061e-01
      2.32166067e-01 5.92054985e-02 3.87115061e-01 3.87115061e-01
      1.40449032e-01 3.62400450e-02 8.66939351e-02 2.83887416e-01</_>
    <_>
      2.78051525e-01 5.33946604e-02 1.73446089e-01 3.39161038e-01
      3.39161038e-01 6.87269419e-02 2.49632865e-01 3.39161038e-01
      3.39161038e-01 5.43047674e-02 3.53002548e-02 3.39161038e-01
      3.39161038e-01 5.44926897e-02 8.33546296e-02 3.39161038e-01
      3.33067298e-01 1.49283126e-01 3.33067298e-01 3.33067298e-01
      1.29721075e-01 1.25763163e-01 2.77493894e-01 3.33067298e-01
      3.33067298e-01 1.00517221e-01 1.37163922e-01 3.33067298e-01
      2.06838995e-01 6.85755759e-02 1.08629659e-01 3.33067298e-01
      1.48517549e-01 1.92569956e-01 3.39070410e-01 3.39070410e-01
      1.56679094e-01 5.29455766e-02 3.39070410e-01 3.39070410e-01
      3.39070410e-01 6.24363907e-02 2.56462067e-01 3.39070410e-01
      1.65070981e-01 1.13856755e-02 9.10485387e-02 3.39070410e-01</_>
    <_>
      1.67822897e-01 3.45203169e-02 2.68422991e-01 3.44050854e-01
      2.75692403e-01 5.92640489e-02 2.59935588e-01 3.44050854e-01
      3.44050854e-01 9.65968296e-02 8.13413337e-02 3.00090253e-01
      3.44050854e-01 1.74555108e-01 1.40515149e-01 3.44050854e-01
      3.07351321e-01 1.90726876e-01 3.07351321e-01 3.07351321e-01
      1.97512552e-01 2.81607151e-01 2.77717978e-01 2.62491077e-01
      3.07351321e-01 2.50879794e-01 1.95226729e-01 3.07351321e-01
      1.96101308e-01 1.30506635e-01 1.14637762e-01 2.32812822e-01
      3.34519118e-01 3.34519118e-01 3.34519118e-01 3.34519118e-01
      9.86102000e-02 9.03003365e-02 3.34519118e-01 3.34519118e-01
      2.85505384e-01 7.77050629e-02 1.43015325e-01 3.34519118e-01
      1.97872713e-01 6.03411123e-02 5.34096770e-02 2.04465374e-01</_>
    <_>
      1.24203481e-01 3.46287526e-02 2.78978109e-01 3.33260953e-01
      2.51785278e-01 1.04375809e-01 3.33260953e-01 3.33260953e-01
      3.33260953e-01 1.13605320e-01 6.47519529e-02 2.00606495e-01
      3.33260953e-01 2.60682404e-01 1.90397218e-01 3.33260953e-01
      2.96926379e-01 2.51439571e-01 3.02299410e-01 3.02299410e-01
      1.44629508e-01 2.08057716e-01 2.51300126e-01 2.42177561e-01
      3.02299410e-01 3.02299410e-01 2.65643775e-01 3.02299410e-01
      2.43065059e-01 1.02173671e-01 9.79025215e-02 2.30192408e-01
      2.51699328e-01 3.15594852e-01 2.77007520e-01 2.95731127e-01
      1.54892489e-01 2.39714738e-02 1.38787791e-01 3.41566592e-01
      3.41566592e-01 5.69525473e-02 1.35218069e-01 3.41566592e-01
      3.41566592e-01 1.03256367e-01 1.00440085e-01 3.41566592e-01</_>
    <_>
      2.76878059e-01 8.04729760e-02 1.07211590e-01 3.10786605e-01
      3.10786605e-01 2.56181270e-01 2.66462356e-01 3.10786605e-01
      3.10786605e-01 3.10786605e-01 9.49895233e-02 9.32790786e-02
      3.10786605e-01 3.10786605e-01 8.27218592e-02 2.54846543e-01
      3.01033199e-01 3.01033199e-01 3.01033199e-01 3.01033199e-01
      1.68074489e-01 1.01137616e-01 9.86513719e-02 1.52967200e-01
      3.01033199e-01 3.01033199e-01 2.84391910e-01 3.01033199e-01
      1.60395101e-01 2.34583795e-01 2.98885852e-01 2.00171456e-01
      3.10585558e-01 1.46390602e-01 4.14676778e-02 2.68237889e-01
      2.50297129e-01 1.25282571e-01 1.89329267e-01 3.01474065e-01
      2.08075598e-01 3.10585558e-01 3.10585558e-01 3.10585558e-01
      3.10585558e-01 3.10585558e-01 1.29022852e-01 2.40823522e-01</_>
    <_>
      2.91711390e-01 1.62926212e-01 1.35340124e-01 2.91711390e-01
      2.91711390e-01 2.91711390e-01 2.91711390e-01 2.91711390e-01
      2.91711390e-01 2.91711390e-01 8.57109651e-02 1.13603890e-01
      2.91711390e-01 2.91711390e-01 1.92384034e-01 2.09771171e-01
      3.28557700e-01 3.28557700e-01 3.28557700e-01 3.28557700e-01
      1.12971202e-01 3.12371068e-02 1.80691965e-02 8.06572437e-02
      3.28557700e-01 3.28557700e-01 3.28557700e-01 3.28557700e-01
      8.50650147e-02 1.75650805e-01 2.27383003e-01 1.50841907e-01
      2.36631975e-01 7.33945444e-02 1.37350298e-02 1.31591707e-01
      1.17040180e-01 6.39987886e-02 1.81762695e-01 2.42371649e-01
      3.27509403e-01 2.79665560e-01 1.34287879e-01 2.05244869e-01
      4.28672552e-01 4.28672552e-01 1.01691328e-01 4.28672552e-01</_>
    <_>
      2.74234831e-01 1.06025152e-01 1.01697244e-01 2.78695077e-01
      3.06615978e-01 1.59133613e-01 2.38727033e-01 3.06615978e-01
      3.06615978e-01 2.69363046e-01 2.16450859e-02 3.06615978e-01
      3.06615978e-01 3.06615978e-01 9.51017812e-02 3.06615978e-01
      3.12507778e-01 2.54779398e-01 3.12507778e-01 3.12507778e-01
      2.05872834e-01 1.62597224e-01 1.29767194e-01 1.77324921e-01
      3.12507778e-01 3.12507778e-01 2.57721931e-01 3.12507778e-01
      2.26890847e-01 2.35397354e-01 1.72271088e-01 1.60946205e-01
      3.11202526e-01 3.11202526e-01 7.97446296e-02 2.04379126e-01
      2.35466242e-01 3.11202526e-01 3.11202526e-01 3.11202526e-01
      2.51379400e-01 2.22470209e-01 1.83736056e-01 2.11530566e-01
      3.11202526e-01 2.95375079e-01 4.30259444e-02 1.78738743e-01</_>
    <_>
      3.28409642e-01 7.34436065e-02 9.98069569e-02 3.28409642e-01
      3.28409642e-01 7.85200223e-02 2.88192332e-01 3.28409642e-01
      3.28409642e-01 9.05811861e-02 2.85028387e-02 3.28409642e-01
      3.28409642e-01 1.00180112e-01 1.01323433e-01 3.28409642e-01
      3.21361333e-01 1.58218235e-01 3.21361333e-01 3.21361333e-01
      1.96046114e-01 1.63217291e-01 2.02136561e-01 2.36840621e-01
      3.21361333e-01 1.76498622e-01 3.01613122e-01 3.21361333e-01
      1.31592855e-01 1.10613607e-01 2.60056973e-01 2.72139341e-01
      3.16034526e-01 3.04631114e-01 1.63070083e-01 1.93063214e-01
      1.20651864e-01 3.16034526e-01 3.16034526e-01 3.16034526e-01
      1.36434406e-01 1.23537689e-01 3.16034526e-01 3.16034526e-01
      3.16034526e-01 2.33064979e-01 1.03088014e-01 1.66291848e-01</_>
    <_>
      3.13213497e-01 1.07736729e-01 9.64967087e-02 3.13213497e-01
      3.13213497e-01 1.49247572e-01 1.01141736e-01 3.13213497e-01
      3.13213497e-01 2.99089521e-01 2.58999858e-02 2.60358214e-01
      3.13213497e-01 3.13213497e-01 2.67170388e-02 3.13213497e-01
      2.88094014e-01 1.94563374e-01 1.43022433e-01 2.88094014e-01
      2.88094014e-01 1.57178491e-01 1.30857572e-01 2.82833457e-01
      2.88094014e-01 2.88094014e-01 6.50955588e-02 2.88094014e-01
      2.88094014e-01 2.56449372e-01 2.88094014e-01 2.88094014e-01
      3.45725089e-01 2.84199029e-01 2.37514675e-01 3.45725089e-01
      1.77382663e-01 9.85291600e-02 4.87354323e-02 1.26537979e-01
      3.38760614e-01 3.45725089e-01 3.45725089e-01 3.45725089e-01
      2.02166840e-01 1.43928260e-01 9.19304416e-02 1.31824791e-01</_>
    <_>
      3.14429790e-01 1.61818698e-01 7.04828724e-02 3.14429790e-01
      3.14429790e-01 1.51524261e-01 2.42104400e-02 3.14429790e-01
      3.14429790e-01 2.79001504e-01 3.02285273e-02 2.94550061e-01
      3.14429790e-01 2.90185302e-01 1.93319637e-02 3.14429790e-01
      3.07832628e-01 1.99430406e-01 5.78436106e-02 3.07832628e-01
      3.07832628e-01 1.36057377e-01 6.59356788e-02 2.37373158e-01
      3.07832628e-01 3.07832628e-01 8.43800306e-02 3.07832628e-01
      2.73286223e-01 2.39337862e-01 2.90202469e-01 2.87627459e-01
      3.09348464e-01 2.44508669e-01 1.29646957e-01 3.09348464e-01
      2.48050526e-01 1.99046075e-01 1.53368652e-01 2.04405680e-01
      2.05450863e-01 3.09348464e-01 3.09348464e-01 3.09348464e-01
      3.09348464e-01 3.09348464e-01 1.39760554e-01 1.49149865e-01</_>
    <_>
      2.68006146e-01 1.04199968e-01 9.25886333e-02 2.50992507e-01
      3.12200397e-01 2.36599579e-01 2.01258868e-01 3.12200397e-01
      3.12200397e-01 3.12200397e-01 2.07770094e-02 2.31439993e-01
      3.12200397e-01 3.12200397e-01 9.93050486e-02 3.12200397e-01
      3.09359431e-01 3.09359431e-01 2.63505042e-01 3.09359431e-01
      1.91817373e-01 1.28772914e-01 8.62342790e-02 1.40677139e-01
      3.09359431e-01 3.09359431e-01 2.05195576e-01 3.09359431e-01
      3.09359431e-01 2.93638915e-01 1.47905022e-01 1.63533926e-01
      2.51165897e-01 1.20315060e-01 2.14175247e-02 1.50829241e-01
      2.80230463e-01 3.05378675e-01 3.05378675e-01 3.05378675e-01
      3.05378675e-01 3.05378675e-01 2.28859544e-01 1.75180301e-01
      3.05378675e-01 3.05378675e-01 1.93773970e-01 2.10345283e-01</_>
    <_>
      2.61052758e-01 2.61052758e-01 2.45144621e-01 2.61052758e-01
      2.61052758e-01 2.44356275e-01 2.02086493e-01 2.61052758e-01
      2.34499469e-01 2.61052758e-01 2.61052758e-01 2.02597678e-01
      2.43362084e-01 2.61052758e-01 2.61052758e-01 2.61052758e-01
      3.45284343e-01 3.45284343e-01 3.45284343e-01 3.45284343e-01
      7.03783035e-02 9.50078145e-02 3.27488743e-02 5.61298691e-02
      3.45284343e-01 3.45284343e-01 3.45284343e-01 3.45284343e-01
      9.75930020e-02 6.84262142e-02 4.96426113e-02 8.89177546e-02
      2.72130013e-01 2.35533044e-01 2.14974299e-01 2.36661181e-01
      2.72130013e-01 2.72130013e-01 2.72130013e-01 2.72130013e-01
      2.72130013e-01 2.21165583e-01 1.80172741e-01 1.69420972e-01
      2.72130013e-01 2.72130013e-01 2.72130013e-01 2.51017153e-01</_>
    <_>
      2.89132446e-01 1.29975274e-01 1.31681472e-01 2.89132446e-01
      2.89132446e-01 1.82019502e-01 1.68479070e-01 2.89132446e-01
      2.89132446e-01 1.57344297e-01 2.47664168e-01 2.89132446e-01
      2.89132446e-01 2.50774503e-01 2.89132446e-01 2.89132446e-01
      3.30860615e-01 3.30860615e-01 2.75594980e-01 3.30860615e-01
      2.23768011e-01 2.00359687e-01 4.37072664e-02 9.12603289e-02
      2.98391134e-01 3.30860615e-01 3.30860615e-01 3.30860615e-01
      6.79894388e-02 1.01917505e-01 1.54871315e-01 1.88260496e-01
      3.87199610e-01 1.59123093e-01 2.55940072e-02 1.86622903e-01
      1.45269975e-01 4.57526781e-02 3.28608118e-02 9.27395448e-02
      3.87199610e-01 2.87907034e-01 1.23675428e-01 1.58746660e-01
      3.87199610e-01 3.87199610e-01 1.71601549e-01 3.87199610e-01</_>
    <_>
      3.01542014e-01 3.01542014e-01 1.67306975e-01 1.40054390e-01
      3.01542014e-01 2.70505846e-01 1.53092474e-01 3.01542014e-01
      2.30494589e-01 3.01542014e-01 2.96390861e-01 6.89770877e-02
      2.39893794e-01 3.01542014e-01 2.73764372e-01 1.70219213e-01
      3.37615013e-01 3.37615013e-01 3.37615013e-01 3.37615013e-01
      9.42294747e-02 1.42940089e-01 9.54613313e-02 9.48340967e-02
      3.32345188e-01 3.37615013e-01 3.37615013e-01 3.23276103e-01
      5.49476407e-02 1.74805313e-01 1.11484282e-01 6.58803657e-02
      1.98503241e-01 8.90090391e-02 7.43895993e-02 2.57251650e-01
      3.33741635e-01 5.02268411e-02 7.75441229e-02 3.61622632e-01
      2.64367253e-01 1.19482636e-01 6.49676546e-02 1.23238921e-01
      3.61622632e-01 3.61622632e-01 3.61622632e-01 3.61622632e-01</_>
    <_>
      3.01117867e-01 3.01117867e-01 2.18394160e-01 1.51590809e-01
      3.01117867e-01 3.01117867e-01 2.07990587e-01 3.01117867e-01
      2.79145032e-01 3.01117867e-01 1.99541911e-01 8.88956934e-02
      1.47549018e-01 3.01117867e-01 2.85796255e-01 1.38779968e-01
      3.51304770e-01 3.51304770e-01 3.51304770e-01 3.51304770e-01
      1.13774367e-01 1.97060183e-01 1.29760057e-01 1.17265418e-01
      2.33727917e-01 3.51304770e-01 3.51304770e-01 2.65085101e-01
      5.56145720e-02 1.76234797e-01 1.05066590e-01 5.95324896e-02
      1.78851157e-01 1.08638629e-01 4.09261733e-02 1.18355371e-01
      3.43723536e-01 3.43723536e-01 3.04387689e-01 3.30147088e-01
      1.28136724e-01 3.26992124e-02 2.05351561e-02 9.30511430e-02
      3.43723536e-01 3.43723536e-01 3.43723536e-01 3.43723536e-01</_>
    <_>
      2.77846545e-01 2.77846545e-01 4.89117689e-02 2.04566836e-01
      2.77846545e-01 2.77846545e-01 1.65766910e-01 1.72054872e-01
      2.77846545e-01 2.77846545e-01 2.75080889e-01 2.40928397e-01
      2.77846545e-01 2.77846545e-01 2.77846545e-01 2.59610474e-01
      3.12563002e-01 3.12563002e-01 2.89177984e-01 2.51648903e-01
      1.98914289e-01 4.05261777e-02 4.55237133e-03 1.54523164e-01
      3.12563002e-01 3.12563002e-01 3.12563002e-01 3.12563002e-01
      3.12563002e-01 2.30088197e-02 5.21905124e-02 3.12563002e-01
      2.55803138e-01 6.08747005e-02 6.63388334e-03 1.95103332e-01
      2.70809323e-01 1.33769616e-01 3.03817019e-02 1.50633588e-01
      3.84004653e-01 1.74945831e-01 4.80503216e-02 3.84004653e-01
      3.84004653e-01 3.84004653e-01 6.20890036e-02 3.84004653e-01</_>
    <_>
      2.74923086e-01 2.36595899e-01 3.72573882e-02 2.33638361e-01
      2.74923086e-01 2.74923086e-01 7.77763128e-02 2.74923086e-01
      2.74923086e-01 2.74923086e-01 2.18725786e-01 2.74923086e-01
      2.74923086e-01 2.74923086e-01 2.74923086e-01 2.74923086e-01
      3.29986960e-01 3.29986960e-01 1.46319121e-01 3.29986960e-01
      3.29986960e-01 2.35639080e-01 1.34661775e-02 2.31466010e-01
      2.93428063e-01 3.29986960e-01 3.29986960e-01 3.29986960e-01
      7.21408948e-02 5.87129965e-02 6.11402318e-02 7.26679265e-02
      3.44440788e-01 2.86572814e-01 2.01620199e-02 3.25388342e-01
      3.44440788e-01 2.17420250e-01 7.95058087e-02 2.14495227e-01
      2.22594216e-01 8.23694989e-02 9.52136889e-03 1.36472002e-01
      3.44440788e-01 3.44440788e-01 3.12702000e-01 2.47307479e-01</_>
    <_>
      2.79583007e-01 2.79583007e-01 1.12643570e-01 2.79583007e-01
      2.79583007e-01 2.19044164e-01 1.32790700e-01 2.79583007e-01
      2.79583007e-01 2.79583007e-01 2.79583007e-01 2.24429801e-01
      1.93427905e-01 2.79583007e-01 2.79583007e-01 2.22382590e-01
      3.44030589e-01 3.44030589e-01 2.53288031e-01 3.44030589e-01
      3.44030589e-01 1.52934253e-01 8.28777999e-03 2.33781740e-01
      1.81422964e-01 3.44030589e-01 3.44030589e-01 3.21603686e-01
      6.37566298e-02 3.49060744e-02 1.79314669e-02 4.69687022e-02
      3.88986021e-01 1.45269543e-01 9.78241209e-03 2.57650077e-01
      3.42426747e-01 1.52144909e-01 2.22721230e-02 1.97600067e-01
      2.86980540e-01 2.60907114e-01 2.90521868e-02 5.42958751e-02
      3.88986021e-01 3.88986021e-01 1.63551226e-01 3.06077898e-01</_>
    <_>
      2.80801415e-01 2.80801415e-01 4.33259830e-02 1.96407527e-01
      2.80801415e-01 2.80801415e-01 7.12146685e-02 2.23160043e-01
      2.80801415e-01 2.80801415e-01 2.59755135e-01 2.49568716e-01
      2.80801415e-01 2.80801415e-01 2.80801415e-01 2.49933660e-01
      3.37913334e-01 3.37913334e-01 1.23684987e-01 3.37913334e-01
      3.37913334e-01 1.99823216e-01 1.08412784e-02 2.66221195e-01
      2.55315244e-01 3.37913334e-01 3.37913334e-01 3.37913334e-01
      5.15075177e-02 2.65888218e-02 2.01513171e-02 4.64258417e-02
      3.97915661e-01 1.86222792e-01 1.26666036e-02 2.76295781e-01
      3.68903875e-01 1.74703643e-01 1.62097588e-02 1.86622694e-01
      2.25878343e-01 2.49242604e-01 5.05364202e-02 4.64091897e-02
      3.97915661e-01 3.97915661e-01 1.32833079e-01 2.69514531e-01</_>
    <_>
      2.69254208e-01 2.69254208e-01 2.61067986e-01 2.08873793e-01
      2.69254208e-01 2.69254208e-01 2.69254208e-01 2.69254208e-01
      2.51166105e-01 8.69970843e-02 2.69254208e-01 2.69254208e-01
      2.69254208e-01 1.31891862e-01 2.69254208e-01 2.69254208e-01
      3.16328704e-01 3.16328704e-01 3.16328704e-01 3.16328704e-01
      2.76795655e-01 2.04108313e-01 1.45344630e-01 2.69253522e-01
      3.16328704e-01 2.06595600e-01 3.16328704e-01 3.16328704e-01
      1.03394441e-01 3.08911595e-02 7.67076388e-02 1.55831382e-01
      3.58509392e-01 1.17939793e-01 2.21882865e-01 3.58509392e-01
      3.58509392e-01 3.58509392e-01 3.58509392e-01 3.58509392e-01
      1.42547280e-01 4.21273848e-03 4.64784838e-02 2.02245697e-01
      1.79177046e-01 9.69825685e-02 1.24153301e-01 2.04394728e-01</_>
    <_>
      1.40146554e-01 1.50709242e-01 3.10855776e-01 3.10855776e-01
      1.64777994e-01 1.89486220e-01 1.70587361e-01 1.50523588e-01
      1.03441380e-01 2.36589357e-01 3.10855776e-01 3.10855776e-01
      3.10855776e-01 3.10855776e-01 3.10855776e-01 3.10855776e-01
      3.03759784e-01 3.03759784e-01 3.03759784e-01 7.20054582e-02
      2.08603829e-01 3.03759784e-01 3.03759784e-01 3.94872427e-02
      3.03759784e-01 3.03759784e-01 1.84079438e-01 2.39389062e-01
      2.71448880e-01 2.89179087e-01 1.69580966e-01 1.53479710e-01
      2.07194880e-01 2.97397107e-01 2.97397107e-01 1.50629461e-01
      2.97397107e-01 2.46765226e-01 2.97397107e-01 2.97397107e-01
      2.97397107e-01 2.17218563e-01 2.97397107e-01 2.97397107e-01
      2.45793983e-01 2.82747112e-02 3.46367173e-02 2.30993986e-01</_>
    <_>
      2.68284619e-01 2.68284619e-01 2.68284619e-01 2.68284619e-01
      2.68284619e-01 2.68284619e-01 2.68284619e-01 2.68284619e-01
      2.39766419e-01 5.18491678e-02 2.54788578e-01 2.68284619e-01
      2.68284619e-01 9.22270119e-02 2.68284619e-01 2.68284619e-01
      2.94635862e-01 2.94635862e-01 2.94635862e-01 2.94635862e-01
      2.94635862e-01 2.94635862e-01 1.93870902e-01 1.36281863e-01
      2.94635862e-01 2.13718012e-01 2.94635862e-01 2.94635862e-01
      1.68099865e-01 7.44164735e-02 1.23577937e-01 2.54680812e-01
      3.30608279e-01 2.08407283e-01 2.97413170e-01 3.30608279e-01
      3.30608279e-01 2.38380730e-01 3.30608279e-01 3.30608279e-01
      1.92970753e-01 7.52844475e-03 1.03493616e-01 3.26024085e-01
      1.48357779e-01 2.79377867e-02 1.24533921e-01 2.62445688e-01</_>
    <_>
      2.65721738e-01 2.65721738e-01 2.65721738e-01 2.65721738e-01
      2.65721738e-01 2.65721738e-01 2.65721738e-01 2.65721738e-01
      2.65721738e-01 7.19232485e-02 2.48279184e-01 2.65721738e-01
      2.65721738e-01 1.12359487e-01 2.65721738e-01 2.65721738e-01
      3.01573366e-01 3.01573366e-01 3.01573366e-01 2.87886888e-01
      2.60001093e-01 3.01573366e-01 2.12535590e-01 1.39580563e-01
      3.01573366e-01 2.58403212e-01 3.01573366e-01 3.01573366e-01
      1.43397853e-01 7.24946707e-02 1.15066536e-01 1.98485941e-01
      3.47879976e-01 2.06478238e-01 3.23178500e-01 3.47879976e-01
      3.47879976e-01 1.52904183e-01 3.47879976e-01 3.47879976e-01
      1.93597525e-01 6.65125437e-03 6.82476163e-02 2.84516126e-01
      1.53236181e-01 1.49259120e-02 1.00656584e-01 2.52976716e-01</_>
    <_>
      9.72060263e-02 1.63754851e-01 2.78469145e-01 2.59641051e-01
      1.80230051e-01 2.78469145e-01 2.78469145e-01 2.78469145e-01
      1.57567739e-01 2.46531770e-01 2.78469145e-01 2.78469145e-01
      2.78469145e-01 2.78469145e-01 2.78469145e-01 2.78469145e-01
      2.67815530e-01 3.12062562e-01 3.12062562e-01 3.12062562e-01
      5.71952723e-02 2.09514704e-02 3.25688049e-02 6.57436624e-02
      3.12062562e-01 3.12062562e-01 3.12062562e-01 3.12062562e-01
      2.93985069e-01 1.56679571e-01 1.77830100e-01 3.02957118e-01
      8.29068422e-02 1.36751654e-02 6.80363085e-03 7.24720508e-02
      9.70070064e-02 3.00964601e-02 1.92576442e-02 8.17884952e-02
      4.03465480e-01 2.86185294e-01 2.62596458e-01 4.03465480e-01
      4.03465480e-01 4.03465480e-01 3.81205939e-02 4.03465480e-01</_>
    <_>
      1.59314200e-01 2.73588657e-01 2.73588657e-01 2.39750028e-01
      2.73588657e-01 2.73588657e-01 2.37888575e-01 1.49556652e-01
      2.63801366e-01 2.73588657e-01 2.73588657e-01 2.73588657e-01
      2.73588657e-01 2.73588657e-01 1.31711930e-01 2.73588657e-01
      3.08231533e-01 3.08231533e-01 3.08231533e-01 2.57184952e-01
      2.18863443e-01 3.08231533e-01 3.08231533e-01 2.13873625e-01
      3.08231533e-01 3.08231533e-01 1.38321519e-01 3.08231533e-01
      1.41546860e-01 1.47937924e-01 9.53500941e-02 8.32699761e-02
      3.53482842e-01 1.36380836e-01 3.66265625e-01 3.84645879e-01
      3.84645879e-01 2.29343086e-01 3.84645879e-01 3.84645879e-01
      8.78282860e-02 3.35361175e-02 3.72777730e-02 9.19301584e-02
      1.72037214e-01 5.11779189e-02 3.67293321e-02 1.47663370e-01</_>
    <_>
      8.14647153e-02 2.68753916e-01 2.68753916e-01 2.45830745e-01
      2.63453752e-01 2.68753916e-01 2.68753916e-01 2.68753916e-01
      1.31493300e-01 2.68753916e-01 2.68753916e-01 2.68753916e-01
      2.68753916e-01 2.68753916e-01 2.21430153e-01 2.68753916e-01
      3.37465078e-01 3.37465078e-01 3.37465078e-01 3.37465078e-01
      1.27387851e-01 1.24365844e-01 7.00071380e-02 6.73551559e-02
      3.37465078e-01 3.37465078e-01 3.09875458e-01 3.37465078e-01
      1.40540838e-01 1.34058222e-01 1.09859087e-01 1.11812375e-01
      1.05645068e-01 5.10402136e-02 3.29936519e-02 8.30729008e-02
      2.45025933e-01 1.31858960e-01 3.52107435e-01 3.52107435e-01
      3.52107435e-01 2.53078878e-01 1.08650267e-01 2.75712132e-01
      3.52107435e-01 3.52107435e-01 3.94099504e-02 3.52107435e-01</_>
    <_>
      1.41918123e-01 2.71363318e-01 2.71363318e-01 2.52771765e-01
      2.71363318e-01 2.71363318e-01 2.71363318e-01 1.93852872e-01
      2.36661434e-01 2.71363318e-01 2.71363318e-01 2.71363318e-01
      2.71363318e-01 2.71363318e-01 1.57906607e-01 2.41560057e-01
      3.45140129e-01 3.45140129e-01 3.45140129e-01 3.45140129e-01
      7.80299529e-02 5.57491221e-02 5.90922572e-02 8.11532140e-02
      3.45140129e-01 3.45140129e-01 3.15977454e-01 3.45140129e-01
      8.28772262e-02 6.91272393e-02 1.22865945e-01 1.29770309e-01
      2.90638000e-01 6.80445135e-02 1.56565204e-01 3.84822577e-01
      3.98205638e-01 2.91127741e-01 3.98205638e-01 3.98205638e-01
      1.86478123e-01 8.54209289e-02 1.33946896e-01 2.21125990e-01
      1.91153243e-01 9.30727348e-02 4.86936904e-02 1.31830186e-01</_>
    <_>
      1.76174581e-01 2.66410202e-01 2.66410202e-01 1.93371847e-01
      2.66410202e-01 2.66410202e-01 2.66410202e-01 2.51271904e-01
      2.66410202e-01 2.66410202e-01 2.66410202e-01 2.66410202e-01
      2.66410202e-01 2.66410202e-01 1.18647069e-01 2.66410202e-01
      3.47939014e-01 3.47939014e-01 3.47939014e-01 3.47939014e-01
      1.60282210e-01 1.00029141e-01 6.71009347e-02 1.25600621e-01
      3.47939014e-01 3.47939014e-01 2.48509601e-01 3.47939014e-01
      8.88374299e-02 7.35670924e-02 8.79636183e-02 1.01585284e-01
      3.37802589e-01 5.87252080e-02 1.65188313e-01 4.14792359e-01
      4.14792359e-01 1.73171073e-01 4.14792359e-01 4.14792359e-01
      1.49488598e-01 5.41313179e-02 7.58532807e-02 1.77912876e-01
      1.96782306e-01 6.07124604e-02 4.64692600e-02 1.59870505e-01</_>
    <_>
      1.17136061e-01 2.88627833e-01 2.88627833e-01 2.88627833e-01
      1.57192186e-01 2.65732706e-01 2.88627833e-01 2.79353380e-01
      2.16258317e-01 1.40465140e-01 2.88627833e-01 2.88627833e-01
      2.67253488e-01 1.08768910e-01 2.77737439e-01 2.88627833e-01
      2.88022310e-01 3.48892093e-01 3.48892093e-01 3.48892093e-01
      6.90174773e-02 4.77741146e-03 2.85309441e-02 1.13320470e-01
      3.48892093e-01 3.14573884e-01 3.48892093e-01 3.48892093e-01
      1.06870577e-01 5.76209836e-02 1.36974394e-01 1.79725185e-01
      3.42800796e-01 8.36170278e-03 1.33980259e-01 3.42800796e-01
      3.42800796e-01 1.83467492e-02 2.97445118e-01 3.42800796e-01
      3.42800796e-01 1.93501730e-02 2.40888540e-02 3.42800796e-01
      2.76950061e-01 1.28254248e-02 4.43942882e-02 3.23849231e-01</_></uncompressed_support_vectors>
  <decision_functions>
    <_>
      <sv_count>1</sv_count>
      <rho>-4.5540154939065153e-01</rho>
      <alpha>
        1.</alpha>
      <index>
        0</index></_>
    <_>
      <sv_count>1</sv_count>
      <rho>-5.6169452320971869e-01</rho>
      <alpha>
        1.</alpha>
      <index>
        1</index></_>
    <_>
      <sv_count>1</sv_count>
      <rho>-1.0952120961692766e+00</rho>
      <alpha>
        1.</alpha>
      <index>
        2</index></_>
    <_>
      <sv_count>1</sv_count>
      <rho>-2.2907670255577335e+00</rho>
      <alpha>
        1.</alpha>
      <index>
        3</index></_>
    <_>
      <sv_count>1</sv_count>
      <rho>-3.8560470431983729e-01</rho>
      <alpha>
        1.</alpha>
      <index>
        4</index></_>
    <_>
      <sv_count>1</sv_count>
      <rho>9.8705975883762676e-01</rho>
      <alpha>
        1.</alpha>
      <index>
        5</index></_></decision_functions></opencv_ml_svm>
</opencv_storage>
